{"learner":{"attributes":{"best_iteration":"351","best_score":"0.00261413758302569"},"feature_names":["dayofyear","dayofweek","quarter","year","week","lag_1w_total","lag_2w_total","lag_3w_total","lag_4w_total","lag_5w_total","lag_6w_total","lag_7w_total","lag_8w_total","lag_9w_total","lag_10w_total","lag_11w_total","lag_12w_total","lag_13w_total","lag_14w_total","lag_15w_total","lag_16w_total","lag_17w_total","lag_18w_total","lag_19w_total","lag_20w_total","lag_21w_total","lag_22w_total","lag_23w_total","lag_24w_total","lag_25w_total","lag_26w_total"],"feature_types":["int","int","int","int","i","float","float","float","float","float","float","float","float","float","float","float","float","float","float","float","float","float","float","float","float","float","float","float","float","float","float"],"gradient_booster":{"model":{"gbtree_model_param":{"num_parallel_tree":"1","num_trees":"362"},"iteration_indptr":[0,1,2,3,4,5,6,7,8,9,10,11,12,13,14,15,16,17,18,19,20,21,22,23,24,25,26,27,28,29,30,31,32,33,34,35,36,37,38,39,40,41,42,43,44,45,46,47,48,49,50,51,52,53,54,55,56,57,58,59,60,61,62,63,64,65,66,67,68,69,70,71,72,73,74,75,76,77,78,79,80,81,82,83,84,85,86,87,88,89,90,91,92,93,94,95,96,97,98,99,100,101,102,103,104,105,106,107,108,109,110,111,112,113,114,115,116,117,118,119,120,121,122,123,124,125,126,127,128,129,130,131,132,133,134,135,136,137,138,139,140,141,142,143,144,145,146,147,148,149,150,151,152,153,154,155,156,157,158,159,160,161,162,163,164,165,166,167,168,169,170,171,172,173,174,175,176,177,178,179,180,181,182,183,184,185,186,187,188,189,190,191,192,193,194,195,196,197,198,199,200,201,202,203,204,205,206,207,208,209,210,211,212,213,214,215,216,217,218,219,220,221,222,223,224,225,226,227,228,229,230,231,232,233,234,235,236,237,238,239,240,241,242,243,244,245,246,247,248,249,250,251,252,253,254,255,256,257,258,259,260,261,262,263,264,265,266,267,268,269,270,271,272,273,274,275,276,277,278,279,280,281,282,283,284,285,286,287,288,289,290,291,292,293,294,295,296,297,298,299,300,301,302,303,304,305,306,307,308,309,310,311,312,313,314,315,316,317,318,319,320,321,322,323,324,325,326,327,328,329,330,331,332,333,334,335,336,337,338,339,340,341,342,343,344,345,346,347,348,349,350,351,352,353,354,355,356,357,358,359,360,361,362],"tree_info":[0,0,0,0,0,0,0,0,0,0,0,0,0,0,0,0,0,0,0,0,0,0,0,0,0,0,0,0,0,0,0,0,0,0,0,0,0,0,0,0,0,0,0,0,0,0,0,0,0,0,0,0,0,0,0,0,0,0,0,0,0,0,0,0,0,0,0,0,0,0,0,0,0,0,0,0,0,0,0,0,0,0,0,0,0,0,0,0,0,0,0,0,0,0,0,0,0,0,0,0,0,0,0,0,0,0,0,0,0,0,0,0,0,0,0,0,0,0,0,0,0,0,0,0,0,0,0,0,0,0,0,0,0,0,0,0,0,0,0,0,0,0,0,0,0,0,0,0,0,0,0,0,0,0,0,0,0,0,0,0,0,0,0,0,0,0,0,0,0,0,0,0,0,0,0,0,0,0,0,0,0,0,0,0,0,0,0,0,0,0,0,0,0,0,0,0,0,0,0,0,0,0,0,0,0,0,0,0,0,0,0,0,0,0,0,0,0,0,0,0,0,0,0,0,0,0,0,0,0,0,0,0,0,0,0,0,0,0,0,0,0,0,0,0,0,0,0,0,0,0,0,0,0,0,0,0,0,0,0,0,0,0,0,0,0,0,0,0,0,0,0,0,0,0,0,0,0,0,0,0,0,0,0,0,0,0,0,0,0,0,0,0,0,0,0,0,0,0,0,0,0,0,0,0,0,0,0,0,0,0,0,0,0,0,0,0,0,0,0,0,0,0,0,0,0,0,0,0,0,0,0,0,0,0,0,0,0,0,0,0,0,0,0,0,0,0,0,0,0,0,0,0,0,0,0,0,0,0,0,0,0,0],"trees":[{"base_weights":[5.6528724E-3,-4.84787E-2,1.2204874E-1,-1.0652613E-1,-3.8426423E-3,2.7527133E-1,2.9607782E-2,-1.2479522E-1,-8.442649E-2,8.9558244E-2,-3.458533E-2,8.096808E-3,4.689182E-2,-5.783953E-2,1.3399502E-2,-7.515223E-2,-4.0099632E-2],"categories":[],"categories_nodes":[],"categories_segments":[],"categories_sizes":[],"default_left":[1,1,1,1,1,0,1,0,0,0,1,0,0,1,0,0,0],"id":0,"left_children":[1,3,5,7,9,-1,11,-1,-1,-1,13,-1,-1,15,-1,-1,-1],"loss_changes":[5.3826976E-1,1.4917357E-1,3.793751E-1,5.938351E-3,9.491076E-2,0E0,5.6119217E-3,0E0,0E0,0E0,2.8741067E-2,0E0,0E0,3.3474416E-3,0E0,0E0,0E0],"parents":[2147483647,0,0,1,1,2,2,3,3,4,4,6,6,10,10,13,13],"right_children":[2,4,6,8,10,-1,12,-1,-1,-1,14,-1,-1,16,-1,-1,-1],"split_conditions":[2.0374694E-1,1.04861304E-1,1.6973454E-1,8.389626E-2,1.0494702E-1,4.2573575E-2,1.5817046E-1,-1.930088E-2,-1.3057436E-2,1.3851115E-2,1.0767831E-1,1.2522555E-3,7.2523076E-3,8.120111E-2,2.0723725E-3,-1.1623074E-2,-6.201825E-3],"split_indices":[8,8,14,22,14,0,29,0,0,0,26,0,0,29,0,0,0],"split_type":[0,0,0,0,0,0,0,0,0,0,0,0,0,0,0,0,0],"sum_hessian":[8.5E1,5.8E1,2.7E1,2.5E1,3.3E1,1E1,1.7E1,1.3E1,1.2E1,8E0,2.5E1,8E0,9E0,1.7E1,8E0,8E0,9E0],"tree_param":{"num_deleted":"0","num_feature":"31","num_nodes":"17","size_leaf_vector":"1"}},{"base_weights":[-3.5393084E-4,-9.9296E-2,3.6474567E-2,1.5916309E-1,1.6582647E-2,-6.5727234E-2,5.4691583E-2,1.6470751E-1,1.5417564E-2,-6.1448053E-3,2.9625388E-2,5.407173E-2,3.0739887E-3],"categories":[],"categories_nodes":[],"categories_segments":[],"categories_sizes":[],"default_left":[1,0,1,0,1,0,1,0,1,0,1,0,0],"id":1,"left_children":[1,-1,3,-1,5,-1,7,-1,9,-1,11,-1,-1],"loss_changes":[2.9701248E-1,0E0,1.4170025E-1,0E0,1.6080402E-1,0E0,1.4916666E-1,0E0,8.337849E-3,0E0,9.719856E-3,0E0,0E0],"parents":[2147483647,0,0,2,2,4,4,6,6,8,8,10,10],"right_children":[2,-1,4,-1,6,-1,8,-1,10,-1,12,-1,-1],"split_conditions":[6.435254E-2,-1.535716E-2,8.120111E-2,2.4616227E-2,1.3830611E-1,-1.0165401E-2,1.5820445E-1,2.547373E-2,1.5304506E-1,-9.5035805E-4,2.205466E-1,8.362755E-3,4.7542434E-4],"split_indices":[25,0,13,0,9,0,13,0,24,0,23,0,0],"split_type":[0,0,0,0,0,0,0,0,0,0,0,0,0],"sum_hessian":[8.1E1,2.2E1,5.9E1,8E0,5.1E1,1.6E1,3.5E1,9E0,2.6E1,1E1,1.6E1,8E0,8E0],"tree_param":{"num_deleted":"0","num_feature":"31","num_nodes":"13","size_leaf_vector":"1"}},{"base_weights":[-1.0003447E-2,-4.3674007E-2,2.70316E-1,-7.501698E-2,-5.6771515E-3,-9.556302E-2,-6.143653E-2,-4.227555E-2,2.7908167E-2,-7.567713E-2,-4.396748E-2,4.340687E-2,1.0334854E-2],"categories":[],"categories_nodes":[],"categories_segments":[],"categories_sizes":[],"default_left":[1,1,0,1,1,0,1,0,1,0,0,0,0],"id":2,"left_children":[1,3,-1,5,7,-1,9,-1,11,-1,-1,-1,-1],"loss_changes":[7.174792E-1,8.005585E-2,0E0,7.496342E-3,3.8636997E-2,0E0,3.7377551E-3,0E0,3.6409264E-3,0E0,0E0,0E0,0E0],"parents":[2147483647,0,0,1,1,3,3,4,4,6,6,8,8],"right_children":[2,4,-1,6,8,-1,10,-1,12,-1,-1,-1,-1],"split_conditions":[4.6E1,1.4731973E-1,4.1807182E-2,4.944523E-2,1.274342E-1,-1.47798145E-2,2.15E1,-6.538354E-3,1.9454494E-1,-1.1704255E-2,-6.8000285E-3,6.713324E-3,1.5983927E-3],"split_indices":[4,15,0,26,25,0,4,0,23,0,0,0,0],"split_type":[0,0,0,0,0,0,0,0,0,0,0,0,0],"sum_hessian":[7.6E1,6.8E1,8E0,3.7E1,3.1E1,1.4E1,2.3E1,1.5E1,1.6E1,1.2E1,1.1E1,8E0,8E0],"tree_param":{"num_deleted":"0","num_feature":"31","num_nodes":"13","size_leaf_vector":"1"}},{"base_weights":[8.529531E-3,-2.6253939E-2,1.03527084E-1,-6.287409E-2,-0E0,2.5200203E-1,1.606787E-2,-8.042329E-2,-4.4990383E-2,5.2229725E-2,-1.560085E-2,-4.026471E-2,4.1071378E-2,-4.99951E-2,-2.4656415E-2],"categories":[],"categories_nodes":[],"categories_segments":[],"categories_sizes":[],"default_left":[1,1,1,1,1,0,0,0,0,0,1,1,0,0,0],"id":3,"left_children":[1,3,5,7,9,-1,-1,-1,-1,-1,11,13,-1,-1,-1],"loss_changes":[2.728202E-1,5.794402E-2,2.835226E-1,5.75532E-3,2.8824111E-2,0E0,0E0,0E0,0E0,0E0,3.8169734E-2,1.769064E-3,0E0,0E0,0E0],"parents":[2147483647,0,0,1,1,2,2,3,3,4,4,10,10,11,11],"right_children":[2,4,6,8,10,-1,-1,-1,-1,-1,12,14,-1,-1,-1],"split_conditions":[2.0374694E-1,1.04861304E-1,1.6973454E-1,6.922118E-2,1.0401302E-1,3.8974736E-2,2.4850632E-3,-1.2438298E-2,-6.958231E-3,8.07787E-3,1.2066175E-1,1.5628146E-1,6.352116E-3,-7.732262E-3,-3.813371E-3],"split_indices":[8,8,14,22,14,0,0,0,0,0,26,8,0,0,0],"split_type":[0,0,0,0,0,0,0,0,0,0,0,0,0,0,0],"sum_hessian":[8.2E1,6E1,2.2E1,2.5E1,3.5E1,8E0,1.4E1,1.2E1,1.3E1,8E0,2.7E1,1.9E1,8E0,1.1E1,8E0],"tree_param":{"num_deleted":"0","num_feature":"31","num_nodes":"15","size_leaf_vector":"1"}},{"base_weights":[-5.4572984E-3,-2.9059326E-2,1.6910474E-1,-5.7343848E-2,-2.7508172E-4,-6.992245E-2,-4.3531746E-2,-3.456403E-2,1.795042E-2,-5.1532328E-2,-3.219717E-2,1.2697098E-5,3.1661198E-2],"categories":[],"categories_nodes":[],"categories_segments":[],"categories_sizes":[],"default_left":[1,1,0,1,1,0,1,0,1,0,0,0,0],"id":4,"left_children":[1,3,-1,5,7,-1,9,-1,11,-1,-1,-1,-1],"loss_changes":[3.167443E-1,5.4736093E-2,0E0,4.0328577E-3,2.1641342E-2,0E0,2.3782626E-4,0E0,5.0386284E-3,0E0,0E0,0E0,0E0],"parents":[2147483647,0,0,1,1,3,3,4,4,6,6,8,8],"right_children":[2,4,-1,6,8,-1,10,-1,12,-1,-1,-1,-1],"split_conditions":[4.65E1,9.595263E-2,2.6153807E-2,4.944523E-2,1.670601E-1,-1.0814234E-2,1.35E1,-5.345687E-3,1.5817046E-1,-7.970011E-3,-4.979627E-3,1.9637382E-6,4.8967334E-3],"split_indices":[4,30,0,27,10,0,4,0,30,0,0,0,0],"split_type":[0,0,0,0,0,0,0,0,0,0,0,0,0],"sum_hessian":[7.7E1,6.8E1,9E0,3.4E1,3.4E1,1.7E1,1.7E1,1.2E1,2.2E1,9E0,8E0,1E1,1.2E1],"tree_param":{"num_deleted":"0","num_feature":"31","num_nodes":"13","size_leaf_vector":"1"}},{"base_weights":[3.118111E-4,-2.5065973E-2,1.1989392E-1,-4.7607318E-2,-3.36215E-3,-3.4548532E-2,7.4872156E-3,1.604028E-2,-2.310827E-3],"categories":[],"categories_nodes":[],"categories_segments":[],"categories_sizes":[],"default_left":[1,1,0,0,1,0,1,0,0],"id":5,"left_children":[1,3,-1,-1,5,-1,7,-1,-1],"loss_changes":[2.4487068E-1,3.1681173E-2,0E0,0E0,1.1938377E-2,0E0,2.2891816E-3,0E0,0E0],"parents":[2147483647,0,0,1,1,4,4,6,6],"right_children":[2,4,-1,-1,6,-1,8,-1,-1],"split_conditions":[4.45E1,1.4731973E-1,1.8542843E-2,-7.362967E-3,9.194425E-2,-5.34329E-3,2.3058605E-1,2.4807963E-3,-3.573934E-4],"split_indices":[4,13,0,0,26,0,14,0,0],"split_type":[0,0,0,0,0,0,0,0,0],"sum_hessian":[8E1,6.6E1,1.4E1,3.2E1,3.4E1,9E0,2.5E1,1.4E1,1.1E1],"tree_param":{"num_deleted":"0","num_feature":"31","num_nodes":"9","size_leaf_vector":"1"}},{"base_weights":[-2.6830824E-3,-3.600298E-2,3.9271235E-2,-2.7759314E-2,-6.841447E-2,-1.4792887E-3,1.490206E-1,-4.66403E-2,-7.996868E-3,-3.852112E-2,1.3618161E-2,-5.4208077E-2,-3.6101356E-2,2.9437593E-3,-2.4405403E-2,2.4284612E-2,-0E0],"categories":[],"categories_nodes":[],"categories_segments":[],"categories_sizes":[],"default_left":[1,1,1,1,0,1,0,1,1,0,1,0,0,0,0,0,0],"id":6,"left_children":[1,3,5,7,-1,9,-1,11,13,-1,15,-1,-1,-1,-1,-1,-1],"loss_changes":[1.1778878E-1,1.1084858E-2,1.6805273E-1,1.3476171E-2,0E0,1.5576331E-2,0E0,8.234382E-5,3.7233005E-3,0E0,3.0219227E-3,0E0,0E0,0E0,0E0,0E0,0E0],"parents":[2147483647,0,0,1,1,2,2,3,3,5,5,7,7,8,8,10,10],"right_children":[2,4,6,8,-1,10,-1,12,14,-1,16,-1,-1,-1,-1,-1,-1],"split_conditions":[1.2784666E-1,1.8074629E-1,3E0,1.04772076E-1,-1.058101E-2,1.1627717E-1,2.3047585E-2,3.9951432E-2,9.635346E-2,-5.957692E-3,2.5704122E-1,-8.383843E-3,-5.58345E-3,4.55283E-4,-3.7745496E-3,3.755868E-3,-0E0],"split_indices":[23,11,2,7,0,7,0,27,27,0,20,0,0,0,0,0,0],"split_type":[0,0,0,0,0,0,0,0,0,0,0,0,0,0,0,0,0],"sum_hessian":[8.4E1,4.7E1,3.7E1,3.8E1,9E0,2.7E1,1E1,1.9E1,1.9E1,8E0,1.9E1,1E1,9E0,1.1E1,8E0,1.1E1,8E0],"tree_param":{"num_deleted":"0","num_feature":"31","num_nodes":"17","size_leaf_vector":"1"}},{"base_weights":[-5.1778574E-3,-4.9895797E-2,1.3182814E-2,-3.8581472E-2,-6.985931E-2,-9.8324E-3,5.7307392E-2,-4.8205942E-2,-2.6693132E-2,1.1794209E-2,-1.7010747E-2,1.4419223E-1,-5.823312E-4,-2.908537E-2,4.7502187E-3,-1.9813357E-2,-3.5761025E-2],"categories":[],"categories_nodes":[],"categories_segments":[],"categories_sizes":[],"default_left":[1,1,1,1,0,1,1,0,0,0,1,0,0,1,0,0,0],"id":7,"left_children":[1,3,5,7,-1,9,11,-1,-1,-1,13,-1,-1,15,-1,-1,-1],"loss_changes":[6.801213E-2,3.669139E-3,5.9739973E-2,6.9774315E-4,0E0,6.0177566E-3,1.03181005E-1,0E0,0E0,0E0,7.990904E-3,0E0,0E0,3.6763027E-4,0E0,0E0,0E0],"parents":[2147483647,0,0,1,1,2,2,3,3,5,5,6,6,10,10,13,13],"right_children":[2,4,6,8,-1,10,12,-1,-1,-1,14,-1,-1,16,-1,-1,-1],"split_conditions":[6.922118E-2,6.80885E-2,2.0284605E-1,4.0010292E-2,-1.080447E-2,8.754718E-2,2.041873E-1,-7.4555506E-3,-4.1283704E-3,1.824097E-3,1.5741283E-1,2.2300828E-2,-9.006358E-5,1.2611157E-1,7.346707E-4,-3.0643418E-3,-5.5308146E-3],"split_indices":[25,30,8,25,0,19,12,0,0,0,15,0,0,15,0,0,0],"split_type":[0,0,0,0,0,0,0,0,0,0,0,0,0,0,0,0,0],"sum_hessian":[8.2E1,2.4E1,5.8E1,1.6E1,8E0,3.8E1,2E1,8E0,8E0,9E0,2.9E1,8E0,1.2E1,1.9E1,1E1,9E0,1E1],"tree_param":{"num_deleted":"0","num_feature":"31","num_nodes":"17","size_leaf_vector":"1"}},{"base_weights":[-1.6526787E-3,-1.6812006E-2,1.03417315E-1,-3.170627E-2,8.507164E-3,-3.4848284E-2,-1.5234478E-2,-1.0278238E-3,2.4828866E-2,-3.8261056E-2,-2.0438172E-2,7.152004E-4,-4.332349E-3,-4.3793954E-2,-2.6006453E-2],"categories":[],"categories_nodes":[],"categories_segments":[],"categories_sizes":[],"default_left":[1,1,0,1,1,1,0,1,0,1,0,0,0,0,0],"id":8,"left_children":[1,3,-1,5,7,9,-1,11,-1,13,-1,-1,-1,-1,-1],"loss_changes":[1.2838289E-1,2.7166735E-2,0E0,1.6154014E-3,4.378693E-3,9.5854327E-4,0E0,1.3997532E-4,0E0,9.1355667E-4,0E0,0E0,0E0,0E0,0E0],"parents":[2147483647,0,0,1,1,3,3,4,4,5,5,7,7,9,9],"right_children":[2,4,-1,6,8,10,-1,12,-1,14,-1,-1,-1,-1,-1],"split_conditions":[2.9409587E-1,1.6731997E-1,1.5994564E-2,1.6476543E-1,2.1927208E-1,2.78E2,-2.3561704E-3,2.0932373E-1,3.8400425E-3,1.121486E-1,-3.1609759E-3,1.1061318E-4,-6.700429E-4,-6.7731906E-3,-4.0221685E-3],"split_indices":[5,5,0,14,5,0,0,15,0,27,0,0,0,0,0],"split_type":[0,0,0,0,0,0,0,0,0,0,0,0,0,0,0],"sum_hessian":[8.1E1,7.1E1,1E1,4.5E1,2.6E1,3.7E1,8E0,1.6E1,1E1,2.9E1,8E0,8E0,8E0,1.9E1,1E1],"tree_param":{"num_deleted":"0","num_feature":"31","num_nodes":"15","size_leaf_vector":"1"}},{"base_weights":[1.6153399E-4,-1.4061304E-2,7.487381E-2,-2.6442865E-2,3.2144263E-3,-3.1925347E-2,-1.2363471E-2,-9.382123E-3,1.2125954E-2,-4.0353097E-2,-2.2262007E-2,2.1518417E-2,-0E0],"categories":[],"categories_nodes":[],"categories_segments":[],"categories_sizes":[],"default_left":[1,1,0,1,1,1,0,0,1,0,0,0,0],"id":9,"left_children":[1,3,-1,5,7,9,-1,-1,11,-1,-1,-1,-1],"loss_changes":[8.71602E-2,1.4887261E-2,0E0,2.4719238E-3,3.2110703E-3,1.3567433E-3,0E0,0E0,1.7133586E-3,0E0,0E0,0E0,0E0],"parents":[2147483647,0,0,1,1,3,3,4,4,5,5,8,8],"right_children":[2,4,-1,6,8,10,-1,-1,12,-1,-1,-1,-1],"split_conditions":[3.13E2,1.5970752E-1,1.1580014E-2,2.365E2,1.8442109E-1,1.0767831E-1,-1.9121395E-3,-1.451043E-3,2.3918185E-1,-6.2410263E-3,-3.443051E-3,3.328047E-3,-0E0],"split_indices":[0,14,0,0,6,24,0,0,17,0,0,0,0],"split_type":[0,0,0,0,0,0,0,0,0,0,0,0,0],"sum_hessian":[8.1E1,6.8E1,1.3E1,4E1,2.8E1,2.8E1,1.2E1,1.1E1,1.7E1,1.4E1,1.4E1,9E0,8E0],"tree_param":{"num_deleted":"0","num_feature":"31","num_nodes":"13","size_leaf_vector":"1"}},{"base_weights":[5.106626E-3,-1.2879999E-2,1.2889913E-1,-1.846145E-2,1.2476739E-2,-2.5048451E-2,-1.1567521E-2,-5.6031505E-3,-1.6925845E-2],"categories":[],"categories_nodes":[],"categories_segments":[],"categories_sizes":[],"default_left":[1,1,0,1,0,0,1,0,0],"id":10,"left_children":[1,3,-1,5,-1,-1,7,-1,-1],"loss_changes":[1.779562E-1,9.896093E-3,0E0,2.0820014E-3,0E0,0E0,6.2787393E-4,0E0,0E0],"parents":[2147483647,0,0,1,1,3,3,6,6],"right_children":[2,4,-1,6,-1,-1,8,-1,-1],"split_conditions":[3.165E2,2.0374694E-1,1.9935591E-2,1.1492002E-1,1.9296574E-3,-3.8740037E-3,1.5624747E-1,-8.665855E-4,-2.617758E-3],"split_indices":[0,5,0,5,0,0,5,0,0],"split_type":[0,0,0,0,0,0,0,0,0],"sum_hessian":[7.9E1,6.9E1,1E1,5.7E1,1.2E1,2.8E1,2.9E1,1.5E1,1.4E1],"tree_param":{"num_deleted":"0","num_feature":"31","num_nodes":"9","size_leaf_vector":"1"}},{"base_weights":[-3.0041372E-3,-1.17075285E-2,3.8663093E-2,-1.7098563E-2,1.8293209E-3,-2.1018527E-2,-1.0970211E-2,-9.043866E-3,1.0906291E-2,-1.7018687E-2,-2.9450415E-2,-1.8544165E-2,-0E0,-7.7263247E-3,-2.1610526E-2],"categories":[],"categories_nodes":[],"categories_segments":[],"categories_sizes":[],"default_left":[1,1,0,1,1,1,1,0,0,1,0,0,0,0,0],"id":11,"left_children":[1,3,-1,5,7,9,11,-1,-1,13,-1,-1,-1,-1,-1],"loss_changes":[2.9870572E-2,5.246966E-3,0E0,7.597506E-4,1.9276768E-3,3.1267572E-4,1.9755466E-3,0E0,0E0,5.00652E-4,0E0,0E0,0E0,0E0,0E0],"parents":[2147483647,0,0,1,1,3,3,4,4,5,5,6,6,9,9],"right_children":[2,4,-1,6,8,10,12,-1,-1,14,-1,-1,-1,-1,-1],"split_conditions":[3.06E2,2.0185E3,5.9796497E-3,7.926434E-2,1.5820445E-1,6.485748E-2,2.285E2,-1.398728E-3,1.6867714E-3,6.435254E-2,-4.554813E-3,-2.8680481E-3,-0E0,-1.1949565E-3,-3.3422927E-3],"split_indices":[0,3,0,30,30,29,0,0,0,19,0,0,0,0,0],"split_type":[0,0,0,0,0,0,0,0,0,0,0,0,0,0,0],"sum_hessian":[8.3E1,6.9E1,1.4E1,5E1,1.9E1,2.9E1,2.1E1,8E0,1.1E1,2.1E1,8E0,1.3E1,8E0,8E0,1.3E1],"tree_param":{"num_deleted":"0","num_feature":"31","num_nodes":"15","size_leaf_vector":"1"}},{"base_weights":[5.6755953E-3,-5.280527E-3,6.7242034E-2,-1.4925777E-2,9.435611E-3,-2.856342E-2,-1.1121449E-2,-6.04198E-3,1.8361947E-2,-1.7355844E-2,-5.1202415E-3,3.1103693E-2,2.150395E-3,-0E0,-1.1010667E-2],"categories":[],"categories_nodes":[],"categories_segments":[],"categories_sizes":[],"default_left":[1,1,0,1,1,0,1,0,1,0,1,0,0,0,0],"id":12,"left_children":[1,3,-1,5,7,-1,9,-1,11,-1,13,-1,-1,-1,-1],"loss_changes":[5.4233722E-2,9.62151E-3,0E0,1.5781969E-3,3.786596E-3,0E0,9.380514E-4,0E0,3.1039063E-3,0E0,5.116972E-4,0E0,0E0,0E0,0E0],"parents":[2147483647,0,0,1,1,3,3,4,4,6,6,8,8,10,10],"right_children":[2,4,-1,6,8,-1,10,-1,12,-1,14,-1,-1,-1,-1],"split_conditions":[3.2E2,1.7525527E-1,1.039968E-2,1.165E2,1.3238905E-1,-4.41763E-3,8.4512055E-2,-9.34455E-4,2.0932373E-1,-2.6842619E-3,1.2818018E-1,4.8105097E-3,3.3258094E-4,-0E0,-1.7029142E-3],"split_indices":[0,14,0,0,23,0,19,0,23,0,19,0,0,0,0],"split_type":[0,0,0,0,0,0,0,0,0,0,0,0,0,0,0],"sum_hessian":[7.9E1,6.7E1,1.2E1,4.1E1,2.6E1,8E0,3.3E1,9E0,1.7E1,1.5E1,1.8E1,9E0,8E0,1E1,8E0],"tree_param":{"num_deleted":"0","num_feature":"31","num_nodes":"15","size_leaf_vector":"1"}},{"base_weights":[-1.3387257E-4,-9.946852E-3,5.498792E-2,-1.7104337E-2,3.9307564E-4,-1.9925471E-2,-8.142114E-3,1.5283888E-2,-5.4410244E-3,-8.4889475E-3,-2.4257975E-2,-1.5471371E-2,2.6053234E-3,-3.0002495E-2,-1.8579205E-2],"categories":[],"categories_nodes":[],"categories_segments":[],"categories_sizes":[],"default_left":[1,1,0,1,1,1,0,0,1,0,1,0,0,0,0],"id":13,"left_children":[1,3,-1,5,7,9,-1,-1,11,-1,13,-1,-1,-1,-1],"loss_changes":[4.7177605E-2,5.777258E-3,0E0,7.5686816E-4,2.7574294E-3,1.1912044E-3,0E0,0E0,1.877872E-3,0E0,4.9459748E-5,0E0,0E0,0E0,0E0],"parents":[2147483647,0,0,1,1,3,3,4,4,5,5,8,8,10,10],"right_children":[2,4,-1,6,8,10,-1,-1,12,-1,14,-1,-1,-1,-1],"split_conditions":[2.631896E-1,1.5264475E-1,8.504454E-3,1.2800682E-1,1.6102104E-1,6.480922E-2,-1.2592626E-3,2.3638124E-3,2.3543406E-1,-1.3129041E-3,9.183055E-2,-2.3928084E-3,4.0294038E-4,-4.640198E-3,-2.8734675E-3],"split_indices":[5,15,0,24,18,15,0,0,20,0,24,0,0,0,0],"split_type":[0,0,0,0,0,0,0,0,0,0,0,0,0,0,0],"sum_hessian":[8.8E1,7.5E1,1.3E1,4.5E1,3E1,3.3E1,1.2E1,9E0,2.1E1,1E1,2.3E1,1E1,1.1E1,1E1,1.3E1],"tree_param":{"num_deleted":"0","num_feature":"31","num_nodes":"15","size_leaf_vector":"1"}},{"base_weights":[-7.729778E-4,-2.3274513E-2,1.9231E-2,-1.3786012E-2,-5.5236217E-2,-2.58225E-3,1.09240614E-1,-2.7955684E-3,-1.8037526E-2,-1.2404607E-2,3.2067555E-3,-6.9559934E-3,-2.4195228E-2,1.0774453E-2,-4.659765E-3],"categories":[],"categories_nodes":[],"categories_segments":[],"categories_sizes":[],"default_left":[1,1,1,1,0,1,0,0,1,0,1,0,0,0,0],"id":14,"left_children":[1,3,5,7,-1,9,-1,-1,11,-1,13,-1,-1,-1,-1],"loss_changes":[3.5291053E-2,1.0266725E-2,8.219606E-2,1.0864828E-3,0E0,2.0087315E-3,0E0,0E0,9.494936E-4,0E0,1.2851489E-3,0E0,0E0,0E0,0E0],"parents":[2147483647,0,0,1,1,2,2,3,3,5,5,8,8,10,10],"right_children":[2,4,6,8,-1,10,-1,-1,12,-1,14,-1,-1,-1,-1],"split_conditions":[9.673637E-2,1.8074629E-1,4.25E1,6.480922E-2,-8.542855E-3,1.477247E-1,1.6895197E-2,-4.3236374E-4,3.05E1,-1.9185015E-3,2.4057497E-1,-1.0758167E-3,-3.7420436E-3,1.6663813E-3,-7.206811E-4],"split_indices":[25,8,4,8,0,16,0,0,4,0,22,0,0,0,0],"split_type":[0,0,0,0,0,0,0,0,0,0,0,0,0,0,0],"sum_hessian":[7.8E1,3.7E1,4.1E1,2.9E1,8E0,3.3E1,8E0,9E0,2E1,1.3E1,2E1,8E0,1.2E1,1.1E1,9E0],"tree_param":{"num_deleted":"0","num_feature":"31","num_nodes":"15","size_leaf_vector":"1"}},{"base_weights":[-5.7691056E-4,5.704831E-3,-6.319001E-2,-6.9714E-3,1.042577E-1,-1.020569E-2,1.6698793E-3,-7.4578254E-3,-1.5469435E-2,1.0418215E-2,-7.6766415E-3,-1.0981536E-2,4.6145183E-4,-4.7659655E-3,-1.3991953E-2],"categories":[],"categories_nodes":[],"categories_segments":[],"categories_sizes":[],"default_left":[1,1,0,1,0,1,1,1,0,0,0,1,0,0,0],"id":15,"left_children":[1,3,-1,5,-1,7,9,11,-1,-1,-1,13,-1,-1,-1],"loss_changes":[3.5067245E-2,1.0023013E-1,0E0,2.0727073E-3,0E0,4.4257706E-4,1.5304291E-3,1.1447016E-3,0E0,0E0,0E0,2.3823092E-4,0E0,0E0,0E0],"parents":[2147483647,0,0,1,1,3,3,5,5,6,6,7,7,11,11],"right_children":[2,4,-1,6,-1,8,10,12,-1,-1,-1,14,-1,-1,-1],"split_conditions":[4.491497E-1,4.65E1,-9.772993E-3,1.8442109E-1,1.612454E-2,1.2741412E-1,2.2912362E-1,9.635346E-2,-2.392509E-3,1.6112853E-3,-1.1872725E-3,7.219532E-2,7.1368326E-5,-7.3710614E-4,-2.164001E-3],"split_indices":[9,4,0,6,0,22,6,22,0,0,0,7,0,0,0],"split_type":[0,0,0,0,0,0,0,0,0,0,0,0,0,0,0],"sum_hessian":[8.7E1,7.9E1,8E0,7E1,9E0,5.2E1,1.8E1,3.6E1,1.6E1,1E1,8E0,2.6E1,1E1,1E1,1.6E1],"tree_param":{"num_deleted":"0","num_feature":"31","num_nodes":"15","size_leaf_vector":"1"}},{"base_weights":[-3.6756778E-3,2.0143334E-3,-5.629178E-2,-1.8165616E-3,2.4504852E-2,2.5104385E-2,-6.685936E-3,-1.915884E-2,-3.4326313E-3,-1.2800932E-2,-5.3232175E-4,3.0974736E-3,-5.965307E-3],"categories":[],"categories_nodes":[],"categories_segments":[],"categories_sizes":[],"default_left":[1,1,0,1,0,0,1,0,1,0,1,0,0],"id":16,"left_children":[1,3,-1,5,-1,-1,7,-1,9,-1,11,-1,-1],"loss_changes":[2.500823E-2,6.600372E-3,0E0,7.933669E-3,0E0,0E0,1.856344E-3,0E0,9.997468E-4,0E0,7.1291527E-4,0E0,0E0],"parents":[2147483647,0,0,1,1,3,3,6,6,8,8,10,10],"right_children":[2,4,-1,6,-1,-1,8,-1,10,-1,12,-1,-1],"split_conditions":[4.2334834E-1,2.1959357E-1,-8.70611E-3,6.0729444E-2,3.7899301E-3,3.8826542E-3,8.4512055E-2,-2.963114E-3,1.0046721E-1,-1.9797974E-3,1.7856127E-1,4.7905653E-4,-9.225968E-4],"split_indices":[9,10,0,19,0,0,19,0,9,0,18,0,0],"split_type":[0,0,0,0,0,0,0,0,0,0,0,0,0],"sum_hessian":[8.1E1,7.3E1,8E0,6.2E1,1.1E1,9E0,5.3E1,1E1,4.3E1,9E0,3.4E1,1.9E1,1.5E1],"tree_param":{"num_deleted":"0","num_feature":"31","num_nodes":"13","size_leaf_vector":"1"}},{"base_weights":[-1.6672225E-3,-2.9802872E-2,4.4003753E-3,-3.2984023E-3,6.275553E-2,-5.704982E-3,8.806633E-3,-8.146442E-3,-1.8735526E-3,-4.526225E-3,-1.1029812E-2,2.5507712E-3,-1.1103783E-2],"categories":[],"categories_nodes":[],"categories_segments":[],"categories_sizes":[],"default_left":[1,0,1,1,0,1,0,1,1,0,0,0,0],"id":17,"left_children":[1,-1,3,5,-1,7,-1,9,11,-1,-1,-1,-1],"loss_changes":[1.4539833E-2,0E0,3.1409662E-2,1.7194615E-3,0E0,3.4729822E-4,0E0,9.686861E-5,1.0184565E-3,0E0,0E0,0E0,0E0],"parents":[2147483647,0,0,2,2,3,3,5,5,7,7,8,8],"right_children":[2,-1,4,6,-1,8,-1,10,12,-1,-1,-1,-1],"split_conditions":[7.219532E-2,-4.609324E-3,2.985E2,2.5226128E-1,9.705796E-3,1.5548983E-1,1.3620374E-3,1.2800682E-1,2.2288342E-1,-7.000278E-4,-1.7058752E-3,3.945033E-4,-1.7173155E-3],"split_indices":[15,0,0,11,0,6,0,21,15,0,0,0,0],"split_type":[0,0,0,0,0,0,0,0,0,0,0,0,0],"sum_hessian":[8.3E1,1.5E1,6.8E1,6E1,8E0,5.1E1,9E0,2.9E1,2.2E1,1.5E1,1.4E1,1.4E1,8E0],"tree_param":{"num_deleted":"0","num_feature":"31","num_nodes":"13","size_leaf_vector":"1"}},{"base_weights":[2.998323E-3,-4.5082304E-3,5.865516E-2,-7.498838E-3,3.3518667E-3,-4.4214204E-3,-2.1332802E-2,1.5364822E-2,-5.99336E-3,-1.0088759E-2,-6.2202197E-4,-4.860319E-3,3.9910874E-3],"categories":[],"categories_nodes":[],"categories_segments":[],"categories_sizes":[],"default_left":[1,1,0,1,1,1,0,0,0,0,1,0,0],"id":18,"left_children":[1,3,-1,5,7,9,-1,-1,-1,-1,11,-1,-1],"loss_changes":[3.2129504E-2,1.6118067E-3,0E0,1.7472452E-3,2.0585698E-3,7.4723054E-4,0E0,0E0,0E0,0E0,5.251536E-4,0E0,0E0],"parents":[2147483647,0,0,1,1,3,3,4,4,5,5,10,10],"right_children":[2,4,-1,6,8,10,-1,-1,-1,-1,12,-1,-1],"split_conditions":[3.2E2,2.041873E-1,9.071631E-3,1.7307025E-1,2.6766616E-1,9.595263E-2,-3.29934E-3,2.3763296E-3,-9.269355E-4,-1.5603314E-3,2.215E2,-7.516989E-4,6.172632E-4],"split_indices":[0,13,0,9,17,13,0,0,0,0,0,0,0],"split_type":[0,0,0,0,0,0,0,0,0,0,0,0,0],"sum_hessian":[7.5E1,6.6E1,9E0,4.9E1,1.7E1,4.1E1,8E0,8E0,9E0,1.5E1,2.6E1,1.5E1,1.1E1],"tree_param":{"num_deleted":"0","num_feature":"31","num_nodes":"13","size_leaf_vector":"1"}},{"base_weights":[-1.2218291E-3,3.6939166E-3,-4.572068E-2,-7.08302E-4,3.9338935E-2,-3.4869344E-3,9.942505E-3,-7.4113314E-3,-7.337395E-4,-3.098415E-3,-1.0671869E-2,-3.9727986E-3,7.3018484E-3,-0E0,-6.4491387E-3],"categories":[],"categories_nodes":[],"categories_segments":[],"categories_sizes":[],"default_left":[1,1,0,1,0,1,0,1,1,0,0,1,0,0,0],"id":19,"left_children":[1,3,-1,5,-1,7,-1,9,11,-1,-1,13,-1,-1,-1],"loss_changes":[1.7877558E-2,1.16648255E-2,0E0,1.7906884E-3,0E0,4.4701702E-4,0E0,8.727366E-5,7.980048E-4,0E0,0E0,2.9039444E-4,0E0,0E0,0E0],"parents":[2147483647,0,0,1,1,3,3,5,5,7,7,8,8,11,11],"right_children":[2,4,-1,6,-1,8,-1,10,12,-1,-1,14,-1,-1,-1],"split_conditions":[3.345E2,2.99E2,-7.071179E-3,2.143064E-1,6.084176E-3,9.595263E-2,1.5377118E-3,8.729333E-2,2.285E2,-4.792021E-4,-1.6505156E-3,1.2060644E-1,1.1293069E-3,-0E0,-9.974265E-4],"split_indices":[0,0,0,8,0,13,0,7,0,0,0,8,0,0,0],"split_type":[0,0,0,0,0,0,0,0,0,0,0,0,0,0,0],"sum_hessian":[7.9E1,7.1E1,8E0,6.3E1,8E0,5.1E1,1.2E1,1.9E1,3.2E1,1E1,9E0,2.4E1,8E0,8E0,1.6E1],"tree_param":{"num_deleted":"0","num_feature":"31","num_nodes":"15","size_leaf_vector":"1"}},{"base_weights":[-3.4882978E-3,1.2487922E-3,-4.3767292E-2,-4.5686443E-3,5.0766617E-2,-5.9923106E-3,1.5083665E-3,-3.2849042E-3,-1.0528026E-2,-8.195417E-3,3.0771026E-3,-2.1996335E-3,-1.5323566E-2,-3.090991E-3,-1.3996241E-2],"categories":[],"categories_nodes":[],"categories_segments":[],"categories_sizes":[],"default_left":[1,1,0,1,0,1,0,1,1,1,0,0,0,0,0],"id":20,"left_children":[1,3,-1,5,-1,7,-1,9,11,13,-1,-1,-1,-1,-1],"loss_changes":[1.661013E-2,2.227449E-2,0E0,6.3990464E-4,0E0,5.06744E-4,0E0,1.2299125E-3,5.342909E-4,4.29602E-4,0E0,0E0,0E0,0E0,0E0],"parents":[2147483647,0,0,1,1,3,3,5,5,7,7,8,8,9,9],"right_children":[2,4,-1,6,-1,8,-1,10,12,14,-1,-1,-1,-1,-1],"split_conditions":[3.2255962E-1,2.5063318E-1,-6.769067E-3,2.0284605E-1,7.851586E-3,1.0494702E-1,2.3328458E-4,1.276733E-1,1.5304506E-1,8.729333E-2,4.7590592E-4,-3.4019622E-4,-2.369949E-3,-4.780539E-4,-2.1646642E-3],"split_indices":[7,5,0,28,0,27,0,10,10,7,0,0,0,0,0],"split_type":[0,0,0,0,0,0,0,0,0,0,0,0,0,0,0],"sum_hessian":[8.4E1,7.5E1,9E0,6.7E1,8E0,5.6E1,1.1E1,3.7E1,1.9E1,2.2E1,1.5E1,8E0,1.1E1,1.3E1,9E0],"tree_param":{"num_deleted":"0","num_feature":"31","num_nodes":"15","size_leaf_vector":"1"}},{"base_weights":[-0E0,-1.0980128E-2,1.8397823E-2,-1.285061E-3,-6.056454E-2,-2.2598081E-4,7.257554E-2,-4.480677E-3,1.0947572E-2,8.4468685E-3,-5.737493E-3,-1.4876954E-3,-1.1560044E-2,-4.26431E-3,3.264495E-4],"categories":[],"categories_nodes":[],"categories_segments":[],"categories_sizes":[],"default_left":[1,1,1,1,0,1,0,1,0,0,0,1,0,0,0],"id":21,"left_children":[1,3,5,7,-1,9,-1,11,-1,-1,-1,13,-1,-1,-1],"loss_changes":[1.6707897E-2,2.3779368E-2,3.2357782E-2,1.6104312E-3,0E0,1.0784557E-3,0E0,5.742992E-4,0E0,0E0,0E0,1.825596E-4,0E0,0E0,0E0],"parents":[2147483647,0,0,1,1,2,2,3,3,5,5,7,7,11,11],"right_children":[2,4,6,8,-1,10,-1,12,-1,-1,-1,14,-1,-1,-1],"split_conditions":[1.3507502E-1,1.8641943E-1,2.25E2,1.5304506E-1,-9.366936E-3,2.0932373E-1,1.1224562E-2,2.575E2,1.693156E-3,1.3063961E-3,-8.873629E-4,5.7265073E-2,-1.7878811E-3,-6.595199E-4,5.048881E-5],"split_indices":[24,7,0,6,0,16,0,0,0,0,0,29,0,0,0],"split_type":[0,0,0,0,0,0,0,0,0,0,0,0,0,0,0],"sum_hessian":[8.2E1,5.1E1,3.1E1,4.3E1,8E0,2.3E1,8E0,3.5E1,8E0,8E0,1.5E1,2.6E1,9E0,1.3E1,1.3E1],"tree_param":{"num_deleted":"0","num_feature":"31","num_nodes":"15","size_leaf_vector":"1"}},{"base_weights":[-7.273617E-4,-7.959544E-3,1.9513981E-2,-2.4793486E-3,-3.2586414E-2,6.0592864E-2,-7.2074234E-3,1.0310656E-2,-5.385732E-3,-2.6606962E-3,-1.4465681E-2,-5.199399E-3,-0E0,-1.2461635E-3,-7.0309425E-3],"categories":[],"categories_nodes":[],"categories_segments":[],"categories_sizes":[],"default_left":[1,1,1,1,0,0,0,0,1,1,0,1,0,0,0],"id":22,"left_children":[1,3,5,7,-1,-1,-1,-1,9,11,-1,13,-1,-1,-1],"loss_changes":[1.1313262E-2,7.3843515E-3,2.2862164E-2,1.7343122E-3,0E0,0E0,0E0,0E0,7.673949E-4,2.629516E-4,0E0,2.3616769E-5,0E0,0E0,0E0],"parents":[2147483647,0,0,1,1,2,2,3,3,8,8,9,9,11,11],"right_children":[2,4,6,8,-1,-1,-1,-1,10,12,-1,14,-1,-1,-1],"split_conditions":[1.6049913E-1,2.5063318E-1,2.0284605E-1,6.922118E-2,-5.039828E-3,9.371317E-3,-1.114703E-3,1.5946503E-3,3.5E0,1.00377984E-1,-2.237268E-3,6.3360825E-2,-0E0,-1.9273216E-4,-1.0874084E-3],"split_indices":[25,8,25,9,0,0,0,0,2,23,0,26,0,0,0],"split_type":[0,0,0,0,0,0,0,0,0,0,0,0,0,0,0],"sum_hessian":[7.8E1,5.8E1,2E1,4.8E1,1E1,8E0,1.2E1,8E0,4E1,3.2E1,8E0,1.8E1,1.4E1,8E0,1E1],"tree_param":{"num_deleted":"0","num_feature":"31","num_nodes":"15","size_leaf_vector":"1"}},{"base_weights":[2.6880778E-4,-8.491413E-3,1.5347714E-2,4.7081736E-5,-5.004987E-2,4.1889403E-2,-3.2930428E-3,1.4065595E-2,-3.855552E-3,2.2919734E-3,-1.1770887E-2,-8.484438E-3,-0E0,-8.96572E-4,-1.4342127E-2,5.9303255E-3,-5.530545E-3],"categories":[],"categories_nodes":[],"categories_segments":[],"categories_sizes":[],"default_left":[1,1,1,1,0,0,1,0,1,0,0,1,1,0,0,0,0],"id":23,"left_children":[1,3,5,7,-1,-1,9,-1,11,-1,-1,13,15,-1,-1,-1,-1],"loss_changes":[1.1089958E-2,1.9146949E-2,1.592543E-2,2.4995876E-3,0E0,0E0,9.849699E-4,0E0,6.694663E-4,0E0,0E0,5.196595E-4,5.707108E-4,0E0,0E0,0E0,0E0],"parents":[2147483647,0,0,1,1,2,2,3,3,6,6,8,8,11,11,12,12],"right_children":[2,4,6,8,-1,-1,10,-1,12,-1,-1,14,16,-1,-1,-1,-1],"split_conditions":[1.4380738E-1,1.809965E-1,1.9497079E-1,6.474431E-2,-7.740733E-3,6.478632E-3,3.011938E-1,2.1753907E-3,9.857918E-2,3.5447752E-4,-1.8204902E-3,7.050471E-2,1.2717502E-1,-1.386642E-4,-2.2181591E-3,9.1718655E-4,-8.5535634E-4],"split_indices":[24,11,24,11,0,0,21,0,21,0,0,17,21,0,0,0,0],"split_type":[0,0,0,0,0,0,0,0,0,0,0,0,0,0,0,0,0],"sum_hessian":[8.3E1,5.2E1,3.1E1,4.3E1,9E0,1.3E1,1.8E1,1E1,3.3E1,1E1,8E0,1.6E1,1.7E1,8E0,8E0,9E0,8E0],"tree_param":{"num_deleted":"0","num_feature":"31","num_nodes":"17","size_leaf_vector":"1"}},{"base_weights":[1.3909225E-3,5.210665E-3,-3.323484E-2,-1.354686E-3,2.8949156E-2,2.2428952E-2,-5.31243E-3,5.5431522E-2,-0E0,-7.313306E-3,4.0472005E-3,-4.475239E-3,-1.5493369E-2,-1.3227036E-2,-1.2320769E-3],"categories":[],"categories_nodes":[],"categories_segments":[],"categories_sizes":[],"default_left":[1,1,0,1,1,0,1,0,0,1,0,1,0,0,0],"id":24,"left_children":[1,3,-1,5,7,-1,9,-1,-1,11,-1,13,-1,-1,-1],"loss_changes":[1.0925782E-2,1.238377E-2,0E0,5.4583554E-3,1.3729696E-2,0E0,1.0228287E-3,0E0,0E0,7.579089E-4,0E0,7.807542E-4,0E0,0E0,0E0],"parents":[2147483647,0,0,1,1,3,3,4,4,6,6,9,9,11,11],"right_children":[2,4,-1,6,8,-1,10,-1,-1,12,-1,14,-1,-1,-1],"split_conditions":[4.6313328E-1,2.0374694E-1,-5.1401136E-3,5.4189645E-2,2.0284605E-1,3.468871E-3,2.0575297E-1,8.573062E-3,-0E0,1.7307025E-1,6.2594167E-4,4.4310383E-2,-2.3962106E-3,-2.0456987E-3,-1.9055352E-4],"split_indices":[8,8,0,13,19,0,13,0,0,21,0,28,0,0,0],"split_type":[0,0,0,0,0,0,0,0,0,0,0,0,0,0,0],"sum_hessian":[8.5E1,7.7E1,8E0,6E1,1.7E1,8E0,5.2E1,9E0,8E0,4.4E1,8E0,3.4E1,1E1,8E0,2.6E1],"tree_param":{"num_deleted":"0","num_feature":"31","num_nodes":"15","size_leaf_vector":"1"}},{"base_weights":[-3.0888151E-3,6.447389E-4,-3.9978206E-2,-1.5825646E-3,2.112237E-2,-3.743643E-3,1.3090116E-2,-2.0437036E-3,-1.0189546E-2,-5.611942E-4,-7.2748573E-3,-3.1009207E-3,6.9683283E-3],"categories":[],"categories_nodes":[],"categories_segments":[],"categories_sizes":[],"default_left":[1,1,0,1,0,1,0,1,0,1,0,0,0],"id":25,"left_children":[1,3,-1,5,-1,7,-1,9,-1,11,-1,-1,-1],"loss_changes":[1.2236602E-2,3.7747757E-3,0E0,2.0793136E-3,0E0,5.09599E-4,0E0,2.8747375E-4,0E0,7.401646E-4,0E0,0E0,0E0],"parents":[2147483647,0,0,1,1,3,3,5,5,7,7,9,9],"right_children":[2,4,-1,6,-1,8,-1,10,-1,12,-1,-1,-1],"split_conditions":[3.34E2,3.025E2,-6.1830455E-3,2.631896E-1,3.2667944E-3,2.605E2,2.0245225E-3,2.0485207E-1,-1.5759193E-3,1.7752102E-1,-1.1251323E-3,-4.7958965E-4,1.0777245E-3],"split_indices":[0,0,0,9,0,0,0,7,0,12,0,0,0],"split_type":[0,0,0,0,0,0,0,0,0,0,0,0,0],"sum_hessian":[8.5E1,7.7E1,8E0,6.9E1,8E0,6.1E1,8E0,5E1,1.1E1,4.1E1,9E0,3.2E1,9E0],"tree_param":{"num_deleted":"0","num_feature":"31","num_nodes":"13","size_leaf_vector":"1"}},{"base_weights":[1.0630089E-3,-6.6954414E-3,2.446667E-2,-0E0,-2.8699482E-2,6.1548777E-2,2.425708E-4,1.4258393E-2,-4.057997E-3,-1.3060891E-3,-1.2591771E-2,-7.3327087E-3,7.007102E-4,-0E0,2.883122E-3],"categories":[],"categories_nodes":[],"categories_segments":[],"categories_sizes":[],"default_left":[1,1,1,1,0,0,0,0,1,1,0,0,1,0,0],"id":26,"left_children":[1,3,5,7,-1,-1,-1,-1,9,11,-1,-1,13,-1,-1],"loss_changes":[1.5349345E-2,8.864328E-3,1.8196464E-2,2.690516E-3,0E0,0E0,0E0,0E0,7.1460515E-4,4.5064223E-4,0E0,0E0,5.7317833E-5,0E0,0E0],"parents":[2147483647,0,0,1,1,2,2,3,3,8,8,9,9,12,12],"right_children":[2,4,6,8,-1,-1,-1,-1,10,12,-1,-1,14,-1,-1],"split_conditions":[1.6102104E-1,2.1756996E-1,2.0284605E-1,6.435254E-2,-4.4386736E-3,9.519159E-3,3.7516096E-5,2.2052089E-3,3.5E0,8.4512055E-2,-1.9474484E-3,-1.1340796E-3,1.54178E-1,-0E0,4.4590482E-4],"split_indices":[25,9,25,13,0,0,0,0,2,19,0,0,13,0,0],"split_type":[0,0,0,0,0,0,0,0,0,0,0,0,0,0,0],"sum_hessian":[8.3E1,6.2E1,2.1E1,4.8E1,1.4E1,8E0,1.3E1,1E1,3.8E1,3E1,8E0,9E0,2.1E1,1.3E1,8E0],"tree_param":{"num_deleted":"0","num_feature":"31","num_nodes":"15","size_leaf_vector":"1"}},{"base_weights":[-6.313247E-4,-3.0899117E-2,2.8498112E-3,8.745867E-3,-1.1327051E-2,-0E0,5.1446956E-2,3.2443623E-4,-2.8649237E-2,1.1074179E-2,-2.7418046E-3,-0E0,-8.768366E-3,-6.0214223E-3,4.0421523E-3],"categories":[],"categories_nodes":[],"categories_segments":[],"categories_sizes":[],"default_left":[1,0,1,1,1,1,0,0,0,0,1,1,0,0,0],"id":27,"left_children":[1,-1,3,5,7,9,-1,-1,-1,-1,11,13,-1,-1,-1],"loss_changes":[8.291288E-3,0E0,5.593537E-3,1.7873991E-2,4.2296713E-3,1.2404564E-3,0E0,0E0,0E0,0E0,4.6141644E-4,5.8257824E-4,0E0,0E0,0E0],"parents":[2147483647,0,0,2,2,3,3,4,4,5,5,10,10,11,11],"right_children":[2,-1,4,6,8,10,-1,-1,-1,-1,12,14,-1,-1,-1],"split_conditions":[3.571111E-2,-4.77887E-3,1.6954002E-1,3.17E2,2.241013E-1,3.55E1,7.956807E-3,5.0177438E-5,-4.4309027E-3,1.712737E-3,1.2818018E-1,8.120111E-2,-1.3561189E-3,-9.312756E-4,6.2516093E-4],"split_indices":[25,0,21,0,6,0,0,0,0,0,21,21,0,0,0],"split_type":[0,0,0,0,0,0,0,0,0,0,0,0,0,0,0],"sum_hessian":[7.5E1,8E0,6.7E1,4.8E1,1.9E1,4E1,8E0,1.1E1,8E0,8E0,3.2E1,2.3E1,9E0,1E1,1.3E1],"tree_param":{"num_deleted":"0","num_feature":"31","num_nodes":"15","size_leaf_vector":"1"}},{"base_weights":[-2.3980285E-3,-1.1351389E-2,7.66453E-3,-4.026421E-3,-4.117873E-2,1.2511674E-4,3.292832E-2,2.6789678E-3,-6.841605E-3,3.5324546E-3,-2.2088734E-3,-1.187602E-2,-7.5320434E-4],"categories":[],"categories_nodes":[],"categories_segments":[],"categories_sizes":[],"default_left":[1,1,1,1,0,1,0,0,1,0,0,0,0],"id":28,"left_children":[1,3,5,7,-1,9,-1,-1,11,-1,-1,-1,-1],"loss_changes":[7.2805085E-3,8.820826E-3,6.6491943E-3,7.1962125E-4,0E0,2.4993264E-4,0E0,0E0,6.375876E-4,0E0,0E0,0E0,0E0],"parents":[2147483647,0,0,1,1,2,2,3,3,5,5,8,8],"right_children":[2,4,6,8,-1,10,-1,-1,12,-1,-1,-1,-1],"split_conditions":[1.4731973E-1,1.5548983E-1,2.631896E-1,6.480922E-2,-6.368719E-3,2.143064E-1,5.0927075E-3,4.1433025E-4,9.886945E-2,5.463309E-4,-3.4162524E-4,-1.83675E-3,-1.1649089E-4],"split_indices":[12,7,7,8,0,15,0,0,8,0,0,0,0],"split_type":[0,0,0,0,0,0,0,0,0,0,0,0,0],"sum_hessian":[8E1,4.3E1,3.7E1,3.5E1,8E0,2.9E1,8E0,9E0,2.6E1,1.4E1,1.5E1,1.3E1,1.3E1],"tree_param":{"num_deleted":"0","num_feature":"31","num_nodes":"13","size_leaf_vector":"1"}},{"base_weights":[2.9871771E-5,-6.468201E-3,9.568988E-3,7.1591125E-3,-1.5066526E-2,2.8592506E-2,-1.7138524E-3,-0E0,1.5572603E-2,-3.0338864E-3,-4.5935996E-2,-6.8338686E-3,1.814474E-3,-7.2401706E-3,-0E0],"categories":[],"categories_nodes":[],"categories_segments":[],"categories_sizes":[],"default_left":[1,1,1,1,1,0,1,0,0,1,0,0,0,0,0],"id":29,"left_children":[1,3,5,7,9,-1,11,-1,-1,13,-1,-1,-1,-1,-1],"loss_changes":[5.1406273E-3,5.7584955E-3,7.6816324E-3,1.2876224E-3,1.05467085E-2,0E0,4.4834602E-4,0E0,0E0,2.7552363E-4,0E0,0E0,0E0,0E0,0E0],"parents":[2147483647,0,0,1,1,2,2,3,3,4,4,6,6,9,9],"right_children":[2,4,6,8,10,-1,12,-1,-1,14,-1,-1,-1,-1,-1],"split_conditions":[1.5000418E-1,7.225955E-2,2.0284605E-1,4.693766E-2,2.955E2,4.4221287E-3,2.3543406E-1,-0E0,2.4084651E-3,1.1492002E-1,-7.1044797E-3,-1.0569289E-3,2.8062728E-4,-1.1197677E-3,-0E0],"split_indices":[16,20,16,20,0,0,20,0,0,29,0,0,0,0,0],"split_type":[0,0,0,0,0,0,0,0,0,0,0,0,0,0,0],"sum_hessian":[8.2E1,4.8E1,3.4E1,1.8E1,3E1,1.3E1,2.1E1,9E0,9E0,2.2E1,8E0,1E1,1.1E1,9E0,1.3E1],"tree_param":{"num_deleted":"0","num_feature":"31","num_nodes":"15","size_leaf_vector":"1"}},{"base_weights":[5.395305E-4,-1.8932186E-2,4.370662E-3,8.8512614E-5,3.538754E-2,1.6720759E-2,-2.5315005E-3,-5.133551E-3,8.330301E-4,-1.302701E-3,-8.5718045E-3,5.737269E-3,-4.2863195E-3,-0E0,-3.0094772E-3],"categories":[],"categories_nodes":[],"categories_segments":[],"categories_sizes":[],"default_left":[1,0,1,1,0,0,1,1,1,1,0,0,0,0,0],"id":30,"left_children":[1,-1,3,5,-1,-1,7,9,11,13,-1,-1,-1,-1,-1],"loss_changes":[6.0270685E-3,0E0,8.8596195E-3,2.8967208E-3,0E0,0E0,5.2121026E-4,2.9473042E-4,5.5308215E-4,4.4669054E-5,0E0,0E0,0E0,0E0,0E0],"parents":[2147483647,0,0,2,2,3,3,6,6,7,7,8,8,9,9],"right_children":[2,-1,4,6,-1,-1,8,10,12,14,-1,-1,-1,-1,-1],"split_conditions":[5.612021E-2,-2.9280595E-3,2.7273005E-1,8.120111E-2,5.4730508E-3,2.5860392E-3,1.7106436E-1,2.5E0,2.5063318E-1,1.2968762E-1,-1.3257187E-3,8.873283E-4,-6.629239E-4,-0E0,-4.6544697E-4],"split_indices":[22,0,7,15,0,0,9,2,15,22,0,0,0,0,0],"split_type":[0,0,0,0,0,0,0,0,0,0,0,0,0,0,0],"sum_hessian":[8.3E1,1.3E1,7E1,6.2E1,8E0,9E0,5.3E1,3.2E1,2.1E1,1.7E1,1.5E1,1.2E1,9E0,9E0,8E0],"tree_param":{"num_deleted":"0","num_feature":"31","num_nodes":"15","size_leaf_vector":"1"}},{"base_weights":[4.661926E-3,-6.4273906E-4,4.009622E-2,-2.575921E-3,4.0565254E-3,-2.6203194E-4,-9.325163E-3,1.0204755E-2,-1.4211441E-3,-2.7244762E-3,3.5566825E-3,-0E0,-6.73939E-3,1.3131691E-3,-2.2693765E-3],"categories":[],"categories_nodes":[],"categories_segments":[],"categories_sizes":[],"default_left":[1,1,0,1,1,1,0,0,0,1,0,1,0,0,0],"id":31,"left_children":[1,3,-1,5,7,9,-1,-1,-1,11,-1,13,-1,-1,-1],"loss_changes":[1.6139742E-2,6.3785806E-4,0E0,7.062551E-4,7.5984944E-4,3.775886E-4,0E0,0E0,0E0,2.1384712E-4,0E0,6.628882E-5,0E0,0E0,0E0],"parents":[2147483647,0,0,1,1,3,3,4,4,5,5,9,9,11,11],"right_children":[2,4,-1,6,8,10,-1,-1,-1,12,-1,14,-1,-1,-1],"split_conditions":[3.195E2,2.0716393E-1,6.2012975E-3,1.5741283E-1,3.2255962E-1,2.325E2,-1.4422336E-3,1.5782715E-3,-2.1979472E-4,1.121486E-1,5.5007794E-4,9.130624E-2,-1.0423168E-3,2.0309527E-4,-3.5098268E-4],"split_indices":[0,13,0,19,13,0,0,0,0,13,0,7,0,0,0],"split_type":[0,0,0,0,0,0,0,0,0,0,0,0,0,0,0],"sum_hessian":[8.3E1,7.2E1,1.1E1,5.3E1,1.9E1,4.1E1,1.2E1,1E1,9E0,2.7E1,1.4E1,1.8E1,9E0,8E0,1E1],"tree_param":{"num_deleted":"0","num_feature":"31","num_nodes":"15","size_leaf_vector":"1"}},{"base_weights":[1.488265E-3,-1.2663412E-3,2.0696148E-2,5.6029804E-4,-8.897061E-3,2.3393827E-3,-3.7652024E-3,-0E0,9.602711E-3,-1.5746816E-3,2.0397226E-3,-0E0,-4.510816E-3],"categories":[],"categories_nodes":[],"categories_segments":[],"categories_sizes":[],"default_left":[1,1,0,1,0,1,0,1,0,1,0,0,0],"id":32,"left_children":[1,3,-1,5,-1,7,-1,9,-1,11,-1,-1,-1],"loss_changes":[4.2825816E-3,1.0299393E-3,0E0,3.8420135E-4,0E0,7.212118E-4,0E0,9.135732E-5,0E0,1.20726996E-4,0E0,0E0,0E0],"parents":[2147483647,0,0,1,1,3,3,5,5,7,7,9,9],"right_children":[2,4,-1,6,-1,8,-1,10,-1,12,-1,-1,-1],"split_conditions":[2.6766616E-1,2.605E2,3.2008747E-3,2.5063318E-1,-1.3760232E-3,1.6932586E-1,-5.823277E-4,1.2670724E-1,1.4851592E-3,9.558961E-2,3.1546433E-4,-0E0,-6.9764466E-4],"split_indices":[5,0,0,15,0,15,0,5,0,10,0,0,0],"split_type":[0,0,0,0,0,0,0,0,0,0,0,0,0],"sum_hessian":[7.6E1,6.6E1,1E1,5.2E1,1.4E1,3.9E1,1.3E1,2.9E1,1E1,1.8E1,1.1E1,1E1,8E0],"tree_param":{"num_deleted":"0","num_feature":"31","num_nodes":"13","size_leaf_vector":"1"}},{"base_weights":[8.587162E-4,-3.3619872E-3,1.2516384E-2,9.966189E-4,-3.171762E-2,-5.61379E-4,3.6586322E-2,-5.461048E-3,5.37462E-3,8.5371535E-4,-1.55847445E-2,2.3241386E-2,-3.90255E-4,-6.2807384E-3,2.5123353E-3],"categories":[],"categories_nodes":[],"categories_segments":[],"categories_sizes":[],"default_left":[1,1,1,1,0,0,0,1,1,0,0,0,1,0,0],"id":33,"left_children":[1,3,5,7,-1,-1,-1,9,11,-1,-1,-1,13,-1,-1],"loss_changes":[4.067248E-3,7.5859497E-3,7.4371044E-3,1.4207937E-3,0E0,0E0,0E0,1.4153293E-3,3.503177E-3,0E0,0E0,0E0,4.4647843E-4,0E0,0E0],"parents":[2147483647,0,0,1,1,2,2,3,3,7,7,8,8,12,12],"right_children":[2,4,6,8,-1,-1,-1,10,12,-1,-1,-1,14,-1,-1],"split_conditions":[1.6102104E-1,1.3830611E-1,2.2825775E-1,6.531416E-2,-4.90546E-3,-8.682311E-5,5.658455E-3,4.4952698E-2,7.2465286E-2,1.3203596E-4,-2.410343E-3,3.5945221E-3,1.2784666E-1,-9.7138155E-4,3.8855878E-4],"split_indices":[25,25,5,24,0,0,0,25,20,0,0,0,12,0,0],"split_type":[0,0,0,0,0,0,0,0,0,0,0,0,0,0,0],"sum_hessian":[8E1,5.8E1,2.2E1,5E1,8E0,1.4E1,8E0,1.9E1,3.1E1,1.1E1,8E0,8E0,2.3E1,9E0,1.4E1],"tree_param":{"num_deleted":"0","num_feature":"31","num_nodes":"15","size_leaf_vector":"1"}},{"base_weights":[-1.1776297E-3,3.349239E-3,-3.778545E-2,1.2082663E-4,2.6740292E-2,2.2024966E-3,-5.162151E-3,-1.8178853E-5,8.293299E-3,-0E0,-1.0488487E-2,1.8399173E-3,-2.0629014E-3,-5.9944E-3,-0E0],"categories":[],"categories_nodes":[],"categories_segments":[],"categories_sizes":[],"default_left":[1,1,0,1,0,1,1,1,0,0,0,0,1,0,0],"id":34,"left_children":[1,3,-1,5,-1,7,9,11,-1,-1,-1,-1,13,-1,-1],"loss_changes":[1.3742771E-2,5.0264793E-3,0E0,6.5798865E-4,0E0,7.4415025E-4,4.65741E-4,1.2934237E-4,0E0,0E0,0E0,0E0,2.111818E-4,0E0,0E0],"parents":[2147483647,0,0,1,1,3,3,5,5,6,6,7,7,12,12],"right_children":[2,4,-1,6,-1,8,10,12,-1,-1,-1,-1,14,-1,-1],"split_conditions":[3.34E2,2.99E2,-5.843913E-3,1.6294503E-1,4.1356646E-3,1.7752102E-1,2.1913564E-1,1.945E2,1.2826449E-3,-0E0,-1.6221536E-3,2.8456235E-4,2.365E2,-9.2709635E-4,-0E0],"split_indices":[0,0,0,25,0,12,15,0,0,0,0,0,0,0,0],"split_type":[0,0,0,0,0,0,0,0,0,0,0,0,0,0,0],"sum_hessian":[8E1,7.1E1,9E0,6.3E1,8E0,4.7E1,1.6E1,3.3E1,1.4E1,8E0,8E0,1.4E1,1.9E1,8E0,1.1E1],"tree_param":{"num_deleted":"0","num_feature":"31","num_nodes":"15","size_leaf_vector":"1"}},{"base_weights":[9.865673E-4,-2.29434E-2,3.749503E-3,-7.9967454E-4,3.8002867E-2,5.328062E-4,-7.7902814E-3,2.5086633E-3,-5.2708746E-3,6.734673E-3,7.6345593E-4,-6.8217894E-4,3.2422747E-3],"categories":[],"categories_nodes":[],"categories_segments":[],"categories_sizes":[],"default_left":[1,0,1,1,0,1,0,1,0,0,1,0,0],"id":35,"left_children":[1,-1,3,5,-1,7,-1,9,-1,-1,11,-1,-1],"loss_changes":[5.262733E-3,0E0,1.2192396E-2,7.100992E-4,0E0,5.872585E-4,0E0,2.1361304E-4,0E0,0E0,1.48446E-4,0E0,0E0],"parents":[2147483647,0,0,2,2,3,3,5,5,7,7,10,10],"right_children":[2,-1,4,6,-1,8,-1,10,-1,-1,12,-1,-1],"split_conditions":[4.1834626E-2,-3.5484354E-3,4.65E1,3.85E1,5.8775386E-3,2.1476433E-1,-1.204848E-3,6.1853804E-2,-8.151956E-4,1.0415872E-3,1.5741283E-1,-1.0550607E-4,5.0145155E-4],"split_indices":[18,0,4,4,0,7,0,26,0,0,8,0,0],"split_type":[0,0,0,0,0,0,0,0,0,0,0,0,0],"sum_hessian":[8.3E1,8E0,7.5E1,6.6E1,9E0,5.4E1,1.2E1,4.2E1,1.2E1,1E1,3.2E1,1.7E1,1.5E1],"tree_param":{"num_deleted":"0","num_feature":"31","num_nodes":"13","size_leaf_vector":"1"}},{"base_weights":[1.5649348E-3,4.3856143E-3,-1.5813896E-2,8.766176E-4,2.0941054E-2,7.184253E-3,-1.6863947E-3,1.2936705E-2,-0E0,-3.3416203E-3,1.8067101E-3,-4.301183E-4,-8.932456E-3,-5.7481234E-3,2.2954666E-3],"categories":[],"categories_nodes":[],"categories_segments":[],"categories_sizes":[],"default_left":[1,1,0,1,0,1,1,0,0,1,0,1,0,0,0],"id":36,"left_children":[1,3,-1,5,-1,7,9,-1,-1,11,-1,13,-1,-1,-1],"loss_changes":[3.9877496E-3,3.965821E-3,0E0,1.0609791E-3,0E0,8.7700144E-4,2.6429383E-4,0E0,0E0,3.8594712E-4,0E0,3.673035E-4,0E0,0E0,0E0],"parents":[2147483647,0,0,1,1,3,3,5,5,6,6,9,9,11,11],"right_children":[2,4,-1,6,-1,8,10,-1,-1,12,-1,14,-1,-1,-1],"split_conditions":[2.8871483E-1,2.241013E-1,-2.4457837E-3,8.4236234E-2,3.238752E-3,6.386324E-2,1.8425381E-1,2.000796E-3,-0E0,1.3182135E-1,2.7942652E-4,9.635346E-2,-1.3814974E-3,-8.8900706E-4,3.5501778E-4],"split_indices":[11,7,0,15,0,19,12,0,0,23,0,23,0,0,0],"split_type":[0,0,0,0,0,0,0,0,0,0,0,0,0,0,0],"sum_hessian":[8.4E1,7.3E1,1.1E1,6.1E1,1.2E1,1.9E1,4.2E1,1.1E1,8E0,3.1E1,1.1E1,2.2E1,9E0,9E0,1.3E1],"tree_param":{"num_deleted":"0","num_feature":"31","num_nodes":"15","size_leaf_vector":"1"}},{"base_weights":[-4.3671946E-3,5.828184E-4,-4.151017E-2,4.273818E-3,-2.3243926E-3,1.7252666E-4,1.42731555E-2,-8.388974E-3,-1.8424935E-5,-2.3907574E-3,2.3989247E-3,1.9131373E-3,-5.2577266E-3,-0E0,3.8734174E-3],"categories":[],"categories_nodes":[],"categories_segments":[],"categories_sizes":[],"default_left":[1,1,0,1,1,1,0,0,1,0,0,1,0,0,0],"id":37,"left_children":[1,3,-1,5,7,9,-1,-1,11,-1,-1,13,-1,-1,-1],"loss_changes":[1.4345982E-2,7.362796E-4,0E0,1.0910255E-3,3.8329363E-4,1.3301606E-4,0E0,0E0,3.1918657E-4,0E0,0E0,5.5783406E-5,0E0,0E0,0E0],"parents":[2147483647,0,0,1,1,3,3,4,4,5,5,8,8,11,11],"right_children":[2,4,-1,6,8,10,-1,-1,12,-1,-1,14,-1,-1,-1],"split_conditions":[2.631896E-1,9.7122446E-2,-6.4199795E-3,1.2297404E-1,1.0494702E-1,6.480922E-2,2.207492E-3,-1.2974421E-3,2.3433384E-1,-3.6975552E-4,3.7101866E-4,1.5689093E-1,-8.131621E-4,-0E0,5.990643E-4],"split_indices":[7,26,0,5,29,11,0,0,14,0,0,12,0,0,0],"split_type":[0,0,0,0,0,0,0,0,0,0,0,0,0,0,0],"sum_hessian":[7.5E1,6.6E1,9E0,3.1E1,3.5E1,2.3E1,8E0,8E0,2.7E1,8E0,1.5E1,1.8E1,9E0,1E1,8E0],"tree_param":{"num_deleted":"0","num_feature":"31","num_nodes":"15","size_leaf_vector":"1"}},{"base_weights":[-2.1116761E-3,3.6092883E-4,-2.2640584E-2,3.8836896E-3,-1.0383648E-3,-7.2352785E-5,1.10025825E-2,-5.9478385E-3,2.2017315E-3,-6.998775E-4,-1.2564378E-2,6.812271E-3,-0E0,-3.6669795E-3,3.5799786E-3],"categories":[],"categories_nodes":[],"categories_segments":[],"categories_sizes":[],"default_left":[1,1,0,1,1,0,0,1,1,0,0,0,1,0,0],"id":38,"left_children":[1,3,-1,5,7,-1,-1,9,11,-1,-1,-1,13,-1,-1],"loss_changes":[4.8127896E-3,4.273229E-4,0E0,8.488762E-4,9.113729E-4,0E0,0E0,6.3172425E-4,2.733891E-4,0E0,0E0,0E0,2.920553E-4,0E0,0E0],"parents":[2147483647,0,0,1,1,3,3,4,4,7,7,8,8,12,12],"right_children":[2,4,-1,6,8,-1,-1,10,12,-1,-1,-1,14,-1,-1],"split_conditions":[2.730472E-1,6.644683E-2,-3.501602E-3,5.276501E-2,1.2611157E-1,-1.1190111E-5,1.7016638E-3,1.5441215E-1,1.5000418E-1,-1.0824334E-4,-1.9432118E-3,1.0535886E-3,1.9497079E-1,-5.671365E-4,5.5368093E-4],"split_indices":[5,27,0,30,30,0,0,5,30,0,0,0,30,0,0],"split_type":[0,0,0,0,0,0,0,0,0,0,0,0,0,0,0],"sum_hessian":[8.9E1,7.9E1,1E1,2.5E1,5.4E1,1.5E1,1E1,2.3E1,3.1E1,1.4E1,9E0,9E0,2.2E1,1E1,1.2E1],"tree_param":{"num_deleted":"0","num_feature":"31","num_nodes":"15","size_leaf_vector":"1"}},{"base_weights":[-3.592824E-4,3.5112314E-3,-3.5742957E-2,-1.3909489E-3,3.4276895E-2,-0E0,-9.066469E-3,1.1857604E-3,-5.4311575E-3,-0E0,4.8496826E-3,3.3424078E-3,-1.5254498E-3],"categories":[],"categories_nodes":[],"categories_segments":[],"categories_sizes":[],"default_left":[1,1,0,1,0,1,0,1,0,1,0,0,0],"id":39,"left_children":[1,3,-1,5,-1,7,-1,9,-1,11,-1,-1,-1],"loss_changes":[1.1271883E-2,1.1159914E-2,0E0,7.1558164E-4,0E0,3.0090212E-4,0E0,1.5440924E-4,0E0,1.8720372E-4,0E0,0E0,0E0],"parents":[2147483647,0,0,1,1,3,3,5,5,7,7,9,9],"right_children":[2,4,-1,6,-1,8,-1,10,-1,12,-1,-1,-1],"split_conditions":[4.6313328E-1,3.2E2,-5.52802E-3,2.775E2,5.3012786E-3,2.1786112E-1,-1.4022237E-3,1.8116759E-1,-8.3998503E-4,9.558961E-2,7.5005385E-4,5.169381E-4,-2.3592668E-4],"split_indices":[9,0,0,0,0,6,0,9,0,11,0,0,0],"split_type":[0,0,0,0,0,0,0,0,0,0,0,0,0],"sum_hessian":[7.9E1,7.1E1,8E0,6.1E1,1E1,5.1E1,1E1,4.3E1,8E0,3.4E1,9E0,1.2E1,2.2E1],"tree_param":{"num_deleted":"0","num_feature":"31","num_nodes":"13","size_leaf_vector":"1"}},{"base_weights":[-7.5603917E-4,1.961054E-3,-2.4478829E-2,-0E0,1.7074548E-2,-1.2184717E-3,6.6547985E-3,3.8974502E-3,-2.324522E-3,-5.7509826E-3,-1.3254022E-3,-0E0,-4.775849E-3],"categories":[],"categories_nodes":[],"categories_segments":[],"categories_sizes":[],"default_left":[1,1,0,1,0,1,0,0,1,0,1,0,0],"id":40,"left_children":[1,3,-1,5,-1,7,-1,-1,9,-1,11,-1,-1],"loss_changes":[5.7203444E-3,2.3769806E-3,0E0,4.8981374E-4,0E0,3.044211E-4,0E0,0E0,7.60979E-5,0E0,2.0472087E-4,0E0,0E0],"parents":[2147483647,0,0,1,1,3,3,5,5,8,8,10,10],"right_children":[2,4,-1,6,-1,8,-1,-1,10,-1,12,-1,-1],"split_conditions":[4.75E1,4.25E1,-3.7859054E-3,2.4229097E-1,2.6407565E-3,7.347885E-2,1.0292338E-3,6.027812E-4,5.5340342E-2,-8.8944926E-4,1.8508852E-1,-0E0,-7.386348E-4],"split_indices":[4,4,0,8,0,7,0,0,29,0,7,0,0],"split_type":[0,0,0,0,0,0,0,0,0,0,0,0,0],"sum_hessian":[8.4E1,7.5E1,9E0,6.6E1,9E0,5.7E1,9E0,8E0,4.9E1,8E0,4.1E1,2.9E1,1.2E1],"tree_param":{"num_deleted":"0","num_feature":"31","num_nodes":"13","size_leaf_vector":"1"}},{"base_weights":[-3.3125427E-4,-1.642121E-2,2.5420801E-3,2.2849164E-4,1.8286593E-2,5.235957E-3,-2.9743265E-4,-1.672301E-3,1.484866E-3,-0E0,-5.732574E-3,-0E0,4.31548E-3,-1.5613151E-3,1.6480954E-3],"categories":[],"categories_nodes":[],"categories_segments":[],"categories_sizes":[],"default_left":[1,0,1,1,0,0,1,1,1,1,0,0,0,0,0],"id":41,"left_children":[1,-1,3,5,-1,-1,7,9,11,13,-1,-1,-1,-1,-1],"loss_changes":[3.9822836E-3,0E0,2.2798595E-3,2.2479054E-4,0E0,0E0,1.329966E-4,2.3788211E-4,1.0946641E-4,6.259142E-5,0E0,0E0,0E0,0E0,0E0],"parents":[2147483647,0,0,2,2,3,3,6,6,7,7,8,8,9,9],"right_children":[2,-1,4,6,-1,-1,8,10,12,14,-1,-1,-1,-1,-1],"split_conditions":[6.435254E-2,-2.539711E-3,4.45E1,6.435254E-2,2.828212E-3,8.097952E-4,1.8301061E-1,1.6157795E-1,1.9497079E-1,1.121486E-1,-8.866022E-4,-0E0,6.674339E-4,-2.4147364E-4,2.548951E-4],"split_indices":[15,0,4,19,0,0,8,14,27,15,0,0,0,0,0],"split_type":[0,0,0,0,0,0,0,0,0,0,0,0,0,0,0],"sum_hessian":[8.2E1,1.3E1,6.9E1,6.1E1,8E0,8E0,5.3E1,3.4E1,1.9E1,2.4E1,1E1,1.1E1,8E0,1.2E1,1.2E1],"tree_param":{"num_deleted":"0","num_feature":"31","num_nodes":"15","size_leaf_vector":"1"}},{"base_weights":[-1.1452535E-3,3.3292563E-3,-4.2889904E-2,5.9583323E-4,2.3554204E-2,8.727433E-3,-8.418414E-4,4.941201E-3,-2.1387243E-3,-6.520854E-3,-7.05215E-4,1.0699319E-3,-3.8207537E-3],"categories":[],"categories_nodes":[],"categories_segments":[],"categories_sizes":[],"default_left":[1,1,0,1,0,0,1,0,1,0,1,0,0],"id":42,"left_children":[1,3,-1,5,-1,-1,7,-1,9,-1,11,-1,-1],"loss_changes":[1.5686318E-2,3.730928E-3,0E0,8.6409383E-4,0E0,0E0,3.7154893E-4,0E0,1.9623667E-4,0E0,2.4141102E-4,0E0,0E0],"parents":[2147483647,0,0,1,1,3,3,6,6,8,8,10,10],"right_children":[2,4,-1,6,-1,-1,8,-1,10,-1,12,-1,-1],"split_conditions":[4.2334834E-1,2.4229097E-1,-6.6333697E-3,6.7E1,3.6429027E-3,1.3497884E-3,3.8829185E-2,7.642081E-4,8.4512055E-2,-1.0085179E-3,1.5056978E-1,1.654761E-4,-5.909193E-4],"split_indices":[6,6,0,0,0,0,20,0,20,0,24,0,0],"split_type":[0,0,0,0,0,0,0,0,0,0,0,0,0],"sum_hessian":[8.1E1,7.3E1,8E0,6.5E1,8E0,1.1E1,5.4E1,8E0,4.6E1,9E0,3.7E1,2.1E1,1.6E1],"tree_param":{"num_deleted":"0","num_feature":"31","num_nodes":"13","size_leaf_vector":"1"}},{"base_weights":[-2.2029874E-3,6.229685E-4,-2.5870398E-2,7.4441284E-3,-1.2660502E-3,-0E0,1.5676653E-2,-0E0,-7.8074113E-3,-1.3170168E-3,2.9472592E-3,1.7751305E-4,-4.341686E-3,-6.606636E-4,2.281442E-3],"categories":[],"categories_nodes":[],"categories_segments":[],"categories_sizes":[],"default_left":[1,1,0,1,1,0,0,1,0,1,0,1,0,0,0],"id":43,"left_children":[1,3,-1,5,7,-1,-1,9,-1,11,-1,13,-1,-1,-1],"loss_changes":[5.754347E-3,1.0104505E-3,0E0,1.0514932E-3,4.0805858E-4,0E0,0E0,1.7340151E-4,0E0,2.0803581E-4,0E0,5.6594523E-5,0E0,0E0,0E0],"parents":[2147483647,0,0,1,1,3,3,4,4,7,7,9,9,11,11],"right_children":[2,4,-1,6,8,-1,-1,10,-1,12,-1,14,-1,-1,-1],"split_conditions":[2.8903198E-1,7.571073E-2,-4.001126E-3,7.225955E-2,3.5E0,-0E0,2.4245575E-3,2.5704122E-1,-1.2074973E-3,1.5741283E-1,4.558243E-4,1.0401302E-1,-6.7148695E-4,-1.021785E-4,3.5284876E-4],"split_indices":[8,15,0,8,2,0,0,17,0,7,0,8,0,0,0],"split_type":[0,0,0,0,0,0,0,0,0,0,0,0,0,0,0],"sum_hessian":[8.1E1,7.2E1,9E0,1.7E1,5.5E1,9E0,8E0,4.7E1,8E0,3.4E1,1.3E1,2E1,1.4E1,1E1,1E1],"tree_param":{"num_deleted":"0","num_feature":"31","num_nodes":"15","size_leaf_vector":"1"}},{"base_weights":[-0E0,2.5621494E-3,-2.4323972E-2,-1.0431517E-3,3.514736E-2,6.6355286E-5,-6.8340073E-3,-1.6630228E-3,5.27005E-3,-6.9503523E-3,-0E0,7.950156E-3,9.167655E-4,1.3292008E-3,-3.701574E-3],"categories":[],"categories_nodes":[],"categories_segments":[],"categories_sizes":[],"default_left":[1,1,0,1,0,1,0,1,1,0,1,0,0,0,0],"id":44,"left_children":[1,3,-1,5,-1,7,-1,9,11,-1,13,-1,-1,-1,-1],"loss_changes":[5.33168E-3,9.624446E-3,0E0,5.3781545E-4,0E0,5.619251E-4,0E0,2.796449E-4,7.322716E-5,0E0,1.9182115E-4,0E0,0E0,0E0,0E0],"parents":[2147483647,0,0,1,1,3,3,5,5,7,7,8,8,10,10],"right_children":[2,4,-1,6,-1,8,-1,10,12,-1,14,-1,-1,-1,-1],"split_conditions":[4.6313328E-1,2.6766616E-1,-3.7619553E-3,1.9006601E-1,5.435905E-3,1.5365453E-1,-1.0569503E-3,6.0729444E-2,1.670601E-1,-1.0749443E-3,1.3014054E-1,1.2295743E-3,1.4178731E-4,2.0557473E-4,-5.724869E-4],"split_indices":[9,6,0,6,0,6,0,11,11,0,20,0,0,0,0],"split_type":[0,0,0,0,0,0,0,0,0,0,0,0,0,0,0],"sum_hessian":[8.6E1,7.8E1,8E0,7E1,8E0,5.7E1,1.3E1,4.1E1,1.6E1,8E0,3.3E1,8E0,8E0,2.2E1,1.1E1],"tree_param":{"num_deleted":"0","num_feature":"31","num_nodes":"15","size_leaf_vector":"1"}},{"base_weights":[7.845168E-5,3.0129196E-3,-2.3271654E-2,4.7789206E-4,2.2901617E-2,-1.0398262E-3,1.3443449E-2,-0E0,-7.269056E-3,-5.185829E-4,2.3370357E-3,7.893846E-4,-1.2600843E-3],"categories":[],"categories_nodes":[],"categories_segments":[],"categories_sizes":[],"default_left":[1,1,0,1,0,1,0,1,0,1,0,0,0],"id":45,"left_children":[1,3,-1,5,-1,7,-1,9,-1,11,-1,-1,-1],"loss_changes":[5.652106E-3,3.587118E-3,0E0,1.5222316E-3,0E0,3.642328E-4,0E0,5.6623292E-5,0E0,4.9983424E-5,0E0,0E0,0E0],"parents":[2147483647,0,0,1,1,3,3,5,5,7,7,9,9],"right_children":[2,4,-1,6,-1,8,-1,10,-1,12,-1,-1,-1],"split_conditions":[4.2334834E-1,2.4229097E-1,-3.5992034E-3,2.5063318E-1,3.5419734E-3,1.9006601E-1,2.0791693E-3,1.6579562E-1,-1.1242351E-3,6.942098E-2,3.614469E-4,1.2208654E-4,-1.9488516E-4],"split_indices":[5,5,0,9,0,5,0,5,0,5,0,0,0],"split_type":[0,0,0,0,0,0,0,0,0,0,0,0,0],"sum_hessian":[8.6E1,7.7E1,9E0,6.9E1,8E0,6.1E1,8E0,5.3E1,8E0,4.5E1,8E0,1E1,3.5E1],"tree_param":{"num_deleted":"0","num_feature":"31","num_nodes":"13","size_leaf_vector":"1"}},{"base_weights":[1.6400472E-3,-2.6659109E-3,7.067291E-3,9.93408E-4,-1.8494679E-2,2.479767E-2,-2.8290183E-3,4.6330504E-3,-1.6014507E-3,1.0155004E-3,-1.1979444E-2,-3.5416745E-3,1.324762E-2,9.710551E-4,-5.836958E-3,-0E0,2.3761531E-3],"categories":[],"categories_nodes":[],"categories_segments":[],"categories_sizes":[],"default_left":[1,1,1,1,0,0,1,1,1,1,0,0,0,0,0,0,0],"id":46,"left_children":[1,3,5,7,-1,-1,9,11,13,15,-1,-1,-1,-1,-1,-1,-1],"loss_changes":[2.0023913E-3,2.8427022E-3,6.985803E-3,3.8143684E-4,0E0,0E0,9.921946E-4,1.3389924E-3,2.720182E-4,2.9335451E-5,0E0,0E0,0E0,0E0,0E0,0E0,0E0],"parents":[2147483647,0,0,1,1,2,2,3,3,6,6,7,7,8,8,9,9],"right_children":[2,4,6,8,-1,-1,10,12,14,16,-1,-1,-1,-1,-1,-1,-1],"split_conditions":[1.4409794E-1,1.2297404E-1,1.6954002E-1,6.633366E-2,-2.8603945E-3,3.8352178E-3,2.2334135E-1,2.5173854E-2,1.2717502E-1,2.586693E-1,-1.8527457E-3,-5.477568E-4,2.0488822E-3,1.5018378E-4,-9.027463E-4,-0E0,3.674968E-4],"split_indices":[15,15,17,30,0,0,6,30,8,17,0,0,0,0,0,0,0],"split_type":[0,0,0,0,0,0,0,0,0,0,0,0,0,0,0,0,0],"sum_hessian":[8.3E1,4.5E1,3.8E1,3.6E1,9E0,1.4E1,2.4E1,1.7E1,1.9E1,1.6E1,8E0,8E0,9E0,1E1,9E0,8E0,8E0],"tree_param":{"num_deleted":"0","num_feature":"31","num_nodes":"17","size_leaf_vector":"1"}},{"base_weights":[4.1880293E-4,3.11882E-3,-2.0073006E-2,3.2131962E-4,2.4203518E-2,7.889161E-3,-5.182472E-4,1.5810298E-5,-2.5459973E-3,2.1328889E-3,-1.761094E-3,-5.17562E-3,-0E0,3.058562E-4,3.3184525E-3,-0E0,-3.7189072E-3],"categories":[],"categories_nodes":[],"categories_segments":[],"categories_sizes":[],"default_left":[1,1,0,1,0,0,1,1,1,1,1,0,0,1,1,0,0],"id":47,"left_children":[1,3,-1,5,-1,-1,7,9,11,-1,15,-1,-1,-1,-1,-1,-1],"loss_changes":[4.3911436E-3,4.05671E-3,0E0,5.156867E-4,0E0,0E0,9.552574E-5,1.6010496E-4,1.0703304E-4,1.1894299E-6,9.475486E-5,0E0,0E0,0E0,0E0,0E0,0E0],"parents":[2147483647,0,0,1,1,3,3,6,6,7,7,8,8,9,9,10,10],"right_children":[2,4,-1,6,-1,-1,8,10,12,-1,16,-1,-1,-1,-1,-1,-1],"split_conditions":[3.34E2,2.92E2,-3.1044993E-3,3.55E1,3.7433258E-3,1.2201408E-3,1.5764853E-1,2.08E2,3.7220168E-1,3.2987347E-4,3.9951432E-2,-8.0046343E-4,-0E0,4.730384E-5,5.132332E-4,-0E0,-5.751677E-4],"split_indices":[0,0,0,0,0,0,25,0,24,10,28,0,0,2147483647,2147483647,0,0],"split_type":[0,0,0,0,0,0,0,0,0,0,0,0,0,0,0,0,0],"sum_hessian":[8.3E1,7.4E1,9E0,6.6E1,8E0,8E0,5.8E1,4.1E1,1.7E1,2.2E1,1.9E1,8E0,9E0,1.3E1,9E0,8E0,1.1E1],"tree_param":{"num_deleted":"2","num_feature":"31","num_nodes":"17","size_leaf_vector":"1"}},{"base_weights":[-2.072844E-3,8.504506E-4,-2.9869698E-2,-1.8059757E-3,6.44355E-3,3.329938E-4,-6.0542864E-3,1.9560553E-2,-0E0,-2.7042488E-3,4.705912E-3,-0E0,-1.2270042E-2,1.3479657E-3,-9.0420566E-4,-0E0,-5.1556784E-3],"categories":[],"categories_nodes":[],"categories_segments":[],"categories_sizes":[],"default_left":[1,1,0,1,1,1,1,0,1,1,0,0,0,0,0,0,0],"id":48,"left_children":[1,3,-1,5,7,9,11,-1,13,15,-1,-1,-1,-1,-1,-1,-1],"loss_changes":[6.9706943E-3,1.1481022E-3,0E0,5.113898E-4,2.0721997E-3,4.2795774E-4,5.6110206E-4,0E0,2.2274875E-5,9.842349E-5,0E0,0E0,0E0,0E0,0E0,0E0,0E0],"parents":[2147483647,0,0,1,1,3,3,4,4,5,5,6,6,8,8,9,9],"right_children":[2,4,-1,6,8,10,12,-1,14,16,-1,-1,-1,-1,-1,-1,-1],"split_conditions":[3.275E2,1.2670724E-1,-4.6196594E-3,9.886945E-2,1.5820445E-1,5.523175E-2,2.565E2,3.025243E-3,1.3E2,3.565225E-2,7.2781823E-4,-0E0,-1.8976897E-3,2.0847692E-4,-1.3984481E-4,-0E0,-7.973793E-4],"split_indices":[0,30,0,24,30,30,0,0,0,30,0,0,0,0,0,0,0],"split_type":[0,0,0,0,0,0,0,0,0,0,0,0,0,0,0,0,0],"sum_hessian":[8.1E1,7.3E1,8E0,4.8E1,2.5E1,3E1,1.8E1,8E0,1.7E1,1.6E1,1.4E1,1E1,8E0,8E0,9E0,8E0,8E0],"tree_param":{"num_deleted":"0","num_feature":"31","num_nodes":"17","size_leaf_vector":"1"}},{"base_weights":[1.1909098E-4,-4.4379025E-3,1.2253006E-2,4.3588763E-4,-3.4749553E-2,3.6554523E-2,-3.8090888E-3,-9.027632E-4,1.6663659E-3,1.0279204E-3,-4.226163E-3,5.0754775E-3,-0E0,-8.3027466E-4,1.0838168E-3],"categories":[],"categories_nodes":[],"categories_segments":[],"categories_sizes":[],"default_left":[1,1,1,1,0,0,0,1,1,0,0,0,1,0,0],"id":49,"left_children":[1,3,5,7,-1,-1,-1,9,11,-1,-1,-1,13,-1,-1],"loss_changes":[4.4293334E-3,8.738029E-3,9.085115E-3,8.934431E-5,0E0,0E0,0E0,1.5819832E-4,1.776208E-4,0E0,0E0,0E0,1.7938744E-5,0E0,0E0],"parents":[2147483647,0,0,1,1,2,2,3,3,7,7,8,8,12,12],"right_children":[2,4,6,8,-1,-1,-1,10,12,-1,-1,-1,14,-1,-1],"split_conditions":[1.5764853E-1,2.5704122E-1,1.7307025E-1,6.435254E-2,-5.37438E-3,5.6535373E-3,-5.891152E-4,4.0010292E-2,8.4512055E-2,1.5897858E-4,-6.5362005E-4,7.849754E-4,1.2741412E-1,-1.2841061E-4,1.6762354E-4],"split_indices":[24,6,26,24,0,0,0,24,26,0,0,0,24,0,0],"split_type":[0,0,0,0,0,0,0,0,0,0,0,0,0,0,0],"sum_hessian":[7.8E1,5.6E1,2.2E1,4.8E1,8E0,9E0,1.3E1,1.8E1,3E1,9E0,9E0,1E1,2E1,1.2E1,8E0],"tree_param":{"num_deleted":"0","num_feature":"31","num_nodes":"15","size_leaf_vector":"1"}},{"base_weights":[1.5242958E-3,-1.6827995E-2,3.497827E-3,3.6863136E-4,2.7065432E-2,5.0343433E-3,-4.330782E-3,-0E0,1.5364034E-2,-0E0,-8.360258E-3,1.7928301E-3,-9.597747E-4,-2.7481606E-3,3.7119463E-3,-1.5548192E-2,-0E0],"categories":[],"categories_nodes":[],"categories_segments":[],"categories_sizes":[],"default_left":[1,0,1,1,0,1,1,1,0,1,1,0,0,0,0,0,0],"id":50,"left_children":[1,-1,3,5,-1,7,9,11,-1,13,15,-1,-1,-1,-1,-1,-1],"loss_changes":[3.10192E-3,0E0,5.703552E-3,1.6159734E-3,0E0,1.8999779E-3,6.7892135E-4,4.977139E-5,0E0,1.737281E-4,1.1142974E-3,0E0,0E0,0E0,0E0,0E0,0E0],"parents":[2147483647,0,0,2,2,3,3,5,5,6,6,7,7,9,9,10,10],"right_children":[2,-1,4,6,-1,8,10,12,-1,14,16,-1,-1,-1,-1,-1,-1],"split_conditions":[4.1834626E-2,-2.6026245E-3,3.2255962E-1,1.415279E-1,4.1859504E-3,3.5E0,1.5080945E-1,9.635346E-2,2.3762076E-3,9.232718E-2,2.4220304E-1,2.7727982E-4,-1.4843914E-4,-4.2503164E-4,5.740911E-4,-2.4046896E-3,-0E0],"split_indices":[18,0,8,14,0,2,24,16,0,25,24,0,0,0,0,0,0],"split_type":[0,0,0,0,0,0,0,0,0,0,0,0,0,0,0,0,0],"sum_hessian":[9E1,8E0,8.2E1,7.3E1,9E0,3.8E1,3.5E1,2.6E1,1.2E1,1.6E1,1.9E1,1.1E1,1.5E1,8E0,8E0,1E1,9E0],"tree_param":{"num_deleted":"0","num_feature":"31","num_nodes":"17","size_leaf_vector":"1"}},{"base_weights":[2.674829E-5,3.8514065E-3,-1.1117235E-2,-0E0,2.742217E-2,-2.595379E-2,-0E0,5.3631663E-3,-1.5501835E-3,-4.5075985E-3,3.8973714E-4,-0E0,-8.446547E-3,-2.9852884E-4,3.0733573E-3],"categories":[],"categories_nodes":[],"categories_segments":[],"categories_sizes":[],"default_left":[1,1,1,1,0,0,0,0,1,1,1,0,0,0,0],"id":51,"left_children":[1,3,5,7,-1,-1,-1,-1,9,11,13,-1,-1,-1,-1],"loss_changes":[3.2433677E-3,5.2470956E-3,3.1199611E-3,4.4338344E-4,0E0,0E0,0E0,0E0,2.7781137E-4,3.5507875E-4,7.4888034E-5,0E0,0E0,0E0,0E0],"parents":[2147483647,0,0,1,1,2,2,3,3,8,8,9,9,10,10],"right_children":[2,4,6,8,-1,-1,-1,-1,10,12,14,-1,-1,-1,-1],"split_conditions":[1.6579562E-1,1.5685692E-1,1.8929763E-1,6.3471474E-2,4.241124E-3,-4.0140236E-3,-0E0,8.2946947E-4,1.2611157E-1,3.05E1,3.35E1,-0E0,-1.3063464E-3,-4.6170593E-5,4.7532667E-4],"split_indices":[26,27,27,20,0,0,0,0,16,4,4,0,0,0,0],"split_type":[0,0,0,0,0,0,0,0,0,0,0,0,0,0,0],"sum_hessian":[7.8E1,5.9E1,1.9E1,5.1E1,8E0,8E0,1.1E1,1.2E1,3.9E1,1.8E1,2.1E1,8E0,1E1,1.3E1,8E0],"tree_param":{"num_deleted":"0","num_feature":"31","num_nodes":"15","size_leaf_vector":"1"}},{"base_weights":[1.0129879E-4,-4.2229653E-3,7.0597287E-3,1.7789183E-3,-3.4574583E-2,2.8912108E-2,-1.1818242E-4,9.662632E-3,-8.9480425E-4,2.8490352E-3,-5.22949E-3,-6.400956E-3,6.990705E-4,-0E0,2.136776E-3],"categories":[],"categories_nodes":[],"categories_segments":[],"categories_sizes":[],"default_left":[1,1,1,1,0,0,1,0,1,0,0,0,1,0,0],"id":52,"left_children":[1,3,5,7,-1,-1,9,-1,11,-1,-1,-1,13,-1,-1],"loss_changes":[2.392176E-3,9.018983E-3,5.2560964E-3,9.39175E-4,0E0,0E0,3.837952E-4,0E0,3.2100524E-4,0E0,0E0,0E0,3.1907133E-5,0E0,0E0],"parents":[2147483647,0,0,1,1,2,2,3,3,6,6,8,8,12,12],"right_children":[2,4,6,8,-1,-1,10,-1,12,-1,-1,-1,14,-1,-1],"split_conditions":[1.3830611E-1,1.9497079E-1,1.5304506E-1,6.0729444E-2,-5.347319E-3,4.471558E-3,2.143064E-1,1.4944265E-3,8.958232E-2,4.4063292E-4,-8.0879504E-4,-9.899744E-4,2.355E2,-0E0,3.3047464E-4],"split_indices":[24,10,23,20,0,0,15,0,10,0,0,0,0,0,0],"split_type":[0,0,0,0,0,0,0,0,0,0,0,0,0,0,0],"sum_hessian":[7.8E1,4.7E1,3.1E1,3.9E1,8E0,8E0,2.3E1,1.1E1,2.8E1,1.3E1,1E1,8E0,2E1,1.1E1,9E0],"tree_param":{"num_deleted":"0","num_feature":"31","num_nodes":"15","size_leaf_vector":"1"}},{"base_weights":[1.3828017E-3,4.77568E-3,-1.4935984E-2,-7.7127956E-4,3.448849E-2,7.0050836E-4,-1.0314721E-2,7.053797E-3,-3.779171E-4,1.0562371E-3,-1.4244136E-3,-2.4936236E-3,-0E0],"categories":[],"categories_nodes":[],"categories_segments":[],"categories_sizes":[],"default_left":[1,1,0,1,0,1,0,0,1,0,1,0,0],"id":53,"left_children":[1,3,-1,5,-1,7,-1,-1,9,-1,11,-1,-1],"loss_changes":[3.984783E-3,1.0680026E-2,0E0,8.571561E-4,0E0,3.887343E-4,0E0,0E0,5.920113E-5,0E0,5.9779053E-5,0E0,0E0],"parents":[2147483647,0,0,1,1,3,3,5,5,8,8,10,10],"right_children":[2,4,-1,6,-1,8,-1,-1,10,-1,12,-1,-1],"split_conditions":[1.7307025E-1,3.2E2,-2.3100052E-3,2.855E2,5.334004E-3,3.9E1,-1.5952789E-3,1.0909431E-3,9.6239746E-2,1.6335807E-4,2.15E2,-3.8566484E-4,-0E0],"split_indices":[29,0,0,0,0,0,0,0,9,0,0,0,0],"split_type":[0,0,0,0,0,0,0,0,0,0,0,0,0],"sum_hessian":[7.4E1,6.2E1,1.2E1,5.2E1,1E1,4.4E1,8E0,8E0,3.6E1,1E1,2.6E1,1.8E1,8E0],"tree_param":{"num_deleted":"0","num_feature":"31","num_nodes":"13","size_leaf_vector":"1"}},{"base_weights":[1.398064E-3,-1.0699057E-3,2.1444209E-2,-2.02673E-3,2.0499658E-3,-0E0,-2.8711648E-3,-7.0231827E-3,-1.1996789E-3,1.3709059E-3,-3.2763951E-3,-0E0,-4.3375953E-3],"categories":[],"categories_nodes":[],"categories_segments":[],"categories_sizes":[],"default_left":[1,1,0,1,0,0,1,0,1,0,1,0,0],"id":54,"left_children":[1,3,-1,5,-1,-1,7,-1,9,-1,11,-1,-1],"loss_changes":[4.1315095E-3,2.0670885E-4,0E0,1.2504401E-4,0E0,0E0,1.9241215E-4,0E0,2.0210202E-4,0E0,2.032837E-5,0E0,0E0],"parents":[2147483647,0,0,1,1,3,3,6,6,8,8,10,10],"right_children":[2,4,-1,6,-1,-1,8,-1,10,-1,12,-1,-1],"split_conditions":[3.2E2,1.809965E-1,3.31657E-3,7.9948336E-2,3.1704854E-4,-0E0,1.1746891E-1,-1.0862083E-3,9.183055E-2,2.1202485E-4,1.2042515E-1,-0E0,-6.7085424E-4],"split_indices":[0,28,0,7,0,0,12,0,28,0,28,0,0],"split_type":[0,0,0,0,0,0,0,0,0,0,0,0,0],"sum_hessian":[7.8E1,6.9E1,9E0,5.6E1,1.3E1,1.3E1,4.3E1,1E1,3.3E1,1.2E1,2.1E1,8E0,1.3E1],"tree_param":{"num_deleted":"0","num_feature":"31","num_nodes":"13","size_leaf_vector":"1"}},{"base_weights":[-2.1836578E-3,7.9739705E-4,-2.6097028E-2,-5.092951E-4,1.2173004E-2,3.898785E-3,-1.978501E-3,-3.2340141E-3,2.020233E-3,-1.1702696E-3,-8.579061E-3,-3.4250256E-3,5.0564087E-4],"categories":[],"categories_nodes":[],"categories_segments":[],"categories_sizes":[],"default_left":[1,1,0,1,0,0,1,1,0,1,0,0,0],"id":55,"left_children":[1,3,-1,5,-1,-1,7,9,-1,11,-1,-1,-1],"loss_changes":[5.8991965E-3,1.1787517E-3,0E0,3.7240208E-4,0E0,0E0,2.5826728E-4,3.049104E-4,0E0,1.5171962E-4,0E0,0E0,0E0],"parents":[2147483647,0,0,1,1,3,3,6,6,7,7,9,9],"right_children":[2,4,-1,6,-1,-1,8,10,-1,12,-1,-1,-1],"split_conditions":[2.631896E-1,2.241013E-1,-4.036177E-3,6.2310472E-2,1.8826817E-3,6.0298765E-4,2.75378E-1,1.5264475E-1,3.1245005E-4,1.0212499E-1,-1.3268411E-3,-5.2971585E-4,7.820262E-5],"split_indices":[7,7,0,20,0,0,24,24,0,24,0,0,0],"split_type":[0,0,0,0,0,0,0,0,0,0,0,0,0],"sum_hessian":[7.8E1,6.9E1,9E0,6.1E1,8E0,1.3E1,4.8E1,3.9E1,9E0,3E1,9E0,1.6E1,1.4E1],"tree_param":{"num_deleted":"0","num_feature":"31","num_nodes":"13","size_leaf_vector":"1"}},{"base_weights":[-2.017317E-4,1.3820045E-3,-1.6195752E-2,-1.4541548E-4,1.53420735E-2,3.3798075E-4,-4.570885E-3,2.1096352E-3,-1.1572932E-3,3.018993E-3,-0E0,1.2949695E-3,-2.863852E-3,4.3976706E-4,5.8650747E-3,-4.937026E-3,-0E0],"categories":[],"categories_nodes":[],"categories_segments":[],"categories_sizes":[],"default_left":[1,1,0,1,0,1,0,1,1,1,0,0,1,0,0,0,0],"id":56,"left_children":[1,3,-1,5,-1,7,-1,9,11,13,-1,-1,15,-1,-1,-1,-1],"loss_changes":[2.274569E-3,1.7768152E-3,0E0,1.9618332E-4,0E0,1.6398718E-4,0E0,6.767172E-5,1.3431831E-4,8.106495E-5,0E0,0E0,1.1462082E-4,0E0,0E0,0E0,0E0],"parents":[2147483647,0,0,1,1,3,3,5,5,7,7,8,8,9,9,12,12],"right_children":[2,4,-1,6,-1,8,-1,10,12,14,-1,-1,16,-1,-1,-1,-1],"split_conditions":[4.491497E-1,3.025E2,-2.5048414E-3,2.278491E-1,2.3728113E-3,1.94E2,-7.0693495E-4,1.7333013E-1,7.225955E-2,1.1746891E-1,-0E0,2.002805E-4,1.1627717E-1,6.801455E-5,9.070948E-4,-7.6356245E-4,-0E0],"split_indices":[6,0,0,6,0,0,0,6,7,6,0,0,18,0,0,0,0],"split_type":[0,0,0,0,0,0,0,0,0,0,0,0,0,0,0,0,0],"sum_hessian":[8.2E1,7.4E1,8E0,6.6E1,8E0,5.7E1,9E0,3E1,2.7E1,2.2E1,8E0,8E0,1.9E1,1.4E1,8E0,1.1E1,8E0],"tree_param":{"num_deleted":"0","num_feature":"31","num_nodes":"17","size_leaf_vector":"1"}},{"base_weights":[-1.9298459E-3,9.295834E-5,-2.0896902E-2,-2.195789E-3,6.4282333E-3,-0E0,-1.0038287E-2,1.5584027E-2,-0E0,2.1836192E-3,-1.1188807E-3,-2.4706393E-3,-0E0],"categories":[],"categories_nodes":[],"categories_segments":[],"categories_sizes":[],"default_left":[1,1,0,1,1,1,0,0,0,0,1,0,0],"id":57,"left_children":[1,3,-1,5,7,9,-1,-1,-1,-1,11,-1,-1],"loss_changes":[3.2660824E-3,1.0735762E-3,0E0,7.804542E-4,1.1455584E-3,8.9624475E-5,0E0,0E0,0E0,0E0,5.5956712E-5,0E0,0E0],"parents":[2147483647,0,0,1,1,3,3,4,4,5,5,10,10],"right_children":[2,4,-1,6,8,10,-1,-1,-1,-1,12,-1,-1],"split_conditions":[3.265E2,1.8074629E-1,-3.2319233E-3,1.809965E-1,2.631896E-1,6.435254E-2,-1.5525256E-3,2.4102319E-3,-0E0,3.3771942E-4,9.633555E-2,-3.8211007E-4,-0E0],"split_indices":[0,21,0,5,21,19,0,0,0,0,30,0,0],"split_type":[0,0,0,0,0,0,0,0,0,0,0,0,0],"sum_hessian":[7.8E1,7E1,8E0,5E1,2E1,4E1,1E1,8E0,1.2E1,1.1E1,2.9E1,1.5E1,1.4E1],"tree_param":{"num_deleted":"0","num_feature":"31","num_nodes":"13","size_leaf_vector":"1"}},{"base_weights":[-0E0,-2.448268E-3,2.2952706E-2,-2.2884348E-4,-1.826995E-2,-8.035455E-4,2.6512037E-3,-0E0,-3.1640043E-3,-7.635576E-4,1.860896E-3,5.439279E-4,-2.1119767E-3],"categories":[],"categories_nodes":[],"categories_segments":[],"categories_sizes":[],"default_left":[1,1,0,1,0,1,0,1,0,1,0,0,0],"id":58,"left_children":[1,3,-1,5,-1,7,-1,9,-1,11,-1,-1,-1],"loss_changes":[4.771085E-3,2.5756655E-3,0E0,9.429181E-5,0E0,9.081637E-5,0E0,6.141438E-5,0E0,8.935349E-5,0E0,0E0,0E0],"parents":[2147483647,0,0,1,1,3,3,5,5,7,7,9,9],"right_children":[2,4,-1,6,-1,8,-1,10,-1,12,-1,-1,-1],"split_conditions":[3.7220168E-1,4.45E1,3.5498748E-3,3.2255962E-1,-2.8256378E-3,2.3433384E-1,4.1003624E-4,1.6932586E-1,-4.8934616E-4,8.049914E-2,2.8780694E-4,8.4124105E-5,-3.266392E-4],"split_indices":[7,4,0,23,0,14,0,20,0,7,0,0,0],"split_type":[0,0,0,0,0,0,0,0,0,0,0,0,0],"sum_hessian":[8.8E1,8E1,8E0,7.1E1,9E0,6.3E1,8E0,5E1,1.3E1,3.9E1,1.1E1,1.5E1,2.4E1],"tree_param":{"num_deleted":"0","num_feature":"31","num_nodes":"13","size_leaf_vector":"1"}},{"base_weights":[-6.4450497E-4,1.1658901E-3,-1.8249536E-2,-1.0491008E-3,1.20984325E-2,4.1479073E-3,-2.6575436E-3,-9.360179E-3,-9.245035E-4,-0E0,-3.7591048E-3,-1.7373503E-6,6.262436E-4],"categories":[],"categories_nodes":[],"categories_segments":[],"categories_sizes":[],"default_left":[1,1,0,1,0,0,1,0,1,1,0,1,1],"id":59,"left_children":[1,3,-1,5,-1,-1,7,-1,9,-1,-1,-1,-1],"loss_changes":[2.7772388E-3,1.8910053E-3,0E0,4.7681056E-4,0E0,0E0,4.1405452E-4,0E0,1.3815422E-4,5.9393915E-6,0E0,0E0,0E0],"parents":[2147483647,0,0,1,1,3,3,6,6,8,8,9,9],"right_children":[2,4,-1,6,-1,-1,8,-1,10,-1,-1,-1,-1],"split_conditions":[2.6766616E-1,2.0284605E-1,-2.8224806E-3,6.644683E-2,1.8711485E-3,6.41517E-4,7.926434E-2,-1.4476491E-3,1.4996031E-1,-0E0,-5.8138464E-4,-2.686993E-7,9.685509E-5],"split_indices":[10,8,0,10,0,0,19,0,23,21,0,2147483647,2147483647],"split_type":[0,0,0,0,0,0,0,0,0,0,0,0,0],"sum_hessian":[8E1,7.2E1,8E0,5.9E1,1.3E1,1.2E1,4.7E1,8E0,3.9E1,2.7E1,1.2E1,1.2E1,1.5E1],"tree_param":{"num_deleted":"2","num_feature":"31","num_nodes":"13","size_leaf_vector":"1"}},{"base_weights":[4.31967E-5,-3.1275335E-3,8.70147E-3,1.2147389E-3,-2.538733E-2,2.463843E-2,-0E0,1.7765578E-4,4.341422E-3,-1.76383E-4,1.5024705E-3,-1.1235587E-3,-0E0],"categories":[],"categories_nodes":[],"categories_segments":[],"categories_sizes":[],"default_left":[1,1,1,1,0,0,0,1,0,1,0,0,0],"id":60,"left_children":[1,3,5,7,-1,-1,-1,9,-1,11,-1,-1,-1],"loss_changes":[2.3307593E-3,6.0322452E-3,3.191695E-3,1.01103535E-4,0E0,0E0,0E0,3.592883E-5,0E0,1.5842155E-5,0E0,0E0,0E0],"parents":[2147483647,0,0,1,1,2,2,3,3,7,7,9,9],"right_children":[2,4,6,8,-1,-1,-1,10,-1,12,-1,-1,-1],"split_conditions":[1.5764853E-1,4.45E1,1.8929763E-1,2.327691E-1,-3.9264145E-3,3.8105894E-3,-0E0,3.45E1,6.714461E-4,1.0122627E-1,2.323727E-4,-1.7377005E-4,-0E0],"split_indices":[24,4,24,11,0,0,0,4,0,24,0,0,0],"split_type":[0,0,0,0,0,0,0,0,0,0,0,0,0],"sum_hessian":[8.2E1,5.9E1,2.3E1,4.9E1,1E1,8E0,1.5E1,4E1,9E0,2.4E1,1.6E1,1.3E1,1.1E1],"tree_param":{"num_deleted":"0","num_feature":"31","num_nodes":"13","size_leaf_vector":"1"}},{"base_weights":[2.5766154E-3,-4.1591417E-4,2.75523E-2,8.823447E-4,-3.5350537E-3,-1.2541696E-3,2.590931E-3,-5.9402143E-3,-0E0,-3.6606896E-3,-0E0,2.8575986E-4,5.8632907E-3,-1.4685033E-4,1.6318966E-3],"categories":[],"categories_nodes":[],"categories_segments":[],"categories_sizes":[],"default_left":[1,1,0,1,1,1,1,0,0,0,0,1,0,0,0],"id":61,"left_children":[1,3,-1,5,7,9,11,-1,-1,-1,-1,13,-1,-1,-1],"loss_changes":[6.415563E-3,3.267254E-4,0E0,1.9341533E-4,1.6209265E-4,8.060042E-5,1.480345E-4,0E0,0E0,0E0,0E0,3.0872314E-5,0E0,0E0,0E0],"parents":[2147483647,0,0,1,1,3,3,4,4,5,5,6,6,11,11],"right_children":[2,4,-1,6,8,10,12,-1,-1,-1,-1,14,-1,-1,-1],"split_conditions":[3.195E2,1.5685692E-1,4.2612497E-3,6.474431E-2,2.586693E-1,2.365E2,1.7752102E-1,-9.1871596E-4,-0E0,-5.6616374E-4,-0E0,1.00377984E-1,9.068189E-4,-2.271193E-5,2.523898E-4],"split_indices":[0,19,0,30,19,0,12,0,0,0,0,23,0,0,0],"split_type":[0,0,0,0,0,0,0,0,0,0,0,0,0,0,0],"sum_hessian":[8.1E1,7.2E1,9E0,4.8E1,2.4E1,1.8E1,3E1,1.3E1,1.1E1,8E0,1E1,2E1,1E1,8E0,1.2E1],"tree_param":{"num_deleted":"0","num_feature":"31","num_nodes":"15","size_leaf_vector":"1"}},{"base_weights":[-1.1485075E-3,1.4718455E-3,-2.7849738E-2,-0E0,1.4096074E-2,1.0582439E-3,-6.253221E-3,2.0803795E-3,-1.640609E-3,2.5399137E-4,6.2815626E-3,-2.0673198E-3,1.4231087E-3],"categories":[],"categories_nodes":[],"categories_segments":[],"categories_sizes":[],"default_left":[1,1,0,1,0,1,0,1,0,1,0,0,0],"id":62,"left_children":[1,3,-1,5,-1,7,-1,9,-1,11,-1,-1,-1],"loss_changes":[6.3725337E-3,1.4490042E-3,0E0,4.6402955E-4,0E0,1.72065E-4,0E0,2.7742214E-4,0E0,8.7514425E-5,0E0,0E0,0E0],"parents":[2147483647,0,0,1,1,3,3,5,5,7,7,9,9],"right_children":[2,4,-1,6,-1,8,-1,10,-1,12,-1,-1,-1],"split_conditions":[4.2334834E-1,2.5704122E-1,-4.3072514E-3,4.05E1,2.1801044E-3,2.3918185E-1,-9.671257E-4,1.4731973E-1,-2.5373726E-4,6.922118E-2,9.71509E-4,-3.1973253E-4,2.2009858E-4],"split_indices":[5,5,0,4,0,14,0,30,0,14,0,0,0],"split_type":[0,0,0,0,0,0,0,0,0,0,0,0,0],"sum_hessian":[8.6E1,7.8E1,8E0,7E1,8E0,6E1,1E1,4.7E1,1.3E1,3.5E1,1.2E1,8E0,2.7E1],"tree_param":{"num_deleted":"0","num_feature":"31","num_nodes":"13","size_leaf_vector":"1"}},{"base_weights":[1.0662008E-3,3.791683E-3,-7.374106E-3,-9.333765E-5,3.111607E-2,-2.004272E-2,-0E0,5.7739993E-3,-1.2343519E-3,-5.328492E-5,-4.1616294E-3,-3.5399897E-3,5.3859473E-4,-0E0,1.9967773E-3],"categories":[],"categories_nodes":[],"categories_segments":[],"categories_sizes":[],"default_left":[1,1,1,1,0,0,0,0,1,1,0,0,1,0,0],"id":63,"left_children":[1,3,5,7,-1,-1,-1,-1,9,11,-1,-1,13,-1,-1],"loss_changes":[2.0546243E-3,7.845795E-3,2.121921E-3,3.5196685E-4,0E0,0E0,0E0,0E0,1.2947585E-4,1.2380132E-4,0E0,0E0,4.3083783E-5,0E0,0E0],"parents":[2147483647,0,0,1,1,2,2,3,3,8,8,9,9,12,12],"right_children":[2,4,6,8,-1,-1,-1,-1,10,12,-1,-1,14,-1,-1],"split_conditions":[1.7525527E-1,4.65E1,2.4667956E-1,4.5E0,4.812424E-3,-3.099815E-3,-0E0,8.9300907E-4,1.2700166E-1,6.594189E-2,-6.436393E-4,-5.4749625E-4,3.45E1,-0E0,3.0882237E-4],"split_indices":[26,4,26,4,0,0,0,0,26,11,0,0,4,0,0],"split_type":[0,0,0,0,0,0,0,0,0,0,0,0,0,0,0],"sum_hessian":[9.1E1,7E1,2.1E1,6.1E1,9E0,8E0,1.3E1,8E0,5.3E1,4.1E1,1.2E1,9E0,3.2E1,1.9E1,1.3E1],"tree_param":{"num_deleted":"0","num_feature":"31","num_nodes":"15","size_leaf_vector":"1"}},{"base_weights":[1.4228008E-3,-1.367611E-3,8.326308E-3,4.738513E-4,-1.4712996E-2,-5.8030477E-4,2.9600846E-2,3.4659302E-3,-1.0031132E-3,-3.4257926E-3,1.3945037E-3,-0E0,8.147273E-3,-6.351608E-3,2.7417156E-4,-0E0,1.6378706E-3],"categories":[],"categories_nodes":[],"categories_segments":[],"categories_sizes":[],"default_left":[1,1,1,1,0,1,0,1,1,0,0,0,0,0,1,0,0],"id":64,"left_children":[1,3,5,7,-1,9,-1,11,13,-1,-1,-1,-1,-1,15,-1,-1],"loss_changes":[1.7506288E-3,1.6622578E-3,5.3298096E-3,2.62625E-4,0E0,1.2878324E-4,0E0,3.6500057E-4,2.980398E-4,0E0,0E0,0E0,0E0,0E0,2.5398691E-5,0E0,0E0],"parents":[2147483647,0,0,1,1,2,2,3,3,5,5,7,7,8,8,14,14],"right_children":[2,4,6,8,-1,10,-1,12,14,-1,-1,-1,-1,-1,16,-1,-1],"split_conditions":[1.5820445E-1,1.4181846E-1,2.241013E-1,7.347885E-2,-2.275518E-3,4.6313328E-1,4.5780786E-3,8.729333E-2,8.120111E-2,-5.298345E-4,2.1567452E-4,-0E0,1.2600606E-3,-9.823423E-4,1.5284926E-1,-0E0,2.5331372E-4],"split_indices":[24,25,7,17,0,24,0,6,21,0,0,0,0,0,17,0,0],"split_type":[0,0,0,0,0,0,0,0,0,0,0,0,0,0,0,0,0],"sum_hessian":[8.6E1,6E1,2.6E1,5.2E1,8E0,1.8E1,8E0,2E1,3.2E1,1E1,8E0,1.1E1,9E0,8E0,2.4E1,1.4E1,1E1],"tree_param":{"num_deleted":"0","num_feature":"31","num_nodes":"17","size_leaf_vector":"1"}},{"base_weights":[7.881249E-4,2.9753654E-3,-6.7236107E-3,-2.0850704E-4,2.4928045E-2,2.7921381E-3,-2.0036614E-2,1.980672E-4,-4.337696E-3,8.201237E-4,-1.0594514E-3,-1.045105E-3,1.836973E-3,4.0392415E-3,-0E0],"categories":[],"categories_nodes":[],"categories_segments":[],"categories_sizes":[],"default_left":[1,1,1,1,0,0,0,1,0,1,0,0,1,0,0],"id":65,"left_children":[1,3,5,7,-1,-1,-1,9,-1,11,-1,-1,13,-1,-1],"loss_changes":[1.3700147E-3,5.081714E-3,2.5285396E-3,1.5267734E-4,0E0,0E0,0E0,3.7053906E-5,0E0,8.8502245E-5,0E0,0E0,7.673056E-5,0E0,0E0],"parents":[2147483647,0,0,1,1,2,2,3,3,7,7,9,9,12,12],"right_children":[2,4,6,8,-1,-1,-1,10,-1,12,-1,-1,14,-1,-1],"split_conditions":[1.7752102E-1,3.2E2,1.23E2,2.92E2,3.8553814E-3,4.318332E-4,-3.0988706E-3,2.4220304E-1,-6.708698E-4,4.693766E-2,-1.6385518E-4,-1.6163637E-4,1.725E2,6.247107E-4,-0E0],"split_indices":[26,0,0,0,0,0,0,14,0,20,0,0,0,0,0],"split_type":[0,0,0,0,0,0,0,0,0,0,0,0,0,0,0],"sum_hessian":[8.6E1,6.8E1,1.8E1,5.9E1,9E0,1E1,8E0,5.1E1,8E0,4.1E1,1E1,1E1,3.1E1,1.1E1,2E1],"tree_param":{"num_deleted":"0","num_feature":"31","num_nodes":"15","size_leaf_vector":"1"}},{"base_weights":[-1.069529E-3,1.0055206E-3,-2.1775715E-2,-1.0277763E-3,1.5316706E-2,-2.480398E-4,-4.9007586E-3,4.010052E-4,-4.086727E-3,-2.93237E-5,1.2722563E-3,1.9187671E-4,-1.7296039E-3,-0E0,2.0009144E-3],"categories":[],"categories_nodes":[],"categories_segments":[],"categories_sizes":[],"default_left":[1,1,0,1,0,1,0,1,0,1,1,0,0,1,1],"id":66,"left_children":[1,3,-1,5,-1,7,-1,9,-1,11,-1,-1,-1,-1,-1],"loss_changes":[3.8428043E-3,2.3727336E-3,0E0,1.3031022E-4,0E0,1.9003125E-4,0E0,3.3297587E-5,0E0,2.778474E-5,1.1926106E-5,0E0,0E0,0E0,0E0],"parents":[2147483647,0,0,1,1,3,3,5,5,7,7,9,9,10,10],"right_children":[2,4,-1,6,-1,8,-1,10,-1,12,-1,-1,-1,-1,-1],"split_conditions":[4.2334834E-1,3.2E2,-3.3678408E-3,2.85E2,2.368888E-3,1.9770962E-1,-7.579533E-4,9.886945E-2,-6.320548E-4,8.799529E-2,1.9676767E-4,2.967573E-5,-2.6750122E-4,-0E0,3.0946222E-4],"split_indices":[9,0,0,0,0,9,0,6,0,9,23,0,0,2147483647,2147483647],"split_type":[0,0,0,0,0,0,0,0,0,0,0,0,0,0,0],"sum_hessian":[8.3E1,7.5E1,8E0,6.5E1,1E1,5.7E1,8E0,4.6E1,1.1E1,2.1E1,2.5E1,1.2E1,9E0,1.2E1,1.3E1],"tree_param":{"num_deleted":"2","num_feature":"31","num_nodes":"15","size_leaf_vector":"1"}},{"base_weights":[-1.2521985E-3,-1.3005745E-2,1.657086E-4,3.0610973E-3,-9.645982E-3,-0E0,1.9479858E-2,-0E0,-1.9485842E-2,2.426071E-3,-2.310149E-3,-0E0,6.2142923E-3,-8.986852E-3,6.953636E-4,7.111491E-4,-1.9839976E-4,-0E0,1.3116816E-3],"categories":[],"categories_nodes":[],"categories_segments":[],"categories_sizes":[],"default_left":[1,0,1,1,1,1,0,0,0,1,1,1,0,0,1,1,1,1,1],"id":67,"left_children":[1,-1,3,5,7,9,-1,-1,-1,11,13,-1,-1,-1,-1,-1,-1,-1,-1],"loss_changes":[1.5844796E-3,0E0,2.0542957E-3,2.9157852E-3,1.5902634E-3,2.82186E-4,0E0,0E0,0E0,2.0513851E-4,6.121515E-4,4.4394883E-6,0E0,0E0,6.206227E-6,0E0,0E0,0E0,0E0],"parents":[2147483647,0,0,2,2,3,3,4,4,5,5,9,9,10,10,11,11,14,14],"right_children":[2,-1,4,6,8,10,-1,-1,-1,12,14,-1,-1,-1,-1,-1,-1,-1,-1],"split_conditions":[5.1754855E-2,-2.0114738E-3,1.6579562E-1,1.4731973E-1,2.07335E-1,9.1555566E-2,3.0127626E-3,-0E0,-3.0136884E-3,1.277124E-1,1.04861304E-1,-0E0,9.6110493E-4,-1.3899102E-3,1.0754522E-4,1.0998661E-4,-3.0684587E-5,-0E0,2.0286521E-4],"split_indices":[17,0,29,29,5,27,0,0,0,5,29,29,0,0,17,2147483647,2147483647,2147483647,2147483647],"split_type":[0,0,0,0,0,0,0,0,0,0,0,0,0,0,0,0,0,0,0],"sum_hessian":[8.5E1,1E1,7.5E1,5.9E1,1.6E1,5E1,9E0,8E0,8E0,2.5E1,2.5E1,1.6E1,9E0,9E0,1.6E1,8E0,8E0,8E0,8E0],"tree_param":{"num_deleted":"4","num_feature":"31","num_nodes":"19","size_leaf_vector":"1"}},{"base_weights":[-4.8124304E-4,1.9589586E-3,-2.306885E-2,3.1201923E-3,-3.074722E-3,1.1079069E-3,1.2698525E-2,3.4696374E-3,-0E0,-0E0,5.5001355E-3,-1.7455013E-3,8.2061545E-4,1.9692143E-3,-0E0],"categories":[],"categories_nodes":[],"categories_segments":[],"categories_sizes":[],"default_left":[1,1,0,1,0,1,0,1,1,0,0,0,1,0,0],"id":68,"left_children":[1,3,-1,5,-1,7,-1,9,11,-1,-1,-1,13,-1,-1],"loss_changes":[4.585315E-3,4.119844E-4,0E0,9.6030475E-4,0E0,1.3280257E-4,0E0,5.2028132E-5,4.9540216E-5,0E0,0E0,0E0,4.3141434E-5,0E0,0E0],"parents":[2147483647,0,0,1,1,3,3,5,5,7,7,8,8,12,12],"right_children":[2,4,-1,6,-1,8,-1,10,12,-1,-1,-1,14,-1,-1],"split_conditions":[3.34E2,2.5740218E-1,-3.5678379E-3,1.6579562E-1,-4.7553773E-4,5.7002828E-2,1.9639588E-3,7.368459E-2,9.183055E-2,-0E0,8.5065316E-4,-2.6995994E-4,1.5080945E-1,3.0455948E-4,-0E0],"split_indices":[0,22,0,24,0,26,0,11,26,0,0,0,23,0,0],"split_type":[0,0,0,0,0,0,0,0,0,0,0,0,0,0,0],"sum_hessian":[7.8E1,7E1,8E0,5.9E1,1.1E1,5E1,9E0,1.6E1,3.4E1,8E0,8E0,1.1E1,2.3E1,1.5E1,8E0],"tree_param":{"num_deleted":"0","num_feature":"31","num_nodes":"15","size_leaf_vector":"1"}},{"base_weights":[1.4129967E-3,-1.2092358E-2,3.411114E-3,8.421487E-4,2.0742038E-2,-0E0,3.4707754E-3,9.095794E-4,-1.037012E-3,-0E0,1.516844E-3,-0E0,-2.6910414E-3],"categories":[],"categories_nodes":[],"categories_segments":[],"categories_sizes":[],"default_left":[1,0,1,1,0,1,0,1,1,1,1,0,0],"id":69,"left_children":[1,-1,3,5,-1,7,-1,-1,11,-1,-1,-1,-1],"loss_changes":[1.9760288E-3,0E0,2.7537388E-3,1.3977868E-4,0E0,4.2962158E-5,0E0,1.1094706E-5,4.2407206E-5,0E0,0E0,0E0,0E0],"parents":[2147483647,0,0,2,2,3,3,5,5,7,7,8,8],"right_children":[2,-1,4,6,-1,8,-1,-1,12,-1,-1,-1,-1],"split_conditions":[5.1754855E-2,-1.870209E-3,3.125E2,1.9770962E-1,3.207972E-3,1.2700166E-1,5.367915E-4,1.4067591E-4,1.0046721E-1,-0E0,2.345957E-4,-0E0,-4.1619755E-4],"split_indices":[17,0,0,11,0,11,0,11,26,2147483647,2147483647,0,0],"split_type":[0,0,0,0,0,0,0,0,0,0,0,0,0],"sum_hessian":[7.7E1,9E0,6.8E1,6E1,8E0,4.5E1,1.5E1,2.3E1,2.2E1,1E1,1.3E1,1.3E1,9E0],"tree_param":{"num_deleted":"2","num_feature":"31","num_nodes":"13","size_leaf_vector":"1"}},{"base_weights":[-7.566209E-4,6.8848906E-4,-1.618853E-2,-5.601571E-4,6.737685E-3,6.3878474E-7,-5.927E-3,3.4707517E-3,-3.2593627E-4,1.4334302E-3,-1.0194683E-3,-4.4322563E-3,-0E0],"categories":[],"categories_nodes":[],"categories_segments":[],"categories_sizes":[],"default_left":[1,1,0,1,0,1,0,0,1,0,1,0,0],"id":70,"left_children":[1,3,-1,5,-1,7,-1,-1,9,-1,11,-1,-1],"loss_changes":[2.1221226E-3,6.702736E-4,0E0,2.6629487E-4,0E0,1.03116996E-4,0E0,0E0,5.2409574E-5,0E0,1.193129E-4,0E0,0E0],"parents":[2147483647,0,0,1,1,3,3,5,5,8,8,10,10],"right_children":[2,4,-1,6,-1,8,-1,-1,10,-1,12,-1,-1],"split_conditions":[4.491497E-1,1.9770962E-1,-2.5037245E-3,1.7752102E-1,1.0420531E-3,5.4189645E-2,-9.1667223E-4,5.3678785E-4,6.94852E-2,2.2169489E-4,8.478704E-2,-6.8549457E-4,-0E0],"split_indices":[9,8,0,8,0,13,0,0,7,0,18,0,0],"split_type":[0,0,0,0,0,0,0,0,0,0,0,0,0],"sum_hessian":[8.6E1,7.8E1,8E0,6.3E1,1.5E1,5.5E1,8E0,8E0,4.7E1,8E0,3.9E1,8E0,3.1E1],"tree_param":{"num_deleted":"0","num_feature":"31","num_nodes":"13","size_leaf_vector":"1"}},{"base_weights":[1.2068971E-3,-6.424334E-4,1.8692717E-2,5.846688E-4,-7.5692623E-3,2.30132E-3,-0E0,-1.1275208E-3,1.7042577E-3,-2.9185829E-3,-0E0,3.2099064E-3,-0E0],"categories":[],"categories_nodes":[],"categories_segments":[],"categories_sizes":[],"default_left":[1,1,0,1,0,0,1,1,1,0,0,0,0],"id":71,"left_children":[1,3,-1,5,-1,-1,7,9,11,-1,-1,-1,-1],"loss_changes":[2.7609295E-3,6.8672514E-4,0E0,5.503394E-5,0E0,0E0,8.5937856E-5,7.872836E-5,5.1822666E-5,0E0,0E0,0E0,0E0],"parents":[2147483647,0,0,1,1,3,3,6,6,7,7,8,8],"right_children":[2,4,-1,6,-1,-1,8,10,12,-1,-1,-1,-1],"split_conditions":[3.38674E-1,2.2334135E-1,2.8910232E-3,7.9948336E-2,-1.1706651E-3,3.5592308E-4,1.5080945E-1,1.2843934E-1,1.8939857E-1,-4.513892E-4,-0E0,4.964454E-4,-0E0],"split_indices":[9,7,0,7,0,0,7,17,15,0,0,0,0],"split_type":[0,0,0,0,0,0,0,0,0,0,0,0,0],"sum_hessian":[7.8E1,7E1,8E0,5.8E1,1.2E1,1.4E1,4.4E1,2.6E1,1.8E1,1.3E1,1.3E1,1E1,8E0],"tree_param":{"num_deleted":"0","num_feature":"31","num_nodes":"13","size_leaf_vector":"1"}},{"base_weights":[-7.6304335E-5,2.2616237E-3,-2.1790255E-2,3.5722565E-3,-1.0696922E-3,1.2900704E-3,1.1001943E-2,-0E0,-3.0030143E-3,3.0563173E-3,-0E0,-0E0,5.633211E-3,-5.5129797E-4,4.993968E-4],"categories":[],"categories_nodes":[],"categories_segments":[],"categories_sizes":[],"default_left":[1,1,0,1,1,1,0,0,0,1,1,0,0,1,1],"id":72,"left_children":[1,3,-1,5,7,9,-1,-1,-1,11,-1,-1,-1,-1,-1],"loss_changes":[4.225425E-3,3.390096E-4,0E0,7.409146E-4,6.284791E-5,9.000716E-5,0E0,0E0,0E0,1.3003318E-4,6.860165E-6,0E0,0E0,0E0,0E0],"parents":[2147483647,0,0,1,1,3,3,4,4,5,5,9,9,10,10],"right_children":[2,4,-1,6,8,10,-1,-1,-1,12,-1,-1,-1,-1,-1],"split_conditions":[3.34E2,2.0932373E-1,-3.3700897E-3,1.5444615E-1,1.5441215E-1,7.5916454E-2,1.7015649E-3,-0E0,-4.644474E-4,3.9951432E-2,-0E0,-0E0,8.7123475E-4,-8.5263964E-5,7.723692E-5],"split_indices":[0,15,0,13,24,21,0,0,0,27,27,0,0,2147483647,2147483647],"split_type":[0,0,0,0,0,0,0,0,0,0,0,0,0,0,0],"sum_hessian":[7.8E1,7E1,8E0,5.3E1,1.7E1,4.2E1,1.1E1,8E0,9E0,1.7E1,2.5E1,8E0,9E0,1E1,1.5E1],"tree_param":{"num_deleted":"2","num_feature":"31","num_nodes":"15","size_leaf_vector":"1"}},{"base_weights":[8.958887E-5,3.033306E-3,-5.4306523E-3,2.94204E-4,1.7927865E-2,-1.647556E-2,-0E0,2.9146692E-3,-3.9556384E-4,1.334728E-3,-2.094425E-3,-6.7809317E-3,1.671178E-3,2.528949E-3,-0E0],"categories":[],"categories_nodes":[],"categories_segments":[],"categories_sizes":[],"default_left":[1,1,1,1,0,0,1,0,1,0,0,0,1,0,0],"id":73,"left_children":[1,3,5,7,-1,-1,9,-1,11,-1,-1,-1,13,-1,-1],"loss_changes":[1.3551342E-3,2.0961557E-3,1.6521643E-3,1.2140638E-4,0E0,0E0,5.5580225E-5,0E0,5.311762E-4,0E0,0E0,0E0,3.942431E-5,0E0,0E0],"parents":[2147483647,0,0,1,1,2,2,3,3,6,6,8,8,12,12],"right_children":[2,4,6,8,-1,-1,10,-1,12,-1,-1,-1,14,-1,-1],"split_conditions":[1.5764853E-1,1.5689093E-1,1.7550549E-1,5.4189645E-2,2.7727308E-3,-2.5481167E-3,2.4064428E-1,4.5078393E-4,7.347885E-2,2.0642957E-4,-3.239246E-4,-1.0487416E-3,1.6569287E-1,3.9112827E-4,-0E0],"split_indices":[18,21,16,21,0,0,12,0,21,0,0,0,30,0,0],"split_type":[0,0,0,0,0,0,0,0,0,0,0,0,0,0,0],"sum_hessian":[8.5E1,5.7E1,2.8E1,4.9E1,8E0,9E0,1.9E1,1.4E1,3.5E1,1.1E1,8E0,1E1,2.5E1,1.7E1,8E0],"tree_param":{"num_deleted":"0","num_feature":"31","num_nodes":"15","size_leaf_vector":"1"}},{"base_weights":[-5.7973573E-4,8.304481E-4,-1.1868615E-2,1.784799E-5,2.6867061E-3,1.2231598E-3,-1.004142E-3,6.3412865E-3,-0E0,-0E0,1.9606918E-3,-1.8019901E-3,-0E0,3.4954294E-3,-0E0],"categories":[],"categories_nodes":[],"categories_segments":[],"categories_sizes":[],"default_left":[1,1,0,1,1,1,1,0,0,0,1,0,0,0,0],"id":74,"left_children":[1,3,-1,5,7,9,11,-1,-1,-1,13,-1,-1,-1,-1],"loss_changes":[1.4511294E-3,7.401871E-5,0E0,7.092308E-5,2.0374764E-4,3.8534272E-5,2.8078808E-5,0E0,0E0,0E0,6.3250794E-5,0E0,0E0,0E0,0E0],"parents":[2147483647,0,0,1,1,3,3,4,4,5,5,6,6,10,10],"right_children":[2,4,-1,6,8,10,12,-1,-1,-1,14,-1,-1,-1,-1],"split_conditions":[3.135E2,1.7777126E-1,-1.8356048E-3,1.2670724E-1,3.2255962E-1,2.9266797E-2,2.285E2,9.807459E-4,-0E0,-0E0,1.05031215E-1,-2.786965E-4,-0E0,5.406045E-4,-0E0],"split_indices":[0,22,0,13,20,26,0,0,0,0,22,0,0,0,0],"split_type":[0,0,0,0,0,0,0,0,0,0,0,0,0,0,0],"sum_hessian":[8.2E1,7.2E1,1E1,5.5E1,1.7E1,3.1E1,2.4E1,8E0,9E0,9E0,2.2E1,1.6E1,8E0,1.2E1,1E1],"tree_param":{"num_deleted":"0","num_feature":"31","num_nodes":"15","size_leaf_vector":"1"}},{"base_weights":[-1.1518998E-3,3.8898567E-4,-1.673897E-2,-4.86015E-4,3.5784887E-3,2.1755761E-4,-2.6315541E-3,6.5096626E-3,-0E0,-2.2664925E-4,2.4113075E-3,-0E0,-4.7252956E-3,7.15987E-4,-1.9432978E-3],"categories":[],"categories_nodes":[],"categories_segments":[],"categories_sizes":[],"default_left":[1,1,0,1,1,1,1,0,0,1,0,0,0,0,0],"id":75,"left_children":[1,3,-1,5,7,9,11,-1,-1,13,-1,-1,-1,-1,-1],"loss_changes":[2.1842343E-3,2.4696236E-4,0E0,1.1438392E-4,2.2709733E-4,6.43831E-5,1.0085736E-4,0E0,0E0,5.8297734E-5,0E0,0E0,0E0,0E0,0E0],"parents":[2147483647,0,0,1,1,3,3,4,4,5,5,6,6,9,9],"right_children":[2,4,-1,6,8,10,12,-1,-1,14,-1,-1,-1,-1,-1],"split_conditions":[3.305E2,1.5764853E-1,-2.5888558E-3,1.04861304E-1,2.3574573E-1,9.63765E-2,1.2694634E-1,1.0067871E-3,-0E0,7.347885E-2,3.729338E-4,-0E0,-7.308161E-4,1.10734836E-4,-3.005512E-4],"split_indices":[0,27,0,27,22,22,18,0,0,7,0,0,0,0,0],"split_type":[0,0,0,0,0,0,0,0,0,0,0,0,0,0,0],"sum_hessian":[8.2E1,7.4E1,8E0,5.5E1,1.9E1,3.7E1,1.8E1,1.1E1,8E0,2.6E1,1.1E1,8E0,1E1,1.2E1,1.4E1],"tree_param":{"num_deleted":"0","num_feature":"31","num_nodes":"15","size_leaf_vector":"1"}},{"base_weights":[-3.875809E-4,-3.0500921E-3,5.714251E-3,2.6401722E-5,-2.4272896E-2,-1.0368949E-3,2.0575227E-2,-7.620207E-5,1.9170551E-3,-3.4670047E-3,-0E0,5.905496E-4,-1.7086621E-3,-1.7681603E-5,3.4401624E-3,-0E0,-2.525595E-3,-0E0,-1.2880543E-3],"categories":[],"categories_nodes":[],"categories_segments":[],"categories_sizes":[],"default_left":[1,1,1,1,0,1,0,1,0,0,0,1,1,1,0,1,1,0,0],"id":76,"left_children":[1,3,5,7,-1,9,-1,11,-1,-1,-1,13,-1,17,-1,-1,-1,-1,-1],"loss_changes":[1.3352669E-3,4.2389855E-3,2.6768374E-3,3.3820845E-5,0E0,8.053924E-5,0E0,6.149168E-5,0E0,0E0,0E0,8.76232E-5,1.1734392E-5,1.5166001E-5,0E0,0E0,0E0,0E0,0E0],"parents":[2147483647,0,0,1,1,2,2,3,3,5,5,7,7,11,11,12,12,13,13],"right_children":[2,4,6,8,-1,10,-1,12,-1,-1,-1,14,-1,18,-1,-1,-1,-1,-1],"split_conditions":[1.6102104E-1,2.6282865E-1,2.3744297E-1,1.3182135E-1,-3.754056E-3,3.2255962E-1,3.182173E-3,7.5916454E-2,2.964925E-4,-5.3620833E-4,-0E0,5.1754855E-2,-2.6426237E-4,7.347885E-2,5.320569E-4,-0E0,-3.9060955E-4,-0E0,-1.9921099E-4],"split_indices":[25,6,6,30,0,25,0,30,0,0,0,30,8,6,0,2147483647,2147483647,0,0],"split_type":[0,0,0,0,0,0,0,0,0,0,0,0,0,0,0,0,0,0,0],"sum_hessian":[8.4E1,6E1,2.4E1,5.2E1,8E0,1.6E1,8E0,4.3E1,9E0,8E0,8E0,2.5E1,1.8E1,1.7E1,8E0,8E0,1E1,8E0,9E0],"tree_param":{"num_deleted":"2","num_feature":"31","num_nodes":"19","size_leaf_vector":"1"}},{"base_weights":[1.6780548E-3,-0E0,1.5953954E-2,2.9900626E-3,-4.9200753E-4,-0E0,-2.927109E-3,-1.0604365E-3,7.283174E-4,-1.7592445E-3,-0E0,-0E0,2.0144356E-3],"categories":[],"categories_nodes":[],"categories_segments":[],"categories_sizes":[],"default_left":[1,1,0,0,1,1,0,1,1,0,0,0,0],"id":77,"left_children":[1,3,-1,-1,5,7,-1,9,11,-1,-1,-1,-1],"loss_changes":[1.8444966E-3,1.2337821E-4,0E0,0E0,6.3547785E-5,4.148604E-5,0E0,2.0844604E-5,4.5995755E-5,0E0,0E0,0E0,0E0],"parents":[2147483647,0,0,1,1,4,4,5,5,7,7,8,8],"right_children":[2,4,-1,-1,6,8,-1,10,12,-1,-1,-1,-1],"split_conditions":[2.9409587E-1,5.0129905E-2,2.467445E-3,4.624443E-4,2.3433384E-1,1.2700166E-1,-4.5270784E-4,1.3182135E-1,9.635346E-2,-2.7208545E-4,-0E0,-0E0,3.1155342E-4],"split_indices":[6,21,0,0,10,16,0,30,30,0,0,0,0],"split_type":[0,0,0,0,0,0,0,0,0,0,0,0,0],"sum_hessian":[8.1E1,7.3E1,8E0,1.2E1,6.1E1,5.2E1,9E0,2.3E1,2.9E1,1.5E1,8E0,1.4E1,1.5E1],"tree_param":{"num_deleted":"0","num_feature":"31","num_nodes":"13","size_leaf_vector":"1"}},{"base_weights":[-2.333483E-3,2.2215294E-4,-2.6510011E-2,1.1688417E-3,-1.5912852E-3,4.4709817E-3,2.6433822E-4,-3.9417567E-3,-0E0,-0E0,5.2168255E-4,9.5540186E-4,-0E0,1.6351956E-3,-0E0],"categories":[],"categories_nodes":[],"categories_segments":[],"categories_sizes":[],"default_left":[1,1,0,1,1,0,1,0,0,0,1,1,0,0,0],"id":78,"left_children":[1,3,-1,5,7,-1,9,-1,-1,-1,11,13,-1,-1,-1],"loss_changes":[5.2909045E-3,1.1868825E-4,0E0,9.4649695E-5,1.06608946E-4,0E0,6.752224E-6,0E0,0E0,0E0,1.4027635E-5,1.6629694E-5,0E0,0E0,0E0],"parents":[2147483647,0,0,1,1,3,3,4,4,6,6,10,10,11,11],"right_children":[2,4,-1,6,8,-1,10,-1,-1,-1,12,14,-1,-1,-1],"split_conditions":[3.025E2,1.5689093E-1,-4.100049E-3,4.25E1,3.0151093E-1,6.9148385E-4,2.312002E-2,-6.096337E-4,-0E0,-0E0,1.5548983E-1,1.0494702E-1,-0E0,2.529E-4,-0E0],"split_indices":[0,25,0,0,24,0,25,0,0,0,14,28,0,0,0],"split_type":[0,0,0,0,0,0,0,0,0,0,0,0,0,0,0],"sum_hessian":[8E1,7.2E1,8E0,5.2E1,2E1,8E0,4.4E1,1E1,1E1,8E0,3.6E1,2.6E1,1E1,1.5E1,1.1E1],"tree_param":{"num_deleted":"0","num_feature":"31","num_nodes":"15","size_leaf_vector":"1"}},{"base_weights":[9.714955E-5,-9.222541E-3,1.2476594E-3,4.5916336E-3,-3.561322E-3,9.09231E-4,1.847267E-2,-1.3533818E-2,1.6737146E-4,3.8295502E-3,-0E0,1.5664439E-3,-5.1385665E-4,-0E0,-4.8650085E-4],"categories":[],"categories_nodes":[],"categories_segments":[],"categories_sizes":[],"default_left":[1,0,1,1,1,1,0,0,1,0,1,0,0,1,1],"id":79,"left_children":[1,-1,3,5,7,9,-1,-1,11,-1,-1,-1,-1,-1,-1],"loss_changes":[8.120095E-4,0E0,1.2561855E-3,2.1580216E-3,1.293201E-3,1.3190399E-4,0E0,0E0,3.3811277E-5,0E0,3.8211115E-6,0E0,0E0,0E0,6.9498674E-7],"parents":[2147483647,0,0,2,2,3,3,4,4,5,5,8,8,10,10],"right_children":[2,-1,4,6,8,10,-1,-1,12,-1,-1,-1,-1,-1,-1],"split_conditions":[4.1834626E-2,-1.426362E-3,1.5764853E-1,1.3536558E-1,1.8939857E-1,7.5916454E-2,2.8569906E-3,-2.0931456E-3,2.631896E-1,5.922798E-4,-0E0,2.4226685E-4,-7.947328E-5,-0E0,-7.524242E-5],"split_indices":[18,0,18,17,17,15,0,0,21,0,17,0,0,2147483647,2147483647],"split_type":[0,0,0,0,0,0,0,0,0,0,0,0,0,0,0],"sum_hessian":[8.5E1,8E0,7.7E1,4.7E1,3E1,3.8E1,9E0,9E0,2.1E1,1.1E1,2.7E1,1.3E1,8E0,1.1E1,1.6E1],"tree_param":{"num_deleted":"2","num_feature":"31","num_nodes":"15","size_leaf_vector":"1"}},{"base_weights":[-2.0048703E-4,1.6469177E-3,-4.2632157E-3,-7.5524545E-4,1.4055383E-2,-1.3614403E-2,-0E0,5.0611136E-4,-8.384022E-3,2.0845963E-3,-1.377666E-3,1.5304657E-3,-0E0,-0E0,3.98042E-3],"categories":[],"categories_nodes":[],"categories_segments":[],"categories_sizes":[],"default_left":[1,1,1,1,0,0,1,1,0,0,0,1,0,0,0],"id":80,"left_children":[1,3,5,7,-1,-1,9,11,-1,-1,-1,13,-1,-1,-1],"loss_changes":[6.812325E-4,1.875965E-3,1.1652363E-3,5.556221E-4,0E0,0E0,5.8441598E-5,2.7788694E-5,0E0,0E0,0E0,9.122263E-5,0E0,0E0,0E0],"parents":[2147483647,0,0,1,1,2,2,3,3,6,6,7,7,11,11],"right_children":[2,4,6,8,-1,-1,10,12,-1,-1,-1,14,-1,-1,-1],"split_conditions":[1.7995626E-1,1.5000418E-1,2.0932373E-1,1.7995626E-1,2.1738112E-3,-2.105609E-3,2.6282865E-1,7.856237E-2,-1.2966762E-3,3.2240452E-4,-2.1307038E-4,3.4736242E-2,-0E0,-0E0,6.1561336E-4],"split_indices":[13,13,13,5,0,0,13,18,0,0,0,21,0,0,0],"split_type":[0,0,0,0,0,0,0,0,0,0,0,0,0,0,0],"sum_hessian":[8.6E1,5.7E1,2.9E1,4.7E1,1E1,9E0,2E1,3.9E1,8E0,8E0,1.2E1,1.6E1,2.3E1,8E0,8E0],"tree_param":{"num_deleted":"0","num_feature":"31","num_nodes":"15","size_leaf_vector":"1"}},{"base_weights":[-1.19631884E-4,-2.2805645E-3,5.364423E-3,6.2864114E-5,-1.9399054E-2,-0E0,1.368969E-2,2.7634308E-3,-1.042401E-3,-0E0,7.219714E-3,-4.170289E-3,-0E0,-6.348391E-4,8.097021E-4,-0E0,-1.5120144E-3],"categories":[],"categories_nodes":[],"categories_segments":[],"categories_sizes":[],"default_left":[1,1,1,1,0,0,0,1,1,0,0,0,1,1,0,0,0],"id":81,"left_children":[1,3,5,7,-1,-1,-1,9,11,-1,-1,-1,13,15,-1,-1,-1],"loss_changes":[9.592582E-4,2.7419382E-3,8.890758E-4,1.8417127E-4,0E0,0E0,0E0,2.783247E-4,1.0345424E-4,0E0,0E0,0E0,1.3560416E-5,1.3996305E-5,0E0,0E0,0E0],"parents":[2147483647,0,0,1,1,2,2,3,3,7,7,8,8,12,12,13,13],"right_children":[2,4,6,8,-1,-1,-1,10,12,-1,-1,-1,14,16,-1,-1,-1],"split_conditions":[1.7995626E-1,3.0151093E-1,2.278491E-1,7.347885E-2,-3.0002657E-3,-0E0,2.117253E-3,4.853066E-2,9.1581225E-2,-0E0,1.1166038E-3,-6.4497854E-4,1.2818018E-1,1.388525E-1,1.2522885E-4,-0E0,-2.3384877E-4],"split_indices":[19,9,9,17,0,0,0,30,19,0,0,0,25,12,0,0,0],"split_type":[0,0,0,0,0,0,0,0,0,0,0,0,0,0,0,0,0],"sum_hessian":[8.4E1,6.2E1,2.2E1,5.4E1,8E0,1.4E1,8E0,1.9E1,3.5E1,1.1E1,8E0,8E0,2.7E1,1.7E1,1E1,8E0,9E0],"tree_param":{"num_deleted":"0","num_feature":"31","num_nodes":"17","size_leaf_vector":"1"}},{"base_weights":[1.8984546E-4,-8.599397E-3,1.4641884E-3,3.907023E-3,-5.797476E-3,5.6581944E-4,2.2008996E-2,-1.2903563E-2,-0E0,3.971342E-3,-4.717674E-6,2.3878553E-4,-2.1876923E-3,-5.984998E-4,3.48646E-3],"categories":[],"categories_nodes":[],"categories_segments":[],"categories_sizes":[],"default_left":[1,0,1,1,1,1,0,0,0,0,1,1,0,0,0],"id":82,"left_children":[1,-1,3,5,7,9,-1,-1,-1,-1,11,13,-1,-1,-1],"loss_changes":[8.3007646E-4,0E0,1.276461E-3,3.1035033E-3,7.798254E-4,1.4458064E-4,0E0,0E0,0E0,0E0,4.5426106E-5,1.1670814E-4,0E0,0E0,0E0],"parents":[2147483647,0,0,2,2,3,3,4,4,5,5,10,10,11,11],"right_children":[2,-1,4,6,8,10,-1,-1,-1,-1,12,14,-1,-1,-1],"split_conditions":[4.0010292E-2,-1.3299861E-3,1.7752102E-1,2.6350677E-1,4.2334834E-1,5.7246115E-2,3.4039202E-3,-1.9956701E-3,-0E0,6.1420933E-4,1.477247E-1,1.2694634E-1,-3.3834937E-4,-9.2564216E-5,5.392173E-4],"split_indices":[25,0,26,5,24,26,0,0,0,0,25,29,0,0,0],"split_type":[0,0,0,0,0,0,0,0,0,0,0,0,0,0,0],"sum_hessian":[8.2E1,9E0,7.3E1,5.6E1,1.7E1,4.8E1,8E0,8E0,9E0,1E1,3.8E1,2.9E1,9E0,2E1,9E0],"tree_param":{"num_deleted":"0","num_feature":"31","num_nodes":"15","size_leaf_vector":"1"}},{"base_weights":[2.544096E-4,-3.2779842E-3,4.4009537E-3,-0E0,-1.7982544E-2,-0E0,2.0842252E-2,1.6140329E-3,-9.963197E-4,-1.7727047E-3,2.494021E-3,-0E0,3.876019E-3,-0E0,-1.9418662E-3,-0E0,-3.6485565E-3],"categories":[],"categories_nodes":[],"categories_segments":[],"categories_sizes":[],"default_left":[1,1,1,1,0,1,0,1,1,1,0,0,0,0,0,0,0],"id":83,"left_children":[1,3,5,7,-1,9,-1,11,13,15,-1,-1,-1,-1,-1,-1,-1],"loss_changes":[1.1757778E-3,2.191573E-3,2.7991366E-3,6.068878E-5,0E0,1.3255852E-4,0E0,9.271846E-5,1.4685535E-5,6.471171E-5,0E0,0E0,0E0,0E0,0E0,0E0,0E0],"parents":[2147483647,0,0,1,1,2,2,3,3,5,5,7,7,8,8,9,9],"right_children":[2,4,6,8,-1,10,-1,12,14,16,-1,-1,-1,-1,-1,-1,-1],"split_conditions":[1.477247E-1,3.065E2,2.67E2,8.754718E-2,-2.7811876E-3,1.5764853E-1,3.223471E-3,3.9951432E-2,1.0776402E-1,9.635346E-2,3.857263E-4,-0E0,5.994667E-4,-0E0,-3.0032982E-4,-0E0,-5.6428724E-4],"split_indices":[15,0,0,27,0,27,0,27,10,27,0,0,0,0,0,0,0],"split_type":[0,0,0,0,0,0,0,0,0,0,0,0,0,0,0,0,0],"sum_hessian":[7.9E1,4.1E1,3.8E1,3.3E1,8E0,3E1,8E0,1.7E1,1.6E1,1.8E1,1.2E1,8E0,9E0,8E0,8E0,9E0,9E0],"tree_param":{"num_deleted":"0","num_feature":"31","num_nodes":"17","size_leaf_vector":"1"}},{"base_weights":[1.215604E-3,-5.1959814E-4,6.997684E-3,1.0909066E-3,-1.2994551E-2,-0E0,1.6646758E-2,-5.3705537E-4,1.0695646E-2,3.584558E-4,-3.7680534E-3,2.3360127E-3,-0E0,-0E0,-2.7403934E-4],"categories":[],"categories_nodes":[],"categories_segments":[],"categories_sizes":[],"default_left":[1,1,1,1,0,0,0,1,0,1,0,0,1,1,1],"id":84,"left_children":[1,3,5,7,-1,-1,-1,9,-1,11,-1,-1,-1,-1,-1],"loss_changes":[9.280995E-4,1.4238319E-3,1.2215463E-3,9.937761E-4,0E0,0E0,0E0,1.7757685E-4,0E0,4.0184994E-5,0E0,0E0,1.2875041E-6,0E0,0E0],"parents":[2147483647,0,0,1,1,2,2,3,3,7,7,9,9,12,12],"right_children":[2,4,6,8,-1,-1,-1,10,-1,12,-1,-1,-1,-1,-1],"split_conditions":[1.6102104E-1,1.4731973E-1,2.241013E-1,2.0284605E-1,-2.0097424E-3,-0E0,2.5745942E-3,1.5365453E-1,1.6541929E-3,6.480922E-2,-5.8276864E-4,3.6128866E-4,-0E0,-0E0,-4.2383035E-5],"split_indices":[28,28,8,8,0,0,0,8,0,14,0,0,2,2147483647,2147483647],"split_type":[0,0,0,0,0,0,0,0,0,0,0,0,0,0,0],"sum_hessian":[8.4E1,6.3E1,2.1E1,5.5E1,8E0,1.3E1,8E0,4.6E1,9E0,3.3E1,1.3E1,8E0,2.5E1,8E0,1.7E1],"tree_param":{"num_deleted":"2","num_feature":"31","num_nodes":"15","size_leaf_vector":"1"}},{"base_weights":[7.57626E-4,-6.9771777E-4,5.1536183E-3,8.3291304E-4,-9.672939E-3,1.1922191E-2,-0E0,-0E0,3.5654465E-3,1.0629834E-3,-2.6397274E-3,-0E0,1.8772056E-3,-0E0,3.026529E-3],"categories":[],"categories_nodes":[],"categories_segments":[],"categories_sizes":[],"default_left":[1,1,1,1,0,0,0,1,0,1,0,0,1,0,0],"id":85,"left_children":[1,3,5,7,-1,-1,-1,9,-1,11,-1,-1,13,-1,-1],"loss_changes":[5.961778E-4,9.548859E-4,8.2720345E-4,1.316161E-4,0E0,0E0,0E0,1.14165756E-4,0E0,3.439768E-5,0E0,0E0,2.8982518E-5,0E0,0E0],"parents":[2147483647,0,0,1,1,2,2,3,3,7,7,9,9,12,12],"right_children":[2,4,6,8,-1,-1,-1,10,-1,12,-1,-1,14,-1,-1],"split_conditions":[1.5689093E-1,1.2784666E-1,1.9497079E-1,1.5000418E-1,-1.4960206E-3,1.8438909E-3,-0E0,7.3227495E-2,5.514334E-4,2.5173854E-2,-4.0826132E-4,-0E0,1.875E2,-0E0,4.6808418E-4],"split_indices":[28,28,28,9,0,0,0,28,0,30,0,0,0,0,0],"split_type":[0,0,0,0,0,0,0,0,0,0,0,0,0,0,0],"sum_hessian":[8.4E1,6.1E1,2.3E1,5.1E1,1E1,1E1,1.3E1,3.8E1,1.3E1,2.6E1,1.2E1,8E0,1.8E1,8E0,1E1],"tree_param":{"num_deleted":"0","num_feature":"31","num_nodes":"15","size_leaf_vector":"1"}},{"base_weights":[1.1103307E-3,6.840898E-5,7.6781255E-3,3.1262853E-3,-2.3360243E-4,-1.920721E-3,1.1289949E-3,-0E0,-4.808182E-3,4.0628095E-3,-1.114152E-3,-0E0,-3.9408848E-4],"categories":[],"categories_nodes":[],"categories_segments":[],"categories_sizes":[],"default_left":[1,1,0,0,1,1,1,1,0,0,0,1,1],"id":86,"left_children":[1,3,-1,-1,5,7,9,-1,-1,-1,-1,-1,-1],"loss_changes":[4.41853E-4,1.0210195E-4,0E0,0E0,1.4876331E-4,1.1962791E-4,2.3038982E-4,1.8860982E-6,0E0,0E0,0E0,0E0,0E0],"parents":[2147483647,0,0,1,1,4,4,5,5,6,6,7,7],"right_children":[2,4,-1,-1,6,8,10,-1,-1,-1,-1,-1,-1],"split_conditions":[2.6766616E-1,6.644683E-2,1.1875019E-3,4.8351253E-4,1.2297404E-1,1.3507502E-1,1.8301061E-1,-0E0,-7.4363535E-4,6.283558E-4,-1.723152E-4,-0E0,-6.0949882E-5],"split_indices":[8,10,0,0,29,8,10,29,0,0,0,2147483647,2147483647],"split_type":[0,0,0,0,0,0,0,0,0,0,0,0,0],"sum_hessian":[7.9E1,7E1,9E0,1E1,6E1,3.1E1,2.9E1,2.1E1,1E1,1.5E1,1.4E1,9E0,1.2E1],