{"learner":{"attributes":{"best_iteration":"45","best_score":"0.00186978526228754"},"feature_names":["SI_High","SI_Low","SI_Mean","Brent_Crude_Oil_High","Brent_Crude_Oil_Low","dayofyear","dayofweek","quarter","year","week","lag_1w_retailer_type_3","lag_2w_retailer_type_3","lag_3w_retailer_type_3","lag_4w_retailer_type_3","lag_5w_retailer_type_3","lag_6w_retailer_type_3","lag_7w_retailer_type_3","lag_8w_retailer_type_3","lag_9w_retailer_type_3","lag_10w_retailer_type_3","lag_11w_retailer_type_3","lag_12w_retailer_type_3","lag_13w_retailer_type_3","lag_14w_retailer_type_3","lag_15w_retailer_type_3","lag_16w_retailer_type_3","lag_17w_retailer_type_3","lag_18w_retailer_type_3","lag_19w_retailer_type_3","lag_20w_retailer_type_3","lag_21w_retailer_type_3","lag_22w_retailer_type_3","lag_23w_retailer_type_3","lag_24w_retailer_type_3","lag_25w_retailer_type_3","lag_26w_retailer_type_3"],"feature_types":["float","float","float","float","float","int","int","int","int","i","float","float","float","float","float","float","float","float","float","float","float","float","float","float","float","float","float","float","float","float","float","float","float","float","float","float"],"gradient_booster":{"model":{"gbtree_model_param":{"num_parallel_tree":"1","num_trees":"56"},"iteration_indptr":[0,1,2,3,4,5,6,7,8,9,10,11,12,13,14,15,16,17,18,19,20,21,22,23,24,25,26,27,28,29,30,31,32,33,34,35,36,37,38,39,40,41,42,43,44,45,46,47,48,49,50,51,52,53,54,55,56],"tree_info":[0,0,0,0,0,0,0,0,0,0,0,0,0,0,0,0,0,0,0,0,0,0,0,0,0,0,0,0,0,0,0,0,0,0,0,0,0,0,0,0,0,0,0,0,0,0,0,0,0,0,0,0,0,0,0,0],"trees":[{"base_weights":[1.8825505E-3,-2.60568E-2,1.434183E-1,-3.591676E-2,1.0432773E-2,6.9381595E-2,1.7893034E-1,-4.7418658E-2,-2.4074417E-2,3.1199537E-2,2.7298229E-3,1.21689096E-1,3.0015295E-2,1.420918E-1,1.920634E-1,-5.3653546E-2,-3.9512713E-2,-2.9342998E-2,-1.5407294E-2,4.536608E-2,1.2246791E-2,7.665507E-3,-1.7641876E-2],"categories":[],"categories_nodes":[],"categories_segments":[],"categories_sizes":[],"default_left":[1,1,1,1,1,1,1,1,1,1,1,0,0,0,0,0,0,0,0,0,0,0,0],"id":0,"left_children":[1,3,5,7,9,11,13,15,17,19,21,-1,-1,-1,-1,-1,-1,-1,-1,-1,-1,-1,-1],"loss_changes":[3.6129656E-1,2.7591962E-2,3.6835223E-2,7.549979E-3,2.3025912E-3,9.012448E-3,3.8143992E-4,6.142482E-4,9.957962E-4,6.088633E-4,1.1460122E-3,0E0,0E0,0E0,0E0,0E0,0E0,0E0,0E0,0E0,0E0,0E0,0E0],"parents":[2147483647,0,0,1,1,2,2,3,3,4,4,5,5,6,6,7,7,8,8,9,9,10,10],"right_children":[2,4,6,8,10,12,14,16,18,20,22,-1,-1,-1,-1,-1,-1,-1,-1,-1,-1,-1,-1],"split_conditions":[1.2231117E-1,6.5162644E-2,5.163138E-2,3.5674047E-2,2.4686307E-2,1.315178E-1,1.3705699E-1,2.0125527E-2,3.4513254E-2,9.354171E-2,1.0469492E-1,1.1655454E-1,2.8748829E-2,1.3609637E-1,1.8395948E-1,-5.1389687E-2,-3.784551E-2,-2.81049E-2,-1.4757198E-2,4.34519E-2,1.173005E-2,7.3420685E-3,-1.6897494E-2],"split_indices":[10,10,33,10,18,10,26,26,34,10,11,0,0,0,0,0,0,0,0,0,0,0,0],"split_type":[0,0,0,0,0,0,0,0,0,0,0,0,0,0,0,0,0,0,0,0,0,0,0],"sum_hessian":[9.1E1,7.6E1,1.5E1,6E1,1.6E1,5E0,1E1,3E1,3E1,4E0,1.2E1,2E0,3E0,3E0,7E0,1.6E1,1.4E1,1.8E1,1.2E1,2E0,2E0,1E1,2E0],"tree_param":{"num_deleted":"0","num_feature":"36","num_nodes":"23","size_leaf_vector":"1"}},{"base_weights":[9.1304735E-4,-4.3753564E-5,3.0545099E-2,-2.3448719E-3,9.652534E-3,-3.3853098E-3,7.5630653E-3,2.1109456E-2,-9.30878E-4,-4.5096986E-3,-0E0,1.6588314E-2,-0E0,1.5114172E-2,3.424487E-2,-1.5081772E-2,1.1338087E-2],"categories":[],"categories_nodes":[],"categories_segments":[],"categories_sizes":[],"default_left":[1,1,0,1,1,1,1,1,1,0,0,0,0,0,0,0,0],"id":1,"left_children":[1,3,-1,5,7,9,11,13,15,-1,-1,-1,-1,-1,-1,-1,-1],"loss_changes":[2.7893623E-3,1.8878668E-3,0E0,7.0215145E-4,2.10578E-3,2.5223166E-4,4.975663E-4,2.1802913E-4,1.4419623E-3,0E0,0E0,0E0,0E0,0E0,0E0,0E0,0E0],"parents":[2147483647,0,0,1,1,3,3,4,4,5,5,6,6,7,7,8,8],"right_children":[2,4,-1,6,8,10,12,14,16,-1,-1,-1,-1,-1,-1,-1,-1],"split_conditions":[2.7297997E-1,3.055E2,2.9256279E-2,2.0220688E-1,9.9586695E-2,7.7804995E-1,1.3811517E-1,3.9330337E-2,3.8538426E-2,-4.3194164E-3,-0E0,1.5888385E-2,-0E0,1.4476445E-2,3.279994E-2,-1.4445411E-2,1.0859688E-2],"split_indices":[18,5,0,18,11,3,34,22,22,0,0,0,0,0,0,0,0],"split_type":[0,0,0,0,0,0,0,0,0,0,0,0,0,0,0,0,0],"sum_hessian":[9E1,8.7E1,3E0,7.1E1,1.6E1,6.5E1,6E0,8E0,8E0,4.9E1,1.6E1,3E0,3E0,6E0,2E0,4E0,4E0],"tree_param":{"num_deleted":"0","num_feature":"36","num_nodes":"17","size_leaf_vector":"1"}},{"base_weights":[-7.1336684E-4,-2.2741429E-4,-1.1488617E-2,-7.4757606E-4,5.192788E-3,8.5513823E-4,-2.0297822E-3,6.373353E-3,-0E0,-1.2616102E-3,2.0195746E-3,-3.9491323E-3,2.971358E-4,-0E0,9.348389E-3],"categories":[],"categories_nodes":[],"categories_segments":[],"categories_sizes":[],"default_left":[1,1,0,1,1,1,1,1,0,0,0,0,0,0,0],"id":2,"left_children":[1,3,-1,5,7,9,11,13,-1,-1,-1,-1,-1,-1,-1],"loss_changes":[3.6523765E-4,2.029599E-4,0E0,1.6962952E-4,1.6434933E-6,8.507981E-5,2.3404828E-4,1.557851E-5,0E0,0E0,0E0,0E0,0E0,0E0,0E0],"parents":[2147483647,0,0,1,1,3,3,4,4,5,5,6,6,7,7],"right_children":[2,4,-1,6,8,10,12,14,-1,-1,-1,-1,-1,-1,-1],"split_conditions":[2.5004908E-1,1.9336712E-1,-1.1003867E-2,2.804061E-2,1.5447909E-1,7.7297864E-3,5.0523207E-2,5.1885605E-2,-0E0,-1.2083778E-3,1.9343607E-3,-3.7825026E-3,2.8459844E-4,-0E0,8.953943E-3],"split_indices":[13,16,0,24,22,27,22,27,0,0,0,0,0,0,0],"split_type":[0,0,0,0,0,0,0,0,0,0,0,0,0,0,0],"sum_hessian":[8.7E1,8.4E1,3E0,7.8E1,6E0,3.2E1,4.6E1,4E0,2E0,9E0,2.3E1,2.7E1,1.9E1,2E0,2E0],"tree_param":{"num_deleted":"0","num_feature":"36","num_nodes":"15","size_leaf_vector":"1"}},{"base_weights":[8.64794E-4,9.412574E-5,3.4499257E-3,1.0660789E-3,-5.3234803E-3,5.594094E-3,-5.336359E-3,-1.2146191E-3,2.2008203E-3,-1.4088512E-2,-3.7221605E-4,-0E0,7.811457E-3,9.48761E-4,-3.9218096E-3,9.810545E-4,4.890069E-3,1.7161515E-3,-3.8389987E-3,-0E0,8.7264385E-3],"categories":[],"categories_nodes":[],"categories_segments":[],"categories_sizes":[],"default_left":[1,1,1,1,1,1,0,1,1,0,1,0,1,0,0,0,0,0,0,0,0],"id":3,"left_children":[1,3,5,7,9,11,-1,13,15,-1,17,-1,19,-1,-1,-1,-1,-1,-1,-1,-1],"loss_changes":[1.5802257E-4,3.575379E-4,3.6334348E-4,1.7361814E-4,3.2494724E-4,1.7258484E-4,0E0,1.3491233E-4,1.0215372E-4,0E0,6.80448E-5,0E0,1.5207799E-5,0E0,0E0,0E0,0E0,0E0,0E0,0E0,0E0],"parents":[2147483647,0,0,1,1,2,2,3,3,4,4,5,5,7,7,8,8,10,10,12,12],"right_children":[2,4,6,8,10,12,-1,14,16,-1,18,-1,20,-1,-1,-1,-1,-1,-1,-1,-1],"split_conditions":[5.1780835E-2,4.1604817E-2,2.7087617E-1,1.4134077E-2,4.588885E-2,3.295274E-2,-5.1111965E-3,1.9793352E-2,5.1780835E-2,-1.3494061E-2,4.9607433E-2,-0E0,4.588885E-2,9.08729E-4,-3.7563327E-3,9.396599E-4,4.683737E-3,1.6437402E-3,-3.677016E-3,-0E0,8.3582355E-3],"split_indices":[31,31,10,33,31,12,0,12,16,0,31,0,33,0,0,0,0,0,0,0,0],"split_type":[0,0,0,0,0,0,0,0,0,0,0,0,0,0,0,0,0,0,0,0,0],"sum_hessian":[9.3E1,7.4E1,1.9E1,6.4E1,1E1,1.6E1,3E0,1.9E1,4.5E1,3E0,7E0,5E0,1.1E1,9E0,1E1,3.3E1,1.2E1,3E0,4E0,2E0,9E0],"tree_param":{"num_deleted":"0","num_feature":"36","num_nodes":"21","size_leaf_vector":"1"}},{"base_weights":[-0E0,8.343268E-4,-2.4430521E-3,2.0533736E-4,7.896438E-3,-4.0884246E-3,4.611867E-4,-4.1851657E-4,1.2685193E-3,-0E0,1.2448636E-2,-2.0348963E-3,-1.5168852E-2,4.487229E-3,-0E0,-0E0,-3.2930262E-3,3.1506065E-3,1.6104268E-4,-3.8396434E-3,5.4191358E-5,-0E0,-6.9289474E-4],"categories":[],"categories_nodes":[],"categories_segments":[],"categories_sizes":[],"default_left":[1,1,1,1,1,1,1,1,1,0,0,1,0,0,1,0,0,0,0,0,0,1,1],"id":4,"left_children":[1,3,5,7,9,11,13,15,17,-1,-1,19,-1,-1,-1,-1,-1,-1,-1,-1,-1,-1,-1],"loss_changes":[1.8686862E-4,2.1301872E-4,1.4317017E-4,4.5119068E-5,6.700156E-5,2.533595E-4,4.0175397E-5,4.936152E-5,2.8723043E-5,0E0,0E0,8.6073196E-5,0E0,0E0,1.4738978E-6,0E0,0E0,0E0,0E0,0E0,0E0,0E0,0E0],"parents":[2147483647,0,0,1,1,2,2,3,3,4,4,5,5,6,6,7,7,8,8,11,11,14,14],"right_children":[2,4,6,8,10,12,14,16,18,-1,-1,20,-1,-1,-1,-1,-1,-1,-1,-1,-1,-1,-1],"split_conditions":[7.490404E-2,1.0699028E-1,1.29963E-1,3.9330337E-2,4.5801193E-2,2.1433276E-1,2.5004908E-1,4.0087186E-2,4.1440062E-2,-0E0,1.1923378E-2,1.0699028E-1,-1.45288175E-2,4.297895E-3,-0E0,-0E0,-3.1540804E-3,3.0176698E-3,1.5424765E-4,-3.6776336E-3,5.1904808E-5,-0E0,-6.636587E-4],"split_indices":[12,20,32,11,14,14,14,17,12,0,0,12,0,0,1,0,0,0,0,0,0,2147483647,2147483647],"split_type":[0,0,0,0,0,0,0,0,0,0,0,0,0,0,0,0,0,0,0,0,0,0,0],"sum_hessian":[8.6E1,6.2E1,2.4E1,5.8E1,4E0,1.7E1,7E0,3.2E1,2.6E1,2E0,2E0,1.5E1,2E0,2E0,5E0,2.7E1,5E0,7E0,1.9E1,1E1,5E0,2E0,3E0],"tree_param":{"num_deleted":"2","num_feature":"36","num_nodes":"23","size_leaf_vector":"1"}},{"base_weights":[3.894202E-4,-3.781796E-4,1.099565E-3,6.538404E-4,-3.025683E-3,-0E0,2.1976654E-3,-1.9099112E-4,2.2748488E-3,-4.2343927E-3,-0E0,7.8348134E-4,-1.2880405E-3,3.5174664E-3,-7.014964E-4,-0E0,-2.0192685E-3,-0E0,2.681792E-3,-5.4950025E-3,-0E0,1.7038839E-3,-0E0,-2.027884E-3,-0E0,-0E0,4.7422135E-3,-0E0,-3.2718906E-3],"categories":[],"categories_nodes":[],"categories_segments":[],"categories_sizes":[],"default_left":[1,1,1,1,1,1,1,1,1,1,0,1,1,1,1,0,0,1,1,0,0,0,0,1,1,0,0,0,0],"id":5,"left_children":[1,3,5,7,9,11,13,15,-1,19,-1,21,-1,25,27,-1,-1,-1,-1,-1,-1,-1,-1,-1,-1,-1,-1,-1,-1],"loss_changes":[5.5789413E-5,1.2520966E-4,5.691735E-5,5.182943E-5,4.2972802E-5,2.6753467E-5,1.178502E-4,2.0159248E-5,9.96195E-6,2.065768E-5,0E0,2.3335791E-5,1.4026386E-5,8.046912E-5,1.9172476E-5,0E0,0E0,0E0,0E0,0E0,0E0,0E0,0E0,0E0,0E0,0E0,0E0,0E0,0E0],"parents":[2147483647,0,0,1,1,2,2,3,3,4,4,5,5,6,6,7,7,8,8,9,9,11,11,12,12,13,13,14,14],"right_children":[2,4,6,8,10,12,14,16,-1,20,-1,22,-1,26,28,-1,-1,-1,-1,-1,-1,-1,-1,-1,-1,-1,-1,-1,-1],"split_conditions":[3.7446972E-2,2.8185677E-2,4.0243775E-2,2.518982E-2,4.9240448E-2,3.65E1,1.29963E-1,1.1204355E-2,2.1788639E-3,3.7446972E-2,-0E0,2.8829696E-2,-1.233693E-3,7.5E0,6.5979296E-1,-0E0,-1.9340675E-3,-0E0,2.5686366E-3,-5.2631465E-3,-0E0,1.6319902E-3,-0E0,-1.9423193E-3,-0E0,-0E0,4.5421207E-3,-0E0,-3.1338364E-3],"split_indices":[18,18,33,10,32,9,31,29,18,29,0,32,28,9,1,0,0,2147483647,2147483647,0,0,0,0,2147483647,2147483647,0,0,0,0],"split_type":[0,0,0,0,0,0,0,0,0,0,0,0,0,0,0,0,0,0,0,0,0,0,0,0,0,0,0,0,0],"sum_hessian":[9.2E1,3.9E1,5.3E1,2.6E1,1.3E1,2.8E1,2.5E1,1.4E1,1.2E1,9E0,4E0,1.9E1,9E0,1.9E1,6E0,9E0,5E0,2E0,1E1,6E0,3E0,1.2E1,7E0,7E0,2E0,5E0,1.4E1,4E0,2E0],"tree_param":{"num_deleted":"4","num_feature":"36","num_nodes":"29","size_leaf_vector":"1"}},{"base_weights":[-1.6397999E-4,-0E0,-7.3545735E-4,-1.3239379E-4,3.6132147E-3,-1.0156453E-3,-0E0,-1.1434343E-3,7.041457E-5,-0E0,-1.504871E-3,-0E0,-1.5949978E-3,-0E0,7.910628E-4,-2.1401788E-3,-0E0],"categories":[],"categories_nodes":[],"categories_segments":[],"categories_sizes":[],"default_left":[1,1,1,1,0,1,1,1,1,1,1,1,1,1,1,1,1],"id":6,"left_children":[1,3,-1,7,-1,-1,-1,-1,-1,-1,-1,-1,-1,-1,-1,-1,-1],"loss_changes":[1.37890565E-5,5.4152504E-5,1.1658856E-5,2.0201278E-5,0E0,1.0733631E-5,0E0,1.2239674E-5,7.970333E-6,0E0,7.4668496E-6,0E0,0E0,0E0,0E0,0E0,0E0],"parents":[2147483647,0,0,1,1,2,2,3,3,5,5,7,7,8,8,10,10],"right_children":[2,4,-1,8,-1,-1,-1,-1,-1,-1,-1,-1,-1,-1,-1,-1,-1],"split_conditions":[4.2670332E-2,1.2434696E-1,-7.0442545E-4,1.655E2,3.4607586E-3,-9.7279117E-4,-0E0,-1.0951882E-3,6.74435E-5,-0E0,-1.4413744E-3,-0E0,-1.5276985E-3,-0E0,7.5768464E-4,-2.0498761E-3,-0E0],"split_indices":[32,21,29,5,0,2147483647,2147483647,26,32,2147483647,2147483647,2147483647,2147483647,2147483647,2147483647,2147483647,2147483647],"split_type":[0,0,0,0,0,0,0,0,0,0,0,0,0,0,0,0,0],"sum_hessian":[9.2E1,6.2E1,3E1,5.8E1,4E0,2.7E1,3E0,1.6E1,4.2E1,1E1,1.7E1,3E0,1.3E1,2.9E1,1.3E1,1E1,7E0],"tree_param":{"num_deleted":"10","num_feature":"36","num_nodes":"17","size_leaf_vector":"1"}},{"base_weights":[6.6770294E-6,3.727281E-4,-4.798779E-4,4.6205878E-5,3.0469624E-3,-0E0,-1.862548E-3,-1.5044188E-3,3.816967E-4,-5.258335E-4,3.3860168E-4,-0E0,-2.7192025E-3,8.06883E-4,-5.879776E-4,-0E0,-1.1542606E-3,-0E0,1.0181887E-3],"categories":[],"categories_nodes":[],"categories_segments":[],"categories_sizes":[],"default_left":[1,1,1,1,0,1,1,0,1,1,1,1,1,0,0,1,1,1,1],"id":7,"left_children":[1,3,-1,7,-1,-1,-1,-1,13,-1,-1,-1,-1,-1,-1,-1,-1,-1,-1],"loss_changes":[1.5404756E-5,2.942306E-5,1.41326145E-5,2.1056658E-5,0E0,4.883039E-6,9.0363355E-6,0E0,2.2779876E-5,9.802528E-6,6.060303E-6,0E0,0E0,0E0,0E0,0E0,0E0,0E0,0E0],"parents":[2147483647,0,0,1,1,2,2,3,3,5,5,6,6,8,8,9,9,10,10],"right_children":[2,4,-1,8,-1,-1,-1,-1,14,-1,-1,-1,-1,-1,-1,-1,-1,-1,-1],"split_conditions":[3.65E1,3.45E1,-4.5962993E-4,9.977693E-3,2.918399E-3,-0E0,-1.7839596E-3,-1.4409414E-3,7.134E-2,-5.036465E-4,3.2431472E-4,-0E0,-2.6044685E-3,7.728374E-4,-5.6316843E-4,-0E0,-1.1055577E-3,-0E0,9.752272E-4],"split_indices":[9,9,24,32,0,2147483647,2147483647,0,34,2147483647,2147483647,2147483647,2147483647,0,0,2147483647,2147483647,2147483647,2147483647],"split_type":[0,0,0,0,0,0,0,0,0,0,0,0,0,0,0,0,0,0,0],"sum_hessian":[9.1E1,6.1E1,3E1,5.7E1,4E0,2.4E1,6E0,6E0,5.1E1,1.3E1,1.1E1,2E0,4E0,4.1E1,1E1,3E0,1E1,4E0,7E0],"tree_param":{"num_deleted":"10","num_feature":"36","num_nodes":"19","size_leaf_vector":"1"}},{"base_weights":[-0E0,-1.2358115E-4,1.4664284E-3,-4.901824E-4,2.317541E-4,-6.685053E-4,-0E0,9.680574E-4,-1.4971677E-3,-0E0,-1.4870184E-3,-0E0,1.4858431E-3,-2.1266157E-3,-0E0],"categories":[],"categories_nodes":[],"categories_segments":[],"categories_sizes":[],"default_left":[1,1,0,1,1,1,0,1,1,0,0,0,0,1,1],"id":8,"left_children":[1,3,-1,5,7,9,-1,11,-1,-1,-1,-1,-1,-1,-1],"loss_changes":[1.0097126E-5,1.3476731E-5,0E0,8.490569E-6,3.9385708E-5,1.626307E-5,6.911464E-7,1.6733113E-5,7.081473E-6,0E0,0E0,0E0,0E0,0E0,0E0],"parents":[2147483647,0,0,1,1,3,3,4,4,5,5,7,7,8,8],"right_children":[2,4,-1,6,8,10,-1,12,-1,-1,-1,-1,-1,-1,-1],"split_conditions":[2.1433276E-1,2.365E2,1.4045539E-3,1.287766E-1,4.9934015E-2,5.2726127E-2,-0E0,1.5939698E-2,-1.4339963E-3,-0E0,-1.4242751E-3,-0E0,1.4231494E-3,-2.0368854E-3,-0E0],"split_indices":[24,5,0,32,24,13,0,19,17,0,0,0,0,2147483647,2147483647],"split_type":[0,0,0,0,0,0,0,0,0,0,0,0,0,0,0],"sum_hessian":[9.2E1,8.8E1,4E0,5.4E1,3.4E1,4.8E1,6E0,2.7E1,7E0,3.1E1,1.7E1,8E0,1.9E1,5E0,2E0],"tree_param":{"num_deleted":"2","num_feature":"36","num_nodes":"15","size_leaf_vector":"1"}},{"base_weights":[-0E0,-2.9692522E-4,2.6771825E-4,-0E0,-1.3179143E-3,1.0538449E-3,-6.6985354E-5,-4.53938E-4,9.565369E-4,-0E0,-1.5285205E-3,-0E0,1.368566E-3,-8.3269726E-4,4.951838E-4,-0E0,-8.329979E-4,1.1719565E-3,-0E0,-0E0,-1.2740132E-3],"categories":[],"categories_nodes":[],"categories_segments":[],"categories_sizes":[],"default_left":[1,1,1,1,1,1,1,1,1,1,1,1,1,1,1,1,1,1,1,1,1],"id":9,"left_children":[1,3,5,7,-1,-1,-1,-1,-1,-1,-1,-1,-1,-1,-1,-1,-1,-1,-1,-1,-1],"loss_changes":[7.2089547E-6,1.7934133E-5,1.6592408E-5,1.845152E-5,3.1623877E-6,9.267913E-6,9.9839E-6,9.735997E-6,3.7043837E-6,0E0,0E0,0E0,6.2909567E-7,7.2821385E-6,0E0,0E0,0E0,0E0,0E0,0E0,0E0],"parents":[2147483647,0,0,1,1,2,2,3,3,4,4,5,5,6,6,7,7,8,8,13,13],"right_children":[2,4,6,8,-1,-1,-1,-1,-1,-1,-1,-1,-1,-1,-1,-1,-1,-1,-1,-1,-1],"split_conditions":[5.239068E-2,4.069841E-2,4.3836452E-2,3.0510936E-2,-1.2623062E-3,1.0093789E-3,-6.415897E-5,-4.3478454E-4,9.1617677E-4,-0E0,-1.464026E-3,-0E0,1.3108207E-3,-7.975624E-4,4.7429002E-4,-0E0,-7.9785037E-4,1.122507E-3,-0E0,-0E0,-1.2202575E-3],"split_indices":[15,20,30,16,15,30,27,15,15,2147483647,2147483647,2147483647,2147483647,2147483647,2147483647,2147483647,2147483647,2147483647,2147483647,2147483647,2147483647],"split_type":[0,0,0,0,0,0,0,0,0,0,0,0,0,0,0,0,0,0,0,0,0],"sum_hessian":[8.8E1,5.4E1,3.4E1,4.1E1,1.3E1,1.7E1,1.7E1,2.7E1,1.4E1,2E0,1.1E1,2E0,1.5E1,1.3E1,4E0,5E0,2.2E1,1.2E1,2E0,3E0,1E1],"tree_param":{"num_deleted":"12","num_feature":"36","num_nodes":"21","size_leaf_vector":"1"}},{"base_weights":[-0E0,9.150749E-5,-6.9610786E-4,3.2935833E-4,-1.5401615E-4,-1.1320206E-3,-0E0,-0E0,5.955326E-4,-7.4903155E-4,4.513717E-4,-1.4683253E-3,-0E0,8.964018E-4,-9.474522E-4,8.226973E-4,-0E0,-0E0,-2.0754584E-3],"categories":[],"categories_nodes":[],"categories_segments":[],"categories_sizes":[],"default_left":[1,1,1,1,1,1,1,1,1,1,1,1,1,1,1,1,1,1,1],"id":10,"left_children":[-1,-1,-1,-1,-1,-1,-1,-1,-1,-1,-1,-1,-1,-1,-1,-1,-1,-1,-1],"loss_changes":[9.8022765E-6,5.274732E-6,8.789585E-6,6.2971267E-6,8.471785E-6,7.992341E-6,0E0,1.4720427E-5,8.623717E-6,4.30382E-8,0E0,8.738994E-6,0E0,0E0,0E0,0E0,0E0,0E0,0E0],"parents":[2147483647,0,0,1,1,2,2,3,3,4,4,5,5,7,7,8,8,11,11],"right_children":[-1,-1,-1,-1,-1,-1,-1,-1,-1,-1,-1,-1,-1,-1,-1,-1,-1,-1,-1],"split_conditions":[-0E0,8.7646426E-5,-6.667363E-4,3.1546137E-4,-1.4751758E-4,-1.0842561E-3,-0E0,-0E0,5.704047E-4,-7.174269E-4,4.3232655E-4,-1.4063708E-3,-0E0,8.58579E-4,-9.074754E-4,7.879844E-4,-0E0,-0E0,-1.9878866E-3],"split_indices":[4,2147483647,2147483647,2147483647,2147483647,2147483647,2147483647,2147483647,2147483647,2147483647,2147483647,2147483647,2147483647,2147483647,2147483647,2147483647,2147483647,2147483647,2147483647],"split_type":[0,0,0,0,0,0,0,0,0,0,0,0,0,0,0,0,0,0,0],"sum_hessian":[8.6E1,6.7E1,1.9E1,5E1,1.7E1,1.4E1,5E0,1.7E1,3.3E1,1.5E1,2E0,1.2E1,2E0,7E0,1E1,3E1,3E0,4E0,8E0],"tree_param":{"num_deleted":"18","num_feature":"36","num_nodes":"19","size_leaf_vector":"1"}},{"base_weights":[-0E0,1.20795376E-4,-2.4334267E-4,2.799481E-4,-0E0,-0E0,-9.019927E-4,-0E0,6.1562104E-4,-1.4215184E-4,6.7010964E-4,-0E0,-1.5488605E-3,8.4640144E-4,-0E0,-0E0,-1.3344695E-3,-1.8457472E-3,-0E0],"categories":[],"categories_nodes":[],"categories_segments":[],"categories_sizes":[],"default_left":[1,1,1,1,1,1,1,1,1,1,1,1,1,1,1,1,1,1,1],"id":11,"left_children":[-1,-1,-1,-1,-1,-1,-1,-1,-1,-1,-1,-1,-1,-1,-1,-1,-1,-1,-1],"loss_changes":[3.1917648E-6,2.9291368E-6,9.015208E-6,5.8123287E-6,1.3833481E-7,4.0091404E-6,7.912392E-6,5.1289777E-7,7.0259684E-6,8.643283E-6,1.969654E-7,0E0,1.3194549E-6,0E0,0E0,0E0,0E0,0E0,0E0],"parents":[2147483647,0,0,1,1,2,2,3,3,5,5,6,6,8,8,9,9,12,12],"right_children":[-1,-1,-1,-1,-1,-1,-1,-1,-1,-1,-1,-1,-1,-1,-1,-1,-1,-1,-1],"split_conditions":[-0E0,1.1569853E-4,-2.3307507E-4,2.6813595E-4,-0E0,-0E0,-8.6393405E-4,-0E0,5.896455E-4,-1.3615389E-4,6.4183504E-4,-0E0,-1.4835078E-3,8.1068836E-4,-0E0,-0E0,-1.2781629E-3,-1.7678677E-3,-0E0],"split_indices":[5,2147483647,2147483647,2147483647,2147483647,2147483647,2147483647,2147483647,2147483647,2147483647,2147483647,2147483647,2147483647,2147483647,2147483647,2147483647,2147483647,2147483647,2147483647],"split_type":[0,0,0,0,0,0,0,0,0,0,0,0,0,0,0,0,0,0,0],"sum_hessian":[9.3E1,5.2E1,4.1E1,4.7E1,5E0,2.7E1,1.4E1,2.2E1,2.5E1,1.9E1,8E0,6E0,8E0,2.3E1,2E0,1.4E1,5E0,6E0,2E0],"tree_param":{"num_deleted":"18","num_feature":"36","num_nodes":"19","size_leaf_vector":"1"}},{"base_weights":[-0E0,-2.4963627E-4,1.7762183E-4,2.2500994E-4,-6.616118E-4,7.2222005E-4,-0E0,-0E0,5.549356E-4,-0E0,-1.5635303E-3,-0E0,1.0826092E-3,4.091425E-4,-6.493127E-4,-0E0,9.566334E-4,-5.808736E-4,2.0057822E-4,-1.9892396E-3,-0E0,-0E0,-1.091843E-3],"categories":[],"categories_nodes":[],"categories_segments":[],"categories_sizes":[],"default_left":[1,1,1,1,1,1,1,1,1,1,1,1,1,1,1,1,1,1,1,1,1,1,1],"id":12,"left_children":[1,3,-1,-1,9,-1,-1,-1,-1,-1,-1,-1,-1,-1,-1,-1,-1,-1,-1,-1,-1,-1,-1],"loss_changes":[4.289032E-6,1.3369301E-5,8.3188825E-6,2.9540024E-6,1.8606901E-5,4.721185E-6,6.1916876E-6,0E0,4.583366E-6,3.2889761E-6,1.3365912E-5,0E0,8.4112617E-7,0E0,5.3021054E-6,0E0,0E0,0E0,0E0,0E0,0E0,0E0,0E0],"parents":[2147483647,0,0,1,1,2,2,3,3,4,4,5,5,6,6,8,8,9,9,10,10,14,14],"right_children":[2,4,-1,-1,10,-1,-1,-1,-1,-1,-1,-1,-1,-1,-1,-1,-1,-1,-1,-1,-1,-1,-1],"split_conditions":[4.3836452E-2,1.9498833E-2,1.7012726E-4,2.1551586E-4,3.25E1,6.917467E-4,-0E0,-0E0,5.3152064E-4,-0E0,-1.4975587E-3,-0E0,1.0369295E-3,3.9187912E-4,-6.2191556E-4,-0E0,9.162692E-4,-5.563642E-4,1.9211501E-4,-1.9053055E-3,-0E0,-0E0,-1.0457737E-3],"split_indices":[23,17,12,17,9,2147483647,2147483647,2147483647,2147483647,17,33,2147483647,2147483647,2147483647,2147483647,2147483647,2147483647,2147483647,2147483647,2147483647,2147483647,2147483647,2147483647],"split_type":[0,0,0,0,0,0,0,0,0,0,0,0,0,0,0,0,0,0,0,0,0,0,0],"sum_hessian":[8.6E1,5.1E1,3.5E1,1.5E1,3.6E1,1.8E1,1.7E1,3E0,1.2E1,2.2E1,1.4E1,6E0,1.2E1,4E0,1.3E1,3E0,9E0,8E0,1.4E1,1.2E1,2E0,4E0,9E0],"tree_param":{"num_deleted":"16","num_feature":"36","num_nodes":"23","size_leaf_vector":"1"}},{"base_weights":[-0E0,2.416042E-4,-3.4463193E-4,-0E0,4.2018152E-4,-0E0,-9.622261E-4,-0E0,-5.1819265E-4,6.5622333E-4,-0E0,-1.3822003E-3,-0E0,-0E0,-8.937824E-4,-0E0,9.100356E-4,-0E0,-2.319472E-3],"categories":[],"categories_nodes":[],"categories_segments":[],"categories_sizes":[],"default_left":[1,1,1,1,1,1,1,1,1,1,1,1,1,1,1,1,1,1,1],"id":13,"left_children":[-1,-1,-1,-1,-1,-1,-1,-1,-1,-1,-1,-1,-1,-1,-1,-1,-1,-1,-1],"loss_changes":[7.190576E-6,5.689513E-6,9.693181E-6,2.1669748E-6,7.2784715E-6,4.1036398E-7,8.12183E-6,0E0,2.6819957E-6,1.221905E-5,7.3290494E-7,6.127222E-6,0E0,0E0,0E0,0E0,0E0,0E0,0E0],"parents":[2147483647,0,0,1,1,2,2,3,3,4,4,6,6,8,8,9,9,11,11],"right_children":[-1,-1,-1,-1,-1,-1,-1,-1,-1,-1,-1,-1,-1,-1,-1,-1,-1,-1,-1],"split_conditions":[-0E0,2.3140995E-4,-3.3009052E-4,-0E0,4.0245237E-4,-0E0,-9.2162594E-4,-0E0,-4.9632805E-4,6.2853465E-4,-0E0,-1.3238797E-3,-0E0,-0E0,-8.5607014E-4,-0E0,8.716376E-4,-0E0,-2.221604E-3],"split_indices":[33,2147483647,2147483647,2147483647,2147483647,2147483647,2147483647,2147483647,2147483647,2147483647,2147483647,2147483647,2147483647,2147483647,2147483647,2147483647,2147483647,2147483647,2147483647],"split_type":[0,0,0,0,0,0,0,0,0,0,0,0,0,0,0,0,0,0,0],"sum_hessian":[9.4E1,6.6E1,2.8E1,1.2E1,5.4E1,1.4E1,1.4E1,4E0,8E0,3.9E1,1.5E1,1.1E1,3E0,2E0,6E0,4E0,3.5E1,6E0,5E0],"tree_param":{"num_deleted":"18","num_feature":"36","num_nodes":"19","size_leaf_vector":"1"}},{"base_weights":[1.490792E-4,3.6548366E-4,-2.5290283E-4,-0E0,5.0588726E-4,-8.3034724E-4,-0E0,8.048456E-4,-0E0,-0E0,-1.0259699E-3,-0E0,1.0657504E-3,-5.0757756E-4,4.714656E-4,-0E0,-1.4207644E-3],"categories":[],"categories_nodes":[],"categories_segments":[],"categories_sizes":[],"default_left":[1,1,1,1,1,1,1,1,1,1,1,1,1,1,1,1,1],"id":14,"left_children":[-1,-1,-1,-1,-1,-1,-1,-1,-1,-1,-1,-1,-1,-1,-1,-1,-1],"loss_changes":[8.711347E-6,7.415346E-6,7.102243E-6,0E0,1.0343178E-5,2.2778286E-6,0E0,9.173898E-6,5.7925527E-6,0E0,3.6714364E-6,0E0,0E0,0E0,0E0,0E0,0E0],"parents":[2147483647,0,0,1,1,2,2,4,4,5,5,7,7,8,8,10,10],"right_children":[-1,-1,-1,-1,-1,-1,-1,-1,-1,-1,-1,-1,-1,-1,-1,-1,-1],"split_conditions":[1.4278895E-4,3.5006244E-4,-2.4223185E-4,-0E0,4.8454184E-4,-7.953116E-4,-0E0,7.708859E-4,-0E0,-0E0,-9.826801E-4,-0E0,1.020782E-3,-4.8616083E-4,4.515726E-4,-0E0,-1.3608166E-3],"split_indices":[4,2147483647,2147483647,2147483647,2147483647,2147483647,2147483647,2147483647,2147483647,2147483647,2147483647,2147483647,2147483647,2147483647,2147483647,2147483647,2147483647],"split_type":[0,0,0,0,0,0,0,0,0,0,0,0,0,0,0,0,0],"sum_hessian":[9E1,7.1E1,1.9E1,5E0,6.6E1,1.2E1,7E0,4.2E1,2.4E1,2E0,1E1,1E1,3.2E1,1.2E1,1.2E1,3E0,7E0],"tree_param":{"num_deleted":"16","num_feature":"36","num_nodes":"17","size_leaf_vector":"1"}},{"base_weights":[-0E0,1.4692305E-4,-3.558888E-4,-7.461713E-5,7.598287E-4,-7.309502E-4,-0E0,-0E0,-4.2286643E-4,-0E0,1.0273161E-3,-9.0237433E-4,-0E0,3.8065898E-4,-0E0,-7.5955805E-4,-0E0,-0E0,1.3029737E-3,-0E0,-9.854196E-4],"categories":[],"categories_nodes":[],"categories_segments":[],"categories_sizes":[],"default_left":[1,1,1,1,1,1,1,1,1,1,1,1,1,1,1,1,1,1,1,1,1],"id":15,"left_children":[-1,-1,-1,-1,-1,-1,-1,-1,-1,-1,-1,-1,-1,-1,-1,-1,-1,-1,-1,-1,-1],"loss_changes":[4.7497365E-6,1.4403863E-5,9.024069E-6,4.2598126E-6,1.3313274E-6,4.8308275E-6,0E0,1.0244463E-6,5.942163E-6,8.700716E-12,3.5317735E-6,1.3610861E-6,0E0,0E0,0E0,0E0,0E0,0E0,0E0,0E0,0E0],"parents":[2147483647,0,0,1,1,2,2,3,3,4,4,5,5,7,7,8,8,10,10,11,11],"right_children":[-1,-1,-1,-1,-1,-1,-1,-1,-1,-1,-1,-1,-1,-1,-1,-1,-1,-1,-1,-1,-1],"split_conditions":[-0E0,1.4072377E-4,-3.4087242E-4,-7.1468734E-5,7.277685E-4,-7.001085E-4,-0E0,-0E0,-4.05024E-4,-0E0,9.839695E-4,-8.6429954E-4,-0E0,3.6459745E-4,-0E0,-7.2750926E-4,-0E0,-0E0,1.247996E-3,-0E0,-9.4384083E-4],"split_indices":[12,2147483647,2147483647,2147483647,2147483647,2147483647,2147483647,2147483647,2147483647,2147483647,2147483647,2147483647,2147483647,2147483647,2147483647,2147483647,2147483647,2147483647,2147483647,2147483647,2147483647],"split_type":[0,0,0,0,0,0,0,0,0,0,0,0,0,0,0,0,0,0,0,0,0],"sum_hessian":[9.3E1,6.7E1,2.6E1,4E1,2.7E1,2.3E1,3E0,1.5E1,2.5E1,1.1E1,1.6E1,2.1E1,2E0,7E0,8E0,1.8E1,7E0,4E0,1.2E1,2E0,1.9E1],"tree_param":{"num_deleted":"20","num_feature":"36","num_nodes":"21","size_leaf_vector":"1"}},{"base_weights":[-0E0,3.6629618E-4,-6.74047E-5,9.488814E-4,-0E0,-6.5898715E-4,-0E0,-9.803317E-4,-0E0,2.9950638E-4,-1.6080926E-4,-1.2624413E-3,-0E0,-0E0,6.643179E-4,-6.131162E-4,1.9612093E-5],"categories":[],"categories_nodes":[],"categories_segments":[],"categories_sizes":[],"default_left":[1,1,1,1,1,1,1,1,1,1,1,1,1,1,1,1,1],"id":16,"left_children":[-1,-1,-1,-1,-1,-1,-1,-1,-1,-1,-1,-1,-1,-1,-1,-1,-1],"loss_changes":[1.4738198E-6,2.5817246E-6,7.4560853E-6,0E0,0E0,7.5969037E-6,4.128784E-6,3.7925565E-6,0E0,5.973233E-6,7.1208565E-6,0E0,0E0,0E0,0E0,0E0,0E0],"parents":[2147483647,0,0,1,1,2,2,5,5,6,6,7,7,9,9,10,10],"right_children":[-1,-1,-1,-1,-1,-1,-1,-1,-1,-1,-1,-1,-1,-1,-1,-1,-1],"split_conditions":[-0E0,3.5084068E-4,-6.456062E-5,9.088443E-4,-0E0,-6.311818E-4,-0E0,-9.3896757E-4,-0E0,2.86869E-4,-1.5402406E-4,-1.2091738E-3,-0E0,-0E0,6.362877E-4,-5.872464E-4,1.878458E-5],"split_indices":[24,2147483647,2147483647,2147483647,2147483647,2147483647,2147483647,2147483647,2147483647,2147483647,2147483647,2147483647,2147483647,2147483647,2147483647,2147483647,2147483647],"split_type":[0,0,0,0,0,0,0,0,0,0,0,0,0,0,0,0,0],"sum_hessian":[9.4E1,8E0,8.6E1,4E0,4E0,1.8E1,6.8E1,1.6E1,2E0,3.7E1,3.1E1,1.2E1,4E0,1.6E1,2.1E1,2.1E1,1E1],"tree_param":{"num_deleted":"16","num_feature":"36","num_nodes":"17","size_leaf_vector":"1"}},{"base_weights":[-0E0,3.6483526E-4,-1.1478484E-4,1.4164929E-3,-0E0,-6.9558463E-4,4.5106524E-5,2.0540236E-3,-0E0,-0E0,-8.987549E-4,4.496233E-4,-0E0,-1.162386E-3,-0E0,-0E0,1.5011702E-3,-4.259473E-4,1.2261637E-4],"categories":[],"categories_nodes":[],"categories_segments":[],"categories_sizes":[],"default_left":[1,1,1,1,1,1,1,1,1,1,1,1,1,1,1,1,1,1,1],"id":17,"left_children":[-1,-1,-1,-1,-1,-1,-1,-1,-1,-1,-1,-1,-1,-1,-1,-1,-1,-1,-1],"loss_changes":[3.0213232E-6,1.0173201E-5,1.2183908E-5,4.992132E-6,0E0,7.1530476E-6,3.9554934E-6,0E0,0E0,0E0,8.21797E-6,1.1874878E-5,3.6263182E-6,0E0,0E0,0E0,0E0,0E0,0E0],"parents":[2147483647,0,0,1,1,2,2,3,3,5,5,6,6,10,10,11,11,12,12],"right_children":[-1,-1,-1,-1,-1,-1,-1,-1,-1,-1,-1,-1,-1,-1,-1,-1,-1,-1,-1],"split_conditions":[-0E0,3.494414E-4,-1.09941604E-4,1.3567253E-3,-0E0,-6.662351E-4,4.3203298E-5,1.967356E-3,-0E0,-0E0,-8.6083286E-4,4.3065188E-4,-0E0,-1.1133403E-3,-0E0,-0E0,1.4378298E-3,-4.0797488E-4,1.17442694E-4],"split_indices":[24,2147483647,2147483647,2147483647,2147483647,2147483647,2147483647,2147483647,2147483647,2147483647,2147483647,2147483647,2147483647,2147483647,2147483647,2147483647,2147483647,2147483647,2147483647],"split_type":[0,0,0,0,0,0,0,0,0,0,0,0,0,0,0,0,0,0,0],"sum_hessian":[9.2E1,1.5E1,7.7E1,6E0,9E0,2.7E1,5E1,4E0,2E0,2E0,2.5E1,2E1,3E1,2.1E1,4E0,1.3E1,7E0,1.9E1,1.1E1],"tree_param":{"num_deleted":"18","num_feature":"36","num_nodes":"19","size_leaf_vector":"1"}},{"base_weights":[-0E0,5.1349844E-4,-5.3171545E-5,-0E0,7.869025E-4,-6.1447907E-4,6.9833986E-5,1.1999366E-3,-0E0,-8.0462015E-4,-0E0,4.3883533E-4,-0E0,-0E0,1.7523698E-3,-1.0936719E-3,-0E0,-0E0,7.817055E-4,-9.596413E-4,1.1662021E-4],"categories":[],"categories_nodes":[],"categories_segments":[],"categories_sizes":[],"default_left":[1,1,1,1,1,1,1,1,1,1,1,1,1,1,1,1,1,1,1,1,1],"id":18,"left_children":[-1,-1,-1,-1,-1,-1,-1,-1,-1,-1,-1,-1,-1,-1,-1,-1,-1,-1,-1,-1,-1],"loss_changes":[4.7019485E-6,4.8305365E-6,9.117064E-6,0E0,8.047352E-6,2.6102934E-6,3.6354518E-6,1.0473124E-5,0E0,2.738364E-6,0E0,4.121574E-6,7.691076E-6,0E0,0E0,0E0,0E0,0E0,0E0,0E0,0E0],"parents":[2147483647,0,0,1,1,2,2,4,4,5,5,6,6,7,7,9,9,11,11,12,12],"right_children":[-1,-1,-1,-1,-1,-1,-1,-1,-1,-1,-1,-1,-1,-1,-1,-1,-1,-1,-1,-1,-1],"split_conditions":[-0E0,4.9183186E-4,-5.0928025E-5,-0E0,7.536999E-4,-5.8855175E-4,6.688741E-5,1.1493064E-3,-0E0,-7.7067E-4,-0E0,4.203191E-4,-0E0,-0E0,1.6784302E-3,-1.0475254E-3,-0E0,-0E0,7.487222E-4,-9.191502E-4,1.1169954E-4],"split_indices":[19,2147483647,2147483647,2147483647,2147483647,2147483647,2147483647,2147483647,2147483647,2147483647,2147483647,2147483647,2147483647,2147483647,2147483647,2147483647,2147483647,2147483647,2147483647,2147483647,2147483647],"split_type":[0,0,0,0,0,0,0,0,0,0,0,0,0,0,0,0,0,0,0,0,0],"sum_hessian":[8.8E1,1.7E1,7.1E1,2E0,1.5E1,2.4E1,4.7E1,1.2E1,3E0,1.8E1,6E0,2E1,2.7E1,3E0,9E0,1.2E1,6E0,7E0,1.3E1,8E0,1.9E1],"tree_param":{"num_deleted":"20","num_feature":"36","num_nodes":"21","size_leaf_vector":"1"}},{"base_weights":[-0E0,7.61002E-4,-7.0672686E-5,-0E0,1.4161877E-3,-0E0,-3.9048342E-4,2.0540236E-3,-0E0,-4.3138643E-4,2.8315894E-4,-6.613602E-4,-0E0,-0E0,-1.144379E-3,-0E0,7.3688425E-4,-0E0,-1.871263E-3],"categories":[],"categories_nodes":[],"categories_segments":[],"categories_sizes":[],"default_left":[1,1,1,1,1,1,1,1,1,1,1,1,1,1,1,1,1,1,1],"id":19,"left_children":[-1,-1,-1,-1,-1,-1,-1,-1,-1,-1,-1,-1,-1,-1,-1,-1,-1,-1,-1],"loss_changes":[6.2316763E-6,6.342084E-6,3.42268E-6,0E0,4.997376E-6,6.123117E-6,4.9559476E-6,0E0,0E0,4.9587134E-6,8.308365E-6,8.974556E-6,0E0,0E0,0E0,0E0,0E0,0E0,0E0],"parents":[2147483647,0,0,1,1,2,2,4,4,5,5,6,6,9,9,10,10,11,11],"right_children":[-1,-1,-1,-1,-1,-1,-1,-1,-1,-1,-1,-1,-1,-1,-1,-1,-1,-1,-1],"split_conditions":[-0E0,7.288923E-4,-6.769072E-5,-0E0,1.3564331E-3,-0E0,-3.7400736E-4,1.967356E-3,-0E0,-4.1318452E-4,2.7121132E-4,-6.3345477E-4,-0E0,-0E0,-1.0960931E-3,-0E0,7.0579216E-4,-0E0,-1.7923069E-3],"split_indices":[13,2147483647,2147483647,2147483647,2147483647,2147483647,2147483647,2147483647,2147483647,2147483647,2147483647,2147483647,2147483647,2147483647,2147483647,2147483647,2147483647,2147483647,2147483647],"split_type":[0,0,0,0,0,0,0,0,0,0,0,0,0,0,0,0,0,0,0],"sum_hessian":[9E1,1E1,8E1,4E0,6E0,5.5E1,2.5E1,4E0,2E0,1.6E1,3.9E1,2E1,5E0,1E1,6E0,1.8E1,2.1E1,1.5E1,5E0],"tree_param":{"num_deleted":"18","num_feature":"36","num_nodes":"19","size_leaf_vector":"1"}},{"base_weights":[-0E0,5.7908276E-4,-2.5360165E-5,-0E0,1.2114279E-3,-5.823258E-4,9.683254E-5,1.8224998E-3,-0E0,-0E0,-8.762929E-4,3.7748393E-4,-0E0,-1.216359E-3,-0E0,-0E0,8.661094E-4,-3.639774E-4,-0E0],"categories":[],"categories_nodes":[],"categories_segments":[],"categories_sizes":[],"default_left":[1,1,1,1,1,1,1,1,1,1,1,1,1,1,1,1,1,1,1],"id":20,"left_children":[-1,-1,-1,-1,-1,-1,-1,-1,-1,-1,-1,-1,-1,-1,-1,-1,-1,-1,-1],"loss_changes":[5.1024367E-6,1.1192291E-5,8.931243E-6,0E0,7.2371113E-6,6.910199E-6,3.5209446E-6,0E0,0E0,0E0,8.36447E-6,9.555296E-6,1.9964616E-6,0E0,0E0,0E0,0E0,0E0,0E0],"parents":[2147483647,0,0,1,1,2,2,4,4,5,5,6,6,10,10,11,11,12,12],"right_children":[-1,-1,-1,-1,-1,-1,-1,-1,-1,-1,-1,-1,-1,-1,-1,-1,-1,-1,-1],"split_conditions":[-0E0,5.546489E-4,-2.4290117E-5,-0E0,1.1603129E-3,-5.577551E-4,9.2746785E-5,1.7456012E-3,-0E0,-0E0,-8.3931856E-4,3.6155636E-4,-0E0,-1.1650359E-3,-0E0,-0E0,8.2956476E-4,-3.4861974E-4,-0E0],"split_indices":[24,2147483647,2147483647,2147483647,2147483647,2147483647,2147483647,2147483647,2147483647,2147483647,2147483647,2147483647,2147483647,2147483647,2147483647,2147483647,2147483647,2147483647,2147483647],"split_type":[0,0,0,0,0,0,0,0,0,0,0,0,0,0,0,0,0,0,0],"sum_hessian":[9.1E1,1.5E1,7.6E1,4E0,1.1E1,2.5E1,5.1E1,7E0,4E0,5E0,2E1,2.8E1,2.3E1,1.6E1,4E0,1E1,1.8E1,1.5E1,8E0],"tree_param":{"num_deleted":"18","num_feature":"36","num_nodes":"19","size_leaf_vector":"1"}},{"base_weights":[-3.5732955E-5,2.4856368E-4,-2.0004595E-4,6.683085E-4,-0E0,-7.905019E-4,-0E0,9.958036E-4,-0E0,-0E0,-1.0048385E-3,4.2557128E-4,-2.7296133E-4,-0E0,1.4651853E-3,-1.2577939E-3,-0E0,-0E0,7.6030265E-4,-6.97835E-4,-0E0],"categories":[],"categories_nodes":[],"categories_segments":[],"categories_sizes":[],"default_left":[1,1,1,1,1,1,1,1,1,1,1,1,1,1,1,1,1,1,1,1,1],"id":21,"left_children":[-1,-1,-1,-1,-1,-1,-1,-1,-1,-1,-1,-1,-1,-1,-1,-1,-1,-1,-1,-1,-1],"loss_changes":[3.742771E-6,3.119892E-6,8.367655E-6,2.9597754E-6,0E0,4.934049E-6,6.3544803E-6,3.873282E-6,0E0,0E0,2.8693776E-6,1.4269826E-6,9.182956E-6,0E0,0E0,0E0,0E0,0E0,0E0,0E0,0E0],"parents":[2147483647,0,0,1,1,2,2,3,3,5,5,6,6,7,7,10,10,11,11,12,12],"right_children":[-1,-1,-1,-1,-1,-1,-1,-1,-1,-1,-1,-1,-1,-1,-1,-1,-1,-1,-1,-1,-1],"split_conditions":[-3.422524E-5,2.3807578E-4,-1.9160521E-4,6.401099E-4,-0E0,-7.5714744E-4,-0E0,9.5378666E-4,-0E0,-0E0,-9.6244033E-4,4.0761472E-4,-2.61444E-4,-0E0,1.4033633E-3,-1.2047224E-3,-0E0,-0E0,7.282224E-4,-6.6839054E-4,-0E0],"split_indices":[26,2147483647,2147483647,2147483647,2147483647,2147483647,2147483647,2147483647,2147483647,2147483647,2147483647,2147483647,2147483647,2147483647,2147483647,2147483647,2147483647,2147483647,2147483647,2147483647,2147483647],"split_type":[0,0,0,0,0,0,0,0,0,0,0,0,0,0,0,0,0,0,0,0,0],"sum_hessian":[8.8E1,1.5E1,7.3E1,9E0,6E0,1.8E1,5.5E1,7E0,2E0,2E0,1.6E1,2.1E1,3.4E1,2E0,5E0,1.2E1,4E0,1.2E1,9E0,2.4E1,1E1],"tree_param":{"num_deleted":"20","num_feature":"36","num_nodes":"21","size_leaf_vector":"1"}},{"base_weights":[5.028857E-6,8.205438E-4,-1.1668552E-5,-0E0,1.2617668E-3,-3.8702704E-4,2.0110905E-5,1.5923248E-3,-0E0,-0E0,-6.50955E-4,4.0263057E-4,-8.083651E-5,-1.0463612E-3,-0E0,-0E0,1.0089803E-3,1.3522213E-4,-4.7042483E-4],"categories":[],"categories_nodes":[],"categories_segments":[],"categories_sizes":[],"default_left":[1,1,1,1,1,1,1,1,1,1,1,1,1,1,1,1,1,1,1],"id":22,"left_children":[-1,-1,-1,-1,-1,-1,-1,-1,-1,-1,-1,-1,-1,-1,-1,-1,-1,-1,-1],"loss_changes":[7.4616946E-6,3.8024527E-6,3.766062E-6,0E0,1.5991072E-6,6.0204925E-6,4.53724E-6,0E0,0E0,0E0,6.7239507E-6,1.0953494E-5,4.7881363E-6,0E0,0E0,0E0,0E0,0E0,0E0],"parents":[2147483647,0,0,1,1,2,2,4,4,5,5,6,6,10,10,11,11,12,12],"right_children":[-1,-1,-1,-1,-1,-1,-1,-1,-1,-1,-1,-1,-1,-1,-1,-1,-1,-1,-1],"split_conditions":[4.816669E-6,7.8592176E-4,-1.1176209E-5,-0E0,1.2085277E-3,-3.7069683E-4,1.9262345E-5,1.5251383E-3,-0E0,-0E0,-6.234886E-4,3.8564196E-4,-7.742569E-5,-1.002211E-3,-0E0,-0E0,9.664074E-4,1.2951657E-4,-4.5057572E-4],"split_indices":[35,2147483647,2147483647,2147483647,2147483647,2147483647,2147483647,2147483647,2147483647,2147483647,2147483647,2147483647,2147483647,2147483647,2147483647,2147483647,2147483647,2147483647,2147483647],"split_type":[0,0,0,0,0,0,0,0,0,0,0,0,0,0,0,0,0,0,0],"sum_hessian":[8.9E1,1.1E1,7.8E1,4E0,7E0,2.5E1,5.3E1,5E0,2E0,2E0,2.3E1,2.7E1,2.6E1,1.5E1,8E0,1.2E1,1.5E1,4E0,2.2E1],"tree_param":{"num_deleted":"18","num_feature":"36","num_nodes":"19","size_leaf_vector":"1"}},{"base_weights":[-0E0,5.971863E-4,-1.1714282E-4,1.172474E-3,-0E0,-1.2639906E-3,-0E0,-0E0,1.4760185E-3,-1.8083688E-3,-0E0,2.755477E-4,-2.1414176E-4,1.8698977E-3,-0E0,-0E0,5.578432E-4,-6.708164E-4,2.6010515E-4],"categories":[],"categories_nodes":[],"categories_segments":[],"categories_sizes":[],"default_left":[1,1,1,1,1,1,1,1,1,1,1,1,1,1,1,1,1,1,1],"id":23,"left_children":[1,-1,5,-1,-1,-1,-1,-1,-1,-1,-1,-1,-1,-1,-1,-1,-1,-1,-1],"loss_changes":[7.4332934E-6,8.773505E-6,1.6697193E-5,4.5422703E-6,0E0,8.704197E-6,3.948432E-6,0E0,1.4636335E-6,0E0,0E0,5.2221662E-6,8.18116E-6,0E0,0E0,0E0,0E0,0E0,0E0],"parents":[2147483647,0,0,1,1,2,2,3,3,5,5,6,6,8,8,11,11,12,12],"right_children":[2,-1,6,-1,-1,-1,-1,-1,-1,-1,-1,-1,-1,-1,-1,-1,-1,-1,-1],"split_conditions":[1.9498833E-2,5.7198864E-4,2.9041251E-2,1.1230026E-3,-0E0,-1.2106578E-3,-0E0,-0E0,1.4137393E-3,-1.7320665E-3,-0E0,2.6392125E-4,-2.0510626E-4,1.7909992E-3,-0E0,-0E0,5.343055E-4,-6.42512E-4,2.4913027E-4],"split_indices":[19,13,19,2147483647,2147483647,12,12,2147483647,2147483647,2147483647,2147483647,2147483647,2147483647,2147483647,2147483647,2147483647,2147483647,2147483647,2147483647],"split_type":[0,0,0,0,0,0,0,0,0,0,0,0,0,0,0,0,0,0,0],"sum_hessian":[9E1,1.8E1,7.2E1,1.1E1,7E0,1.1E1,6.1E1,2E0,9E0,8E0,3E0,3.8E1,2.3E1,6E0,3E0,1.2E1,2.6E1,2E1,3E0],"tree_param":{"num_deleted":"14","num_feature":"36","num_nodes":"19","size_leaf_vector":"1"}},{"base_weights":[-0E0,-3.272848E-4,1.8944235E-4,-4.6971446E-4,-0E0,4.3906408E-4,-4.348152E-4,-0E0,-6.383874E-4,-0E0,8.0220134E-4,-0E0,-7.32336E-4,-0E0,9.092745E-4],"categories":[],"categories_nodes":[],"categories_segments":[],"categories_sizes":[],"default_left":[1,1,1,1,1,1,1,1,1,1,1,1,1,1,1],"id":24,"left_children":[-1,-1,-1,-1,-1,-1,-1,-1,-1,-1,-1,-1,-1,-1,-1],"loss_changes":[6.766519E-6,3.912304E-6,7.0693504E-6,4.823486E-6,0E0,5.641733E-6,0E0,0E0,3.3148144E-6,4.084933E-7,2.2075774E-6,0E0,0E0,0E0,0E0],"parents":[2147483647,0,0,1,1,2,2,3,3,5,5,8,8,10,10],"right_children":[-1,-1,-1,-1,-1,-1,-1,-1,-1,-1,-1,-1,-1,-1,-1],"split_conditions":[-0E0,-3.1347535E-4,1.8144901E-4,-4.4989533E-4,-0E0,4.205382E-4,-4.1646863E-4,-0E0,-6.114513E-4,-0E0,7.6835323E-4,-0E0,-7.0143584E-4,-0E0,8.7090855E-4],"split_indices":[18,2147483647,2147483647,2147483647,2147483647,2147483647,2147483647,2147483647,2147483647,2147483647,2147483647,2147483647,2147483647,2147483647,2147483647],"split_type":[0,0,0,0,0,0,0,0,0,0,0,0,0,0,0],"sum_hessian":[9.3E1,4.8E1,4.5E1,4.1E1,7E0,4.1E1,4E0,7E0,3.4E1,2E1,2.1E1,2E0,3.2E1,2E0,1.9E1],"tree_param":{"num_deleted":"14","num_feature":"36","num_nodes":"15","size_leaf_vector":"1"}},{"base_weights":[-0E0,1.254727E-4,-4.2181814E-4,-0E0,1.1540685E-3,-6.5918616E-4,-0E0,-0E0,1.5767157E-3],"categories":[],"categories_nodes":[],"categories_segments":[],"categories_sizes":[],"default_left":[1,1,1,1,1,1,1,1,1],"id":25,"left_children":[-1,-1,-1,-1,-1,-1,-1,-1,-1],"loss_changes":[3.230257E-6,9.487599E-6,1.1024006E-6,2.4803268E-7,4.3419477E-6,2.1901019E-7,0E0,0E0,0E0],"parents":[2147483647,0,0,1,1,2,2,4,4],"right_children":[-1,-1,-1,-1,-1,-1,-1,-1,-1],"split_conditions":[-0E0,1.201785E-4,-4.0401996E-4,-0E0,1.1053737E-3,-6.3137244E-4,-0E0,-0E0,1.5101878E-3],"split_indices":[9,2147483647,2147483647,2147483647,2147483647,2147483647,2147483647,2147483647,2147483647],"split_type":[0,0,0,0,0,0,0,0,0],"sum_hessian":[9.1E1,8E1,1.1E1,7.2E1,8E0,7E0,4E0,2E0,6E0],"tree_param":{"num_deleted":"8","num_feature":"36","num_nodes":"9","size_leaf_vector":"1"}},{"base_weights":[1.3123792E-5,2.717082E-4,-3.2933077E-4,-0E0,8.357832E-4,-7.404908E-4,1.17848234E-4,5.9854567E-5,-2.58016E-4,-0E0,1.1464085E-3,-0E0,-1.3913403E-3,-0E0,5.767116E-4,-6.967081E-4,-0E0,-0E0,1.6188856E-3],"categories":[],"categories_nodes":[],"categories_segments":[],"categories_sizes":[],"default_left":[1,1,1,1,1,1,1,1,1,1,1,1,1,1,1,1,1,1,1],"id":26,"left_children":[-1,-1,-1,-1,-1,-1,-1,-1,-1,-1,-1,-1,-1,-1,-1,-1,-1,-1,-1],"loss_changes":[7.3600495E-6,1.42531135E-5,9.425126E-6,1.6456328E-6,1.00962225E-5,7.3921647E-6,0E0,2.6407972E-6,3.7709915E-6,0E0,1.04897135E-5,2.3917753E-8,9.709438E-7,0E0,0E0,0E0,0E0,0E0,0E0],"parents":[2147483647,0,0,1,1,2,2,3,3,4,4,5,5,7,7,8,8,10,10],"right_children":[-1,-1,-1,-1,-1,-1,-1,-1,-1,-1,-1,-1,-1,-1,-1,-1,-1,-1,-1],"split_conditions":[1.2570046E-5,2.6024375E-4,-3.1543497E-4,-0E0,8.0051814E-4,-7.092465E-4,1.1287574E-4,5.7329064E-5,-2.4712927E-4,-0E0,1.0980369E-3,-0E0,-1.332634E-3,-0E0,5.5237784E-4,-6.673112E-4,-0E0,-0E0,1.5505783E-3],"split_indices":[12,2147483647,2147483647,2147483647,2147483647,2147483647,2147483647,2147483647,2147483647,2147483647,2147483647,2147483647,2147483647,2147483647,2147483647,2147483647,2147483647,2147483647,2147483647],"split_type":[0,0,0,0,0,0,0,0,0,0,0,0,0,0,0,0,0,0,0],"sum_hessian":[8.8E1,6.3E1,2.5E1,3.6E1,2.7E1,2.2E1,3E0,1.2E1,2.4E1,5E0,2.2E1,1.2E1,1E1,4E0,8E0,1.1E1,1.3E1,7E0,1.5E1],"tree_param":{"num_deleted":"18","num_feature":"36","num_nodes":"19","size_leaf_vector":"1"}},{"base_weights":[-0E0,8.309374E-5,-2.7883868E-4,-0E0,5.153392E-4,-6.807122E-4,-0E0,3.446522E-4,-4.478684E-4,-0E0,7.1533537E-4,-0E0,-1.6335378E-3,-0E0,1.2640724E-3,-5.7599955E-4,-0E0,1.1955206E-3,-0E0,-2.2823368E-3,-0E0],"categories":[],"categories_nodes":[],"categories_segments":[],"categories_sizes":[],"default_left":[1,1,1,1,1,1,1,1,1,1,1,1,1,1,1,1,1,1,1,1,1],"id":27,"left_children":[-1,-1,-1,-1,-1,-1,-1,-1,-1,-1,-1,-1,-1,-1,-1,-1,-1,-1,-1,-1,-1],"loss_changes":[2.6749763E-6,5.9776107E-6,7.502951E-6,6.343632E-6,1.3190011E-6,1.4439528E-5,1.16558574E-7,9.9819945E-6,2.293587E-6,0E0,6.681319E-6,0E0,7.4161035E-6,0E0,0E0,0E0,0E0,0E0,0E0,0E0,0E0],"parents":[2147483647,0,0,1,1,2,2,3,3,4,4,5,5,7,7,8,8,10,10,12,12],"right_children":[-1,-1,-1,-1,-1,-1,-1,-1,-1,-1,-1,-1,-1,-1,-1,-1,-1,-1,-1,-1,-1],"split_conditions":[-0E0,7.9587684E-5,-2.6707337E-4,-0E0,4.9359497E-4,-6.5199024E-4,-0E0,3.3010994E-4,-4.2897105E-4,-0E0,6.851525E-4,-0E0,-1.5646123E-3,-0E0,1.2107361E-3,-5.516958E-4,-0E0,1.1450768E-3,-0E0,-2.186036E-3,-0E0],"split_indices":[16,2147483647,2147483647,2147483647,2147483647,2147483647,2147483647,2147483647,2147483647,2147483647,2147483647,2147483647,2147483647,2147483647,2147483647,2147483647,2147483647,2147483647,2147483647,2147483647,2147483647],"split_type":[0,0,0,0,0,0,0,0,0,0,0,0,0,0,0,0,0,0,0,0,0],"sum_hessian":[8.9E1,6E1,2.9E1,3.6E1,2.4E1,2.1E1,8E0,1.1E1,2.5E1,9E0,1.5E1,1.2E1,9E0,4E0,7E0,2.2E1,3E0,1E1,5E0,6E0,3E0],"tree_param":{"num_deleted":"20","num_feature":"36","num_nodes":"21","size_leaf_vector":"1"}},{"base_weights":[4.3704527E-5,2.2295897E-4,-9.954215E-7,5.111202E-4,-0E0,-4.5643674E-4,5.5291363E-5,-0E0,1.1221616E-3,-4.24406E-4,-0E0,-6.653816E-4,-0E0,7.714697E-4,-1.2688136E-4,1.4614634E-3,-0E0,-0E0,-6.2457245E-4,-0E0,-8.7799976E-4,-0E0,1.2052512E-3],"categories":[],"categories_nodes":[],"categories_segments":[],"categories_sizes":[],"default_left":[1,1,1,1,1,1,1,0,1,1,1,1,1,1,1,1,1,1,1,1,1,1,1],"id":28,"left_children":[1,3,-1,7,-1,-1,-1,-1,-1,-1,-1,-1,-1,-1,-1,-1,-1,-1,-1,-1,-1,-1,-1],"loss_changes":[2.4202488E-6,6.3121342E-6,4.0250793E-6,1.5113216E-5,1.9939262E-6,2.2563013E-6,7.2130606E-6,3.9800457E-7,1.0309646E-5,1.1540908E-6,4.8643585E-8,3.075304E-6,0E0,7.444305E-6,6.908319E-7,0E0,0E0,0E0,0E0,0E0,0E0,0E0,0E0],"parents":[2147483647,0,0,1,1,2,2,3,3,4,4,5,5,6,6,8,8,9,9,11,11,13,13],"right_children":[2,4,-1,8,-1,-1,-1,-1,-1,-1,-1,-1,-1,-1,-1,-1,-1,-1,-1,-1,-1,-1,-1],"split_conditions":[5.1282506E-2,3.4513254E-2,-9.534207E-7,1.2345878E-2,-0E0,-4.3717783E-4,5.29584E-5,-0E0,1.0748132E-3,-4.064986E-4,-0E0,-6.373065E-4,-0E0,7.389183E-4,-1.2152773E-4,1.3997984E-3,-0E0,-0E0,-5.982192E-4,-0E0,-8.4095343E-4,-0E0,1.1543968E-3],"split_indices":[14,28,31,31,19,2147483647,2147483647,0,21,2147483647,2147483647,2147483647,2147483647,2147483647,2147483647,2147483647,2147483647,2147483647,2147483647,2147483647,2147483647,2147483647,2147483647],"split_type":[0,0,0,0,0,0,0,0,0,0,0,0,0,0,0,0,0,0,0,0,0,0,0],"sum_hessian":[8.8E1,5.2E1,3.6E1,3.4E1,1.8E1,1.9E1,1.7E1,1.5E1,1.9E1,1.1E1,7E0,1.4E1,5E0,1.2E1,5E0,1.6E1,3E0,3E0,8E0,2E0,1.2E1,2E0,1E1],"tree_param":{"num_deleted":"16","num_feature":"36","num_nodes":"23","size_leaf_vector":"1"}},{"base_weights":[-4.2486223E-5,-1.49765E-4,2.9804985E-4,-0E0,-4.768326E-4,6.372888E-5,-3.8705082E-4,-6.2050275E-4,-0E0,-0E0,6.836763E-4,-8.257839E-4,-0E0],"categories":[],"categories_nodes":[],"categories_segments":[],"categories_sizes":[],"default_left":[1,1,1,1,1,1,1,1,1,1,1,1,1],"id":29,"left_children":[-1,-1,-1,-1,-1,-1,-1,-1,-1,-1,-1,-1,-1],"loss_changes":[2.2577547E-6,4.4068784E-6,0E0,1.4204227E-6,3.27028E-6,3.5605312E-6,5.689833E-8,4.033559E-6,0E0,0E0,0E0,0E0,0E0],"parents":[2147483647,0,0,1,1,3,3,4,4,5,5,7,7],"right_children":[-1,-1,-1,-1,-1,-1,-1,-1,-1,-1,-1,-1,-1],"split_conditions":[-4.0693558E-5,-1.4344581E-4,2.8547394E-4,-0E0,-4.567131E-4,6.103991E-5,-3.707196E-4,-5.9432123E-4,-0E0,-0E0,6.5482926E-4,-7.909408E-4,-0E0],"split_indices":[27,2147483647,2147483647,2147483647,2147483647,2147483647,2147483647,2147483647,2147483647,2147483647,2147483647,2147483647,2147483647],"split_type":[0,0,0,0,0,0,0,0,0,0,0,0,0],"sum_hessian":[9.3E1,8.8E1,5E0,6E1,2.8E1,5.2E1,8E0,2.5E1,3E0,4.4E1,8E0,2E1,5E0],"tree_param":{"num_deleted":"12","num_feature":"36","num_nodes":"13","size_leaf_vector":"1"}},{"base_weights":[-1.5644115E-4,-3.876794E-4,1.452882E-4,-5.435615E-4,-0E0,5.1210076E-4,-0E0,-0E0,-7.1762496E-4,-0E0,9.0920844E-4,-8.1671966E-4,-0E0,-0E0,1.1898472E-3],"categories":[],"categories_nodes":[],"categories_segments":[],"categories_sizes":[],"default_left":[1,1,1,1,1,1,1,1,1,1,1,1,1,1,1],"id":30,"left_children":[-1,-1,-1,-1,-1,-1,-1,-1,-1,-1,-1,-1,-1,-1,-1],"loss_changes":[8.230369E-6,2.7954038E-6,5.2585915E-6,4.305144E-6,0E0,5.0166286E-6,0E0,0E0,3.027044E-6,0E0,3.4519962E-6,0E0,0E0,0E0,0E0],"parents":[2147483647,0,0,1,1,2,2,3,3,5,5,8,8,10,10],"right_children":[-1,-1,-1,-1,-1,-1,-1,-1,-1,-1,-1,-1,-1,-1,-1],"split_conditions":[-1.4984027E-4,-3.7132166E-4,1.3915791E-4,-5.2062643E-4,-0E0,4.904932E-4,-0E0,-0E0,-6.873455E-4,-0E0,8.708453E-4,-7.82259E-4,-0E0,-0E0,1.1396428E-3],"split_indices":[31,2147483647,2147483647,2147483647,2147483647,2147483647,2147483647,2147483647,2147483647,2147483647,2147483647,2147483647,2147483647,2147483647,2147483647],"split_type":[0,0,0,0,0,0,0,0,0,0,0,0,0,0,0],"sum_hessian":[9.1E1,6.6E1,2.5E1,4.3E1,2.3E1,2.2E1,3E0,1E1,3.3E1,9E0,1.3E1,3E1,3E0,3E0,1E1],"tree_param":{"num_deleted":"14","num_feature":"36","num_nodes":"15","size_leaf_vector":"1"}},{"base_weights":[1.0207298E-4,-1.6025202E-4,2.5350152E-4,-0E0,-5.1628967E-4,5.9734116E-4,-0E0,1.1311816E-3,-0E0,7.6055796E-5,-3.8237355E-4,1.4682774E-3,-0E0,6.834521E-4,-2.4496784E-4,-0E0,4.8305932E-4,-6.7695E-4,-0E0],"categories":[],"categories_nodes":[],"categories_segments":[],"categories_sizes":[],"default_left":[1,1,1,1,1,1,1,1,1,1,1,1,1,1,1,1,1,1,1],"id":31,"left_children":[-1,-1,-1,-1,-1,-1,-1,-1,-1,-1,-1,-1,-1,-1,-1,-1,-1,-1,-1],"loss_changes":[4.3804885E-6,2.5637462E-6,7.560791E-6,0E0,0E0,1.0608275E-5,1.6578323E-6,2.8990726E-6,3.092522E-6,3.7977038E-6,2.2258262E-6,0E0,0E0,0E0,0E0,0E0,0E0,0E0,0E0],"parents":[2147483647,0,0,1,1,2,2,5,5,6,6,7,7,8,8,9,9,10,10],"right_children":[-1,-1,-1,-1,-1,-1,-1,-1,-1,-1,-1,-1,-1,-1,-1,-1,-1,-1,-1],"split_conditions":[9.776612E-5,-1.5349034E-4,2.4280528E-4,-0E0,-4.9450534E-4,5.7213695E-4,-0E0,1.0834525E-3,-0E0,7.28467E-5,-3.6623966E-4,1.4063249E-3,-0E0,6.5461453E-4,-2.3463166E-4,-0E0,4.6267713E-4,-6.483867E-4,-0E0],"split_indices":[18,2147483647,2147483647,2147483647,2147483647,2147483647,2147483647,2147483647,2147483647,2147483647,2147483647,2147483647,2147483647,2147483647,2147483647,2147483647,2147483647,2147483647,2147483647],"split_type":[0,0,0,0,0,0,0,0,0,0,0,0,0,0,0,0,0,0,0],"sum_hessian":[9.2E1,1.5E1,7.7E1,4E0,1.1E1,3.5E1,4.2E1,1.8E1,1.7E1,3.2E1,1E1,1.2E1,6E0,5E0,1.2E1,1.5E1,1.7E1,8E0,2E0],"tree_param":{"num_deleted":"18","num_feature":"36","num_nodes":"19","size_leaf_vector":"1"}},{"base_weights":[-1.08152715E-4,-3.655326E-4,-0E0,-0E0,-5.789555E-4,3.332837E-4,-1.4901938E-4,-7.2723057E-4,-0E0,-0E0,5.9870695E-4,-5.1046204E-4,-0E0,-8.322441E-4,-0E0,6.943158E-4,-0E0,-0E0,-9.098139E-4],"categories":[],"categories_nodes":[],"categories_segments":[],"categories_sizes":[],"default_left":[1,1,1,1,1,1,1,1,1,1,1,1,1,1,1,1,1,1,1],"id":32,"left_children":[-1,-1,-1,-1,-1,-1,-1,-1,-1,-1,-1,-1,-1,-1,-1,-1,-1,-1,-1],"loss_changes":[4.382241E-6,5.0604135E-6,3.1859972E-6,0E0,3.3731467E-6,4.409356E-6,3.7860977E-6,2.884114E-6,0E0,0E0,1.5169899E-6,5.8036735E-6,0E0,0E0,0E0,0E0,0E0,0E0,0E0],"parents":[2147483647,0,0,1,1,2,2,4,4,5,5,6,6,7,7,10,10,11,11],"right_children":[-1,-1,-1,-1,-1,-1,-1,-1,-1,-1,-1,-1,-1,-1,-1,-1,-1,-1,-1],"split_conditions":[-1.0358932E-4,-3.5010933E-4,-0E0,-0E0,-5.5452704E-4,3.1922114E-4,-1.4273166E-4,-6.965458E-4,-0E0,-0E0,5.734451E-4,-4.889236E-4,-0E0,-7.971284E-4,-0E0,6.6501985E-4,-0E0,-0E0,-8.714252E-4],"split_indices":[32,2147483647,2147483647,2147483647,2147483647,2147483647,2147483647,2147483647,2147483647,2147483647,2147483647,2147483647,2147483647,2147483647,2147483647,2147483647,2147483647,2147483647,2147483647],"split_type":[0,0,0,0,0,0,0,0,0,0,0,0,0,0,0,0,0,0,0],"sum_hessian":[8.3E1,4E1,4.3E1,9E0,3.1E1,2.5E1,1.8E1,2.6E1,5E0,5E0,2E1,1.6E1,2E0,2.4E1,2E0,1.8E1,2E0,4E0,1.2E1],"tree_param":{"num_deleted":"18","num_feature":"36","num_nodes":"19","size_leaf_vector":"1"}},{"base_weights":[-0E0,-1.1767613E-4,2.5499696E-4,7.0203416E-5,-5.3667824E-4,4.2804994E-4,-4.0653445E-5,-0E0,-7.4323115E-4,5.781768E-4,-0E0,-0E0,-8.368549E-4,-0E0,8.8680617E-4],"categories":[],"categories_nodes":[],"categories_segments":[],"categories_sizes":[],"default_left":[1,1,1,1,1,1,1,1,1,1,1,1,1,1,1],"id":33,"left_children":[-1,-1,-1,-1,-1,-1,-1,-1,-1,-1,-1,-1,-1,-1,-1],"loss_changes":[3.8521403E-6,6.9964726E-6,5.555401E-6,9.235814E-7,4.6825194E-6,6.2586632E-6,0E0,0E0,1.8642377E-6,7.794983E-6,0E0,0E0,0E0,0E0,0E0],"parents":[2147483647,0,0,1,1,2,2,4,4,5,5,8,8,9,9],"right_children":[-1,-1,-1,-1,-1,-1,-1,-1,-1,-1,-1,-1,-1,-1,-1],"split_conditions":[-0E0,-1.127109E-4,2.4423763E-4,6.724125E-5,-5.1403366E-4,4.099888E-4,-3.8938113E-5,-0E0,-7.1187125E-4,5.537812E-4,-0E0,-0E0,-8.0154464E-4,-0E0,8.4938825E-4],"split_indices":[24,2147483647,2147483647,2147483647,2147483647,2147483647,2147483647,2147483647,2147483647,2147483647,2147483647,2147483647,2147483647,2147483647,2147483647],"split_type":[0,0,0,0,0,0,0,0,0,0,0,0,0,0,0],"sum_hessian":[9.3E1,4.3E1,5E1,1.7E1,2.6E1,4.8E1,2E0,4E0,2.2E1,4.5E1,3E0,2E0,2E1,1.6E1,2.9E1],"tree_param":{"num_deleted":"14","num_feature":"36","num_nodes":"15","size_leaf_vector":"1"}},{"base_weights":[9.931318E-6,-5.3126085E-5,5.543874E-4,2.8393022E-4,-2.4453196E-4,8.4510905E-4,-0E0,8.767281E-4,-0E0,-0E0,-5.646156E-4,-0E0,1.1961604E-3,-0E0,1.3471494E-3,-7.9602096E-4,-0E0,1.6038469E-3,-0E0],"categories":[],"categories_nodes":[],"categories_segments":[],"categories_sizes":[],"default_left":[1,1,1,1,1,1,1,1,1,1,1,1,1,1,1,1,1,1,1],"id":34,"left_children":[-1,-1,-1,-1,-1,-1,-1,-1,-1,-1,-1,-1,-1,-1,-1,-1,-1,-1,-1],"loss_changes":[6.9663365E-6,4.0920286E-6,6.8368436E-6,3.8538847E-6,5.4760994E-6,7.942154E-6,0E0,2.7205233E-6,0E0,0E0,6.3034704E-6,0E0,1.2058086E-5,0E0,0E0,0E0,0E0,0E0,0E0],"parents":[2147483647,0,0,1,1,2,2,3,3,4,4,5,5,7,7,10,10,12,12],"right_children":[-1,-1,-1,-1,-1,-1,-1,-1,-1,-1,-1,-1,-1,-1,-1,-1,-1,-1,-1],"split_conditions":[9.512276E-6,-5.0884482E-5,5.3099554E-4,2.7195006E-4,-2.3421417E-4,8.094505E-4,-0E0,8.3973544E-4,-0E0,-0E0,-5.407922E-4,-0E0,1.1456896E-3,-0E0,1.2903077E-3,-7.624336E-4,-0E0,1.5361742E-3,-0E0],"split_indices":[26,2147483647,2147483647,2147483647,2147483647,2147483647,2147483647,2147483647,2147483647,2147483647,2147483647,2147483647,2147483647,2147483647,2147483647,2147483647,2147483647,2147483647,2147483647],"split_type":[0,0,0,0,0,0,0,0,0,0,0,0,0,0,0,0,0,0,0],"sum_hessian":[9E1,6.8E1,2.2E1,1E1,5.8E1,1.9E1,3E0,6E0,4E0,3E1,2.8E1,4E0,1.5E1,2E0,4E0,2.4E1,4E0,1.3E1,2E0],"tree_param":{"num_deleted":"18","num_feature":"36","num_nodes":"19","size_leaf_vector":"1"}},{"base_weights":[-0E0,-8.194528E-5,3.2852532E-4,6.0729653E-5,-2.9767156E-4,7.0539996E-4,-0E0,-0E0,3.49404E-4,-0E0,-4.419166E-4,-0E0,1.5737273E-3,7.40012E-4,-0E0,-7.988474E-4,-0E0,-0E0,1.9414042E-3],"categories":[],"categories_nodes":[],"categories_segments":[],"categories_sizes":[],"default_left":[1,1,1,1,1,1,0,1,1,1,1,0,1,1,1,1,1,1,1],"id":35,"left_children":[1,-1,5,-1,-1,11,-1,-1,-1,-1,-1,-1,-1,-1,-1,-1,-1,-1,-1],"loss_changes":[3.56772E-6,3.8035157E-6,8.839462E-6,1.0443339E-6,2.8733216E-6,1.5439111E-5,3.106023E-7,0E0,2.7643468E-6,0E0,1.9347322E-6,0E0,6.769076E-6,0E0,0E0,0E0,0E0,0E0,0E0],"parents":[2147483647,0,0,1,1,2,2,3,3,4,4,5,5,8,8,10,10,12,12],"right_children":[2,-1,6,-1,-1,12,-1,-1,-1,-1,-1,-1,-1,-1,-1,-1,-1,-1,-1],"split_conditions":[4.4477746E-2,-7.848768E-5,1.5328921E-1,5.8167225E-5,-2.851116E-4,5.1617958E-2,-0E0,-0E0,3.3466125E-4,-0E0,-4.2327036E-4,-0E0,1.5073254E-3,7.0878793E-4,-0E0,-7.651408E-4,-0E0,-0E0,1.8594885E-3],"split_indices":[31,26,28,2147483647,2147483647,26,0,2147483647,2147483647,2147483647,2147483647,0,10,2147483647,2147483647,2147483647,2147483647,2147483647,2147483647],"split_type":[0,0,0,0,0,0,0,0,0,0,0,0,0,0,0,0,0,0,0],"sum_hessian":[9.3E1,6.4E1,2.9E1,1.7E1,4.7E1,2.4E1,5E0,8E0,9E0,1.1E1,3.6E1,1.3E1,1.1E1,7E0,2E0,1.4E1,2.2E1,2E0,9E0],"tree_param":{"num_deleted":"12","num_feature":"36","num_nodes":"19","size_leaf_vector":"1"}},{"base_weights":[-4.257348E-8,4.726199E-4,-1.5791833E-4,1.0493015E-3,-0E0,-4.4826829E-4,-0E0,1.4678041E-3,-0E0,-9.772131E-4,-0E0,1.7759319E-4,-1.7783762E-4,-0E0,-1.2181604E-3,-0E0,4.8999646E-4,-5.548559E-4,-0E0],"categories":[],"categories_nodes":[],"categories_segments":[],"categories_sizes":[],"default_left":[1,1,1,1,1,1,1,1,1,1,1,1,1,1,1,1,1,1,1],"id":36,"left_children":[-1,-1,-1,-1,-1,-1,-1,-1,-1,-1,-1,-1,-1,-1,-1,-1,-1,-1,-1],"loss_changes":[4.519369E-6,5.311572E-6,4.397604E-6,3.1387071E-6,0E0,8.901658E-6,1.5832104E-6,0E0,0E0,5.5326836E-6,0E0,2.4613016E-6,4.2810166E-6,0E0,0E0,0E0,0E0,0E0,0E0],"parents":[2147483647,0,0,1,1,2,2,3,3,5,5,6,6,9,9,11,11,12,12],"right_children":[-1,-1,-1,-1,-1,-1,-1,-1,-1,-1,-1,-1,-1,-1,-1,-1,-1,-1,-1],"split_conditions":[-4.0777135E-8,4.5267816E-4,-1.5125512E-4,1.0050272E-3,-0E0,-4.2935406E-4,-0E0,1.4058716E-3,-0E0,-9.359806E-4,-0E0,1.7009983E-4,-1.7033394E-4,-0E0,-1.1667613E-3,-0E0,4.6932153E-4,-5.314443E-4,-0E0],"split_indices":[13,2147483647,2147483647,2147483647,2147483647,2147483647,2147483647,2147483647,2147483647,2147483647,2147483647,2147483647,2147483647,2147483647,2147483647,2147483647,2147483647,2147483647,2147483647],"split_type":[0,0,0,0,0,0,0,0,0,0,0,0,0,0,0,0,0,0,0],"sum_hessian":[9.3E1,1.1E1,8.2E1,7E0,4E0,3.2E1,5E1,5E0,2E0,1.6E1,1.6E1,2.9E1,2.1E1,2E0,1.4E1,1.5E1,1.4E1,1.6E1,5E0],"tree_param":{"num_deleted":"18","num_feature":"36","num_nodes":"19","size_leaf_vector":"1"}},{"base_weights":[-1.2150365E-4,-0E0,-4.2213796E-4,-9.875279E-5,2.6124367E-4,-8.250342E-4,-0E0,-2.9341428E-4,-0E0,-0E0,-1.0148053E-3,-0E0,-6.466911E-4,-0E0,4.3860087E-4],"categories":[],"categories_nodes":[],"categories_segments":[],"categories_sizes":[],"default_left":[1,1,1,1,1,1,1,1,1,1,1,1,1,1,1],"id":37,"left_children":[-1,-1,-1,-1,-1,-1,-1,-1,-1,-1,-1,-1,-1,-1,-1],"loss_changes":[2.781363E-6,1.5362907E-6,8.18881E-6,3.2001844E-6,6.538081E-7,2.1897758E-6,0E0,8.867564E-6,1.3600535E-6,0E0,3.101195E-8,0E0,0E0,0E0,0E0],"parents":[2147483647,0,0,1,1,2,2,3,3,5,5,7,7,8,8],"right_children":[-1,-1,-1,-1,-1,-1,-1,-1,-1,-1,-1,-1,-1,-1,-1],"split_conditions":[-1.1637692E-4,-0E0,-4.0432627E-4,-9.4586016E-5,2.5022074E-4,-7.902227E-4,-0E0,-2.8103395E-4,-0E0,-0E0,-9.7198656E-4,-0E0,-6.1940466E-4,-0E0,4.2009453E-4],"split_indices":[11,2147483647,2147483647,2147483647,2147483647,2147483647,2147483647,2147483647,2147483647,2147483647,2147483647,2147483647,2147483647,2147483647,2147483647],"split_type":[0,0,0,0,0,0,0,0,0,0,0,0,0,0,0],"sum_hessian":[9E1,6.7E1,2.3E1,5.2E1,1.5E1,1.8E1,5E0,4.3E1,9E0,4E0,1.4E1,1.3E1,3E1,2E0,7E0],"tree_param":{"num_deleted":"14","num_feature":"36","num_nodes":"15","size_leaf_vector":"1"}},{"base_weights":[-0E0,6.9290126E-4,-8.429646E-5,-0E0,1.1100011E-3,-7.4775354E-4,-0E0,1.4468845E-3,-0E0,-0E0,-1.0499904E-3,2.1573312E-4,-8.9863264E-5,-0E0,-1.3200332E-3,4.1322678E-4,-0E0,-4.9349974E-4,-0E0],"categories":[],"categories_nodes":[],"categories_segments":[],"categories_sizes":[],"default_left":[1,1,1,1,1,1,1,1,1,1,1,1,1,1,1,1,1,1,1],"id":38,"left_children":[-1,-1,-1,-1,-1,-1,-1,-1,-1,-1,-1,-1,-1,-1,-1,-1,-1,-1,-1],"loss_changes":[5.933532E-6,5.8602973E-6,7.807438E-6,0E0,3.6256642E-6,4.8807415E-6,1.8930727E-6,0E0,0E0,0E0,4.2398933E-6,2.8659695E-6,2.3885702E-6,0E0,0E0,0E0,0E0,0E0,0E0],"parents":[2147483647,0,0,1,1,2,2,4,4,5,5,6,6,10,10,11,11,12,12],"right_children":[-1,-1,-1,-1,-1,-1,-1,-1,-1,-1,-1,-1,-1,-1,-1,-1,-1,-1,-1],"split_conditions":[-0E0,6.63665E-4,-8.073965E-5,-0E0,1.0631657E-3,-7.1620283E-4,-0E0,1.3858347E-3,-0E0,-0E0,-1.0056872E-3,2.0663047E-4,-8.607157E-5,-0E0,-1.2643357E-3,3.9579108E-4,-0E0,-4.72677E-4,-0E0],"split_indices":[13,2147483647,2147483647,2147483647,2147483647,2147483647,2147483647,2147483647,2147483647,2147483647,2147483647,2147483647,2147483647,2147483647,2147483647,2147483647,2147483647,2147483647,2147483647],"split_type":[0,0,0,0,0,0,0,0,0,0,0,0,0,0,0,0,0,0,0],"sum_hessian":[9.8E1,1.1E1,8.7E1,2E0,9E0,1.5E1,7.2E1,7E0,2E0,3E0,1.2E1,3.4E1,3.8E1,2E0,1E1,2.6E1,8E0,1.1E1,2.7E1],"tree_param":{"num_deleted":"18","num_feature":"36","num_nodes":"19","size_leaf_vector":"1"}},{"base_weights":[-0E0,4.1259048E-4,-6.398816E-5,6.4117525E-4,-0E0,-7.266331E-4,-0E0,-0E0,9.752123E-4,-0E0,-1.2410206E-3,2.729728E-4,-2.6474943E-4,-0E0,5.7212095E-4,-0E0,-5.6167E-4],"categories":[],"categories_nodes":[],"categories_segments":[],"categories_sizes":[],"default_left":[1,1,1,1,1,1,1,1,1,1,1,1,1,1,1,1,1],"id":39,"left_children":[-1,-1,-1,-1,-1,-1,-1,-1,-1,-1,-1,-1,-1,-1,-1,-1,-1],"loss_changes":[2.8809345E-6,1.9855509E-6,6.5853205E-6,1.2218461E-6,0E0,5.527924E-6,4.672897E-6,0E0,0E0,0E0,3.9147926E-7,4.8928578E-6,4.6444175E-6,0E0,0E0,0E0,0E0],"parents":[2147483647,0,0,1,1,2,2,3,3,5,5,6,6,11,11,12,12],"right_children":[-1,-1,-1,-1,-1,-1,-1,-1,-1,-1,-1,-1,-1,-1,-1,-1,-1],"split_conditions":[-0E0,3.9518165E-4,-6.128824E-5,6.141215E-4,-0E0,-6.959736E-4,-0E0,-0E0,9.340642E-4,-0E0,-1.188657E-3,2.61455E-4,-2.535786E-4,-0E0,5.479809E-4,-0E0,-5.3797086E-4],"split_indices":[26,2147483647,2147483647,2147483647,2147483647,2147483647,2147483647,2147483647,2147483647,2147483647,2147483647,2147483647,2147483647,2147483647,2147483647,2147483647,2147483647],"split_type":[0,0,0,0,0,0,0,0,0,0,0,0,0,0,0,0,0],"sum_hessian":[9.2E1,1.5E1,7.7E1,1.1E1,4E0,1.3E1,6.4E1,5E0,6E0,5E0,8E0,4E1,2.4E1,1.6E1,2.4E1,4E0,2E1],"tree_param":{"num_deleted":"16","num_feature":"36","num_nodes":"17","size_leaf_vector":"1"}},{"base_weights":[-0E0,8.3694395E-5,-3.1822233E-4,3.1615008E-4,-2.7824992E-5,-0E0,4.7601954E-4,-3.6158744E-4,-0E0,-0E0,5.929887E-4,-0E0,-7.5428037E-4,6.0926337E-4,-0E0],"categories":[],"categories_nodes":[],"categories_segments":[],"categories_sizes":[],"default_left":[1,1,1,1,1,1,1,1,1,1,1,1,1,1,1],"id":40,"left_children":[-1,-1,-1,-1,-1,-1,-1,-1,-1,-1,-1,-1,-1,-1,-1],"loss_changes":[1.7971497E-6,4.355309E-6,9.100562E-7,5.08143E-6,2.3369619E-6,0E0,3.049101E-6,2.2287481E-6,2.9955845E-6,0E0,0E0,0E0,0E0,0E0,0E0],"parents":[2147483647,0,0,1,1,3,3,4,4,6,6,7,7,8,8],"right_children":[-1,-1,-1,-1,-1,-1,-1,-1,-1,-1,-1,-1,-1,-1,-1],"split_conditions":[-0E0,8.0162994E-5,-3.0479525E-4,3.0281043E-4,-2.6650943E-5,-0E0,4.5593438E-4,-3.4633063E-4,-0E0,-0E0,5.679681E-4,-0E0,-7.224543E-4,5.8355613E-4,-0E0],"split_indices":[5,2147483647,2147483647,2147483647,2147483647,2147483647,2147483647,2147483647,2147483647,2147483647,2147483647,2147483647,2147483647,2147483647,2147483647],"split_type":[0,0,0,0,0,0,0,0,0,0,0,0,0,0,0],"sum_hessian":[9.4E1,8.2E1,1.2E1,4.9E1,3.3E1,5E0,4.4E1,1.8E1,1.5E1,7E0,3.7E1,1E1,8E0,8E0,7E0],"tree_param":{"num_deleted":"14","num_feature":"36","num_nodes":"15","size_leaf_vector":"1"}},{"base_weights":[2.780788E-5,2.4879622E-4,-2.1811573E-4,-0E0,3.868856E-4,-4.119827E-4,-0E0,-0E0,4.6898672E-4,-0E0,-6.629461E-4,5.680741E-4,-0E0,-8.892457E-4,-0E0],"categories":[],"categories_nodes":[],"categories_segments":[],"categories_sizes":[],"default_left":[1,1,1,1,1,1,1,1,1,1,1,1,1,1,1],"id":41,"left_children":[-1,-1,-1,-1,-1,-1,-1,-1,-1,-1,-1,-1,-1,-1,-1],"loss_changes":[5.2444448E-6,4.2150964E-6,2.9672788E-6,1.882177E-7,2.7699161E-6,3.2470875E-6,0E0,0E0,1.5953829E-6,0E0,4.4144854E-6,0E0,0E0,0E0,0E0],"parents":[2147483647,0,0,1,1,2,2,4,4,5,5,8,8,10,10],"right_children":[-1,-1,-1,-1,-1,-1,-1,-1,-1,-1,-1,-1,-1,-1,-1],"split_conditions":[2.6634554E-5,2.3829851E-4,-2.0891255E-4,-0E0,3.7056135E-4,-3.945995E-4,-0E0,-0E0,4.491983E-4,-0E0,-6.3497375E-4,5.441048E-4,-0E0,-8.517249E-4,-0E0],"split_indices":[12,2147483647,2147483647,2147483647,2147483647,2147483647,2147483647,2147483647,2147483647,2147483647,2147483647,2147483647,2147483647,2147483647,2147483647],"split_type":[0,0,0,0,0,0,0,0,0,0,0,0,0,0,0],"sum_hessian":[9.2E1,6.5E1,2.7E1,1E1,5.5E1,2.5E1,2E0,5E0,5E1,8E0,1.7E1,3.9E1,1.1E1,1.5E1,2E0],"tree_param":{"num_deleted":"14","num_feature":"36","num_nodes":"15","size_leaf_vector":"1"}},{"base_weights":[-0E0,5.3484578E-6,-3.7384318E-4,-3.8609863E-4,2.3213773E-4,-0E0,-8.208229E-4,-0E0,-5.68766E-4,1.1192814E-3,-0E0,-0E0,-1.2230893E-3,-0E0,1.5235867E-3,-6.3560794E-5,3.747203E-4],"categories":[],"categories_nodes":[],"categories_segments":[],"categories_sizes":[],"default_left":[1,1,1,1,1,1,1,1,1,1,1,1,1,1,1,1,1],"id":42,"left_children":[-1,-1,-1,-1,-1,-1,-1,-1,-1,-1,-1,-1,-1,-1,-1,-1,-1],"loss_changes":[2.5275824E-6,5.4814095E-6,6.954204E-6,1.981552E-6,8.125718E-6,0E0,5.584494E-6,0E0,7.137155E-7,2.7275373E-6,2.39815E-6,0E0,0E0,0E0,0E0,0E0,0E0],"parents":[2147483647,0,0,1,1,2,2,3,3,4,4,6,6,9,9,10,10],"right_children":[-1,-1,-1,-1,-1,-1,-1,-1,-1,-1,-1,-1,-1,-1,-1,-1,-1],"split_conditions":[-0E0,5.122785E-6,-3.5806923E-4,-3.698076E-4,2.223429E-4,-0E0,-7.861891E-4,-0E0,-5.447675E-4,1.0720544E-3,-0E0,-0E0,-1.1714823E-3,-0E0,1.4593004E-3,-6.087891E-5,3.5890934E-4],"split_indices":[30,2147483647,2147483647,2147483647,2147483647,2147483647,2147483647,2147483647,2147483647,2147483647,2147483647,2147483647,2147483647,2147483647,2147483647,2147483647,2147483647],"split_type":[0,0,0,0,0,0,0,0,0,0,0,0,0,0,0,0,0],"sum_hessian":[9.3E1,7.5E1,1.8E1,1.5E1,6E1,4E0,1.4E1,2E0,1.3E1,9E0,5.1E1,4E0,1E1,3E0,6E0,3.5E1,1.6E1],"tree_param":{"num_deleted":"16","num_feature":"36","num_nodes":"17","size_leaf_vector":"1"}},{"base_weights":[-0E0,7.0184085E-4,-1.632926E-4,1.0755562E-3,-0E0,-3.552057E-4,-0E0,-7.4620626E-4,-0E0,-0E0,-9.810736E-4],"categories":[],"categories_nodes":[],"categories_segments":[],"categories_sizes":[],"default_left":[1,1,1,1,1,1,1,1,1,1,1],"id":43,"left_children":[-1,-1,-1,-1,-1,-1,-1,-1,-1,-1,-1],"loss_changes":[6.6560387E-6,3.7109935E-6,3.3720023E-6,0E0,0E0,9.5128435E-6,3.9288958E-7,7.1317627E-6,1.29592E-7,0E0,0E0],"parents":[2147483647,0,0,1,1,2,2,5,5,7,7],"right_children":[-1,-1,-1,-1,-1,-1,-1,-1,-1,-1,-1],"split_conditions":[-0E0,6.7222735E-4,-1.5640263E-4,1.0301741E-3,-0E0,-3.4021816E-4,-0E0,-7.147208E-4,-0E0,-0E0,-9.3967817E-4],"split_indices":[13,2147483647,2147483647,2147483647,2147483647,2147483647,2147483647,2147483647,2147483647,2147483647,2147483647],"split_type":[0,0,0,0,0,0,0,0,0,0,0],"sum_hessian":[9.1E1,9E0,8.2E1,7E0,2E0,4.4E1,3.8E1,2.7E1,1.7E1,4E0,2.3E1],"tree_param":{"num_deleted":"10","num_feature":"36","num_nodes":"11","size_leaf_vector":"1"}},{"base_weights":[-2.5462059E-5,2.0207846E-4,-1.6649855E-4,1.1053679E-3,-0E0,-5.1470293E-4,-0E0,-8.5075566E-4,-0E0,2.5615413E-4,-3.142095E-4,-1.1367772E-3,-0E0,-0E0,6.4215396E-4,-5.2300765E-4,-0E0],"categories":[],"categories_nodes":[],"categories_segments":[],"categories_sizes":[],"default_left":[1,1,1,1,1,1,1,1,1,1,1,1,1,1,1,1,1],"id":44,"left_children":[-1,-1,-1,-1,-1,-1,-1,-1,-1,-1,-1,-1,-1,-1,-1,-1,-1],"loss_changes":[2.7463643E-6,4.357442E-6,4.97939E-6,0E0,0E0,7.3549913E-6,4.151953E-6,7.532528E-6,0E0,3.8288745E-6,3.3109632E-6,0E0,0E0,0E0,0E0,0E0,0E0],"parents":[2147483647,0,0,1,1,2,2,5,5,6,6,7,7,9,9,10,10],"right_children":[-1,-1,-1,-1,-1,-1,-1,-1,-1,-1,-1,-1,-1,-1,-1,-1,-1],"split_conditions":[-2.4387713E-5,1.9355195E-4,-1.594733E-4,1.058728E-3,-0E0,-4.9298553E-4,-0E0,-8.148589E-4,-0E0,2.4534596E-4,-3.0095174E-4,-1.088812E-3,-0E0,-0E0,6.1505893E-4,-5.0093984E-4,-0E0],"split_indices":[24,2147483647,2147483647,2147483647,2147483647,2147483647,2147483647,2147483647,2147483647,2147483647,2147483647,2147483647,2147483647,2147483647,2147483647,2147483647,2147483647],"split_type":[0,0,0,0,0,0,0,0,0,0,0,0,0,0,0,0,0],"sum_hessian":[9.4E1,1.5E1,7.9E1,4E0,1.1E1,2.7E1,5.2E1,2E1,7E0,3E1,2.2E1,1.7E1,3E0,1.6E1,1.4E1,2E1,2E0],"tree_param":{"num_deleted":"16","num_feature":"36","num_nodes":"17","size_leaf_vector":"1"}},{"base_weights":[-2.0614454E-5,3.5163033E-4,-1.5870953E-4,5.863591E-4,-0E0,-0E0,-4.1473974E-4,-0E0,8.368772E-4,-6.265189E-4,-0E0,-0E0,-9.592275E-4,1.442493E-4,-5.882603E-4],"categories":[],"categories_nodes":[],"categories_segments":[],"categories_sizes":[],"default_left":[1,1,1,1,1,1,1,1,1,1,1,1,1,1,1],"id":45,"left_children":[-1,-1,-1,-1,-1,-1,-1,-1,-1,-1,-1,-1,-1,-1,-1],"loss_changes":[3.297964E-6,1.1856838E-6,6.176043E-6,1.1200423E-6,0E0,4.931474E-7,3.5347712E-6,0E0,0E0,3.9031265E-6,2.0264188E-6,0E0,0E0,0E0,0E0],"parents":[2147483647,0,0,1,1,2,2,3,3,6,6,9,9,10,10],"right_children":[-1,-1,-1,-1,-1,-1,-1,-1,-1,-1,-1,-1,-1,-1,-1],"split_conditions":[-1.9744648E-5,3.3679363E-4,-1.5201294E-4,5.616183E-4,-0E0,-0E0,-3.9724022E-4,-0E0,8.01566E-4,-6.0008356E-4,-0E0,-0E0,-9.1875385E-4,1.3816284E-4,-5.634392E-4],"split_indices":[13,2147483647,2147483647,2147483647,2147483647,2147483647,2147483647,2147483647,2147483647,2147483647,2147483647,2147483647,2147483647,2147483647,2147483647],"split_type":[0,0,0,0,0,0,0,0,0,0,0,0,0,0,0],"sum_hessian":[9.3E1,1E1,8.3E1,7E0,3E0,3.5E1,4.8E1,2E0,5E0,3E1,1.8E1,1.3E1,1.7E1,1.3E1,5E0],"tree_param":{"num_deleted":"14","num_feature":"36","num_nodes":"15","size_leaf_vector":"1"}},{"base_weights":[-0E0,1.1037893E-4,-1.3889509E-4,3.214906E-4,-2.12835E-5,-0E0,-4.6260664E-4,-0E0,6.255797E-4,-5.366245E-4,-0E0,-0E0,-8.536942E-4,-0E0,7.028687E-4],"categories":[],"categories_nodes":[],"categories_segments":[],"categories_sizes":[],"default_left":[1,1,1,1,1,1,1,1,1,1,1,1,1,1,1],"id":46,"left_children":[-1,-1,-1,-1,-1,-1,-1,-1,-1,-1,-1,-1,-1,-1,-1],"loss_changes":[1.2479928E-6,4.239262E-6,3.2465766E-6,7.8702415E-6,1.7388502E-6,0E0,4.414663E-6,5.3168054E-7,2.4073915E-6,0E0,0E0,0E0,2.0167772E-7,0E0,0E0],"parents":[2147483647,0,0,1,1,2,2,3,3,4,4,6,6,8,8],"right_children":[-1,-1,-1,-1,-1,-1,-1,-1,-1,-1,-1,-1,-1,-1,-1],"split_conditions":[-0E0,1.057216E-4,-1.3303455E-4,3.0792563E-4,-2.0385463E-5,-0E0,-4.430874E-4,-0E0,5.9918396E-4,-5.139822E-4,-0E0,-0E0,-8.1767346E-4,-0E0,6.732118E-4],"split_indices":[11,2147483647,2147483647,2147483647,2147483647,2147483647,2147483647,2147483647,2147483647,2147483647,2147483647,2147483647,2147483647,2147483647,2147483647],"split_type":[0,0,0,0,0,0,0,0,0,0,0,0,0,0,0],"sum_hessian":[9E1,6.9E1,2.1E1,4.9E1,2E1,4E0,1.7E1,1.6E1,3.3E1,6E0,1.4E1,6E0,1.1E1,2E0,3.1E1],"tree_param":{"num_deleted":"14","num_feature":"36","num_nodes":"15","size_leaf_vector":"1"}},{"base_weights":[-0E0,7.445516E-5,-3.3006832E-4,4.7509855E-4,-0E0,1.0389804E-3,-0E0,-3.9984015E-4,1.7877921E-4,-1.044292E-3,-0E0,4.0490928E-4,-0E0],"categories":[],"categories_nodes":[],"categories_segments":[],"categories_sizes":[],"default_left":[1,1,1,1,1,1,1,1,1,1,1,1,1],"id":47,"left_children":[-1,-1,-1,-1,-1,-1,-1,-1,-1,-1,-1,-1,-1],"loss_changes":[1.7699235E-6,3.172329E-6,2.7103192E-7,5.0840745E-6,5.064847E-6,0E0,0E0,7.2935086E-6,4.5371235E-6,0E0,0E0,0E0,0E0],"parents":[2147483647,0,0,1,1,3,3,4,4,7,7,8,8],"right_children":[-1,-1,-1,-1,-1,-1,-1,-1,-1,-1,-1,-1,-1],"split_conditions":[-0E0,7.1313596E-5,-3.161414E-4,4.5505224E-4,-0E0,9.951417E-4,-0E0,-3.829693E-4,1.712358E-4,-1.0002292E-3,-0E0,3.8782455E-4,-0E0],"split_indices":[9,2147483647,2147483647,2147483647,2147483647,2147483647,2147483647,2147483647,2147483647,2147483647,2147483647,2147483647,2147483647],"split_type":[0,0,0,0,0,0,0,0,0,0,0,0,0],"sum_hessian":[9.4E1,8.2E1,1.2E1,1.6E1,6.6E1,8E0,8E0,2.3E1,4.3E1,1E1,1.3E1,3.6E1,7E0],"tree_param":{"num_deleted":"12","num_feature":"36","num_nodes":"13","size_leaf_vector":"1"}},{"base_weights":[-0E0],"categories":[],"categories_nodes":[],"categories_segments":[],"categories_sizes":[],"default_left":[0],"id":48,"left_children":[-1],"loss_changes":[4.877558E-7],"parents":[2147483647],"right_children":[-1],"split_conditions":[-0E0],"split_indices":[0],"split_type":[0],"sum_hessian":[9.2E1],"tree_param":{"num_deleted":"0","num_feature":"36","num_nodes":"1","size_leaf_vector":"1"}},{"base_weights":[4.157807E-5,4.2985356E-4,-0E0,-0E0,1.2886056E-3,-4.884147E-4,1.9156888E-4,-0E0,-5.826077E-4,3.177904E-4,-0E0,-7.2874816E-4,-0E0,4.9482466E-4,-0E0],"categories":[],"categories_nodes":[],"categories_segments":[],"categories_sizes":[],"default_left":[1,1,1,1,1,1,1,1,1,1,1,1,1,1,1],"id":49,"left_children":[-1,-1,-1,-1,-1,-1,-1,-1,-1,-1,-1,-1,-1,-1,-1],"loss_changes":[3.7392042E-6,9.507023E-6,7.964722E-6,0E0,2.9435978E-7,2.0520306E-6,1.1256133E-6,0E0,1.0869435E-6,2.036483E-6,0E0,0E0,0E0,0E0,0E0],"parents":[2147483647,0,0,1,1,2,2,5,5,6,6,8,8,9,9],"right_children":[-1,-1,-1,-1,-1,-1,-1,-1,-1,-1,-1,-1,-1,-1,-1],"split_conditions":[3.9823724E-5,4.1171632E-4,-0E0,-0E0,1.2342342E-3,-4.6780653E-4,1.8348581E-4,-0E0,-5.5802515E-4,3.0438154E-4,-0E0,-6.979994E-4,-0E0,4.7394604E-4,-0E0],"split_indices":[11,2147483647,2147483647,2147483647,2147483647,2147483647,2147483647,2147483647,2147483647,2147483647,2147483647,2147483647,2147483647,2147483647,2147483647],"split_type":[0,0,0,0,0,0,0,0,0,0,0,0,0,0,0],"sum_hessian":[8.9E1,2.1E1,6.8E1,1.3E1,8E0,2.7E1,4.1E1,2E0,2.5E1,2.6E1,1.5E1,1.8E1,7E0,1.9E1,7E0],"tree_param":{"num_deleted":"14","num_feature":"36","num_nodes":"15","size_leaf_vector":"1"}},{"base_weights":[-0E0,6.0535585E-5,-3.6966454E-4,4.3544857E-4,-0E0,-0E0,-5.1738863E-4,9.995024E-4,-0E0,-3.8001762E-4,1.7965489E-4,-8.325343E-4,-0E0,5.8954343E-4,-5.4011334E-6],"categories":[],"categories_nodes":[],"categories_segments":[],"categories_sizes":[],"default_left":[1,1,1,1,1,1,1,1,1,1,1,1,1,1,1],"id":50,"left_children":[-1,-1,-1,-1,-1,-1,-1,-1,-1,-1,-1,-1,-1,-1,-1],"loss_changes":[1.9537974E-6,2.7426981E-6,1.0462552E-6,5.0148174E-6,4.9782834E-6,0E0,6.996322E-7,1.563103E-7,0E0,4.052298E-6,7.703537E-6,0E0,0E0,0E0,0E0],"parents":[2147483647,0,0,1,1,2,2,3,3,4,4,9,9,10,10],"right_children":[-1,-1,-1,-1,-1,-1,-1,-1,-1,-1,-1,-1,-1,-1,-1],"split_conditions":[-0E0,5.7981346E-5,-3.5406693E-4,4.1707527E-4,-0E0,-0E0,-4.955579E-4,9.5732935E-4,-0E0,-3.6398316E-4,1.7207453E-4,-7.974063E-4,-0E0,5.646682E-4,-5.173238E-6],"split_indices":[9,2147483647,2147483647,2147483647,2147483647,2147483647,2147483647,2147483647,2147483647,2147483647,2147483647,2147483647,2147483647,2147483647,2147483647],"split_type":[0,0,0,0,0,0,0,0,0,0,0,0,0,0,0],"sum_hessian":[9.5E1,8.3E1,1.2E1,1.6E1,6.7E1,2E0,1E1,8E0,8E0,2.5E1,4.2E1,1.1E1,1.4E1,2.6E1,1.6E1],"tree_param":{"num_deleted":"14","num_feature":"36","num_nodes":"15","size_leaf_vector":"1"}},{"base_weights":[-1.0331578E-5,-0E0,-3.5194535E-4,-0E0,6.738152E-4,-6.631646E-4,-0E0,2.919504E-4,-2.1292157E-4,-0E0,-1.202989E-3,6.5729464E-4,-0E0,-7.716765E-4,-0E0],"categories":[],"categories_nodes":[],"categories_segments":[],"categories_sizes":[],"default_left":[1,1,1,1,1,1,1,1,1,1,1,1,1,1,1],"id":51,"left_children":[-1,-1,-1,-1,-1,-1,-1,-1,-1,-1,-1,-1,-1,-1,-1],"loss_changes":[2.9720375E-6,4.572033E-6,5.845075E-6,2.816352E-6,6.4628466E-7,7.193741E-6,0E0,2.2814013E-6,9.908079E-6,0E0,0E0,0E0,0E0,0E0,0E0],"parents":[2147483647,0,0,1,1,2,2,3,3,5,5,7,7,8,8],"right_children":[-1,-1,-1,-1,-1,-1,-1,-1,-1,-1,-1,-1,-1,-1,-1],"split_conditions":[-9.895647E-6,-0E0,-3.3709535E-4,-0E0,6.4538425E-4,-6.35183E-4,-0E0,2.7963184E-4,-2.0393755E-4,-0E0,-1.1522301E-3,6.2956073E-4,-0E0,-7.3911634E-4,-0E0],"split_indices":[12,2147483647,2147483647,2147483647,2147483647,2147483647,2147483647,2147483647,2147483647,2147483647,2147483647,2147483647,2147483647,2147483647,2147483647],"split_type":[0,0,0,0,0,0,0,0,0,0,0,0,0,0,0],"sum_hessian":[8.8E1,6.4E1,2.4E1,5.4E1,1E1,2E1,4E0,9E0,4.5E1,9E0,1.1E1,7E0,2E0,2E1,2.5E1],"tree_param":{"num_deleted":"14","num_feature":"36","num_nodes":"15","size_leaf_vector":"1"}},{"base_weights":[-1.777938E-5,1.6608635E-4,-1.491714E-4,-0E0,8.5101335E-4,-5.559361E-4,-0E0,1.2887212E-3,-0E0,-0E0,-7.710128E-4,-8.873249E-4,-0E0],"categories":[],"categories_nodes":[],"categories_segments":[],"categories_sizes":[],"default_left":[1,1,1,1,1,1,1,1,1,1,1,1,1],"id":52,"left_children":[-1,-1,-1,-1,-1,-1,-1,-1,-1,-1,-1,-1,-1],"loss_changes":[2.0470281E-6,4.7597027E-6,6.9604716E-6,0E0,3.2999706E-6,6.227666E-6,9.07469E-7,0E0,0E0,0E0,3.260925E-6,0E0,0E0],"parents":[2147483647,0,0,1,1,2,2,4,4,5,5,10,10],"right_children":[-1,-1,-1,-1,-1,-1,-1,-1,-1,-1,-1,-1,-1],"split_conditions":[-1.7029197E-5,1.590785E-4,-1.4287727E-4,-0E0,8.151057E-4,-5.324789E-4,-0E0,1.2343449E-3,-0E0,-0E0,-7.3848065E-4,-8.498851E-4,-0E0],"split_indices":[35,2147483647,2147483647,2147483647,2147483647,2147483647,2147483647,2147483647,2147483647,2147483647,2147483647,2147483647,2147483647],"split_type":[0,0,0,0,0,0,0,0,0,0,0,0,0],"sum_hessian":[9E1,1.3E1,7.7E1,6E0,7E0,2.8E1,4.9E1,5E0,2E0,3E0,2.5E1,2.3E1,2E0],"tree_param":{"num_deleted":"12","num_feature":"36","num_nodes":"13","size_leaf_vector":"1"}},{"base_weights":[-0E0,3.074655E-6,-1.8076878E-4,-1.7188604E-4,2.2797045E-4,-7.401184E-4,-0E0,-0E0,-6.0288276E-4,5.119908E-4,-0E0,-0E0,7.867257E-4],"categories":[],"categories_nodes":[],"categories_segments":[],"categories_sizes":[],"default_left":[1,1,1,1,1,1,1,1,1,1,1,1,1],"id":53,"left_children":[-1,-1,-1,-1,-1,-1,-1,-1,-1,-1,-1,-1,-1],"loss_changes":[1.0158614E-6,2.8389416E-6,3.953016E-6,3.5783332E-6,4.439559E-6,1.8779338E-7,2.9207246E-7,0E0,8.355346E-7,6.826086E-6,4.0098934E-7,0E0,0E0],"parents":[2147483647,0,0,1,1,2,2,3,3,4,4,9,9],"right_children":[-1,-1,-1,-1,-1,-1,-1,-1,-1,-1,-1,-1,-1],"split_conditions":[-0E0,2.9449232E-6,-1.7314142E-4,-1.6463349E-4,2.1835146E-4,-7.088898E-4,-0E0,-0E0,-5.7744473E-4,4.9038784E-4,-0E0,-0E0,7.535306E-4],"split_indices":[21,2147483647,2147483647,2147483647,2147483647,2147483647,2147483647,2147483647,2147483647,2147483647,2147483647,2147483647,2147483647],"split_type":[0,0,0,0,0,0,0,0,0,0,0,0,0],"sum_hessian":[9.2E1,6.1E1,3.1E1,1.5E1,4.6E1,9E0,2.2E1,4E0,1.1E1,2.6E1,2E1,4E0,2.2E1],"tree_param":{"num_deleted":"12","num_feature":"36","num_nodes":"13","size_leaf_vector":"1"}},{"base_weights":[-0E0,4.0507108E-5,-3.136489E-4,-0E0,8.472568E-4,-1.3292051E-4,9.120196E-5,-0E0,-4.4926768E-4,4.541634E-4,-1.6769514E-5],"categories":[],"categories_nodes":[],"categories_segments":[],"categories_sizes":[],"default_left":[1,1,1,1,1,1,1,1,1,1,1],"id":54,"left_children":[-1,-1,-1,-1,-1,-1,-1,-1,-1,-1,-1],"loss_changes":[1.3236934E-6,5.65667E-6,7.419543E-7,1.0557558E-6,0E0,2.6314679E-6,4.5184206E-6,0E0,0E0,0E0,0E0],"parents":[2147483647,0,0,1,1,3,3,5,5,6,6],"right_children":[-1,-1,-1,-1,-1,-1,-1,-1,-1,-1,-1],"split_conditions":[-0E0,3.879795E-5,-3.004148E-4,-0E0,8.1150763E-4,-1.2731206E-4,8.735379E-5,-0E0,-4.3031128E-4,4.3500043E-4,-1.6061942E-5],"split_indices":[5,2147483647,2147483647,2147483647,2147483647,2147483647,2147483647,2147483647,2147483647,2147483647,2147483647],"split_type":[0,0,0,0,0,0,0,0,0,0,0],"sum_hessian":[9.5E1,8.3E1,1.2E1,7.5E1,8E0,4.6E1,2.9E1,2.9E1,1.7E1,2.3E1,6E0],"tree_param":{"num_deleted":"10","num_feature":"36","num_nodes":"11","size_leaf_vector":"1"}},{"base_weights":[-0E0,2.331666E-4,-5.6791843E-5,1.004979E-3,-0E0,-4.9631996E-4,-0E0,-9.026348E-4,-0E0,1.8554182E-4,-1.3663397E-4,-0E0,-1.2046053E-3,-0E0,3.6240404E-4,-8.486148E-4,-0E0],"categories":[],"categories_nodes":[],"categories_segments":[],"categories_sizes":[],"default_left":[1,1,1,1,1,1,1,1,1,1,1,1,1,1,1,1,1],"id":55,"left_children":[-1,-1,-1,-1,-1,-1,-1,-1,-1,-1,-1,-1,-1,-1,-1,-1,-1],"loss_changes":[1.0614276E-6,5.3112535E-6,4.7017793E-6,0E0,0E0,7.3343413E-6,1.6765348E-6,5.23616E-6,0E0,1.7474039E-6,6.269035E-6,0E0,0E0,0E0,0E0,0E0,0E0],"parents":[2147483647,0,0,1,1,2,2,5,5,6,6,7,7,9,9,10,10],"right_children":[-1,-1,-1,-1,-1,-1,-1,-1,-1,-1,-1,-1,-1,-1,-1,-1,-1],"split_conditions":[-0E0,2.2332837E-4,-5.439557E-5,9.625749E-4,-0E0,-4.7537824E-4,-0E0,-8.64549E-4,-0E0,1.7771307E-4,-1.3086884E-4,-0E0,-1.1537782E-3,-0E0,3.4711277E-4,-8.1280834E-4,-0E0],"split_indices":[24,2147483647,2147483647,2147483647,2147483647,2147483647,2147483647,2147483647,2147483647,2147483647,2147483647,2147483647,2147483647,2147483647,2147483647,2147483647,2147483647],"split_type":[0,0,0,0,0,0,0,0,0,0,0,0,0,0,0,0,0],"sum_hessian":[9E1,1.5E1,7.5E1,6E0,9E0,2E1,5.5E1,1.5E1,5E0,4.1E1,1.4E1,3E0,1.2E1,1.7E1,2.4E1,9E0,5E0],"tree_param":{"num_deleted":"16","num_feature":"36","num_nodes":"17","size_leaf_vector":"1"}}]},"name":"gbtree"},"learner_model_param":{"base_score":"7.2398774E-2","boost_from_average":"1","num_class":"0","num_feature":"36","num_target":"1"},"objective":{"name":"reg:squarederror","reg_loss_param":{"scale_pos_weight":"1"}}},"version":[2,0,1]}