{"learner":{"attributes":{"best_iteration":"499","best_score":"0.00304010419367983"},"feature_names":["dayofyear","dayofweek","quarter","year","week","lag_1w_retailer_type_2","lag_2w_retailer_type_2","lag_3w_retailer_type_2","lag_4w_retailer_type_2","lag_5w_retailer_type_2","lag_6w_retailer_type_2","lag_7w_retailer_type_2","lag_8w_retailer_type_2","lag_9w_retailer_type_2","lag_10w_retailer_type_2","lag_11w_retailer_type_2","lag_12w_retailer_type_2","lag_13w_retailer_type_2","lag_14w_retailer_type_2","lag_15w_retailer_type_2","lag_16w_retailer_type_2","lag_17w_retailer_type_2","lag_18w_retailer_type_2","lag_19w_retailer_type_2","lag_20w_retailer_type_2","lag_21w_retailer_type_2","lag_22w_retailer_type_2","lag_23w_retailer_type_2","lag_24w_retailer_type_2","lag_25w_retailer_type_2","lag_26w_retailer_type_2"],"feature_types":["int","int","int","int","i","float","float","float","float","float","float","float","float","float","float","float","float","float","float","float","float","float","float","float","float","float","float","float","float","float","float"],"gradient_booster":{"model":{"gbtree_model_param":{"num_parallel_tree":"1","num_trees":"500"},"iteration_indptr":[0,1,2,3,4,5,6,7,8,9,10,11,12,13,14,15,16,17,18,19,20,21,22,23,24,25,26,27,28,29,30,31,32,33,34,35,36,37,38,39,40,41,42,43,44,45,46,47,48,49,50,51,52,53,54,55,56,57,58,59,60,61,62,63,64,65,66,67,68,69,70,71,72,73,74,75,76,77,78,79,80,81,82,83,84,85,86,87,88,89,90,91,92,93,94,95,96,97,98,99,100,101,102,103,104,105,106,107,108,109,110,111,112,113,114,115,116,117,118,119,120,121,122,123,124,125,126,127,128,129,130,131,132,133,134,135,136,137,138,139,140,141,142,143,144,145,146,147,148,149,150,151,152,153,154,155,156,157,158,159,160,161,162,163,164,165,166,167,168,169,170,171,172,173,174,175,176,177,178,179,180,181,182,183,184,185,186,187,188,189,190,191,192,193,194,195,196,197,198,199,200,201,202,203,204,205,206,207,208,209,210,211,212,213,214,215,216,217,218,219,220,221,222,223,224,225,226,227,228,229,230,231,232,233,234,235,236,237,238,239,240,241,242,243,244,245,246,247,248,249,250,251,252,253,254,255,256,257,258,259,260,261,262,263,264,265,266,267,268,269,270,271,272,273,274,275,276,277,278,279,280,281,282,283,284,285,286,287,288,289,290,291,292,293,294,295,296,297,298,299,300,301,302,303,304,305,306,307,308,309,310,311,312,313,314,315,316,317,318,319,320,321,322,323,324,325,326,327,328,329,330,331,332,333,334,335,336,337,338,339,340,341,342,343,344,345,346,347,348,349,350,351,352,353,354,355,356,357,358,359,360,361,362,363,364,365,366,367,368,369,370,371,372,373,374,375,376,377,378,379,380,381,382,383,384,385,386,387,388,389,390,391,392,393,394,395,396,397,398,399,400,401,402,403,404,405,406,407,408,409,410,411,412,413,414,415,416,417,418,419,420,421,422,423,424,425,426,427,428,429,430,431,432,433,434,435,436,437,438,439,440,441,442,443,444,445,446,447,448,449,450,451,452,453,454,455,456,457,458,459,460,461,462,463,464,465,466,467,468,469,470,471,472,473,474,475,476,477,478,479,480,481,482,483,484,485,486,487,488,489,490,491,492,493,494,495,496,497,498,499,500],"tree_info":[0,0,0,0,0,0,0,0,0,0,0,0,0,0,0,0,0,0,0,0,0,0,0,0,0,0,0,0,0,0,0,0,0,0,0,0,0,0,0,0,0,0,0,0,0,0,0,0,0,0,0,0,0,0,0,0,0,0,0,0,0,0,0,0,0,0,0,0,0,0,0,0,0,0,0,0,0,0,0,0,0,0,0,0,0,0,0,0,0,0,0,0,0,0,0,0,0,0,0,0,0,0,0,0,0,0,0,0,0,0,0,0,0,0,0,0,0,0,0,0,0,0,0,0,0,0,0,0,0,0,0,0,0,0,0,0,0,0,0,0,0,0,0,0,0,0,0,0,0,0,0,0,0,0,0,0,0,0,0,0,0,0,0,0,0,0,0,0,0,0,0,0,0,0,0,0,0,0,0,0,0,0,0,0,0,0,0,0,0,0,0,0,0,0,0,0,0,0,0,0,0,0,0,0,0,0,0,0,0,0,0,0,0,0,0,0,0,0,0,0,0,0,0,0,0,0,0,0,0,0,0,0,0,0,0,0,0,0,0,0,0,0,0,0,0,0,0,0,0,0,0,0,0,0,0,0,0,0,0,0,0,0,0,0,0,0,0,0,0,0,0,0,0,0,0,0,0,0,0,0,0,0,0,0,0,0,0,0,0,0,0,0,0,0,0,0,0,0,0,0,0,0,0,0,0,0,0,0,0,0,0,0,0,0,0,0,0,0,0,0,0,0,0,0,0,0,0,0,0,0,0,0,0,0,0,0,0,0,0,0,0,0,0,0,0,0,0,0,0,0,0,0,0,0,0,0,0,0,0,0,0,0,0,0,0,0,0,0,0,0,0,0,0,0,0,0,0,0,0,0,0,0,0,0,0,0,0,0,0,0,0,0,0,0,0,0,0,0,0,0,0,0,0,0,0,0,0,0,0,0,0,0,0,0,0,0,0,0,0,0,0,0,0,0,0,0,0,0,0,0,0,0,0,0,0,0,0,0,0,0,0,0,0,0,0,0,0,0,0,0,0,0,0,0,0,0,0,0,0,0,0,0,0,0,0,0,0,0,0,0,0,0,0,0,0,0,0,0,0,0,0,0,0,0,0,0,0,0,0,0,0,0,0,0,0,0,0,0,0,0],"trees":[{"base_weights":[-2.0078778E-5,-1.4579695E-2,6.24248E-2,-2.2664113E-2,-2.697079E-3,3.271303E-2,8.4964626E-2,-2.5885588E-2,-1.5402761E-2,-1.1602264E-2,-0E0,-2.7437434E-3,6.3599395E-3,2.2445283E-4,-6.5975944E-3],"categories":[],"categories_nodes":[],"categories_segments":[],"categories_sizes":[],"default_left":[1,1,1,1,1,0,0,0,0,0,1,1,0,0,0],"id":0,"left_children":[1,3,5,7,9,-1,-1,-1,-1,-1,11,13,-1,-1,-1],"loss_changes":[8.708729E-2,7.3082503E-3,1.0996297E-2,7.370319E-4,8.5539336E-4,0E0,0E0,0E0,0E0,0E0,4.4828633E-4,2.3136922E-4,0E0,0E0,0E0],"parents":[2147483647,0,0,1,1,2,2,3,3,4,4,10,10,11,11],"right_children":[2,4,6,8,10,-1,-1,-1,-1,-1,12,14,-1,-1,-1],"split_conditions":[6.1595924E-2,2.5330082E-2,3.0952537E-2,1.8014189E-2,1.5212533E-2,7.919725E-4,2.056968E-3,-6.2668225E-4,-3.7289617E-4,-2.808873E-4,3.9737105E-2,3.2582913E-2,1.539722E-4,5.433935E-6,-1.5972577E-4],"split_indices":[5,5,28,6,23,0,0,0,0,0,5,5,0,0,0],"split_type":[0,0,0,0,0,0,0,0,0,0,0,0,0,0,0],"sum_hessian":[9.6E1,7.8E1,1.8E1,4.6E1,3.2E1,8E0,1E1,3.1E1,1.5E1,8E0,2.4E1,1.6E1,8E0,8E0,8E0],"tree_param":{"num_deleted":"0","num_feature":"31","num_nodes":"15","size_leaf_vector":"1"}},{"base_weights":[-6.1871164E-5,-1.3318843E-2,5.930902E-2,-2.192923E-2,-2.7460533E-3,3.192972E-2,8.2283385E-2,-2.5155045E-2,-1.4834414E-2,-1.1681479E-2,9.221556E-5,-2.436854E-3,6.662699E-3,1.0806117E-3,-5.9697665E-3],"categories":[],"categories_nodes":[],"categories_segments":[],"categories_sizes":[],"default_left":[1,1,1,1,1,0,0,0,0,0,1,1,0,0,0],"id":1,"left_children":[1,3,5,7,9,-1,-1,-1,-1,-1,11,13,-1,-1,-1],"loss_changes":[7.378429E-2,6.829731E-3,9.67063E-3,6.340593E-4,9.7581453E-4,0E0,0E0,0E0,0E0,0E0,4.662531E-4,2.6156587E-4,0E0,0E0,0E0],"parents":[2147483647,0,0,1,1,2,2,3,3,4,4,10,10,11,11],"right_children":[2,4,6,8,10,-1,-1,-1,-1,-1,12,14,-1,-1,-1],"split_conditions":[6.1595924E-2,2.5330082E-2,3.0952537E-2,1.8014189E-2,1.4788804E-2,7.7300885E-4,1.992056E-3,-6.08996E-4,-3.5913667E-4,-2.8280506E-4,3.9737105E-2,1.6485872E-2,1.6130193E-4,2.6161282E-5,-1.4452623E-4],"split_indices":[5,5,28,6,23,0,0,0,0,0,5,29,0,0,0],"split_type":[0,0,0,0,0,0,0,0,0,0,0,0,0,0,0],"sum_hessian":[9.4E1,7.7E1,1.7E1,4.2E1,3.5E1,8E0,9E0,2.8E1,1.4E1,9E0,2.6E1,1.8E1,8E0,8E0,1E1],"tree_param":{"num_deleted":"0","num_feature":"31","num_nodes":"15","size_leaf_vector":"1"}},{"base_weights":[-7.66075E-4,-1.3190332E-2,5.630608E-2,-2.1596733E-2,-1.8197622E-3,3.1632748E-2,7.690146E-2,-2.4758095E-2,-1.467502E-2,-1.02815945E-2,1.9303135E-3,-1.6618161E-3,9.525723E-3],"categories":[],"categories_nodes":[],"categories_segments":[],"categories_sizes":[],"default_left":[1,1,1,1,1,0,0,0,0,0,1,0,0],"id":2,"left_children":[1,3,5,7,9,-1,-1,-1,-1,-1,11,-1,-1],"loss_changes":[6.7880735E-2,7.382809E-3,7.664513E-3,6.624181E-4,1.1453229E-3,0E0,0E0,0E0,0E0,0E0,6.895837E-4,0E0,0E0],"parents":[2147483647,0,0,1,1,2,2,3,3,4,4,10,10],"right_children":[2,4,6,8,10,-1,-1,-1,-1,-1,12,-1,-1],"split_conditions":[6.1595924E-2,2.5330082E-2,3.1903468E-2,1.8014189E-2,1.5938766E-2,7.658192E-4,1.861761E-3,-5.99386E-4,-3.552778E-4,-2.489143E-4,3.9737105E-2,-4.0232066E-5,2.3061487E-4],"split_indices":[5,5,16,6,23,0,0,0,0,0,5,0,0],"split_type":[0,0,0,0,0,0,0,0,0,0,0,0,0],"sum_hessian":[9.6E1,7.9E1,1.7E1,4.5E1,3.4E1,8E0,9E0,3E1,1.5E1,1.1E1,2.3E1,1.5E1,8E0],"tree_param":{"num_deleted":"0","num_feature":"31","num_nodes":"13","size_leaf_vector":"1"}},{"base_weights":[-0E0,-1.2990931E-2,5.8126256E-2,-2.1075936E-2,-2.1274905E-3,3.0272236E-2,7.921433E-2,-2.4055747E-2,-1.4321826E-2,-5.596065E-3,5.7828245E-3,-8.133817E-3,-0E0,-1.1978574E-2,-2.8090605E-3],"categories":[],"categories_nodes":[],"categories_segments":[],"categories_sizes":[],"default_left":[1,1,1,1,1,0,0,0,0,1,0,1,0,0,0],"id":3,"left_children":[1,3,5,7,9,-1,-1,-1,-1,11,-1,13,-1,-1,-1],"loss_changes":[7.479974E-2,6.94626E-3,9.601843E-3,6.128475E-4,9.6422154E-4,0E0,0E0,0E0,0E0,3.448875E-4,0E0,2.3734139E-4,0E0,0E0,0E0],"parents":[2147483647,0,0,1,1,2,2,3,3,4,4,9,9,11,11],"right_children":[2,4,6,8,10,-1,-1,-1,-1,12,-1,14,-1,-1,-1],"split_conditions":[6.105241E-2,2.5330082E-2,3.0952537E-2,1.8014189E-2,3.9006166E-2,7.3288166E-4,1.9177549E-3,-5.823824E-4,-3.467271E-4,2.635E2,1.4000043E-4,2.2576952E-2,-0E0,-2.8999764E-4,-6.8006506E-5],"split_indices":[5,5,28,6,5,0,0,0,0,0,0,28,0,0,0],"split_type":[0,0,0,0,0,0,0,0,0,0,0,0,0,0,0],"sum_hessian":[9.9E1,8.1E1,1.8E1,4.6E1,3.5E1,8E0,1E1,3.1E1,1.5E1,2.5E1,1E1,1.7E1,8E0,9E0,8E0],"tree_param":{"num_deleted":"0","num_feature":"31","num_nodes":"15","size_leaf_vector":"1"}},{"base_weights":[-1.4091638E-4,-9.879334E-3,7.1286105E-2,-2.091312E-2,9.954763E-4,-2.4303949E-2,-1.4436751E-2,-4.37773E-3,1.827885E-2,-8.25584E-3,4.275256E-3,-1.2766529E-2,-5.088598E-3],"categories":[],"categories_nodes":[],"categories_segments":[],"categories_sizes":[],"default_left":[1,1,0,1,1,0,0,1,0,1,0,0,0],"id":4,"left_children":[1,3,-1,5,7,-1,-1,9,-1,11,-1,-1,-1],"loss_changes":[6.4358585E-2,9.999187E-3,0E0,5.84336E-4,3.9258096E-3,0E0,0E0,1.0758492E-3,0E0,1.775747E-4,0E0,0E0,0E0],"parents":[2147483647,0,0,1,1,3,3,4,4,7,7,9,9],"right_children":[2,4,-1,6,8,-1,-1,10,-1,12,-1,-1,-1],"split_conditions":[9.950586E-2,2.5330082E-2,1.725815E-3,1.6755886E-2,4.45E1,-5.883912E-4,-3.4950936E-4,4.607155E-2,4.4252543E-4,1.5132425E-2,1.0350265E-4,-3.090738E-4,-1.2319341E-4],"split_indices":[5,5,0,7,4,0,0,11,0,24,0,0,0],"split_type":[0,0,0,0,0,0,0,0,0,0,0,0,0],"sum_hessian":[9.3E1,8.2E1,1.1E1,4.1E1,4.1E1,2.6E1,1.5E1,3.1E1,1E1,2.2E1,9E0,8E0,1.4E1],"tree_param":{"num_deleted":"0","num_feature":"31","num_nodes":"13","size_leaf_vector":"1"}},{"base_weights":[-5.481489E-4,-1.2086489E-2,5.2422702E-2,-2.0387424E-2,-1.9405741E-3,2.9090304E-2,7.1862504E-2,-2.2869896E-2,-1.3976878E-2,-1.09484345E-2,8.1458804E-4,-2.1156159E-3,7.4534556E-3,1.329197E-3,-5.593097E-3],"categories":[],"categories_nodes":[],"categories_segments":[],"categories_sizes":[],"default_left":[1,1,1,1,1,0,0,0,0,0,1,1,0,0,0],"id":5,"left_children":[1,3,5,7,9,-1,-1,-1,-1,-1,11,13,-1,-1,-1],"loss_changes":[5.84862E-2,6.4920066E-3,6.8182573E-3,3.8452074E-4,9.7149314E-4,0E0,0E0,0E0,0E0,0E0,5.6788855E-4,2.4892512E-4,0E0,0E0,0E0],"parents":[2147483647,0,0,1,1,2,2,3,3,4,4,10,10,11,11],"right_children":[2,4,6,8,10,-1,-1,-1,-1,-1,12,14,-1,-1,-1],"split_conditions":[6.1595924E-2,2.5330082E-2,3.1903468E-2,1.8014189E-2,1.4788804E-2,7.042674E-4,1.7397695E-3,-5.5367325E-4,-3.3837598E-4,-2.6505828E-4,3.9737105E-2,1.6485872E-2,1.804459E-4,3.2179454E-5,-1.3540717E-4],"split_indices":[5,5,16,6,23,0,0,0,0,0,5,29,0,0,0],"split_type":[0,0,0,0,0,0,0,0,0,0,0,0,0,0,0],"sum_hessian":[9.6E1,7.9E1,1.7E1,4.3E1,3.6E1,8E0,9E0,3E1,1.3E1,9E0,2.7E1,1.8E1,9E0,8E0,1E1],"tree_param":{"num_deleted":"0","num_feature":"31","num_nodes":"15","size_leaf_vector":"1"}},{"base_weights":[1.18315205E-4,-1.2487019E-2,5.4247875E-2,-1.8663567E-2,-1.3896337E-3,2.7967792E-2,7.410805E-2,-2.2335572E-2,-1.3343172E-2,-9.142885E-3,2.53193E-3,-1.566322E-2,-8.527302E-3,7.2737345E-3,-2.4943834E-3],"categories":[],"categories_nodes":[],"categories_segments":[],"categories_sizes":[],"default_left":[1,1,1,1,1,0,0,0,1,0,1,0,0,0,0],"id":6,"left_children":[1,3,5,7,9,-1,-1,-1,11,-1,13,-1,-1,-1,-1],"loss_changes":[6.5250136E-2,5.133101E-3,8.50144E-3,6.6839345E-4,9.050391E-4,0E0,0E0,0E0,4.4637593E-5,0E0,4.6812085E-4,0E0,0E0,0E0,0E0],"parents":[2147483647,0,0,1,1,2,2,3,3,4,4,8,8,10,10],"right_children":[2,4,6,8,10,-1,-1,-1,12,-1,14,-1,-1,-1,-1],"split_conditions":[6.1595924E-2,2.8790917E-2,3.0952537E-2,1.8014189E-2,2.064639E-2,6.7709177E-4,1.7941335E-3,-5.407374E-4,2.215E2,-2.2134648E-4,3.9069857E-2,-3.792018E-4,-2.064434E-4,1.7609491E-4,-6.0388265E-5],"split_indices":[5,5,28,5,24,0,0,0,0,0,19,0,0,0,0],"split_type":[0,0,0,0,0,0,0,0,0,0,0,0,0,0,0],"sum_hessian":[9.5E1,7.7E1,1.8E1,4.9E1,2.8E1,8E0,1E1,2.8E1,2.1E1,1E1,1.8E1,1.3E1,8E0,1E1,8E0],"tree_param":{"num_deleted":"0","num_feature":"31","num_nodes":"15","size_leaf_vector":"1"}},{"base_weights":[-1.9076039E-4,-1.1771525E-2,5.2974585E-2,-1.9410573E-2,-1.9323376E-3,2.7838618E-2,7.4014135E-2,-2.2482166E-2,-1.2884266E-2,-1.0442661E-2,7.550772E-4,-1.9345328E-3,7.6773292E-3,1.4143364E-3,-5.336679E-3],"categories":[],"categories_nodes":[],"categories_segments":[],"categories_sizes":[],"default_left":[1,1,1,1,1,0,0,0,0,0,1,1,0,0,0],"id":7,"left_children":[1,3,5,7,9,-1,-1,-1,-1,-1,11,13,-1,-1,-1],"loss_changes":[5.8911256E-2,5.783058E-3,8.100539E-3,5.962327E-4,8.74949E-4,0E0,0E0,0E0,0E0,0E0,5.2956754E-4,2.3580686E-4,0E0,0E0,0E0],"parents":[2147483647,0,0,1,1,2,2,3,3,4,4,10,10,11,11],"right_children":[2,4,6,8,10,-1,-1,-1,-1,-1,12,14,-1,-1,-1],"split_conditions":[6.1595924E-2,2.5330082E-2,3.3101276E-2,1.8014189E-2,1.4788804E-2,6.739645E-4,1.7918597E-3,-5.4428645E-4,-3.1192417E-4,-2.5281365E-4,3.9737105E-2,1.6485872E-2,1.858658E-4,3.4240657E-5,-1.2919938E-4],"split_indices":[5,5,19,5,23,0,0,0,0,0,5,29,0,0,0],"split_type":[0,0,0,0,0,0,0,0,0,0,0,0,0,0,0],"sum_hessian":[9.6E1,7.9E1,1.7E1,4.4E1,3.5E1,8E0,9E0,2.9E1,1.5E1,9E0,2.6E1,1.8E1,8E0,8E0,1E1],"tree_param":{"num_deleted":"0","num_feature":"31","num_nodes":"15","size_leaf_vector":"1"}},{"base_weights":[-0E0,-1.1331222E-2,5.172967E-2,-1.8648496E-2,-1.7533412E-3,2.6919367E-2,7.043354E-2,-2.1328576E-2,-1.2526193E-2,-1.01977335E-2,8.121594E-4,6.043124E-3,-2.8926462E-3],"categories":[],"categories_nodes":[],"categories_segments":[],"categories_sizes":[],"default_left":[1,1,1,1,1,0,0,0,0,0,1,0,0],"id":8,"left_children":[1,3,5,7,9,-1,-1,-1,-1,-1,11,-1,-1],"loss_changes":[5.894395E-2,5.59909E-3,7.505119E-3,4.818458E-4,8.520708E-4,0E0,0E0,0E0,0E0,0E0,5.498477E-4,0E0,0E0],"parents":[2147483647,0,0,1,1,2,2,3,3,4,4,10,10],"right_children":[2,4,6,8,10,-1,-1,-1,-1,-1,12,-1,-1],"split_conditions":[6.1595924E-2,2.5330082E-2,3.1903468E-2,1.8014189E-2,1.6266432E-2,6.5170974E-4,1.7051747E-3,-5.1635836E-4,-3.0325534E-4,-2.4688404E-4,3.257921E-2,1.463022E-4,-7.003009E-5],"split_indices":[5,5,16,6,16,0,0,0,0,0,16,0,0],"split_type":[0,0,0,0,0,0,0,0,0,0,0,0,0],"sum_hessian":[1E2,8.2E1,1.8E1,4.6E1,3.6E1,8E0,1E1,3.1E1,1.5E1,9E0,2.7E1,1.2E1,1.5E1],"tree_param":{"num_deleted":"0","num_feature":"31","num_nodes":"13","size_leaf_vector":"1"}},{"base_weights":[8.940127E-4,-1.0650483E-2,5.0498758E-2,-1.8146321E-2,-9.3068456E-4,2.6274787E-2,6.8743326E-2,-2.1006418E-2,-1.2224717E-2,-9.953255E-3,2.0458796E-3,8.508003E-3,-5.900155E-4,-4.2857714E-3,2.6534372E-3],"categories":[],"categories_nodes":[],"categories_segments":[],"categories_sizes":[],"default_left":[1,1,1,1,1,0,0,0,0,0,1,0,1,0,0],"id":9,"left_children":[1,3,5,7,9,-1,-1,-1,-1,-1,11,-1,13,-1,-1],"loss_changes":[5.479627E-2,5.47373E-3,7.1307346E-3,4.6091247E-4,9.758568E-4,0E0,0E0,0E0,0E0,0E0,4.8643257E-4,0E0,2.1793603E-4,0E0,0E0],"parents":[2147483647,0,0,1,1,2,2,3,3,4,4,10,10,12,12],"right_children":[2,4,6,8,10,-1,-1,-1,-1,-1,12,-1,14,-1,-1],"split_conditions":[6.1595924E-2,2.5330082E-2,3.1903468E-2,1.8014189E-2,1.6266432E-2,6.361046E-4,1.664255E-3,-5.08559E-4,-2.959567E-4,-2.4096528E-4,2.498214E-2,2.0597618E-4,5.2450668E-2,-1.0375723E-4,6.423891E-5],"split_indices":[5,5,16,6,16,0,0,0,0,0,22,0,13,0,0],"split_type":[0,0,0,0,0,0,0,0,0,0,0,0,0,0,0],"sum_hessian":[9.5E1,7.7E1,1.8E1,4.3E1,3.4E1,8E0,1E1,2.8E1,1.5E1,9E0,2.5E1,8E0,1.7E1,9E0,8E0],"tree_param":{"num_deleted":"0","num_feature":"31","num_nodes":"15","size_leaf_vector":"1"}},{"base_weights":[-8.8171905E-4,-1.1166825E-2,4.9862016E-2,-1.7789219E-2,-2.4178498E-3,2.9940495E-2,6.832234E-2,-2.0447107E-2,-1.1893832E-2,-1.0597685E-2,-0E0,-1.9787878E-3,4.778724E-3,1.8886081E-3,-5.452002E-3],"categories":[],"categories_nodes":[],"categories_segments":[],"categories_sizes":[],"default_left":[1,1,1,1,1,0,0,0,0,0,1,1,0,0,0],"id":10,"left_children":[1,3,5,7,9,-1,-1,-1,-1,-1,11,13,-1,-1,-1],"loss_changes":[4.9911715E-2,4.4867927E-3,5.0078705E-3,4.4545252E-4,7.0329907E-4,0E0,0E0,0E0,0E0,0E0,2.5945343E-4,2.8370545E-4,0E0,0E0,0E0],"parents":[2147483647,0,0,1,1,2,2,3,3,4,4,10,10,11,11],"right_children":[2,4,6,8,10,-1,-1,-1,-1,-1,12,14,-1,-1,-1],"split_conditions":[6.1595924E-2,2.5330082E-2,3.393635E-2,1.7487023E-2,1.3346725E-2,7.2485034E-4,1.6540631E-3,-4.9501826E-4,-2.8794608E-4,-2.5656674E-4,3.9737105E-2,2.7073193E-2,1.15691466E-4,4.572263E-5,-1.3199131E-4],"split_indices":[5,5,16,5,23,0,0,0,0,0,5,15,0,0,0],"split_type":[0,0,0,0,0,0,0,0,0,0,0,0,0,0,0],"sum_hessian":[9.6E1,8E1,1.6E1,4.5E1,3.5E1,8E0,8E0,3E1,1.5E1,8E0,2.7E1,1.9E1,8E0,8E0,1.1E1],"tree_param":{"num_deleted":"0","num_feature":"31","num_nodes":"15","size_leaf_vector":"1"}},{"base_weights":[7.516124E-4,-1.0125399E-2,4.8113726E-2,-1.7004037E-2,-1.4418497E-3,2.4383519E-2,6.598334E-2,-1.958806E-2,-1.1603069E-2,-4.1009453E-3,6.5636053E-3,-8.009998E-3,4.253444E-3,-1.1524598E-2,-4.714414E-3],"categories":[],"categories_nodes":[],"categories_segments":[],"categories_sizes":[],"default_left":[1,1,1,1,1,0,0,0,0,1,0,1,0,0,0],"id":11,"left_children":[1,3,5,7,9,-1,-1,-1,-1,11,-1,13,-1,-1,-1],"loss_changes":[4.9825247E-2,4.5255153E-3,6.8587475E-3,3.5022665E-4,7.3108077E-4,0E0,0E0,0E0,0E0,9.1548695E-4,0E0,9.60147E-5,0E0,0E0,0E0],"parents":[2147483647,0,0,1,1,2,2,3,3,4,4,9,9,11,11],"right_children":[2,4,6,8,10,-1,-1,-1,-1,12,-1,14,-1,-1,-1],"split_conditions":[6.1595924E-2,2.5330082E-2,3.0952537E-2,1.8014189E-2,2.915E2,5.903176E-4,1.5974366E-3,-4.7422101E-4,-2.8090677E-4,4.607155E-2,1.589029E-4,1.5132425E-2,1.0297458E-4,-2.79007E-4,-1.14134535E-4],"split_indices":[5,5,28,6,0,0,0,0,0,11,0,24,0,0,0],"split_type":[0,0,0,0,0,0,0,0,0,0,0,0,0,0,0],"sum_hessian":[9.6E1,7.8E1,1.8E1,4.3E1,3.5E1,8E0,1E1,2.8E1,1.5E1,2.7E1,8E0,1.9E1,8E0,8E0,1.1E1],"tree_param":{"num_deleted":"0","num_feature":"31","num_nodes":"15","size_leaf_vector":"1"}},{"base_weights":[1.049055E-3,-9.9155875E-3,4.696952E-2,-1.6779112E-2,-1.8379467E-3,2.379966E-2,6.439991E-2,-1.9617327E-2,-1.0892325E-2,-9.919939E-3,2.0798203E-3,6.057671E-3,-2.3650168E-3],"categories":[],"categories_nodes":[],"categories_segments":[],"categories_sizes":[],"default_left":[1,1,1,1,1,0,0,0,0,0,1,0,0],"id":12,"left_children":[1,3,5,7,9,-1,-1,-1,-1,-1,11,-1,-1],"loss_changes":[4.718585E-2,4.022373E-3,6.516341E-3,4.2492058E-4,1.1709126E-3,0E0,0E0,0E0,0E0,0E0,4.368424E-4,0E0,0E0],"parents":[2147483647,0,0,1,1,2,2,3,3,4,4,10,10],"right_children":[2,4,6,8,10,-1,-1,-1,-1,-1,12,-1,-1],"split_conditions":[6.1595924E-2,2.3532372E-2,3.0952537E-2,1.8014189E-2,1.6536444E-2,5.7618256E-4,1.5591023E-3,-4.7492952E-4,-2.6369988E-4,-2.4015871E-4,3.0679282E-2,1.4665438E-4,-5.725634E-5],"split_indices":[5,7,28,5,23,0,0,0,0,0,21,0,0],"split_type":[0,0,0,0,0,0,0,0,0,0,0,0,0],"sum_hessian":[9.3E1,7.5E1,1.8E1,4E1,3.5E1,8E0,1E1,2.6E1,1.4E1,1.2E1,2.3E1,1.3E1,1E1],"tree_param":{"num_deleted":"0","num_feature":"31","num_nodes":"13","size_leaf_vector":"1"}},{"base_weights":[1.8819013E-4,-9.907121E-3,4.585276E-2,-1.6422775E-2,-1.5370249E-3,2.322978E-2,6.285448E-2,-1.8801806E-2,-1.1091482E-2,-9.970755E-3,6.327525E-4,-2.0477435E-2,-1.3104528E-2,-1.8079581E-3,6.5677194E-3,1.871078E-3,-5.1451367E-3],"categories":[],"categories_nodes":[],"categories_segments":[],"categories_sizes":[],"default_left":[1,1,1,1,1,0,0,1,0,0,1,0,0,1,0,0,0],"id":13,"left_children":[1,3,5,7,9,-1,-1,11,-1,-1,13,-1,-1,15,-1,-1,-1],"loss_changes":[4.5986034E-2,4.2870436E-3,6.1905906E-3,3.320137E-4,7.301143E-4,0E0,0E0,1.4772639E-5,0E0,0E0,4.4318047E-4,0E0,0E0,2.5946187E-4,0E0,0E0,0E0],"parents":[2147483647,0,0,1,1,2,2,3,3,4,4,7,7,10,10,13,13],"right_children":[2,4,6,8,10,-1,-1,12,-1,-1,14,-1,-1,16,-1,-1,-1],"split_conditions":[6.1595924E-2,2.5330082E-2,3.0952537E-2,1.8014189E-2,1.3346725E-2,5.6238595E-4,1.521688E-3,1.43868625E-2,-2.6852143E-4,-2.4138896E-4,3.9737105E-2,-4.957525E-4,-3.1725666E-4,2.7073193E-2,1.5900249E-4,4.529823E-5,-1.245622E-4],"split_indices":[5,5,28,5,23,0,0,29,0,0,5,0,0,15,0,0,0],"split_type":[0,0,0,0,0,0,0,0,0,0,0,0,0,0,0,0,0],"sum_hessian":[9.9E1,8.1E1,1.8E1,4.5E1,3.6E1,8E0,1E1,3E1,1.5E1,8E0,2.8E1,2.2E1,8E0,1.9E1,9E0,8E0,1.1E1],"tree_param":{"num_deleted":"0","num_feature":"31","num_nodes":"17","size_leaf_vector":"1"}},{"base_weights":[2.2974786E-4,-9.862107E-3,4.476279E-2,-1.6162354E-2,-8.363687E-4,2.267355E-2,6.1346147E-2,-1.8476335E-2,-1.0808946E-2,-7.862209E-3,1.915987E-3,5.6744805E-3,-2.2428257E-3],"categories":[],"categories_nodes":[],"categories_segments":[],"categories_sizes":[],"default_left":[1,1,1,1,1,0,0,0,0,0,1,0,0],"id":14,"left_children":[1,3,5,7,9,-1,-1,-1,-1,-1,11,-1,-1],"loss_changes":[4.393116E-2,4.3702233E-3,5.880695E-3,3.363574E-4,6.8522576E-4,0E0,0E0,0E0,0E0,0E0,3.8743578E-4,0E0,0E0],"parents":[2147483647,0,0,1,1,2,2,3,3,4,4,10,10],"right_children":[2,4,6,8,10,-1,-1,-1,-1,-1,12,-1,-1],"split_conditions":[6.1595924E-2,2.5330082E-2,3.0952537E-2,1.8014189E-2,1.5938766E-2,5.489197E-4,1.4851716E-3,-4.4730646E-4,-2.616813E-4,-1.903417E-4,3.0679282E-2,1.3737746E-4,-5.429813E-5],"split_indices":[5,5,28,6,23,0,0,0,0,0,21,0,0],"split_type":[0,0,0,0,0,0,0,0,0,0,0,0,0],"sum_hessian":[9.7E1,7.9E1,1.8E1,4.6E1,3.3E1,8E0,1E1,3.1E1,1.5E1,1E1,2.3E1,1.3E1,1E1],"tree_param":{"num_deleted":"0","num_feature":"31","num_nodes":"13","size_leaf_vector":"1"}},{"base_weights":[-2.8166777E-4,-9.520183E-3,4.3125074E-2,-1.5777364E-2,-1.4739682E-3,2.2130633E-2,6.0574688E-2,-1.767023E-2,-9.164431E-3,-9.055491E-3,8.011172E-4,5.7624467E-3,-2.6875993E-3],"categories":[],"categories_nodes":[],"categories_segments":[],"categories_sizes":[],"default_left":[1,1,1,1,1,0,0,0,0,0,1,0,0],"id":15,"left_children":[1,3,5,7,9,-1,-1,-1,-1,-1,11,-1,-1],"loss_changes":[3.9122283E-2,3.952703E-3,5.529102E-3,3.5131164E-4,6.842537E-4,0E0,0E0,0E0,0E0,0E0,4.930099E-4,0E0,0E0],"parents":[2147483647,0,0,1,1,2,2,3,3,4,4,10,10],"right_children":[2,4,6,8,10,-1,-1,-1,-1,-1,12,-1,-1],"split_conditions":[6.1595924E-2,2.5330082E-2,3.0952537E-2,1.8476643E-2,1.6266432E-2,5.357759E-4,1.4664949E-3,-4.277909E-4,-2.218681E-4,-2.1923069E-4,3.257921E-2,1.3950709E-4,-6.5065964E-5],"split_indices":[5,5,28,5,16,0,0,0,0,0,16,0,0],"split_type":[0,0,0,0,0,0,0,0,0,0,0,0,0],"sum_hessian":[9.8E1,8.1E1,1.7E1,4.5E1,3.6E1,8E0,9E0,3.4E1,1.1E1,9E0,2.7E1,1.2E1,1.5E1],"tree_param":{"num_deleted":"0","num_feature":"31","num_nodes":"13","size_leaf_vector":"1"}},{"base_weights":[-0E0,-6.732253E-3,5.315324E-2,-1.0992171E-2,1.9165117E-2,-1.5433482E-2,-3.2482953E-3,-1.7920477E-2,-1.0541176E-2,-8.099824E-3,1.8006666E-3,-7.018347E-3,-1.3468542E-2],"categories":[],"categories_nodes":[],"categories_segments":[],"categories_sizes":[],"default_left":[1,1,0,1,0,1,1,0,1,0,0,0,0],"id":16,"left_children":[1,3,-1,5,-1,7,9,-1,11,-1,-1,-1,-1],"loss_changes":[3.5275087E-2,9.5657725E-3,0E0,2.439714E-3,0E0,3.4541823E-4,7.359777E-4,0E0,1.6127597E-5,0E0,0E0,0E0,0E0],"parents":[2147483647,0,0,1,1,3,3,5,5,6,6,8,8],"right_children":[2,4,-1,6,-1,8,10,-1,12,-1,-1,-1,-1],"split_conditions":[9.950586E-2,3.13E2,1.2868238E-3,2.7701478E-2,4.6398168E-4,1.8014189E-2,2.6849728E-2,-4.3384932E-4,2.1009909E-2,-1.9609429E-4,4.359359E-5,-1.6991205E-4,-3.2606933E-4],"split_indices":[7,0,0,8,0,6,24,0,13,0,0,0,0],"split_type":[0,0,0,0,0,0,0,0,0,0,0,0,0],"sum_hessian":[9.8E1,8.7E1,1.1E1,7.5E1,1.2E1,4.7E1,2.8E1,3E1,1.7E1,1.5E1,1.3E1,9E0,8E0],"tree_param":{"num_deleted":"0","num_feature":"31","num_nodes":"13","size_leaf_vector":"1"}},{"base_weights":[-8.402507E-6,-9.098666E-3,4.2693436E-2,-1.5626779E-2,-1.8594504E-3,2.362266E-2,5.8435243E-2,-1.7742058E-2,-1.0254149E-2,-8.785329E-3,1.7411372E-3,5.316348E-3,-2.1473072E-3],"categories":[],"categories_nodes":[],"categories_segments":[],"categories_sizes":[],"default_left":[1,1,1,1,1,0,0,0,0,0,1,0,0],"id":17,"left_children":[1,3,5,7,9,-1,-1,-1,-1,-1,11,-1,-1],"loss_changes":[3.786066E-2,3.7000314E-3,4.4001974E-3,2.5486946E-4,1.0282848E-3,0E0,0E0,0E0,0E0,0E0,3.7326186E-4,0E0,0E0],"parents":[2147483647,0,0,1,1,2,2,3,3,4,4,10,10],"right_children":[2,4,6,8,10,-1,-1,-1,-1,-1,12,-1,-1],"split_conditions":[6.1595924E-2,2.1992598E-2,3.1903468E-2,1.7466992E-2,1.6536444E-2,5.718974E-4,1.4146995E-3,-4.2952984E-4,-2.4824985E-4,-2.1269015E-4,3.0679282E-2,1.2870716E-4,-5.1985655E-5],"split_indices":[5,7,19,5,23,0,0,0,0,0,21,0,0],"split_type":[0,0,0,0,0,0,0,0,0,0,0,0,0],"sum_hessian":[9.8E1,8.1E1,1.7E1,4.2E1,3.9E1,8E0,9E0,2.9E1,1.3E1,1.4E1,2.5E1,1.4E1,1.1E1],"tree_param":{"num_deleted":"0","num_feature":"31","num_nodes":"13","size_leaf_vector":"1"}},{"base_weights":[2.3374372E-4,-8.8135125E-3,4.0699624E-2,-1.47118E-2,-1.3808665E-3,2.0319995E-2,5.594793E-2,-1.724429E-2,-1.0577837E-2,-8.638427E-3,7.852219E-4,5.509231E-3,-2.5132664E-3],"categories":[],"categories_nodes":[],"categories_segments":[],"categories_sizes":[],"default_left":[1,1,1,1,1,0,0,0,0,0,1,0,0],"id":18,"left_children":[1,3,5,7,9,-1,-1,-1,-1,-1,11,-1,-1],"loss_changes":[3.617861E-2,3.390084E-3,4.9556103E-3,2.393676E-4,6.260942E-4,0E0,0E0,0E0,0E0,0E0,4.455099E-4,0E0,0E0],"parents":[2147483647,0,0,1,1,2,2,3,3,4,4,10,10],"right_children":[2,4,6,8,10,-1,-1,-1,-1,-1,12,-1,-1],"split_conditions":[6.1595924E-2,2.5330082E-2,3.1903468E-2,1.5668752E-2,1.6266432E-2,4.919409E-4,1.3544824E-3,-4.1747905E-4,-2.5608623E-4,-2.091337E-4,3.257921E-2,1.333768E-4,-6.0845417E-5],"split_indices":[5,5,16,5,16,0,0,0,0,0,16,0,0],"split_type":[0,0,0,0,0,0,0,0,0,0,0,0,0],"sum_hessian":[9.8E1,8E1,1.8E1,4.4E1,3.6E1,8E0,1E1,2.6E1,1.8E1,9E0,2.7E1,1.2E1,1.5E1],"tree_param":{"num_deleted":"0","num_feature":"31","num_nodes":"13","size_leaf_vector":"1"}},{"base_weights":[8.474709E-5,-8.777733E-3,3.9733246E-2,-1.4349553E-2,-1.0044366E-3,1.9823834E-2,5.4613028E-2,-1.639395E-2,-9.562228E-3,-8.431329E-3,1.3943417E-3,7.870062E-3,-2.452778E-3],"categories":[],"categories_nodes":[],"categories_segments":[],"categories_sizes":[],"default_left":[1,1,1,1,1,0,0,0,0,0,1,0,0],"id":19,"left_children":[1,3,5,7,9,-1,-1,-1,-1,-1,11,-1,-1],"loss_changes":[3.4726862E-2,3.3537522E-3,4.711557E-3,2.4496112E-4,6.604617E-4,0E0,0E0,0E0,0E0,0E0,6.6685746E-4,0E0,0E0],"parents":[2147483647,0,0,1,1,2,2,3,3,4,4,10,10],"right_children":[2,4,6,8,10,-1,-1,-1,-1,-1,12,-1,-1],"split_conditions":[6.1595924E-2,2.5330082E-2,9.8304585E-2,1.8014189E-2,1.6266432E-2,4.79929E-4,1.3221649E-3,-3.9689257E-4,-2.3149863E-4,-2.0411993E-4,3.257921E-2,1.9053182E-4,-5.938101E-5],"split_indices":[5,5,7,6,16,0,0,0,0,0,16,0,0],"split_type":[0,0,0,0,0,0,0,0,0,0,0,0,0],"sum_hessian":[9.8E1,8E1,1.8E1,4.6E1,3.4E1,8E0,1E1,3.1E1,1.5E1,9E0,2.5E1,1E1,1.5E1],"tree_param":{"num_deleted":"0","num_feature":"31","num_nodes":"13","size_leaf_vector":"1"}},{"base_weights":[-1.4722158E-3,-7.42602E-3,4.8022203E-2,-1.1780806E-2,7.297612E-3,-1.5626237E-2,-7.680032E-3,1.572715E-2,-0E0,-1.8237365E-2,-1.2653572E-2,-8.926848E-3,-2.8130226E-3,-1.1345124E-2,-6.44174E-3],"categories":[],"categories_nodes":[],"categories_segments":[],"categories_sizes":[],"default_left":[1,1,0,1,1,1,1,0,0,0,0,1,0,0,0],"id":20,"left_children":[1,3,-1,5,7,9,11,-1,-1,-1,-1,13,-1,-1,-1],"loss_changes":[2.7751574E-2,5.496539E-3,0E0,8.58929E-4,1.2314168E-3,7.6200813E-6,1.1161703E-4,0E0,0E0,0E0,0E0,1.2569362E-5,0E0,0E0,0E0],"parents":[2147483647,0,0,1,1,3,3,4,4,5,5,6,6,11,11],"right_children":[2,4,-1,6,8,10,12,-1,-1,-1,-1,14,-1,-1,-1],"split_conditions":[9.950586E-2,3.642184E-2,1.162603E-3,1.8476643E-2,3.9737105E-2,9.47782E-3,2.5682025E-2,3.8074952E-4,-0E0,-4.415211E-4,-3.0633912E-4,1.97E2,-6.8102425E-5,-2.7466202E-4,-1.5595257E-4],"split_indices":[5,5,0,5,9,24,22,0,0,0,0,0,0,0,0],"split_type":[0,0,0,0,0,0,0,0,0,0,0,0,0,0,0],"sum_hessian":[9.5E1,8.5E1,1E1,6.6E1,1.9E1,3.3E1,3.3E1,9E0,1E1,1.6E1,1.7E1,2.5E1,8E0,1.1E1,1.4E1],"tree_param":{"num_deleted":"0","num_feature":"31","num_nodes":"15","size_leaf_vector":"1"}},{"base_weights":[3.3214726E-4,-8.062568E-3,3.961603E-2,-1.3863827E-2,-1.5911923E-3,2.2823347E-2,5.3360365E-2,-1.623319E-2,-9.194943E-3,-8.458918E-3,1.7020534E-3,5.198648E-3,-2.086194E-3],"categories":[],"categories_nodes":[],"categories_segments":[],"categories_sizes":[],"default_left":[1,1,1,1,1,0,0,0,0,0,1,0,0],"id":21,"left_children":[1,3,5,7,9,-1,-1,-1,-1,-1,11,-1,-1],"loss_changes":[3.1949736E-2,2.8527318E-3,3.272077E-3,2.5299191E-4,9.127698E-4,0E0,0E0,0E0,0E0,0E0,3.563332E-4,0E0,0E0],"parents":[2147483647,0,0,1,1,2,2,3,3,4,4,10,10],"right_children":[2,4,6,8,10,-1,-1,-1,-1,-1,12,-1,-1],"split_conditions":[6.1595924E-2,2.3532372E-2,3.393635E-2,1.7466992E-2,1.6536444E-2,5.525463E-4,1.2918382E-3,-3.9300064E-4,-2.2260679E-4,-2.0478784E-4,3.0679282E-2,1.258577E-4,-5.0506125E-5],"split_indices":[5,7,16,5,23,0,0,0,0,0,21,0,0],"split_type":[0,0,0,0,0,0,0,0,0,0,0,0,0],"sum_hessian":[9.6E1,7.9E1,1.7E1,4.1E1,3.8E1,8E0,9E0,2.6E1,1.5E1,1.3E1,2.5E1,1.4E1,1.1E1],"tree_param":{"num_deleted":"0","num_feature":"31","num_nodes":"13","size_leaf_vector":"1"}},{"base_weights":[1.0443725E-4,-8.149873E-3,3.706011E-2,-1.3576836E-2,-1.6258198E-3,1.8088631E-2,5.121135E-2,-1.562605E-2,-8.734842E-3,-8.255515E-3,1.6749339E-3,5.07358E-3,-2.3517925E-3],"categories":[],"categories_nodes":[],"categories_segments":[],"categories_sizes":[],"default_left":[1,1,1,1,1,0,0,0,0,0,1,0,0],"id":22,"left_children":[1,3,5,7,9,-1,-1,-1,-1,-1,11,-1,-1],"loss_changes":[3.0162118E-2,2.721046E-3,4.260976E-3,2.3503043E-4,8.615694E-4,0E0,0E0,0E0,0E0,0E0,3.508757E-4,0E0,0E0],"parents":[2147483647,0,0,1,1,2,2,3,3,4,4,10,10],"right_children":[2,4,6,8,10,-1,-1,-1,-1,-1,12,-1,-1],"split_conditions":[6.105241E-2,2.3532372E-2,3.1903468E-2,1.8014189E-2,1.6536444E-2,4.3792027E-4,1.2398113E-3,-3.7830195E-4,-2.1146788E-4,-1.9986353E-4,3.0795544E-2,1.2282984E-4,-5.6936184E-5],"split_indices":[5,7,16,5,23,0,0,0,0,0,21,0,0],"split_type":[0,0,0,0,0,0,0,0,0,0,0,0,0],"sum_hessian":[9.8E1,8E1,1.8E1,4.3E1,3.7E1,8E0,1E1,2.9E1,1.4E1,1.3E1,2.4E1,1.4E1,1E1],"tree_param":{"num_deleted":"0","num_feature":"31","num_nodes":"13","size_leaf_vector":"1"}},{"base_weights":[2.5437499E-5,-8.06074E-3,3.7882946E-2,-1.3480316E-2,-1.0196678E-3,2.1978833E-2,5.085336E-2,-1.5282925E-2,-9.02014E-3,-7.7697895E-3,1.0514465E-3,5.206559E-3,-1.9947044E-3],"categories":[],"categories_nodes":[],"categories_segments":[],"categories_sizes":[],"default_left":[1,1,1,1,1,0,0,0,0,0,1,0,0],"id":23,"left_children":[1,3,5,7,9,-1,-1,-1,-1,-1,11,-1,-1],"loss_changes":[2.9662756E-2,2.9093786E-3,2.8867312E-3,1.6227178E-4,5.4102857E-4,0E0,0E0,0E0,0E0,0E0,3.5491202E-4,0E0,0E0],"parents":[2147483647,0,0,1,1,2,2,3,3,4,4,10,10],"right_children":[2,4,6,8,10,-1,-1,-1,-1,-1,12,-1,-1],"split_conditions":[6.1595924E-2,2.5330082E-2,3.393635E-2,1.8014189E-2,1.6266432E-2,5.3210085E-4,1.2311444E-3,-3.69995E-4,-2.1837486E-4,-1.8810426E-4,3.257921E-2,1.2604921E-4,-4.829119E-5],"split_indices":[5,5,16,6,16,0,0,0,0,0,16,0,0],"split_type":[0,0,0,0,0,0,0,0,0,0,0,0,0],"sum_hessian":[9.6E1,7.9E1,1.7E1,4.4E1,3.5E1,8E0,9E0,3E1,1.4E1,9E0,2.6E1,1.2E1,1.4E1],"tree_param":{"num_deleted":"0","num_feature":"31","num_nodes":"13","size_leaf_vector":"1"}},{"base_weights":[-0E0,-7.84761E-3,3.530371E-2,-1.3008653E-2,-1.4940619E-3,1.7070359E-2,4.8878554E-2,-1.5022794E-2,-8.558513E-3,-8.452863E-3,1.5689848E-3,4.969254E-3,-2.0958143E-3],"categories":[],"categories_nodes":[],"categories_segments":[],"categories_sizes":[],"default_left":[1,1,1,1,1,0,0,0,0,0,1,0,0],"id":24,"left_children":[1,3,5,7,9,-1,-1,-1,-1,-1,11,-1,-1],"loss_changes":[2.753846E-2,2.549835E-3,3.914891E-3,2.0914339E-4,8.4270467E-4,0E0,0E0,0E0,0E0,0E0,3.3483884E-4,0E0,0E0],"parents":[2147483647,0,0,1,1,2,2,3,3,4,4,10,10],"right_children":[2,4,6,8,10,-1,-1,-1,-1,-1,12,-1,-1],"split_conditions":[6.1595924E-2,2.3532372E-2,3.0952537E-2,1.7466992E-2,1.6536444E-2,4.132682E-4,1.183335E-3,-3.6369727E-4,-2.07199E-4,-2.0464126E-4,3.0679282E-2,1.2030414E-4,-5.073903E-5],"split_indices":[5,7,28,5,23,0,0,0,0,0,21,0,0],"split_type":[0,0,0,0,0,0,0,0,0,0,0,0,0],"sum_hessian":[9.9E1,8.1E1,1.8E1,4.4E1,3.7E1,8E0,1E1,2.9E1,1.5E1,1.2E1,2.5E1,1.4E1,1.1E1],"tree_param":{"num_deleted":"0","num_feature":"31","num_nodes":"13","size_leaf_vector":"1"}},{"base_weights":[7.352468E-5,-7.6020034E-3,3.4466736E-2,-1.2709353E-2,-1.1386003E-3,1.662527E-2,4.7734734E-2,-1.40797775E-2,-7.850587E-3,-3.348883E-3,5.6337183E-3,-1.5375804E-2,-8.99011E-3,-6.557663E-3,3.7413726E-3,-8.715028E-3,-2.3459976E-3],"categories":[],"categories_nodes":[],"categories_segments":[],"categories_sizes":[],"default_left":[1,1,1,1,1,0,0,1,0,1,0,0,0,1,0,0,0],"id":25,"left_children":[1,3,5,7,9,-1,-1,11,-1,13,-1,-1,-1,15,-1,-1,-1],"loss_changes":[2.6116155E-2,2.5399453E-3,3.7350133E-3,1.2135971E-4,5.2494643E-4,0E0,0E0,2.5566667E-5,0E0,6.62073E-4,0E0,0E0,0E0,9.879423E-5,0E0,0E0,0E0],"parents":[2147483647,0,0,1,1,2,2,3,3,4,4,7,7,9,9,13,13],"right_children":[2,4,6,8,10,-1,-1,12,-1,14,-1,-1,-1,16,-1,-1,-1],"split_conditions":[6.1595924E-2,2.5086693E-2,3.1903468E-2,1.6536444E-2,2.915E2,4.0249276E-4,1.1556434E-3,1.7303083E-2,-1.9006034E-4,4.607155E-2,1.3639062E-4,-3.7224355E-4,-2.1764783E-4,2.070237E-2,9.0577494E-5,-2.1098819E-4,-5.6795892E-5],"split_indices":[5,5,16,30,0,0,0,5,0,11,0,0,0,28,0,0,0],"split_type":[0,0,0,0,0,0,0,0,0,0,0,0,0,0,0,0,0],"sum_hessian":[9.8E1,8E1,1.8E1,4.4E1,3.6E1,8E0,1E1,3.3E1,1.1E1,2.8E1,8E0,2.5E1,8E0,2E1,8E0,1.2E1,8E0],"tree_param":{"num_deleted":"0","num_feature":"31","num_nodes":"17","size_leaf_vector":"1"}},{"base_weights":[2.3101334E-4,-7.318888E-3,3.3649843E-2,-1.2436124E-2,-1.2946249E-3,1.6170409E-2,4.6634745E-2,-1.5613951E-2,-9.440395E-3,-7.5314557E-3,1.7914489E-3,-5.766474E-3,-1.2702365E-2,4.8599113E-3,-1.7752013E-3],"categories":[],"categories_nodes":[],"categories_segments":[],"categories_sizes":[],"default_left":[1,1,1,1,1,0,0,0,1,0,1,0,0,0,0],"id":26,"left_children":[1,3,5,7,9,-1,-1,-1,11,-1,13,-1,-1,-1,-1],"loss_changes":[2.4713099E-2,2.3349863E-3,3.5736281E-3,2.0207185E-4,7.57561E-4,0E0,0E0,0E0,1.3342779E-4,0E0,2.8723775E-4,0E0,0E0,0E0,0E0],"parents":[2147483647,0,0,1,1,2,2,3,3,4,4,8,8,10,10],"right_children":[2,4,6,8,10,-1,-1,-1,12,-1,14,-1,-1,-1,-1],"split_conditions":[6.1595924E-2,2.3532372E-2,3.0952537E-2,9.528024E-3,1.6536444E-2,3.914807E-4,1.129013E-3,-3.7800902E-4,1.9463055E-2,-1.8233426E-4,3.0679282E-2,-1.3960458E-4,-3.0752041E-4,1.1765698E-4,-4.2977084E-5],"split_indices":[5,7,28,25,23,0,0,0,21,0,21,0,0,0,0],"split_type":[0,0,0,0,0,0,0,0,0,0,0,0,0,0,0],"sum_hessian":[9.7E1,7.9E1,1.8E1,4.2E1,3.7E1,8E0,1E1,1.9E1,2.3E1,1.3E1,2.4E1,1.2E1,1.1E1,1.4E1,1E1],"tree_param":{"num_deleted":"0","num_feature":"31","num_nodes":"15","size_leaf_vector":"1"}},{"base_weights":[3.2878746E-4,-7.215115E-3,3.4350596E-2,-1.22189885E-2,-1.4336975E-3,1.9744763E-2,4.6199974E-2,-1.5334392E-2,-9.5455665E-3,-7.350354E-3,1.6050705E-3,-5.2630403E-3,-1.2216088E-2,7.425412E-3,-1.0335902E-3],"categories":[],"categories_nodes":[],"categories_segments":[],"categories_sizes":[],"default_left":[1,1,1,1,1,0,0,0,1,0,1,0,0,0,0],"id":27,"left_children":[1,3,5,7,9,-1,-1,-1,11,-1,13,-1,-1,-1,-1],"loss_changes":[2.4114743E-2,2.0985324E-3,2.3883674E-3,1.3666367E-4,6.924436E-4,0E0,0E0,0E0,1.2890599E-4,0E0,4.0261057E-4,0E0,0E0,0E0,0E0],"parents":[2147483647,0,0,1,1,2,2,3,3,4,4,8,8,10,10],"right_children":[2,4,6,8,10,-1,-1,-1,12,-1,14,-1,-1,-1,-1],"split_conditions":[6.1595924E-2,2.3532372E-2,3.393635E-2,9.528024E-3,1.6536444E-2,4.7801473E-4,1.1184873E-3,-3.7124098E-4,1.8877719E-2,-1.7794984E-4,1.7466992E-2,-1.2741661E-4,-2.957478E-4,1.7976697E-4,-2.5022904E-5],"split_indices":[5,7,16,25,23,0,0,0,21,0,30,0,0,0,0],"split_type":[0,0,0,0,0,0,0,0,0,0,0,0,0,0,0],"sum_hessian":[9.3E1,7.6E1,1.7E1,4E1,3.6E1,8E0,9E0,1.7E1,2.3E1,1.3E1,2.3E1,1E1,1.3E1,8E0,1.5E1],"tree_param":{"num_deleted":"0","num_feature":"31","num_nodes":"15","size_leaf_vector":"1"}},{"base_weights":[-5.3636555E-5,-7.3187957E-3,3.5652254E-2,-1.20149525E-2,-2.1763078E-3,2.5046784E-2,4.4951987E-2,-1.4497781E-2,-8.986912E-3,-7.1436893E-3,6.356769E-4,-4.9459515E-3,-1.1559357E-2,3.4565912E-3,-2.0311738E-3],"categories":[],"categories_nodes":[],"categories_segments":[],"categories_sizes":[],"default_left":[1,1,1,1,1,0,0,0,1,0,1,0,0,0,0],"id":28,"left_children":[1,3,5,7,9,-1,-1,-1,11,-1,13,-1,-1,-1,-1],"loss_changes":[2.4739457E-2,1.826711E-3,9.6870214E-4,1.2344029E-4,5.9459877E-4,0E0,0E0,0E0,8.1518316E-5,0E0,1.9239525E-4,0E0,0E0,0E0,0E0],"parents":[2147483647,0,0,1,1,2,2,3,3,4,4,8,8,10,10],"right_children":[2,4,6,8,10,-1,-1,-1,12,-1,14,-1,-1,-1,-1],"split_conditions":[6.1595924E-2,2.1992598E-2,1.1423145E-1,1.0017452E-2,1.6536444E-2,6.0637505E-4,1.088274E-3,-3.509869E-4,1.8877719E-2,-1.7294656E-4,3.1602196E-2,-1.1973998E-4,-2.7984852E-4,8.368302E-5,-4.91741E-5],"split_indices":[5,7,5,24,23,0,0,0,21,0,20,0,0,0,0],"split_type":[0,0,0,0,0,0,0,0,0,0,0,0,0,0,0],"sum_hessian":[9.6E1,8E1,1.6E1,4.1E1,3.9E1,8E0,8E0,2.1E1,2E1,1.5E1,2.4E1,9E0,1.1E1,1.3E1,1.1E1],"tree_param":{"num_deleted":"0","num_feature":"31","num_nodes":"15","size_leaf_vector":"1"}},{"base_weights":[2.1775551E-4,-6.7843813E-3,3.1241655E-2,-1.1824615E-2,-1.1369432E-3,1.4616696E-2,4.3562602E-2,-1.3321928E-2,-7.5223935E-3,-6.657018E-3,1.7882597E-3,4.6155667E-3,-1.4415911E-3],"categories":[],"categories_nodes":[],"categories_segments":[],"categories_sizes":[],"default_left":[1,1,1,1,1,0,0,0,0,0,1,0,0],"id":29,"left_children":[1,3,5,7,9,-1,-1,-1,-1,-1,11,-1,-1],"loss_changes":[2.129078E-2,2.1540187E-3,3.2179132E-3,1.0143267E-4,6.5214135E-4,0E0,0E0,0E0,0E0,0E0,2.4406741E-4,0E0,0E0],"parents":[2147483647,0,0,1,1,2,2,3,3,4,4,10,10],"right_children":[2,4,6,8,10,-1,-1,-1,-1,-1,12,-1,-1],"split_conditions":[6.1595924E-2,2.1992598E-2,3.1903468E-2,1.7487023E-2,1.6536444E-2,3.538658E-4,1.0546374E-3,-3.2251983E-4,-1.8211486E-4,-1.6116438E-4,3.0679282E-2,1.1174147E-4,-3.4900484E-5],"split_indices":[5,7,16,5,23,0,0,0,0,0,21,0,0],"split_type":[0,0,0,0,0,0,0,0,0,0,0,0,0],"sum_hessian":[9.7E1,7.9E1,1.8E1,4.1E1,3.8E1,8E0,1E1,2.9E1,1.2E1,1.4E1,2.4E1,1.4E1,1E1],"tree_param":{"num_deleted":"0","num_feature":"31","num_nodes":"13","size_leaf_vector":"1"}},{"base_weights":[-6.3532185E-5,-6.72548E-3,3.3053707E-2,-1.1094722E-2,-7.5847143E-4,2.0894108E-2,4.3936007E-2,-1.3794235E-2,-8.69453E-3,-6.9444105E-3,1.1152116E-3,-4.992484E-3,-1.1771918E-2,5.006433E-3,-1.7049109E-3],"categories":[],"categories_nodes":[],"categories_segments":[],"categories_sizes":[],"default_left":[1,1,1,1,1,0,0,0,1,0,1,0,0,0,0],"id":30,"left_children":[1,3,5,7,9,-1,-1,-1,11,-1,13,-1,-1,-1,-1],"loss_changes":[2.1244857E-2,2.0255484E-3,1.5675053E-3,1.21448655E-4,4.5055163E-4,0E0,0E0,0E0,1.6785157E-4,0E0,3.1149565E-4,0E0,0E0,0E0,0E0],"parents":[2147483647,0,0,1,1,2,2,3,3,4,4,8,8,10,10],"right_children":[2,4,6,8,10,-1,-1,-1,12,-1,14,-1,-1,-1,-1],"split_conditions":[6.1595924E-2,2.5330082E-2,1.04084775E-1,1.1737641E-2,1.6266432E-2,5.0584006E-4,1.0636774E-3,-3.3395426E-4,1.9463055E-2,-1.6812207E-4,3.257921E-2,-1.2086653E-4,-2.8499457E-4,1.21204226E-4,-4.1275376E-5],"split_indices":[5,5,6,19,16,0,0,0,21,0,16,0,0,0,0],"split_type":[0,0,0,0,0,0,0,0,0,0,0,0,0,0,0],"sum_hessian":[9.7E1,8.1E1,1.6E1,4.6E1,3.5E1,8E0,8E0,2E1,2.6E1,9E0,2.6E1,1.3E1,1.3E1,1.2E1,1.4E1],"tree_param":{"num_deleted":"0","num_feature":"31","num_nodes":"15","size_leaf_vector":"1"}},{"base_weights":[1.3890555E-5,-4.260446E-3,3.6798574E-2,-7.346475E-3,1.3816564E-2,-1.0759673E-2,-1.2418282E-3,-1.3518603E-2,-8.314867E-3,-3.9663897E-3,2.6499447E-3,-5.175858E-3,-1.0831784E-2,-1.6593084E-3,-5.5996324E-3],"categories":[],"categories_nodes":[],"categories_segments":[],"categories_sizes":[],"default_left":[1,1,0,1,0,1,1,0,1,1,0,0,0,0,0],"id":31,"left_children":[1,3,-1,5,-1,7,9,-1,11,13,-1,-1,-1,-1,-1],"loss_changes":[1.5205639E-2,4.7078244E-3,0E0,1.4328281E-3,0E0,1.392141E-4,2.9790972E-4,0E0,8.259481E-5,9.804848E-6,0E0,0E0,0E0,0E0,0E0],"parents":[2147483647,0,0,1,1,3,3,5,5,6,6,8,8,9,9],"right_children":[2,4,-1,6,-1,8,10,-1,12,14,-1,-1,-1,-1,-1],"split_conditions":[9.950586E-2,3.13E2,8.9088234E-4,2.7701478E-2,3.3449483E-4,9.687686E-3,4.542984E-2,-3.2728128E-4,1.8476643E-2,3.377732E-2,6.415436E-5,-1.2530595E-4,-2.622342E-4,-4.0171355E-5,-1.3556541E-4],"split_indices":[7,0,0,8,0,25,13,0,21,9,0,0,0,0,0],"split_type":[0,0,0,0,0,0,0,0,0,0,0,0,0,0,0],"sum_hessian":[9.5E1,8.5E1,1E1,7.3E1,1.2E1,4.6E1,2.7E1,2E1,2.6E1,1.7E1,1E1,1.3E1,1.3E1,9E0,8E0],"tree_param":{"num_deleted":"0","num_feature":"31","num_nodes":"15","size_leaf_vector":"1"}},{"base_weights":[-0E0,-6.246935E-3,2.8814545E-2,-1.0604698E-2,-9.4411214E-4,1.3245581E-2,4.157498E-2,-1.2273814E-2,-6.684633E-3,-2.9445204E-3,5.097259E-3,-5.9288195E-3,3.583794E-3,-7.945558E-3,-1.9342054E-3],"categories":[],"categories_nodes":[],"categories_segments":[],"categories_sizes":[],"default_left":[1,1,1,1,1,0,0,0,0,1,0,1,0,0,0],"id":32,"left_children":[1,3,5,7,9,-1,-1,-1,-1,11,-1,13,-1,-1,-1],"loss_changes":[1.7235542E-2,1.7180825E-3,2.9401602E-3,1.2771226E-4,4.215211E-4,0E0,0E0,0E0,0E0,5.6648103E-4,0E0,8.730113E-5,0E0,0E0,0E0],"parents":[2147483647,0,0,1,1,2,2,3,3,4,4,9,9,11,11],"right_children":[2,4,6,8,10,-1,-1,-1,-1,12,-1,14,-1,-1,-1],"split_conditions":[6.1595924E-2,2.5330082E-2,3.0952537E-2,1.8014189E-2,2.915E2,3.206715E-4,1.0065177E-3,-2.971453E-4,-1.6183294E-4,4.607155E-2,1.234031E-4,2.070237E-2,8.6762564E-5,-1.9235956E-4,-4.6826528E-5],"split_indices":[5,5,28,6,0,0,0,0,0,11,0,28,0,0,0],"split_type":[0,0,0,0,0,0,0,0,0,0,0,0,0,0,0],"sum_hessian":[9.5E1,7.8E1,1.7E1,4.2E1,3.6E1,8E0,9E0,2.8E1,1.4E1,2.8E1,8E0,2E1,8E0,1.2E1,8E0],"tree_param":{"num_deleted":"0","num_feature":"31","num_nodes":"15","size_leaf_vector":"1"}},{"base_weights":[8.5117805E-5,-6.2136357E-3,2.8382475E-2,-1.0549023E-2,-6.967257E-4,1.2895851E-2,3.9815832E-2,-1.2009004E-2,-6.4439992E-3,-7.447412E-3,9.857469E-4,6.331258E-3,-8.022392E-4,-3.401245E-3,1.0696584E-3],"categories":[],"categories_nodes":[],"categories_segments":[],"categories_sizes":[],"default_left":[1,1,1,1,1,0,0,0,0,0,1,0,1,0,0],"id":33,"left_children":[1,3,5,7,9,-1,-1,-1,-1,-1,11,-1,13,-1,-1],"loss_changes":[1.76629E-2,1.8316105E-3,2.7669808E-3,1.2071477E-4,4.583949E-4,0E0,0E0,0E0,0E0,0E0,3.098611E-4,0E0,1.1532265E-4,0E0,0E0],"parents":[2147483647,0,0,1,1,2,2,3,3,4,4,10,10,12,12],"right_children":[2,4,6,8,10,-1,-1,-1,-1,-1,12,-1,14,-1,-1],"split_conditions":[6.1595924E-2,2.3532372E-2,3.1903468E-2,1.3709076E-2,1.2671329E-2,3.1220465E-4,9.639292E-4,-2.9073434E-4,-1.5600727E-4,-1.8029958E-4,1.630193E-2,1.5327784E-4,2.6289858E-2,-8.234311E-5,2.5896106E-5],"split_indices":[5,7,16,29,23,0,0,0,0,0,30,0,30,0,0],"split_type":[0,0,0,0,0,0,0,0,0,0,0,0,0,0,0],"sum_hessian":[9.8E1,8E1,1.8E1,4.4E1,3.6E1,8E0,1E1,3.1E1,1.3E1,8E0,2.8E1,8E0,2E1,1E1,1E1],"tree_param":{"num_deleted":"0","num_feature":"31","num_nodes":"15","size_leaf_vector":"1"}},{"base_weights":[-2.1375064E-4,-6.2014195E-3,2.7416298E-2,-1.0242186E-2,-7.8234327E-4,1.2539052E-2,3.957474E-2,-1.1451489E-2,-6.244431E-3,-2.9646032E-3,4.6745227E-3,1.1035608E-3,-5.178684E-3,-8.109241E-3,-5.5117166E-4],"categories":[],"categories_nodes":[],"categories_segments":[],"categories_sizes":[],"default_left":[1,1,1,1,1,0,0,0,0,1,0,0,1,0,0],"id":34,"left_children":[1,3,5,7,9,-1,-1,-1,-1,11,-1,-1,13,-1,-1],"loss_changes":[1.59202E-2,1.6713538E-3,2.661148E-3,8.058874E-5,4.064063E-4,0E0,0E0,0E0,0E0,2.6567324E-4,0E0,0E0,1.8076331E-4,0E0,0E0],"parents":[2147483647,0,0,1,1,2,2,3,3,4,4,9,9,12,12],"right_children":[2,4,6,8,10,-1,-1,-1,-1,12,-1,-1,14,-1,-1],"split_conditions":[6.1595924E-2,2.5330082E-2,3.0952537E-2,1.6536444E-2,3.9737105E-2,3.0356666E-4,9.580924E-4,-2.772371E-4,-1.5117577E-4,1.6266432E-2,1.13168775E-4,2.6716873E-5,3.325321E-2,-1.9632226E-4,-1.3343699E-5],"split_indices":[5,5,28,30,5,0,0,0,0,15,0,0,18,0,0],"split_type":[0,0,0,0,0,0,0,0,0,0,0,0,0,0,0],"sum_hessian":[9.7E1,8E1,1.7E1,4.5E1,3.5E1,8E0,9E0,3.3E1,1.2E1,2.6E1,9E0,8E0,1.8E1,1E1,8E0],"tree_param":{"num_deleted":"0","num_feature":"31","num_nodes":"15","size_leaf_vector":"1"}},{"base_weights":[-0E0,-6.0564936E-3,2.7047573E-2,-9.8724235E-3,-6.642673E-4,1.2165982E-2,3.8007554E-2,-1.2352836E-2,-7.645089E-3,-2.7133233E-3,5.036318E-3,-4.169432E-3,-1.0503184E-2,-5.838391E-3,3.3893532E-3],"categories":[],"categories_nodes":[],"categories_segments":[],"categories_sizes":[],"default_left":[1,1,1,1,1,0,0,0,1,1,0,0,0,0,0],"id":35,"left_children":[1,3,5,7,9,-1,-1,-1,11,13,-1,-1,-1,-1,-1],"loss_changes":[1.6170755E-2,1.5693107E-3,2.5377432E-3,9.8155346E-5,3.821857E-4,0E0,0E0,0E0,1.4660985E-4,5.174307E-4,0E0,0E0,0E0,0E0,0E0],"parents":[2147483647,0,0,1,1,2,2,3,3,4,4,8,8,9,9],"right_children":[2,4,6,8,10,-1,-1,-1,12,14,-1,-1,-1,-1,-1],"split_conditions":[6.1595924E-2,2.5330082E-2,9.8304585E-2,1.1737641E-2,2.915E2,2.9453475E-4,9.2015136E-4,-2.9905842E-4,1.9463055E-2,4.607155E-2,1.2192774E-4,-1.00940684E-4,-2.5427892E-4,-1.4134568E-4,8.2055216E-5],"split_indices":[5,5,7,19,0,0,0,0,21,11,0,0,0,0,0],"split_type":[0,0,0,0,0,0,0,0,0,0,0,0,0,0,0],"sum_hessian":[9.8E1,8E1,1.8E1,4.6E1,3.4E1,8E0,1E1,2E1,2.6E1,2.6E1,8E0,1.3E1,1.3E1,1.8E1,8E0],"tree_param":{"num_deleted":"0","num_feature":"31","num_nodes":"15","size_leaf_vector":"1"}},{"base_weights":[-0E0,-4.299318E-3,3.338336E-2,-6.838355E-3,1.4153939E-2,-8.543477E-3,8.609508E-4,-1.1824256E-2,-6.31286E-3,-9.63048E-3,-4.3431143E-3,-1.2431148E-3,-6.1049582E-3],"categories":[],"categories_nodes":[],"categories_segments":[],"categories_sizes":[],"default_left":[1,1,0,1,0,1,0,0,1,0,1,0,0],"id":36,"left_children":[1,3,-1,5,-1,7,-1,-1,9,-1,11,-1,-1],"loss_changes":[1.3948827E-2,3.987931E-3,0E0,1.0564604E-3,0E0,3.207554E-4,0E0,0E0,1.4824246E-4,0E0,8.7393506E-5,0E0,0E0],"parents":[2147483647,0,0,1,1,3,3,5,5,8,8,10,10],"right_children":[2,4,-1,6,-1,8,-1,-1,10,-1,12,-1,-1],"split_conditions":[9.950586E-2,4.55E1,8.08201E-4,2.0185E3,3.4266256E-4,9.687686E-3,2.0843358E-5,-2.8626164E-4,2.05E1,-2.33151E-4,2.498214E-2,-3.0095433E-5,-1.4779919E-4],"split_indices":[7,4,0,3,0,25,0,0,4,0,6,0,0],"split_type":[0,0,0,0,0,0,0,0,0,0,0,0,0],"sum_hessian":[9.7E1,8.6E1,1.1E1,7.6E1,1E1,6.3E1,1.3E1,2.4E1,3.9E1,1.3E1,2.6E1,1.1E1,1.5E1],"tree_param":{"num_deleted":"0","num_feature":"31","num_nodes":"13","size_leaf_vector":"1"}},{"base_weights":[1.3571644E-4,-5.62554E-3,2.7232517E-2,-9.466337E-3,-8.207288E-4,1.550377E-2,3.6590677E-2,-1.063587E-2,-5.7766186E-3,-6.3542556E-3,7.650971E-4,5.4725264E-3,-1.5845635E-3,-4.745017E-3,4.2865364E-4],"categories":[],"categories_nodes":[],"categories_segments":[],"categories_sizes":[],"default_left":[1,1,1,1,1,0,0,0,0,0,1,0,1,0,0],"id":37,"left_children":[1,3,5,7,9,-1,-1,-1,-1,-1,11,-1,13,-1,-1],"loss_changes":[1.5174119E-2,1.3826455E-3,1.4395881E-3,5.894294E-5,3.5850998E-4,0E0,0E0,0E0,0E0,0E0,3.2918534E-4,0E0,1.4087737E-4,0E0,0E0],"parents":[2147483647,0,0,1,1,2,2,3,3,4,4,10,10,12,12],"right_children":[2,4,6,8,10,-1,-1,-1,-1,-1,12,-1,14,-1,-1],"split_conditions":[6.1595924E-2,2.5330082E-2,3.393635E-2,1.6536444E-2,1.6266432E-2,3.7534157E-4,8.858492E-4,-2.5749116E-4,-1.3985019E-4,-1.538346E-4,2.8381169E-2,1.324882E-4,3.7561283E-2,-1.14875416E-4,1.0377575E-5],"split_indices":[5,5,16,30,16,0,0,0,0,0,18,0,7,0,0],"split_type":[0,0,0,0,0,0,0,0,0,0,0,0,0,0,0],"sum_hessian":[9.6E1,7.9E1,1.7E1,4.3E1,3.6E1,8E0,9E0,3.1E1,1.2E1,9E0,2.7E1,1E1,1.7E1,8E0,9E0],"tree_param":{"num_deleted":"0","num_feature":"31","num_nodes":"15","size_leaf_vector":"1"}},{"base_weights":[-0E0,-5.6034974E-3,2.5182746E-2,-9.630946E-3,-1.1779994E-3,1.1069532E-2,3.554304E-2,-1.2294366E-2,-7.6718787E-3,-6.9131055E-3,7.5718213E-4,-4.9670264E-3,-9.418855E-3,-7.1498373E-4,4.818692E-3,3.042197E-3,-3.8363882E-3],"categories":[],"categories_nodes":[],"categories_segments":[],"categories_sizes":[],"default_left":[1,1,1,1,1,0,0,0,1,0,1,0,0,1,0,0,0],"id":38,"left_children":[1,3,5,7,9,-1,-1,-1,11,-1,13,-1,-1,15,-1,-1,-1],"loss_changes":[1.4048706E-2,1.382042E-3,2.2647958E-3,6.3385116E-5,4.9097755E-4,0E0,0E0,0E0,1.2588571E-5,0E0,2.0462506E-4,0E0,0E0,2.4250637E-4,0E0,0E0,0E0],"parents":[2147483647,0,0,1,1,2,2,3,3,4,4,8,8,10,10,13,13],"right_children":[2,4,6,8,10,-1,-1,-1,12,-1,14,-1,-1,16,-1,-1,-1],"split_conditions":[6.1595924E-2,2.1992598E-2,3.1903468E-2,1.0395994E-2,1.4991697E-2,2.6799E-4,8.604862E-4,-2.9764287E-4,1.5938766E-2,-1.6736418E-4,3.9737105E-2,-1.202502E-4,-2.2802764E-4,2.2490084E-2,1.1665907E-4,7.365067E-5,-9.2877795E-5],"split_indices":[5,7,16,21,23,0,0,0,16,0,5,0,0,20,0,0,0],"split_type":[0,0,0,0,0,0,0,0,0,0,0,0,0,0,0,0,0],"sum_hessian":[1E2,8.2E1,1.8E1,4.2E1,4E1,8E0,1E1,1.6E1,2.6E1,1.1E1,2.9E1,1.2E1,1.4E1,2E1,9E0,8E0,1.2E1],"tree_param":{"num_deleted":"0","num_feature":"31","num_nodes":"17","size_leaf_vector":"1"}},{"base_weights":[3.3553933E-5,-5.5595725E-3,2.4588516E-2,-9.181231E-3,-8.8709436E-4,1.0764132E-2,3.4722444E-2,-1.1566784E-2,-6.9496464E-3,-2.5035501E-3,2.4064127E-3,-4.0939744E-3,-9.141761E-3,1.7845517E-3,-5.3725108E-3],"categories":[],"categories_nodes":[],"categories_segments":[],"categories_sizes":[],"default_left":[1,1,1,1,1,0,0,0,1,1,0,0,0,0,0],"id":39,"left_children":[1,3,5,7,9,-1,-1,-1,11,13,-1,-1,-1,-1,-1],"loss_changes":[1.33497305E-2,1.246132E-3,2.1641469E-3,8.5130334E-5,1.88057E-4,0E0,0E0,0E0,4.9451715E-5,3.3607095E-4,0E0,0E0,0E0,0E0,0E0],"parents":[2147483647,0,0,1,1,2,2,3,3,4,4,8,8,9,9],"right_children":[2,4,6,8,10,-1,-1,-1,12,14,-1,-1,-1,-1,-1],"split_conditions":[6.1595924E-2,2.3532372E-2,3.0952537E-2,9.47782E-3,4.542984E-2,2.6059637E-4,8.4061985E-4,-2.8002833E-4,1.8877719E-2,2.8381169E-2,5.8258523E-5,-9.911388E-5,-2.2131926E-4,4.3203454E-5,-1.3006685E-4],"split_indices":[5,7,28,24,13,0,0,0,21,7,0,0,0,0,0],"split_type":[0,0,0,0,0,0,0,0,0,0,0,0,0,0,0],"sum_hessian":[9.6E1,7.8E1,1.8E1,4.3E1,3.5E1,8E0,1E1,1.9E1,2.4E1,2.5E1,1E1,1.2E1,1.2E1,9E0,1.6E1],"tree_param":{"num_deleted":"0","num_feature":"31","num_nodes":"15","size_leaf_vector":"1"}},{"base_weights":[1.0763013E-4,-5.1981816E-3,2.4008535E-2,-8.856727E-3,-7.3567586E-4,1.0475019E-2,3.391435E-2,-1.0100742E-2,-5.371167E-3,-5.688024E-3,1.6504204E-3,-5.9083137E-3,-1.1260177E-2,6.970336E-3,-5.728916E-4,-4.036707E-3,1.9815185E-3],"categories":[],"categories_nodes":[],"categories_segments":[],"categories_sizes":[],"default_left":[1,1,1,1,1,0,0,1,0,0,1,0,0,0,1,0,0],"id":40,"left_children":[1,3,5,7,9,-1,-1,11,-1,-1,13,-1,-1,-1,15,-1,-1],"loss_changes":[1.2589327E-2,1.2359251E-3,2.0647487E-3,6.744312E-5,4.6900145E-4,0E0,0E0,1.3211276E-5,0E0,0E0,3.3265018E-4,0E0,0E0,0E0,1.582805E-4,0E0,0E0],"parents":[2147483647,0,0,1,1,2,2,3,3,4,4,7,7,10,10,14,14],"right_children":[2,4,6,8,10,-1,-1,12,-1,-1,14,-1,-1,-1,16,-1,-1],"split_conditions":[6.1595924E-2,2.3532372E-2,3.1903468E-2,1.3709076E-2,1.6536444E-2,2.5359704E-4,8.2105614E-4,8.478314E-3,-1.3003433E-4,-1.3770534E-4,1.7466992E-2,-1.4303849E-4,-2.7260548E-4,1.6874973E-4,5.2450668E-2,-9.772745E-5,4.797196E-5],"split_indices":[5,7,16,29,23,0,0,16,0,0,30,0,0,0,13,0,0],"split_type":[0,0,0,0,0,0,0,0,0,0,0,0,0,0,0,0,0],"sum_hessian":[9.8E1,8E1,1.8E1,4.3E1,3.7E1,8E0,1E1,3E1,1.3E1,1.3E1,2.4E1,8E0,2.2E1,8E0,1.6E1,8E0,8E0],"tree_param":{"num_deleted":"0","num_feature":"31","num_nodes":"17","size_leaf_vector":"1"}},{"base_weights":[-0E0,-4.0987683E-3,3.1103E-2,-6.1822273E-3,1.0710191E-2,-8.661203E-3,-9.160015E-4,-1.1179577E-2,-6.986881E-3,-3.1299565E-3,2.8557514E-3],"categories":[],"categories_nodes":[],"categories_segments":[],"categories_sizes":[],"default_left":[1,1,0,1,0,1,1,0,0,0,0],"id":41,"left_children":[1,3,-1,5,-1,7,9,-1,-1,-1,-1],"loss_changes":[1.2156449E-2,2.597632E-3,0E0,9.086337E-4,0E0,6.974093E-5,2.1232312E-4,0E0,0E0,4.4939225E-7,0E0],"parents":[2147483647,0,0,1,1,3,3,5,5,6,6],"right_children":[2,4,-1,6,-1,8,10,-1,-1,-1,-1],"split_conditions":[9.950586E-2,4.55E1,7.529942E-4,2.8381169E-2,2.5929048E-4,7.4527673E-3,3.9737105E-2,-2.7065416E-4,-1.6915027E-4,-7.57753E-5,6.913688E-5],"split_indices":[5,4,0,5,0,29,5,0,0,0,0],"split_type":[0,0,0,0,0,0,0,0,0,0,0],"sum_hessian":[9.6E1,8.5E1,1.1E1,7.5E1,1E1,5E1,2.5E1,1.8E1,3.2E1,1.7E1,8E0],"tree_param":{"num_deleted":"0","num_feature":"31","num_nodes":"11","size_leaf_vector":"1"}},{"base_weights":[-2.0645106E-5,-3.8589593E-3,2.9111365E-2,-6.3586216E-3,1.0876647E-2,-8.457297E-3,-1.9346832E-3,-1.0106487E-2,-5.873989E-3,-5.9266305E-3,-0E0,1.1810932E-3,-1.4013897E-3],"categories":[],"categories_nodes":[],"categories_segments":[],"categories_sizes":[],"default_left":[1,1,0,1,0,1,1,0,0,0,1,0,0],"id":42,"left_children":[1,3,-1,5,-1,7,9,-1,-1,-1,11,-1,-1],"loss_changes":[1.0679134E-2,3.143645E-3,0E0,6.0945307E-4,0E0,8.552335E-5,1.9020172E-4,0E0,0E0,0E0,2.8563212E-5,0E0,0E0],"parents":[2147483647,0,0,1,1,3,3,5,5,6,6,10,10],"right_children":[2,4,-1,6,-1,8,10,-1,-1,-1,12,-1,-1],"split_conditions":[9.950586E-2,3.13E2,7.047773E-4,1.9463055E-2,2.6332034E-4,2.0338852E-2,1.7718721E-2,-2.44675E-4,-1.4220749E-4,-1.4348193E-4,3.567616E-2,2.8593908E-5,-3.392722E-5],"split_indices":[7,0,0,27,0,8,7,0,0,0,17,0,0],"split_type":[0,0,0,0,0,0,0,0,0,0,0,0,0],"sum_hessian":[9.7E1,8.6E1,1.1E1,7.4E1,1.2E1,4.9E1,2.5E1,2.8E1,2.1E1,8E0,1.7E1,9E0,8E0],"tree_param":{"num_deleted":"0","num_feature":"31","num_nodes":"13","size_leaf_vector":"1"}},{"base_weights":[-2.290584E-5,-3.9420268E-3,2.9736485E-2,-5.7048234E-3,8.653608E-3,-7.051217E-3,1.5759803E-3,-9.903815E-3,-5.4025175E-3,-6.4310343E-3,-2.435711E-3,-3.420324E-3,-8.571747E-3],"categories":[],"categories_nodes":[],"categories_segments":[],"categories_sizes":[],"default_left":[1,1,0,1,0,1,0,0,1,1,0,0,0],"id":43,"left_children":[1,3,-1,5,-1,7,-1,-1,9,11,-1,-1,-1],"loss_changes":[1.1142823E-2,1.8939986E-3,0E0,7.8741764E-4,0E0,1.8801633E-4,0E0,0E0,6.442377E-5,1.0250963E-4,0E0,0E0,0E0],"parents":[2147483647,0,0,1,1,3,3,5,5,8,8,9,9],"right_children":[2,4,-1,6,-1,8,-1,-1,10,12,-1,-1,-1],"split_conditions":[9.950586E-2,4.55E1,7.199113E-4,3.642184E-2,2.0950123E-4,9.687686E-3,3.8154005E-5,-2.3976836E-4,2.8381169E-2,1.8476643E-2,-5.8967824E-5,-8.280501E-5,-2.0751939E-4],"split_indices":[5,4,0,5,0,25,0,0,13,21,0,0,0],"split_type":[0,0,0,0,0,0,0,0,0,0,0,0,0],"sum_hessian":[9.7E1,8.6E1,1.1E1,7.6E1,1E1,6.5E1,1.1E1,2.2E1,4.3E1,3E1,1.3E1,1.4E1,1.6E1],"tree_param":{"num_deleted":"0","num_feature":"31","num_nodes":"13","size_leaf_vector":"1"}},{"base_weights":[-0E0,-4.8656086E-3,2.1859258E-2,-8.429786E-3,-9.281234E-4,9.073092E-3,3.1184735E-2,-1.0774623E-2,-6.67126E-3,-6.7509464E-3,3.1137327E-4,-4.2040776E-3,-8.220592E-3,-3.4962888E-3,2.6633716E-3,1.1014326E-2,-1.9495287E-3],"categories":[],"categories_nodes":[],"categories_segments":[],"categories_sizes":[],"default_left":[1,1,1,1,1,0,0,0,1,0,1,1,1,0,1,0,0],"id":44,"left_children":[1,3,5,7,9,-1,-1,-1,-1,-1,13,-1,-1,-1,15,-1,-1],"loss_changes":[1.0586549E-2,1.0820205E-3,1.8336149E-3,3.7977472E-5,3.3721369E-4,0E0,0E0,0E0,4.6421774E-6,0E0,2.8202732E-4,0E0,0E0,0E0,8.814114E-4,0E0,0E0],"parents":[2147483647,0,0,1,1,2,2,3,3,4,4,8,8,10,10,14,14],"right_children":[2,4,6,8,10,-1,-1,-1,-1,-1,14,-1,-1,-1,16,-1,-1],"split_conditions":[6.1595924E-2,2.1992598E-2,3.1903468E-2,1.0395994E-2,1.6266432E-2,2.196568E-4,7.54973E-4,-2.6085036E-4,-1.6150919E-4,-1.6343837E-4,2.8427418E-2,-1.0177944E-4,-1.9901803E-4,-8.464409E-5,3.1602196E-2,2.666535E-4,-4.71975E-5],"split_indices":[5,7,16,21,16,0,0,0,16,0,6,2147483647,2147483647,0,19,0,0],"split_type":[0,0,0,0,0,0,0,0,0,0,0,0,0,0,0,0,0],"sum_hessian":[1E2,8.2E1,1.8E1,4.2E1,4E1,8E0,1E1,1.6E1,2.6E1,8E0,3.2E1,1.2E1,1.4E1,1.1E1,2.1E1,8E0,1.3E1],"tree_param":{"num_deleted":"2","num_feature":"31","num_nodes":"17","size_leaf_vector":"1"}},{"base_weights":[-1.0210318E-6,-3.44464E-3,2.8991738E-2,-5.5390783E-3,8.977638E-3,-7.90246E-3,-5.059006E-4,-1.0232093E-2,-6.3366257E-3,-3.014092E-3,2.5156788E-3],"categories":[],"categories_nodes":[],"categories_segments":[],"categories_sizes":[],"default_left":[1,1,0,1,0,1,1,0,0,0,0],"id":45,"left_children":[1,3,-1,5,-1,7,9,-1,-1,-1,-1],"loss_changes":[9.512942E-3,2.244775E-3,0E0,8.3057233E-4,0E0,5.426095E-5,1.9450062E-4,0E0,0E0,0E0,0E0],"parents":[2147483647,0,0,1,1,3,3,5,5,6,6],"right_children":[2,4,-1,6,-1,8,10,-1,-1,-1,-1],"split_conditions":[9.950586E-2,3.13E2,7.018812E-4,2.8381169E-2,2.1734588E-4,7.4527673E-3,3.7561283E-2,-2.4771586E-4,-1.5340779E-4,-7.297026E-5,6.090382E-5],"split_indices":[5,0,0,5,0,29,7,0,0,0,0],"split_type":[0,0,0,0,0,0,0,0,0,0,0],"sum_hessian":[9.7E1,8.7E1,1E1,7.5E1,1.2E1,5E1,2.5E1,1.8E1,3.2E1,1.5E1,1E1],"tree_param":{"num_deleted":"0","num_feature":"31","num_nodes":"11","size_leaf_vector":"1"}},{"base_weights":[-9.226355E-4,-5.1448746E-3,1.1759542E-2,-6.5770843E-3,5.697871E-3,-0E0,1.8990511E-2,-9.777754E-3,-4.2949063E-3,-5.270972E-3,-0E0],"categories":[],"categories_nodes":[],"categories_segments":[],"categories_sizes":[],"default_left":[1,1,1,1,0,0,0,0,1,0,0],"id":46,"left_children":[1,3,5,7,-1,-1,-1,-1,9,-1,-1],"loss_changes":[5.208725E-3,1.160355E-3,2.110386E-3,3.747989E-4,0E0,0E0,0E0,0E0,1.5203794E-4,0E0,0E0],"parents":[2147483647,0,0,1,1,2,2,3,3,8,8],"right_children":[2,4,6,8,-1,-1,-1,-1,10,-1,-1],"split_conditions":[4.1662462E-2,2.955E2,2.9640423E-2,1.1423055E-2,1.3794373E-4,-0E0,4.5975452E-4,-2.3671646E-4,2.0185E3,-1.2760863E-4,-0E0],"split_indices":[6,0,17,29,0,0,0,0,3,0,0],"split_type":[0,0,0,0,0,0,0,0,0,0,0],"sum_hessian":[9.8E1,7.4E1,2.4E1,6.6E1,8E0,9E0,1.5E1,2.6E1,4E1,3.2E1,8E0],"tree_param":{"num_deleted":"0","num_feature":"31","num_nodes":"11","size_leaf_vector":"1"}},{"base_weights":[-0E0,-3.3581003E-3,2.7307298E-2,-5.360106E-3,9.91894E-3,-7.535736E-3,-1.0462902E-3,-9.7707445E-3,-6.024253E-3,2.5969741E-3,-2.9732282E-3,-4.2675836E-3,-2.505976E-4],"categories":[],"categories_nodes":[],"categories_segments":[],"categories_sizes":[],"default_left":[1,1,0,1,0,1,1,0,0,0,1,0,0],"id":47,"left_children":[1,3,-1,5,-1,7,9,-1,-1,-1,11,-1,-1],"loss_changes":[9.261922E-3,2.3123955E-3,0E0,6.592362E-4,0E0,4.7014793E-5,1.9364056E-4,0E0,0E0,0E0,3.371066E-5,0E0,0E0],"parents":[2147483647,0,0,1,1,3,3,5,5,6,6,10,10],"right_children":[2,4,-1,6,-1,8,10,-1,-1,-1,12,-1,-1],"split_conditions":[9.950586E-2,4.55E1,6.611014E-4,2.8381169E-2,2.4013454E-4,7.4527673E-3,5.95E1,-2.3654677E-4,-1.4584533E-4,6.287196E-5,2.3454927E-2,-1.033169E-4,-6.0668917E-6],"split_indices":[5,4,0,5,0,29,0,0,0,0,24,0,0],"split_type":[0,0,0,0,0,0,0,0,0,0,0,0,0],"sum_hessian":[9.9E1,8.8E1,1.1E1,7.7E1,1.1E1,5E1,2.7E1,1.8E1,3.2E1,8E0,1.9E1,1.1E1,8E0],"tree_param":{"num_deleted":"0","num_feature":"31","num_nodes":"13","size_leaf_vector":"1"}},{"base_weights":[-1.206745E-4,-3.159961E-3,2.8188875E-2,-5.3362413E-3,9.768599E-3,-7.5276652E-3,-6.4708845E-4,-9.529124E-3,-5.9231035E-3,2.5347902E-3,-2.583231E-3,-2.5403667E-3,-7.2271405E-3,-3.8244734E-3,-2.445955E-4],"categories":[],"categories_nodes":[],"categories_segments":[],"categories_sizes":[],"default_left":[1,1,0,1,0,1,1,0,1,0,1,0,0,0,0],"id":48,"left_children":[1,3,-1,5,-1,7,9,-1,11,-1,13,-1,-1,-1,-1],"loss_changes":[8.090042E-3,2.4221214E-3,0E0,7.106266E-4,0E0,4.141708E-5,1.5549766E-4,0E0,5.8759935E-5,0E0,1.9384708E-5,0E0,0E0,0E0,0E0],"parents":[2147483647,0,0,1,1,3,3,5,5,6,6,8,8,10,10],"right_children":[2,4,-1,6,-1,8,10,-1,12,-1,14,-1,-1,-1,-1],"split_conditions":[1.0843356E-1,4.55E1,6.8244414E-4,2.8381169E-2,2.3649482E-4,9.47782E-3,5.95E1,-2.306972E-4,1.5225479E-2,6.13665E-5,2.3454927E-2,-6.150151E-5,-1.7496687E-4,-9.258934E-5,-5.9215827E-6],"split_indices":[5,4,0,5,0,24,0,0,18,0,24,0,0,0,0],"split_type":[0,0,0,0,0,0,0,0,0,0,0,0,0,0,0],"sum_hessian":[9.6E1,8.7E1,9E0,7.5E1,1.2E1,5E1,2.5E1,2E1,3E1,8E0,1.7E1,1E1,2E1,9E0,8E0],"tree_param":{"num_deleted":"0","num_feature":"31","num_nodes":"15","size_leaf_vector":"1"}},{"base_weights":[-2.7153068E-4,-3.4239525E-3,2.55849E-2,-5.1712366E-3,8.876943E-3,-6.370203E-3,1.1317986E-3,-7.735322E-3,-3.5956253E-3,-5.660977E-3,-6.4737984E-4],"categories":[],"categories_nodes":[],"categories_segments":[],"categories_sizes":[],"default_left":[1,1,0,1,0,1,0,0,1,0,0],"id":49,"left_children":[1,3,-1,5,-1,7,-1,-1,9,-1,-1],"loss_changes":[7.594318E-3,1.805437E-3,0E0,6.0688914E-4,0E0,1.5636045E-4,0E0,0E0,9.3543E-5,0E0,0E0],"parents":[2147483647,0,0,1,1,3,3,5,5,8,8],"right_children":[2,4,-1,6,-1,8,-1,-1,10,-1,-1],"split_conditions":[9.950586E-2,4.55E1,6.194027E-4,3.642184E-2,2.149081E-4,1.6536444E-2,2.7400501E-5,-1.872698E-4,2.498214E-2,-1.3705055E-4,-1.567287E-5],"split_indices":[5,4,0,5,0,30,0,0,9,0,0],"split_type":[0,0,0,0,0,0,0,0,0,0,0],"sum_hessian":[9.5E1,8.5E1,1E1,7.5E1,1E1,6.4E1,1.1E1,4.1E1,2.3E1,1.2E1,1.1E1],"tree_param":{"num_deleted":"0","num_feature":"31","num_nodes":"11","size_leaf_vector":"1"}},{"base_weights":[-0E0,-3.475822E-3,2.240881E-2,-5.431784E-3,8.776471E-3,-6.828743E-3,-0E0,-7.991156E-3,-3.8739555E-3,-2.384883E-3,1.4998943E-3,-1.4652682E-3,-5.43E-3],"categories":[],"categories_nodes":[],"categories_segments":[],"categories_sizes":[],"default_left":[1,1,0,1,0,1,1,0,1,0,0,0,0],"id":50,"left_children":[1,3,-1,5,-1,7,9,-1,11,-1,-1,-1,-1],"loss_changes":[7.5883507E-3,1.9946285E-3,0E0,5.057126E-4,0E0,1.0546297E-4,6.42012E-5,0E0,1.6022823E-5,0E0,0E0,0E0,0E0],"parents":[2147483647,0,0,1,1,3,3,5,5,6,6,8,8],"right_children":[2,4,-1,6,-1,8,10,-1,12,-1,-1,-1,-1],"split_conditions":[8.619291E-2,3.13E2,5.425105E-4,2.6850257E-2,2.124757E-4,2.6850257E-2,3.4589127E-2,-1.9346345E-4,3.4488544E-2,-5.7737292E-5,3.6311987E-5,-3.54737E-5,-1.3145866E-4],"split_indices":[7,0,0,30,0,10,6,0,10,0,0,0,0],"split_type":[0,0,0,0,0,0,0,0,0,0,0,0,0],"sum_hessian":[9.7E1,8.4E1,1.3E1,7.3E1,1.1E1,5.7E1,1.6E1,3.9E1,1.8E1,8E0,8E0,9E0,9E0],"tree_param":{"num_deleted":"0","num_feature":"31","num_nodes":"13","size_leaf_vector":"1"}},{"base_weights":[-2.3852162E-4,-3.2112286E-3,2.439653E-2,-4.9110157E-3,8.90277E-3,-6.7951856E-3,-9.92957E-4,-8.360773E-3,-5.165165E-3,-2.9891343E-3,1.9550691E-3,-2.2510062E-3,-6.978751E-3,-8.5595396E-4,-4.0435754E-3],"categories":[],"categories_nodes":[],"categories_segments":[],"categories_sizes":[],"default_left":[1,1,0,1,0,1,1,0,1,1,0,0,0,1,1],"id":51,"left_children":[1,3,-1,5,-1,7,9,-1,11,-1,-1,-1,-1,-1,-1],"loss_changes":[6.886854E-3,1.7469712E-3,0E0,5.034277E-4,0E0,2.3822766E-5,1.6170101E-4,0E0,7.341523E-5,1.843131E-6,0E0,0E0,0E0,0E0,0E0],"parents":[2147483647,0,0,1,1,3,3,5,5,6,6,8,8,9,9],"right_children":[2,4,-1,6,-1,8,10,-1,12,-1,-1,-1,-1,-1,-1],"split_conditions":[9.950586E-2,4.55E1,5.9063255E-4,2.8381169E-2,2.1553335E-4,9.687686E-3,4.542984E-2,-2.0241179E-4,1.8877719E-2,-7.2366034E-5,4.7331632E-5,-5.4496177E-5,-1.6895345E-4,-2.0722386E-5,-9.789373E-5],"split_indices":[5,4,0,5,0,25,13,0,21,7,0,0,0,2147483647,2147483647],"split_type":[0,0,0,0,0,0,0,0,0,0,0,0,0,0,0],"sum_hessian":[9.6E1,8.6E1,1E1,7.6E1,1E1,5E1,2.6E1,2.3E1,2.7E1,1.7E1,9E0,1.2E1,1.5E1,8E0,9E0],"tree_param":{"num_deleted":"2","num_feature":"31","num_nodes":"15","size_leaf_vector":"1"}},{"base_weights":[1.4870806E-4,-2.921619E-3,2.4375873E-2,-4.7647557E-3,8.748799E-3,-5.723118E-3,2.2021704E-3,-8.160705E-3,-4.2333216E-3,-5.37924E-3,-1.820277E-3,-2.3252212E-3,-6.9941846E-3,-2.6312936E-3,-7.367207E-5],"categories":[],"categories_nodes":[],"categories_segments":[],"categories_sizes":[],"default_left":[1,1,0,1,0,1,0,0,1,1,1,0,0,1,1],"id":52,"left_children":[1,3,-1,5,-1,7,-1,-1,9,11,-1,-1,-1,-1,-1],"loss_changes":[7.3127747E-3,1.8044498E-3,0E0,5.2187E-4,0E0,1.4514825E-4,0E0,0E0,6.495713E-5,6.313977E-5,2.7385067E-6,0E0,0E0,0E0,0E0],"parents":[2147483647,0,0,1,1,3,3,5,5,8,8,9,9,10,10],"right_children":[2,4,-1,6,-1,8,-1,-1,10,12,-1,-1,-1,-1,-1],"split_conditions":[9.950586E-2,4.55E1,5.901325E-4,3.9737105E-2,2.1180576E-4,9.687686E-3,5.3313877E-5,-1.9756818E-4,2.8381169E-2,1.6720384E-2,-4.4068354E-5,-5.62929E-5,-1.6932709E-4,-6.370282E-5,-1.7835785E-6],"split_indices":[5,4,0,5,0,25,0,0,13,14,14,0,0,2147483647,2147483647],"split_type":[0,0,0,0,0,0,0,0,0,0,0,0,0,0,0],"sum_hessian":[9.6E1,8.5E1,1.1E1,7.4E1,1.1E1,6.6E1,8E0,2.3E1,4.3E1,2.7E1,1.6E1,1.1E1,1.6E1,8E0,8E0],"tree_param":{"num_deleted":"2","num_feature":"31","num_nodes":"15","size_leaf_vector":"1"}},{"base_weights":[1.515102E-5,-2.9269964E-3,2.379045E-2,-4.691843E-3,8.538684E-3,-5.607224E-3,2.149441E-3,-6.7413403E-3,-2.70012E-3,-4.9504563E-3,-7.253171E-4],"categories":[],"categories_nodes":[],"categories_segments":[],"categories_sizes":[],"default_left":[1,1,0,1,0,1,0,0,1,0,0],"id":53,"left_children":[1,3,-1,5,-1,7,-1,-1,9,-1,-1],"loss_changes":[7.0220195E-3,1.7373043E-3,0E0,5.0317135E-4,0E0,1.5294901E-4,0E0,0E0,5.136177E-5,0E0,0E0],"parents":[2147483647,0,0,1,1,3,3,5,5,8,8],"right_children":[2,4,-1,6,-1,8,-1,-1,10,-1,-1],"split_conditions":[9.950586E-2,4.55E1,5.759596E-4,3.9737105E-2,2.0671895E-4,2.8381169E-2,5.2037318E-5,-1.632058E-4,1.6755886E-2,-1.1984905E-4,-1.7559707E-5],"split_indices":[5,4,0,5,0,9,0,0,30,0,0],"split_type":[0,0,0,0,0,0,0,0,0,0,0],"sum_hessian":[9.8E1,8.7E1,1.1E1,7.6E1,1.1E1,6.8E1,8E0,4.7E1,2.1E1,8E0,1.3E1],"tree_param":{"num_deleted":"0","num_feature":"31","num_nodes":"11","size_leaf_vector":"1"}},{"base_weights":[-5.0732587E-4,-3.8620979E-3,1.5177302E-2,-6.8040853E-3,-5.800589E-4,5.9498805E-3,2.2426736E-2,-7.865248E-3,-4.1199788E-3,-5.152382E-3,9.1005233E-4,5.2318196E-3,-4.0017423E-4,-2.626233E-3,2.2906547E-3],"categories":[],"categories_nodes":[],"categories_segments":[],"categories_sizes":[],"default_left":[1,1,1,1,1,0,0,0,0,0,1,0,1,0,0],"id":54,"left_children":[1,3,5,7,9,-1,-1,-1,-1,-1,11,-1,13,-1,-1],"loss_changes":[5.135256E-3,7.3758396E-4,9.211325E-4,2.8244336E-5,3.0496911E-4,0E0,0E0,0E0,0E0,0E0,2.0068388E-4,0E0,1.293367E-4,0E0,0E0],"parents":[2147483647,0,0,1,1,2,2,3,3,4,4,10,10,12,12],"right_children":[2,4,6,8,10,-1,-1,-1,-1,-1,12,-1,14,-1,-1],"split_conditions":[6.1595924E-2,2.1992598E-2,3.1903468E-2,1.43868625E-2,1.4991697E-2,1.440448E-4,5.429445E-4,-1.9041527E-4,-9.974344E-5,-1.247376E-4,2.8651398E-2,1.2666077E-4,5.2450668E-2,-6.358031E-5,5.5456054E-5],"split_indices":[5,7,16,27,23,0,0,0,0,0,8,0,10,0,0],"split_type":[0,0,0,0,0,0,0,0,0,0,0,0,0,0,0],"sum_hessian":[9.9E1,8.2E1,1.7E1,4.2E1,4E1,8E0,9E0,2.8E1,1.4E1,1.1E1,2.9E1,8E0,2.1E1,1.3E1,8E0],"tree_param":{"num_deleted":"0","num_feature":"31","num_nodes":"15","size_leaf_vector":"1"}},{"base_weights":[-0E0,-2.8768142E-3,2.2045514E-2,-4.876536E-3,6.8477946E-3,-5.767669E-3,-0E0,-8.772702E-3,-4.453181E-3,-5.6095836E-3,-2.762377E-3,-2.8897582E-3,-7.310004E-3,-0E0,-4.1887998E-3],"categories":[],"categories_nodes":[],"categories_segments":[],"categories_sizes":[],"default_left":[1,1,0,1,0,1,0,0,1,1,1,0,0,0,0],"id":55,"left_children":[1,3,-1,5,-1,7,-1,-1,9,11,13,-1,-1,-1,-1],"loss_changes":[6.1015333E-3,1.662476E-3,0E0,3.511284E-4,0E0,1.4384091E-4,0E0,0E0,2.4781853E-5,3.3992575E-5,6.873075E-5,0E0,0E0,0E0,0E0],"parents":[2147483647,0,0,1,1,3,3,5,5,8,8,9,9,10,10],"right_children":[2,4,-1,6,-1,8,-1,-1,10,12,14,-1,-1,-1,-1],"split_conditions":[9.8304585E-2,3.06E2,5.337152E-4,3.7561283E-2,1.6578303E-4,7.4527673E-3,-0E0,-2.1238446E-4,2.064639E-2,1.4661021E-2,2.294802E-2,-6.996017E-5,-1.7697299E-4,-0E0,-1.0140957E-4],"split_indices":[7,0,0,7,0,29,0,0,9,14,15,0,0,0,0],"split_type":[0,0,0,0,0,0,0,0,0,0,0,0,0,0,0],"sum_hessian":[9.7E1,8.6E1,1.1E1,7.2E1,1.4E1,6.2E1,1E1,1.7E1,4.5E1,2.4E1,2.1E1,1.1E1,1.3E1,8E0,1.3E1],"tree_param":{"num_deleted":"0","num_feature":"31","num_nodes":"15","size_leaf_vector":"1"}},{"base_weights":[3.183946E-5,-2.7216512E-3,2.2325307E-2,-4.5097624E-3,6.046126E-3,-5.670651E-3,7.7704975E-4,-7.364271E-3,-3.77713E-3,-4.8062466E-3,-4.2428586E-4],"categories":[],"categories_nodes":[],"categories_segments":[],"categories_sizes":[],"default_left":[1,1,0,1,0,1,0,0,1,0,0],"id":56,"left_children":[1,3,-1,5,-1,7,-1,-1,9,-1,-1],"loss_changes":[6.1717182E-3,1.3563863E-3,0E0,4.8520707E-4,0E0,1.10925874E-4,0E0,0E0,6.834991E-5,0E0,0E0],"parents":[2147483647,0,0,1,1,3,3,5,5,8,8],"right_children":[2,4,-1,6,-1,8,-1,-1,10,-1,-1],"split_conditions":[9.950586E-2,3.06E2,5.404889E-4,2.0185E3,1.4637488E-4,1.1423055E-2,1.881214E-5,-1.7828678E-4,2.8381169E-2,-1.16357776E-4,-1.0271832E-5],"split_indices":[5,0,0,3,0,26,0,0,9,0,0],"split_type":[0,0,0,0,0,0,0,0,0,0,0],"sum_hessian":[9.8E1,8.7E1,1.1E1,7.3E1,1.4E1,6.1E1,1.2E1,3E1,3.1E1,2.2E1,9E0],"tree_param":{"num_deleted":"0","num_feature":"31","num_nodes":"11","size_leaf_vector":"1"}},{"base_weights":[-4.0524537E-4,-4.262528E-3,1.6265761E-2,-6.2282807E-3,-3.4004173E-4,5.3070085E-3,2.4175163E-2,-7.476381E-3,-3.8384926E-3,-2.582141E-3,3.5574108E-3,-5.059433E-3,-1.056092E-3,-4.288872E-3,-6.486232E-4],"categories":[],"categories_nodes":[],"categories_segments":[],"categories_sizes":[],"default_left":[1,1,1,1,1,0,0,0,1,1,0,0,0,0,0],"id":57,"left_children":[1,3,5,7,9,-1,-1,-1,11,13,-1,-1,-1,-1,-1],"loss_changes":[6.2247934E-3,5.686983E-4,1.338149E-3,6.902171E-5,2.3904022E-4,0E0,0E0,0E0,2.2476568E-5,2.6176596E-5,0E0,0E0,0E0,0E0,0E0],"parents":[2147483647,0,0,1,1,2,2,3,3,4,4,8,8,9,9],"right_children":[2,4,6,8,10,-1,-1,-1,12,14,-1,-1,-1,-1,-1],"split_conditions":[6.1595924E-2,1.993388E-2,3.1903468E-2,2.3695156E-2,3.9737105E-2,1.2848107E-4,5.852734E-4,-1.8100091E-4,2.285E2,1.7466992E-2,8.612384E-5,-1.2248734E-4,-2.5567666E-5,-1.0383229E-4,-1.5702972E-5],"split_indices":[5,28,16,12,5,0,0,0,0,8,0,0,0,0,0],"split_type":[0,0,0,0,0,0,0,0,0,0,0,0,0,0,0],"sum_hessian":[9.8E1,8E1,1.8E1,5.2E1,2.8E1,8E0,1E1,3.2E1,2E1,1.9E1,9E0,1.2E1,8E0,8E0,1.1E1],"tree_param":{"num_deleted":"0","num_feature":"31","num_nodes":"15","size_leaf_vector":"1"}},{"base_weights":[-1.3698768E-4,-3.478547E-3,1.489562E-2,-4.5123473E-3,4.7297445E-3,5.4427977E-3,2.2348395E-2,-5.700359E-3,7.149976E-4,-8.460854E-3,-4.576198E-3,-3.0592934E-3,-6.0062986E-3,-5.157655E-3,-1.0117748E-3],"categories":[],"categories_nodes":[],"categories_segments":[],"categories_sizes":[],"default_left":[1,1,1,1,0,0,0,1,0,0,1,1,0,0,0],"id":58,"left_children":[1,3,5,7,-1,-1,-1,9,-1,-1,11,13,-1,-1,-1],"loss_changes":[4.7467765E-3,6.714024E-4,9.87283E-4,4.7875452E-4,0E0,0E0,0E0,8.3381776E-5,0E0,0E0,2.6872673E-5,5.733945E-5,0E0,0E0,0E0],"parents":[2147483647,0,0,1,1,2,2,3,3,7,7,10,10,11,11],"right_children":[2,4,6,8,-1,-1,-1,10,-1,-1,12,14,-1,-1,-1],"split_conditions":[6.1595924E-2,4.35E1,3.0952537E-2,2.0185E3,1.1450568E-4,1.3176848E-4,5.4104783E-4,7.097177E-3,1.7309874E-5,-2.0483471E-4,1.8476643E-2,1.1587573E-2,-1.4541067E-4,-1.2486527E-4,-2.449476E-5],"split_indices":[5,4,28,3,0,0,0,29,0,0,21,20,0,0,0],"split_type":[0,0,0,0,0,0,0,0,0,0,0,0,0,0,0],"sum_hessian":[9.6E1,7.9E1,1.7E1,7.1E1,8E0,8E0,9E0,5.9E1,1.2E1,1.5E1,4.4E1,2.4E1,2E1,1E1,1.4E1],"tree_param":{"num_deleted":"0","num_feature":"31","num_nodes":"15","size_leaf_vector":"1"}},{"base_weights":[-2.056417E-4,-2.4983308E-3,2.120289E-2,-4.137135E-3,9.47436E-3,-4.939525E-3,1.9453327E-3,-5.6201736E-3,-1.01998E-3,-6.844037E-3,-3.69102E-3,-1.0463722E-3,-5.223626E-3],"categories":[],"categories_nodes":[],"categories_segments":[],"categories_sizes":[],"default_left":[1,1,0,1,0,1,0,1,0,0,1,0,0],"id":59,"left_children":[1,3,-1,5,-1,7,-1,9,-1,-1,11,-1,-1],"loss_changes":[4.631559E-3,1.6923142E-3,0E0,4.0413835E-4,0E0,1.3729732E-4,0E0,5.688565E-5,0E0,1.8323772E-7,5.476683E-5,0E0,0E0],"parents":[2147483647,0,0,1,1,3,3,5,5,7,7,10,10],"right_children":[2,4,-1,6,-1,8,-1,10,-1,-1,12,-1,-1],"split_conditions":[9.950586E-2,4.55E1,5.1331555E-4,3.9737105E-2,2.2937139E-4,2.6850257E-2,4.7095917E-5,2.0338852E-2,-2.4693405E-5,-1.6569206E-4,2.6710242E-2,-2.5332354E-5,-1.264624E-4],"split_indices":[5,4,0,5,0,30,0,8,0,0,6,0,0],"split_type":[0,0,0,0,0,0,0,0,0,0,0,0,0],"sum_hessian":[9.7E1,8.8E1,9E0,7.8E1,1E1,7E1,8E0,5.8E1,1.2E1,3.3E1,2.5E1,1.1E1,1.4E1],"tree_param":{"num_deleted":"0","num_feature":"31","num_nodes":"13","size_leaf_vector":"1"}},{"base_weights":[-0E0,-2.4979562E-3,2.035999E-2,-3.8626844E-3,8.587373E-3,-4.9009523E-3,3.3669013E-3,-6.336331E-3,-2.8440212E-3,-3.5529668E-3,-0E0,-8.6995994E-4,-5.03111E-3],"categories":[],"categories_nodes":[],"categories_segments":[],"categories_sizes":[],"default_left":[1,1,0,1,0,1,0,0,1,1,0,0,0],"id":60,"left_children":[1,3,-1,5,-1,7,-1,-1,9,11,-1,-1,-1],"loss_changes":[5.146157E-3,1.3005859E-3,0E0,6.064798E-4,0E0,1.3734621E-4,0E0,9.904616E-7,4.0001323E-5,4.74728E-5,0E0,0E0,0E0],"parents":[2147483647,0,0,1,1,3,3,5,5,8,8,9,9],"right_children":[2,4,-1,6,-1,8,-1,-1,10,12,-1,-1,-1],"split_conditions":[9.950586E-2,4.65E1,4.9290917E-4,3.9737105E-2,2.0789771E-4,1.993388E-2,8.151166E-5,-1.5340064E-4,2.554201E-2,2.6150372E-2,-0E0,-2.1061467E-5,-1.2180164E-4],"split_indices":[5,4,0,5,0,8,0,0,24,6,0,0,0],"split_type":[0,0,0,0,0,0,0,0,0,0,0,0,0],"sum_hessian":[9.9E1,8.8E1,1.1E1,7.9E1,9E0,7E1,9E0,3.9E1,3.1E1,2.3E1,8E0,1E1,1.3E1],"tree_param":{"num_deleted":"0","num_feature":"31","num_nodes":"13","size_leaf_vector":"1"}},{"base_weights":[-0E0,-2.6079435E-3,1.9871015E-2,-4.043924E-3,5.718155E-3,-5.0716437E-3,2.9278806E-4,-6.9986056E-3,-3.7324808E-3,-2.3857995E-3,-5.369676E-3,-8.649617E-5,-4.0549543E-3],"categories":[],"categories_nodes":[],"categories_segments":[],"categories_sizes":[],"default_left":[1,1,0,1,0,1,0,0,1,1,0,0,0],"id":61,"left_children":[1,3,-1,5,-1,7,-1,-1,9,11,-1,-1,-1],"loss_changes":[4.970693E-3,1.0308863E-3,0E0,3.7018943E-4,0E0,7.84297E-5,0E0,0E0,2.7607544E-5,6.174471E-5,0E0,0E0,0E0],"parents":[2147483647,0,0,1,1,3,3,5,5,8,8,9,9],"right_children":[2,4,-1,6,-1,8,-1,-1,10,12,-1,-1,-1],"split_conditions":[9.950586E-2,4.45E1,4.8107124E-4,2.0185E3,1.384348E-4,9.263264E-3,7.08831E-6,-1.6943412E-4,1.993388E-2,2.5998505E-2,-1.2999823E-4,-2.094046E-6,-9.8169214E-5],"split_indices":[5,4,0,3,0,27,0,0,25,6,0,0,0],"split_type":[0,0,0,0,0,0,0,0,0,0,0,0,0],"sum_hessian":[9.8E1,8.7E1,1.1E1,7.5E1,1.2E1,6.2E1,1.3E1,2.3E1,3.9E1,2.4E1,1.5E1,1.2E1,1.2E1],"tree_param":{"num_deleted":"0","num_feature":"31","num_nodes":"13","size_leaf_vector":"1"}},{"base_weights":[1.2446249E-4,-2.2715877E-3,1.9393785E-2,-3.6048607E-3,8.244413E-3,-4.6239775E-3,3.2502578E-3,-5.300765E-3,-4.3473396E-4,-6.5054926E-3,-3.4459943E-3,-0E0,-4.6796696E-3],"categories":[],"categories_nodes":[],"categories_segments":[],"categories_sizes":[],"default_left":[1,1,0,1,0,1,0,1,0,0,1,0,0],"id":62,"left_children":[1,3,-1,5,-1,7,-1,9,-1,-1,11,-1,-1],"loss_changes":[4.613314E-3,1.1752886E-3,0E0,5.5005716E-4,0E0,1.5036308E-4,0E0,5.1875133E-5,0E0,0E0,7.630343E-5,0E0,0E0],"parents":[2147483647,0,0,1,1,3,3,5,5,7,7,10,10],"right_children":[2,4,-1,6,-1,8,-1,10,-1,-1,12,-1,-1],"split_conditions":[9.950586E-2,4.65E1,4.6951766E-4,3.9737105E-2,1.9959474E-4,2.6850257E-2,7.868776E-5,2.064639E-2,-1.0524777E-5,-1.57496E-4,2.162908E-2,-0E0,-1.1329338E-4],"split_indices":[5,4,0,5,0,30,0,9,0,0,15,0,0],"split_type":[0,0,0,0,0,0,0,0,0,0,0,0,0],"sum_hessian":[9.7E1,8.6E1,1.1E1,7.7E1,9E0,6.8E1,9E0,5.7E1,1.1E1,3.2E1,2.5E1,8E0,1.7E1],"tree_param":{"num_deleted":"0","num_feature":"31","num_nodes":"13","size_leaf_vector":"1"}},{"base_weights":[8.994982E-5,-2.2236425E-3,1.8928012E-2,-3.5113117E-3,8.046763E-3,-4.4932403E-3,3.1723347E-3,-5.165694E-3,-2.6671012E-4,-6.2901666E-3,-3.3692264E-3,-0E0,-4.566963E-3],"categories":[],"categories_nodes":[],"categories_segments":[],"categories_sizes":[],"default_left":[1,1,0,1,0,1,0,1,0,0,1,0,0],"id":63,"left_children":[1,3,-1,5,-1,7,-1,9,-1,-1,11,-1,-1],"loss_changes":[4.4024936E-3,1.1206443E-3,0E0,5.2352855E-4,0E0,1.5600317E-4,0E0,4.392641E-5,0E0,0E0,7.162054E-5,0E0,0E0],"parents":[2147483647,0,0,1,1,3,3,5,5,7,7,10,10],"right_children":[2,4,-1,6,-1,8,-1,10,-1,-1,12,-1,-1],"split_conditions":[9.950586E-2,4.65E1,4.5824144E-4,3.9737105E-2,1.9480969E-4,2.6850257E-2,7.680126E-5,2.064639E-2,-6.4569713E-6,-1.5228303E-4,2.162908E-2,-0E0,-1.1056478E-4],"split_indices":[5,4,0,5,0,30,0,9,0,0,15,0,0],"split_type":[0,0,0,0,0,0,0,0,0,0,0,0,0],"sum_hessian":[9.8E1,8.7E1,1.1E1,7.8E1,9E0,6.9E1,9E0,5.8E1,1.1E1,3.3E1,2.5E1,8E0,1.7E1],"tree_param":{"num_deleted":"0","num_feature":"31","num_nodes":"13","size_leaf_vector":"1"}},{"base_weights":[-0E0,-2.4296353E-3,1.8473428E-2,-3.6000768E-3,7.981031E-3,-4.7104703E-3,2.4789104E-3,-5.9201107E-3,-2.8576194E-3,-4.117367E-3,-9.6479926E-4],"categories":[],"categories_nodes":[],"categories_segments":[],"categories_sizes":[],"default_left":[1,1,0,1,0,1,0,0,1,0,0],"id":64,"left_children":[1,3,-1,5,-1,7,-1,-1,9,-1,-1],"loss_changes":[4.2923344E-3,1.0190904E-3,0E0,5.44664E-4,0E0,8.3855586E-5,0E0,0E0,3.1368632E-5,0E0,0E0],"parents":[2147483647,0,0,1,1,3,3,5,5,8,8],"right_children":[2,4,-1,6,-1,8,-1,-1,10,-1,-1],"split_conditions":[9.950586E-2,3.2E2,4.472361E-4,3.642184E-2,1.9321835E-4,1.4661021E-2,6.001367E-5,-1.4332408E-4,2.44633E-2,-9.9680205E-5,-2.3357497E-5],"split_indices":[5,0,0,5,0,29,0,0,9,0,0],"split_type":[0,0,0,0,0,0,0,0,0,0,0],"sum_hessian":[9.7E1,8.6E1,1.1E1,7.8E1,8E0,6.7E1,1.1E1,3.8E1,2.9E1,1.5E1,1.4E1],"tree_param":{"num_deleted":"0","num_feature":"31","num_nodes":"11","size_leaf_vector":"1"}},{"base_weights":[-2.083082E-4,-2.4662693E-3,1.5260657E-2,-4.0372955E-3,4.4591213E-3,-5.15883E-3,-0E0,-6.382025E-3,-3.329696E-3,-1.6319469E-3,-5.1055215E-3],"categories":[],"categories_nodes":[],"categories_segments":[],"categories_sizes":[],"default_left":[1,1,0,1,0,1,0,0,1,0,0],"id":65,"left_children":[1,3,-1,5,-1,7,-1,-1,9,-1,-1],"loss_changes":[3.3346366E-3,9.35109E-4,0E0,3.3398787E-4,0E0,5.1682E-5,0E0,0E0,2.5001646E-5,0E0,0E0],"parents":[2147483647,0,0,1,1,3,3,5,5,8,8],"right_children":[2,4,-1,6,-1,8,-1,-1,10,-1,-1],"split_conditions":[8.619291E-2,2.99E2,3.694559E-4,2.6850257E-2,1.0795397E-4,2.064639E-2,-0E0,-1.5450688E-4,2.1965329E-2,-3.950894E-5,-1.2360312E-4],"split_indices":[7,0,0,30,0,9,0,0,19,0,0],"split_type":[0,0,0,0,0,0,0,0,0,0,0],"sum_hessian":[9.8E1,8.6E1,1.2E1,7.1E1,1.5E1,5.6E1,1.5E1,3.1E1,2.5E1,1.5E1,1E1],"tree_param":{"num_deleted":"0","num_feature":"31","num_nodes":"11","size_leaf_vector":"1"}},{"base_weights":[-0E0,-2.2744986E-3,1.674219E-2,-3.9315973E-3,4.4967025E-3,-5.064107E-3,-0E0,-3.6956035E-4,1.0229441E-2,-6.315722E-3,-3.2499772E-3,-8.7729486E-4,-4.326478E-3],"categories":[],"categories_nodes":[],"categories_segments":[],"categories_sizes":[],"default_left":[1,1,0,1,1,1,0,0,0,0,1,0,0],"id":66,"left_children":[1,3,-1,5,7,9,-1,-1,-1,-1,11,-1,-1],"loss_changes":[3.8337817E-3,9.6333923E-4,0E0,3.2936432E-4,5.2218186E-4,5.2419608E-5,0E0,0E0,0E0,0E0,2.5203713E-5,0E0,0E0],"parents":[2147483647,0,0,1,1,3,3,4,4,5,5,10,10],"right_children":[2,4,-1,6,8,10,-1,-1,-1,-1,12,-1,-1],"split_conditions":[9.685868E-2,2.99E2,4.0532334E-4,2.6850257E-2,1.3119418E-2,2.0338852E-2,-0E0,-8.946944E-6,2.4765168E-4,-1.5290172E-4,2.6150372E-2,-2.1239042E-5,-1.0474272E-4],"split_indices":[7,0,0,30,16,8,0,0,0,0,6,0,0],"split_type":[0,0,0,0,0,0,0,0,0,0,0,0,0],"sum_hessian":[9.8E1,8.6E1,1.2E1,7E1,1.6E1,5.5E1,1.5E1,8E0,8E0,3E1,2.5E1,1E1,1.5E1],"tree_param":{"num_deleted":"0","num_feature":"31","num_nodes":"13","size_leaf_vector":"1"}},{"base_weights":[-0E0,-2.2108527E-3,1.7336765E-2,-3.4347277E-3,7.3766448E-3,-4.3877535E-3,2.923599E-3,-6.2328647E-3,-3.1325282E-3,-1.0247793E-3,-3.9912118E-3,-4.884727E-3,-8.1274775E-4],"categories":[],"categories_nodes":[],"categories_segments":[],"categories_sizes":[],"default_left":[1,1,0,1,0,1,0,0,1,0,1,0,0],"id":67,"left_children":[1,3,-1,5,-1,7,-1,-1,9,-1,11,-1,-1],"loss_changes":[3.7535857E-3,9.832004E-4,0E0,4.7910842E-4,0E0,8.660322E-5,0E0,0E0,4.047295E-5,0E0,3.7222257E-5,0E0,0E0],"parents":[2147483647,0,0,1,1,3,3,5,5,8,8,10,10],"right_children":[2,4,-1,6,-1,8,-1,-1,10,-1,12,-1,-1],"split_conditions":[9.950586E-2,4.65E1,4.1971784E-4,3.9737105E-2,1.7858633E-4,1.0663569E-2,7.0779446E-5,-1.5089576E-4,1.7466992E-2,-2.4809595E-5,3.3101276E-2,-1.18257754E-4,-1.9676376E-5],"split_indices":[5,4,0,5,0,25,0,0,23,0,13,0,0],"split_type":[0,0,0,0,0,0,0,0,0,0,0,0,0],"sum_hessian":[9.7E1,8.6E1,1.1E1,7.7E1,9E0,6.8E1,9E0,2.5E1,4.3E1,1.5E1,2.8E1,2E1,8E0],"tree_param":{"num_deleted":"0","num_feature":"31","num_nodes":"13","size_leaf_vector":"1"}},{"base_weights":[8.3851635E-5,-2.0740032E-3,1.6920395E-2,-3.3091176E-3,7.1997996E-3,-4.2789136E-3,2.8535076E-3,-4.6859E-3,-9.1066334E-4,-5.290002E-3,-2.5224811E-3],"categories":[],"categories_nodes":[],"categories_segments":[],"categories_sizes":[],"default_left":[1,1,0,1,0,1,0,1,0,0,0],"id":68,"left_children":[1,3,-1,5,-1,7,-1,9,-1,-1,-1],"loss_changes":[3.5313757E-3,9.250054E-4,0E0,4.544268E-4,0E0,4.7397334E-5,0E0,1.4260062E-5,0E0,0E0,0E0],"parents":[2147483647,0,0,1,1,3,3,5,5,7,7],"right_children":[2,4,-1,6,-1,8,-1,10,-1,-1,-1],"split_conditions":[9.950586E-2,4.65E1,4.0963764E-4,3.9737105E-2,1.7430497E-4,2.6989743E-2,6.9082555E-5,2.8381169E-2,-2.2046883E-5,-1.2806934E-4,-6.10685E-5],"split_indices":[5,4,0,5,0,30,0,13,0,0,0],"split_type":[0,0,0,0,0,0,0,0,0,0,0],"sum_hessian":[9.4E1,8.3E1,1.1E1,7.4E1,9E0,6.5E1,9E0,5.6E1,9E0,4.1E1,1.5E1],"tree_param":{"num_deleted":"0","num_feature":"31","num_nodes":"11","size_leaf_vector":"1"}},{"base_weights":[-2.3374497E-4,-2.4213437E-3,1.705115E-2,-3.5918846E-3,3.8672688E-3,-4.413025E-3,2.1860014E-4,-6.6156266E-3,-3.3585422E-3,-2.0984367E-3,-4.545143E-3,-3.1147143E-3,-0E0],"categories":[],"categories_nodes":[],"categories_segments":[],"categories_sizes":[],"default_left":[1,1,0,1,0,1,0,0,1,1,0,0,0],"id":69,"left_children":[1,3,-1,5,-1,7,-1,-1,9,11,-1,-1,-1],"loss_changes":[3.4152E-3,6.1081053E-4,0E0,2.53583E-4,0E0,6.372272E-5,0E0,0E0,1.4378602E-5,4.030804E-5,0E0,0E0,0E0],"parents":[2147483647,0,0,1,1,3,3,5,5,8,8,9,9],"right_children":[2,4,-1,6,-1,8,-1,-1,10,12,-1,-1,-1],"split_conditions":[9.950586E-2,4.35E1,4.1280314E-4,2.0185E3,9.362541E-5,7.4527673E-3,5.292243E-6,-1.6016231E-4,1.8476643E-2,1.6122706E-2,-1.1003653E-4,-7.5406286E-5,-0E0],"split_indices":[5,4,0,3,0,29,0,0,21,17,0,0,0],"split_type":[0,0,0,0,0,0,0,0,0,0,0,0,0],"sum_hessian":[9.3E1,8.3E1,1E1,7.1E1,1.2E1,6E1,1.1E1,1.7E1,4.3E1,2.4E1,1.9E1,1.5E1,9E0],"tree_param":{"num_deleted":"0","num_feature":"31","num_nodes":"13","size_leaf_vector":"1"}},{"base_weights":[-1.6097401E-4,-2.3168498E-3,1.6104518E-2,-5.546388E-3,-2.9750867E-4,-1.9533199E-3,8.42965E-3,-3.042777E-3,1.3348579E-3,-7.328113E-4,-3.9792527E-3],"categories":[],"categories_nodes":[],"categories_segments":[],"categories_sizes":[],"default_left":[1,1,0,0,1,1,0,1,0,0,0],"id":70,"left_children":[1,3,-1,-1,5,7,-1,9,-1,-1,-1],"loss_changes":[3.3407928E-3,5.245227E-4,0E0,0E0,7.4954866E-4,1.8169545E-4,0E0,4.5073248E-5,0E0,0E0,0E0],"parents":[2147483647,0,0,1,1,4,4,5,5,7,7],"right_children":[2,4,-1,-1,6,8,-1,10,-1,-1,-1],"split_conditions":[9.950586E-2,1.1587573E-2,3.8988548E-4,-1.3427637E-4,4.45E1,4.542984E-2,2.0407928E-4,1.7466992E-2,3.2316504E-5,-1.7741138E-5,-9.63365E-5],"split_indices":[5,24,0,0,4,13,0,23,0,0,0],"split_type":[0,0,0,0,0,0,0,0,0,0,0],"sum_hessian":[9.8E1,8.7E1,1.1E1,3.2E1,5.5E1,4.7E1,8E0,3.7E1,1E1,1.3E1,2.4E1],"tree_param":{"num_deleted":"0","num_feature":"31","num_nodes":"11","size_leaf_vector":"1"}},{"base_weights":[-0E0,-2.0280215E-3,1.5080007E-2,-3.4670257E-3,3.8811516E-3,-4.4750734E-3,-0E0,-6.06258E-4,9.241772E-3,-5.6178826E-3,-2.9017727E-3,-1.205086E-3,1.2124316E-3,-1.2407334E-3,-4.470911E-3],"categories":[],"categories_nodes":[],"categories_segments":[],"categories_sizes":[],"default_left":[1,1,0,1,1,1,1,0,0,0,1,0,0,0,0],"id":71,"left_children":[1,3,-1,5,7,9,11,-1,-1,-1,13,-1,-1,-1,-1],"loss_changes":[3.1071873E-3,7.3866535E-4,0E0,2.4871493E-4,4.5146755E-4,3.45055E-5,2.3636381E-5,0E0,0E0,0E0,2.5203364E-5,0E0,0E0,0E0,0E0],"parents":[2147483647,0,0,1,1,3,3,4,4,5,5,6,6,10,10],"right_children":[2,4,-1,6,8,10,12,-1,-1,-1,14,-1,-1,-1,-1],"split_conditions":[9.685868E-2,2.99E2,3.6508238E-4,2.6850257E-2,1.3119418E-2,1.9463055E-2,3.4589127E-2,-1.4677322E-5,2.237405E-4,-1.3600723E-4,2.1965329E-2,-2.9174767E-5,2.93526E-5,-3.003778E-5,-1.08239394E-4],"split_indices":[7,0,0,30,16,9,6,0,0,0,19,0,0,0,0],"split_type":[0,0,0,0,0,0,0,0,0,0,0,0,0,0,0],"sum_hessian":[9.9E1,8.7E1,1.2E1,7.1E1,1.6E1,5.5E1,1.6E1,8E0,8E0,2.9E1,2.6E1,8E0,8E0,1.5E1,1.1E1],"tree_param":{"num_deleted":"0","num_feature":"31","num_nodes":"15","size_leaf_vector":"1"}},{"base_weights":[-0E0,-2.0548988E-3,1.5381062E-2,-3.195696E-3,6.700895E-3,-4.0914537E-3,2.6327088E-3,-5.455811E-3,-2.7008636E-3,-4.2674397E-3,-1.2174624E-3,-0E0,-1.9041414E-3],"categories":[],"categories_nodes":[],"categories_segments":[],"categories_sizes":[],"default_left":[1,1,0,1,0,1,0,0,1,0,1,0,0],"id":72,"left_children":[1,3,-1,5,-1,7,-1,-1,9,-1,11,-1,-1],"loss_changes":[2.9825787E-3,8.2584773E-4,0E0,4.09003E-4,0E0,6.556872E-5,0E0,0E0,4.278141E-5,0E0,1.6197991E-5,0E0,0E0],"parents":[2147483647,0,0,1,1,3,3,5,5,8,8,10,10],"right_children":[2,4,-1,6,-1,8,-1,-1,10,-1,12,-1,-1],"split_conditions":[9.950586E-2,4.65E1,3.7237085E-4,3.9737105E-2,1.6222663E-4,1.2014367E-2,6.373708E-5,-1.3208353E-4,2.064639E-2,-1.03313425E-4,2.498214E-2,-0E0,-4.6098685E-5],"split_indices":[5,4,0,5,0,26,0,0,9,0,15,0,0],"split_type":[0,0,0,0,0,0,0,0,0,0,0,0,0],"sum_hessian":[9.6E1,8.5E1,1.1E1,7.6E1,9E0,6.7E1,9E0,3.1E1,3.6E1,1.5E1,2.1E1,8E0,1.3E1],"tree_param":{"num_deleted":"0","num_feature":"31","num_nodes":"13","size_leaf_vector":"1"}},{"base_weights":[-0E0,-1.9718397E-3,1.5011662E-2,-2.9298833E-3,6.620162E-3,-3.733517E-3,2.5695935E-3,-4.251556E-3,-5.613304E-4,-5.1576076E-3,-2.7102681E-3,-0E0,-3.7910917E-3],"categories":[],"categories_nodes":[],"categories_segments":[],"categories_sizes":[],"default_left":[1,1,0,1,0,1,0,1,0,0,1,0,0],"id":73,"left_children":[1,3,-1,5,-1,7,-1,9,-1,-1,11,-1,-1],"loss_changes":[2.8412933E-3,6.9948623E-4,0E0,3.634257E-4,0E0,8.096348E-5,0E0,2.3006462E-5,0E0,0E0,6.131336E-5,0E0,7.4796844E-7],"parents":[2147483647,0,0,1,1,3,3,5,5,7,7,10,10],"right_children":[2,4,-1,6,-1,8,-1,10,-1,-1,12,-1,-1],"split_conditions":[9.950586E-2,4.65E1,3.6342777E-4,3.9737105E-2,1.6027212E-4,2.6850257E-2,6.220908E-5,2.064639E-2,-1.3589639E-5,-1.2486412E-4,2.162908E-2,-0E0,-9.1781185E-5],"split_indices":[5,4,0,5,0,30,0,9,0,0,15,0,0],"split_type":[0,0,0,0,0,0,0,0,0,0,0,0,0],"sum_hessian":[9.9E1,8.8E1,1.1E1,8E1,8E0,7.1E1,9E0,5.9E1,1.2E1,3.4E1,2.5E1,8E0,1.7E1],"tree_param":{"num_deleted":"0","num_feature":"31","num_nodes":"13","size_leaf_vector":"1"}},{"base_weights":[-4.902871E-4,-2.282118E-3,1.3537328E-2,-5.2617914E-3,-3.5766367E-4,6.7740465E-3,-1.8333221E-3,-4.4883615E-3,1.2767586E-3,-2.4149348E-3,-6.418998E-3,4.7712065E-3,-1.1483643E-3],"categories":[],"categories_nodes":[],"categories_segments":[],"categories_sizes":[],"default_left":[1,1,0,0,1,0,1,1,1,0,0,0,0],"id":74,"left_children":[1,3,-1,-1,5,-1,7,9,11,-1,-1,-1,-1],"loss_changes":[2.259163E-3,4.346632E-4,0E0,0E0,5.126836E-4,0E0,3.8834938E-4,3.3630524E-5,1.8908194E-4,0E0,0E0,0E0,0E0],"parents":[2147483647,0,0,1,1,4,4,6,6,7,7,8,8],"right_children":[2,4,-1,-1,6,-1,8,10,12,-1,-1,-1,-1],"split_conditions":[9.950586E-2,1.1587573E-2,3.277346E-4,-1.2738637E-4,1.2671329E-2,1.6399761E-4,2.8790917E-2,2.1965329E-2,3.337858E-2,-5.846484E-5,-1.55402E-4,1.15509465E-4,-2.780155E-5],"split_indices":[5,24,0,0,14,0,14,25,18,0,0,0,0],"split_type":[0,0,0,0,0,0,0,0,0,0,0,0,0],"sum_hessian":[9.3E1,8.3E1,1E1,3.1E1,5.2E1,8E0,4.4E1,2.5E1,1.9E1,1.4E1,1.1E1,9E0,1E1],"tree_param":{"num_deleted":"0","num_feature":"31","num_nodes":"13","size_leaf_vector":"1"}},{"base_weights":[6.244127E-5,-1.8608076E-3,1.3893838E-2,-3.2553505E-3,3.5042705E-3,-4.274952E-3,-0E0,-7.138998E-4,8.599775E-3,-1.147398E-3,1.1479306E-3],"categories":[],"categories_nodes":[],"categories_segments":[],"categories_sizes":[],"default_left":[1,1,0,1,1,0,1,0,0,0,0],"id":75,"left_children":[1,3,-1,5,7,-1,9,-1,-1,-1,-1],"loss_changes":[2.6208793E-3,6.2082E-4,0E0,2.2269593E-4,4.047507E-4,0E0,2.1307253E-5,0E0,0E0,0E0,0E0],"parents":[2147483647,0,0,1,1,3,3,4,4,6,6],"right_children":[2,4,-1,6,8,-1,10,-1,-1,-1,-1],"split_conditions":[9.685868E-2,2.99E2,3.363656E-4,2.6850257E-2,1.3119418E-2,-1.03495295E-4,3.4589127E-2,-1.7283297E-5,2.0819795E-4,-2.7778158E-5,2.7791053E-5],"split_indices":[7,0,0,30,16,0,6,0,0,0,0],"split_type":[0,0,0,0,0,0,0,0,0,0,0],"sum_hessian":[9.5E1,8.3E1,1.2E1,6.7E1,1.6E1,5.1E1,1.6E1,8E0,8E0,8E0,8E0],"tree_param":{"num_deleted":"0","num_feature":"31","num_nodes":"11","size_leaf_vector":"1"}},{"base_weights":[-0E0,-1.8301044E-3,1.3559937E-2,-2.9806544E-3,4.1291798E-3,-3.8017237E-3,-0E0,-4.712101E-3,-2.082832E-3,1.1408441E-3,-1.1403237E-3,-0E0,-3.265268E-3],"categories":[],"categories_nodes":[],"categories_segments":[],"categories_sizes":[],"default_left":[1,1,0,1,0,1,1,0,1,0,0,0,0],"id":76,"left_children":[1,3,-1,5,-1,7,9,-1,11,-1,-1,-1,-1],"loss_changes":[2.5144177E-3,5.897009E-4,0E0,1.8133456E-4,0E0,3.970461E-5,2.1045154E-5,0E0,3.938694E-5,0E0,0E0,0E0,0E0],"parents":[2147483647,0,0,1,1,3,3,5,5,6,6,8,8],"right_children":[2,4,-1,6,-1,8,10,-1,12,-1,-1,-1,-1],"split_conditions":[9.685868E-2,3.095E2,3.2828195E-4,2.6850257E-2,9.996619E-5,2.2791151E-2,2.8064432E-2,-1.1407854E-4,2.6710242E-2,2.761949E-5,-2.7606891E-5,-0E0,-7.905115E-5],"split_indices":[7,0,0,30,0,8,28,0,6,0,0,0,0],"split_type":[0,0,0,0,0,0,0,0,0,0,0,0,0],"sum_hessian":[9.9E1,8.7E1,1.2E1,7.4E1,1.3E1,5.8E1,1.6E1,3.5E1,2.3E1,8E0,8E0,1E1,1.3E1],"tree_param":{"num_deleted":"0","num_feature":"31","num_nodes":"13","size_leaf_vector":"1"}},{"base_weights":[2.4287604E-6,-1.6995956E-3,1.3730975E-2,-2.7311957E-3,6.138544E-3,-3.5300597E-3,2.377446E-3,-4.492577E-3,-2.1644544E-3,-1.941941E-4,-2.7467152E-3,-4.33183E-3,-0E0],"categories":[],"categories_nodes":[],"categories_segments":[],"categories_sizes":[],"default_left":[1,1,0,1,0,1,0,0,1,0,1,0,0],"id":77,"left_children":[1,3,-1,5,-1,7,-1,-1,9,-1,11,-1,-1],"loss_changes":[2.3364092E-3,6.642581E-4,0E0,3.1980494E-4,0E0,3.8017053E-5,0E0,0E0,1.3836063E-5,0E0,6.773659E-5,0E0,0E0],"parents":[2147483647,0,0,1,1,3,3,5,5,8,8,10,10],"right_children":[2,4,-1,6,-1,8,-1,-1,10,-1,12,-1,-1],"split_conditions":[9.950586E-2,4.65E1,3.3242273E-4,3.9737105E-2,1.486123E-4,1.993388E-2,5.755725E-5,-1.0876393E-4,2.498214E-2,-4.7013805E-6,2.8520688E-2,-1.0487229E-4,-0E0],"split_indices":[5,4,0,5,0,8,0,0,11,0,17,0,0],"split_type":[0,0,0,0,0,0,0,0,0,0,0,0,0],"sum_hessian":[9.6E1,8.5E1,1.1E1,7.6E1,9E0,6.7E1,9E0,3.6E1,3.1E1,1E1,2.1E1,1.2E1,9E0],"tree_param":{"num_deleted":"0","num_feature":"31","num_nodes":"13","size_leaf_vector":"1"}},{"base_weights":[7.2133276E-5,-2.1299901E-3,1.0696981E-2,-2.8863894E-3,2.9090142E-3,4.2804196E-3,1.5488457E-2,-3.7630438E-3,9.613285E-5,-5.3549763E-3,-2.4183241E-3,-0E0,-3.200483E-3,-5.0928316E-4,-4.024319E-3],"categories":[],"categories_nodes":[],"categories_segments":[],"categories_sizes":[],"default_left":[1,1,1,1,0,0,0,1,0,0,1,0,1,0,0],"id":78,"left_children":[1,3,5,7,-1,-1,-1,9,-1,-1,11,-1,13,-1,-1],"loss_changes":[2.3136714E-3,3.020212E-4,3.7309877E-4,2.10447E-4,0E0,0E0,0E0,6.1350525E-5,0E0,0E0,6.34726E-5,0E0,2.1864747E-5,0E0,0E0],"parents":[2147483647,0,0,1,1,2,2,3,3,7,7,10,10,12,12],"right_children":[2,4,6,8,-1,-1,-1,10,-1,-1,12,-1,14,-1,-1],"split_conditions":[6.1595924E-2,4.25E1,3.393635E-2,4.542984E-2,7.042635E-5,1.0362766E-4,3.7497084E-4,1.1697292E-2,2.3273471E-6,-1.2964236E-4,1.4661021E-2,-0E0,1.5132425E-2,-1.232959E-5,-9.742754E-5],"split_indices":[5,4,16,13,0,0,0,28,0,0,27,0,14,0,0],"split_type":[0,0,0,0,0,0,0,0,0,0,0,0,0,0,0],"sum_hessian":[9.6E1,7.9E1,1.7E1,7E1,9E0,8E0,9E0,5.6E1,1.4E1,2.3E1,3.3E1,8E0,2.5E1,8E0,1.7E1],"tree_param":{"num_deleted":"0","num_feature":"31","num_nodes":"15","size_leaf_vector":"1"}},{"base_weights":[-0E0,-1.7112055E-3,1.269831E-2,-2.9153423E-3,3.1584417E-3,-3.7954422E-3,-0E0,8.138383E-3,-9.4038155E-4,-5.57853E-3,-2.952228E-3,-3.8894506E-3,-1.3320417E-3,-0E0,-2.7905782E-3],"categories":[],"categories_nodes":[],"categories_segments":[],"categories_sizes":[],"default_left":[1,1,0,1,1,1,0,0,0,0,1,0,1,0,0],"id":79,"left_children":[1,3,-1,5,7,9,-1,-1,-1,-1,11,-1,13,-1,-1],"loss_changes":[2.2042491E-3,5.0967705E-4,0E0,2.0377932E-4,3.8238533E-4,1.9690662E-5,0E0,0E0,0E0,0E0,2.32608E-5,0E0,4.646735E-5,0E0,0E0],"parents":[2147483647,0,0,1,1,3,3,4,4,5,5,10,10,12,12],"right_children":[2,4,-1,6,8,10,-1,-1,-1,-1,12,-1,14,-1,-1],"split_conditions":[9.685868E-2,2.99E2,3.0742225E-4,2.6850257E-2,3.27E2,7.097177E-3,-0E0,1.9702778E-4,-2.2766351E-5,-1.3505452E-4,1.905E2,-9.416242E-5,2.6289858E-2,-0E0,-6.755905E-5],"split_indices":[7,0,0,30,0,29,0,0,0,0,0,0,6,0,0],"split_type":[0,0,0,0,0,0,0,0,0,0,0,0,0,0,0],"sum_hessian":[9.9E1,8.7E1,1.2E1,7.1E1,1.6E1,5.6E1,1.5E1,8E0,8E0,1.5E1,4.1E1,2.3E1,1.8E1,8E0,1E1],"tree_param":{"num_deleted":"0","num_feature":"31","num_nodes":"15","size_leaf_vector":"1"}},{"base_weights":[-0E0,-1.7895824E-3,1.1847947E-2,-2.7576569E-3,3.6240949E-3,-3.3426373E-3,-0E0,-4.5007626E-3,-2.2278163E-3,-4.448514E-4,-3.020796E-3],"categories":[],"categories_nodes":[],"categories_segments":[],"categories_sizes":[],"default_left":[1,1,0,1,0,1,0,0,1,0,0],"id":80,"left_children":[1,3,-1,5,-1,7,-1,-1,9,-1,-1],"loss_changes":[2.1161924E-3,4.5088434E-4,0E0,1.450518E-4,0E0,3.202277E-5,0E0,0E0,2.5236965E-5,0E0,0E0],"parents":[2147483647,0,0,1,1,3,3,5,5,8,8],"right_children":[2,4,-1,6,-1,8,-1,-1,10,-1,-1],"split_conditions":[8.619291E-2,3.095E2,2.868352E-4,3.7561283E-2,8.773824E-5,1.1423055E-2,-0E0,-1.089621E-4,1.7466992E-2,-1.0769718E-5,-7.3132556E-5],"split_indices":[7,0,0,7,0,27,0,0,23,0,0],"split_type":[0,0,0,0,0,0,0,0,0,0,0],"sum_hessian":[1E2,8.7E1,1.3E1,7.5E1,1.2E1,6.4E1,1.1E1,2.8E1,3.6E1,1.4E1,2.2E1],"tree_param":{"num_deleted":"0","num_feature":"31","num_nodes":"11","size_leaf_vector":"1"}},{"base_weights":[-0E0,-1.5217531E-3,1.2608587E-2,-2.4522939E-3,5.673362E-3,-3.1302234E-3,2.5332645E-3,-3.4480975E-3,-0E0,-4.285007E-3,-2.1578704E-3,-0E0,-3.1895489E-3,-4.1196058E-3,-9.639674E-4],"categories":[],"categories_nodes":[],"categories_segments":[],"categories_sizes":[],"default_left":[1,1,0,1,0,1,0,1,0,0,1,0,1,1,1],"id":81,"left_children":[1,3,-1,5,-1,7,-1,9,-1,-1,11,-1,-1,-1,-1],"loss_changes":[1.9644834E-3,5.6046224E-4,0E0,2.6905103E-4,0E0,5.1445502E-5,0E0,1.8506427E-5,0E0,0E0,6.3400075E-5,0E0,1.5091209E-6,0E0,0E0],"parents":[2147483647,0,0,1,1,3,3,5,5,7,7,10,10,12,12],"right_children":[2,4,-1,6,-1,8,-1,10,-1,-1,12,-1,-1,-1,-1],"split_conditions":[9.950586E-2,4.65E1,3.0525005E-4,3.9737105E-2,1.3735038E-4,2.9640423E-2,6.132956E-5,2.064639E-2,-0E0,-1.0373871E-4,2.162908E-2,-0E0,-7.7218014E-5,-9.97344E-5,-2.333736E-5],"split_indices":[5,4,0,5,0,30,0,9,0,0,15,0,17,2147483647,2147483647],"split_type":[0,0,0,0,0,0,0,0,0,0,0,0,0,0,0],"sum_hessian":[9.8E1,8.7E1,1.1E1,7.8E1,9E0,7E1,8E0,6.2E1,8E0,3.4E1,2.8E1,9E0,1.9E1,1.1E1,8E0],"tree_param":{"num_deleted":"2","num_feature":"31","num_nodes":"15","size_leaf_vector":"1"}},{"base_weights":[-0E0,-1.6131753E-3,1.1871093E-2,-2.6330638E-3,3.5271002E-3,-3.3920554E-3,-0E0,-5.0814683E-3,-2.4796713E-3,1.1375115E-3,-9.890713E-4,-3.7288254E-3,-9.87373E-4,-0E0,-2.4023666E-3],"categories":[],"categories_nodes":[],"categories_segments":[],"categories_sizes":[],"default_left":[1,1,0,1,0,1,1,0,1,0,0,0,1,0,0],"id":82,"left_children":[1,3,-1,5,-1,7,9,-1,11,-1,-1,-1,13,-1,-1],"loss_changes":[1.9275761E-3,4.4551992E-4,0E0,1.501381E-4,0E0,3.0879863E-5,1.8378629E-5,0E0,3.9473438E-5,0E0,0E0,0E0,4.343646E-5,0E0,0E0],"parents":[2147483647,0,0,1,1,3,3,5,5,6,6,8,8,12,12],"right_children":[2,4,-1,6,-1,8,10,-1,12,-1,-1,-1,14,-1,-1],"split_conditions":[9.685868E-2,3.095E2,2.8739555E-4,2.6850257E-2,8.539003E-5,7.4527673E-3,2.8064432E-2,-1.230208E-4,1.905E2,2.7538807E-5,-2.3945116E-5,-9.027373E-5,2.6849728E-2,-0E0,-5.8160567E-5],"split_indices":[7,0,0,30,0,29,28,0,0,0,0,0,6,0,0],"split_type":[0,0,0,0,0,0,0,0,0,0,0,0,0,0,0],"sum_hessian":[9.8E1,8.6E1,1.2E1,7.3E1,1.3E1,5.7E1,1.6E1,1.7E1,4E1,8E0,8E0,1.9E1,2.1E1,1E1,1.1E1],"tree_param":{"num_deleted":"0","num_feature":"31","num_nodes":"15","size_leaf_vector":"1"}},{"base_weights":[-0E0,-1.5919354E-3,1.1585799E-2,-2.5793482E-3,3.4422867E-3,-3.290784E-3,-0E0,-4.1413996E-3,-1.998996E-3,-0E0,-2.7848522E-3],"categories":[],"categories_nodes":[],"categories_segments":[],"categories_sizes":[],"default_left":[1,1,0,1,0,1,0,0,1,0,0],"id":83,"left_children":[1,3,-1,5,-1,7,-1,-1,9,-1,-1],"loss_changes":[1.8433522E-3,4.272987E-4,0E0,1.4697114E-4,0E0,1.871644E-5,0E0,0E0,3.979374E-5,0E0,0E0],"parents":[2147483647,0,0,1,1,3,3,5,5,8,8],"right_children":[2,4,-1,6,-1,8,-1,-1,10,-1,-1],"split_conditions":[9.685868E-2,3.095E2,2.804887E-4,2.6850257E-2,8.3336716E-5,2.064639E-2,-0E0,-1.0026203E-4,2.162908E-2,-0E0,-6.742043E-5],"split_indices":[7,0,0,30,0,9,0,0,15,0,0],"split_type":[0,0,0,0,0,0,0,0,0,0,0],"sum_hessian":[9.9E1,8.7E1,1.2E1,7.4E1,1.3E1,5.9E1,1.5E1,3.2E1,2.7E1,8E0,1.9E1],"tree_param":{"num_deleted":"0","num_feature":"31","num_nodes":"11","size_leaf_vector":"1"}},{"base_weights":[-0E0,-1.6162966E-3,1.1307361E-2,-4.6610516E-3,-0E0,-2.6082261E-3,-5.775808E-3,-1.5114566E-3,7.952E-3,-2.1962326E-3,8.9865905E-4,-1.749076E-4,-2.9189778E-3],"categories":[],"categories_nodes":[],"categories_segments":[],"categories_sizes":[],"default_left":[1,1,0,1,1,0,0,1,0,1,0,0,0],"id":84,"left_children":[1,3,-1,5,7,-1,-1,9,-1,11,-1,-1,-1],"loss_changes":[1.7704902E-3,4.2878583E-4,0E0,5.425769E-6,6.8227825E-4,0E0,0E0,8.749938E-5,0E0,3.4144716E-5,0E0,0E0,0E0],"parents":[2147483647,0,0,1,1,3,3,4,4,7,7,9,9],"right_children":[2,4,-1,6,8,-1,-1,10,-1,12,-1,-1,-1],"split_conditions":[9.685868E-2,1.1587573E-2,2.7374778E-4,2.085E2,3.125E2,-6.314436E-5,-1.3983056E-4,5.2450668E-2,1.9251551E-4,1.7466992E-2,2.1756263E-5,-4.23446E-6,-7.0667564E-5],"split_indices":[7,24,0,0,0,0,0,13,0,23,0,0,0],"split_type":[0,0,0,0,0,0,0,0,0,0,0,0,0],"sum_hessian":[9.8E1,8.6E1,1.2E1,3E1,5.6E1,1.3E1,1.7E1,4.7E1,9E0,3.9E1,8E0,1.3E1,2.6E1],"tree_param":{"num_deleted":"0","num_feature":"31","num_nodes":"13","size_leaf_vector":"1"}},{"base_weights":[9.245566E-5,-1.3752879E-3,1.1035616E-2,-2.4745946E-3,2.5785672E-3,-3.2669988E-3,-0E0,-1.0719878E-3,7.5679114E-3,-4.1035675E-3,-1.8797254E-3,1.1262501E-3,-9.183467E-4,-3.3322943E-4,-3.443795E-3],"categories":[],"categories_nodes":[],"categories_segments":[],"categories_sizes":[],"default_left":[1,1,0,1,1,1,1,0,0,0,1,0,0,0,0],"id":85,"left_children":[1,3,-1,5,7,9,11,-1,-1,-1,13,-1,-1,-1,-1],"loss_changes":[1.6323028E-3,3.6963174E-4,0E0,1.3900714E-4,3.6007713E-4,1.545396E-5,1.7081282E-5,0E0,0E0,0E0,2.7771319E-5,0E0,0E0,0E0,0E0],"parents":[2147483647,0,0,1,1,3,3,4,4,5,5,6,6,10,10],"right_children":[2,4,-1,6,8,10,12,-1,-1,-1,14,-1,-1,-1,-1],"split_conditions":[9.685868E-2,2.955E2,2.671689E-4,2.6498316E-2,1.3119418E-2,2.064639E-2,2.8064432E-2,-2.5952499E-5,1.8321683E-4,-9.934612E-5,2.1965329E-2,2.7266175E-5,-2.2232894E-5,-8.0673835E-6,-8.3373234E-5],"split_indices":[7,0,0,30,16,9,28,0,0,0,19,0,0,0,0],"split_type":[0,0,0,0,0,0,0,0,0,0,0,0,0,0,0],"sum_hessian":[9.7E1,8.5E1,1.2E1,6.8E1,1.7E1,5.2E1,1.6E1,9E0,8E0,2.9E1,2.3E1,8E0,8E0,1.4E1,9E0],"tree_param":{"num_deleted":"0","num_feature":"31","num_nodes":"15","size_leaf_vector":"1"}},{"base_weights":[-5.537239E-5,-1.7338854E-3,1.0291168E-2,-4.1384967E-3,-1.3805529E-4,-1.7347536E-3,3.7671411E-3,-2.9060398E-3,-5.911467E-4,-0E0,-1.325799E-3],"categories":[],"categories_nodes":[],"categories_segments":[],"categories_sizes":[],"default_left":[1,1,0,0,1,1,0,0,1,0,0],"id":86,"left_children":[1,3,-1,-1,5,7,-1,-1,9,-1,-1],"loss_changes":[1.6416837E-3,2.9479E-4,0E0,0E0,3.165547E-4,2.6305053E-5,0E0,0E0,1.6695574E-5,0E0,0E0],"parents":[2147483647,0,0,1,1,4,4,5,5,8,8],"right_children":[2,4,-1,-1,6,8,-1,-1,10,-1,-1],"split_conditions":[8.619291E-2,1.1587573E-2,2.4914605E-4,-1.0019175E-4,3.5E0,2.064639E-2,9.120134E-5,-7.035434E-5,2.2733472E-2,-0E0,-3.2097192E-5],"split_indices":[7,24,0,0,2,9,0,0,19,0,0],"split_type":[0,0,0,0,0,0,0,0,0,0,0],"sum_hessian":[9.8E1,8.5E1,1.3E1,3.2E1,5.3E1,3.9E1,1.4E1,1.6E1,2.3E1,9E0,1.4E1],"tree_param":{"num_deleted":"0","num_feature":"31","num_nodes":"11","size_leaf_vector":"1"}},{"base_weights":[-1.5468492E-4,-1.534533E-3,9.060385E-3,-2.4894807E-3,2.4827782E-3,-3.2552315E-3,-0E0,-4.7036856E-3,-2.5181253E-3,-8.524979E-4,1.1433259E-3,-5.912581E-4,-3.1674982E-3],"categories":[],"categories_nodes":[],"categories_segments":[],"categories_sizes":[],"default_left":[1,1,0,1,0,1,1,0,1,0,0,0,0],"id":87,"left_children":[1,3,-1,5,-1,7,9,-1,11,-1,-1,-1,-1],"loss_changes":[1.1927249E-3,3.308598E-4,0E0,1.4317504E-4,0E0,4.2801257E-6,1.6451566E-5,0E0,2.215628E-5,0E0,0E0,0E0,0E0],"parents":[2147483647,0,0,1,1,3,3,5,5,6,6,8,8],"right_children":[2,4,-1,6,-1,8,10,-1,12,-1,-1,-1,-1],"split_conditions":[8.619291E-2,4.35E1,2.1934917E-4,2.6850257E-2,6.0107308E-5,7.097177E-3,3.4589127E-2,-1.13874805E-4,1.2671329E-2,-2.0638716E-5,2.7679574E-5,-1.431418E-5,-7.668417E-5],"split_indices":[7,4,0,30,0,29,6,0,22,0,0,0,0],"split_type":[0,0,0,0,0,0,0,0,0,0,0,0,0],"sum_hessian":[9.8E1,8.6E1,1.2E1,7.1E1,1.5E1,5.5E1,1.6E1,1.5E1,4E1,8E0,8E0,1.3E1,2.7E1],"tree_param":{"num_deleted":"0","num_feature":"31","num_nodes":"13","size_leaf_vector":"1"}},{"base_weights":[-0E0,-1.1334535E-3,9.09712E-3,-2.5839468E-3,6.518975E-3,-2.8998265E-3,-0E0,-4.131372E-3,-2.2502101E-3,-7.9530803E-4,-3.2685823E-3,-1.8956446E-3,-0E0,-4.3768818E-3,-1.2663594E-3],"categories":[],"categories_nodes":[],"categories_segments":[],"categories_sizes":[],"default_left":[1,1,0,1,0,1,0,0,1,1,1,0,0,0,0],"id":88,"left_children":[1,3,-1,5,-1,7,-1,-1,9,11,13,-1,-1,-1,-1],"loss_changes":[9.467834E-4,9.390108E-4,0E0,4.424702E-5,0E0,3.1855307E-6,0E0,0E0,3.7957274E-5,1.8687915E-5,1.1167169E-5,0E0,