{"learner":{"attributes":{"best_iteration":"499","best_score":"0.00462130387183411"},"feature_names":["dayofyear","dayofweek","quarter","year","week","lag_1w_retailer_type_1","lag_2w_retailer_type_1","lag_3w_retailer_type_1","lag_4w_retailer_type_1","lag_5w_retailer_type_1","lag_6w_retailer_type_1","lag_7w_retailer_type_1","lag_8w_retailer_type_1","lag_9w_retailer_type_1","lag_10w_retailer_type_1","lag_11w_retailer_type_1","lag_12w_retailer_type_1","lag_13w_retailer_type_1","lag_14w_retailer_type_1","lag_15w_retailer_type_1","lag_16w_retailer_type_1","lag_17w_retailer_type_1","lag_18w_retailer_type_1","lag_19w_retailer_type_1","lag_20w_retailer_type_1","lag_21w_retailer_type_1","lag_22w_retailer_type_1","lag_23w_retailer_type_1","lag_24w_retailer_type_1","lag_25w_retailer_type_1","lag_26w_retailer_type_1"],"feature_types":["int","int","int","int","i","float","float","float","float","float","float","float","float","float","float","float","float","float","float","float","float","float","float","float","float","float","float","float","float","float","float"],"gradient_booster":{"model":{"gbtree_model_param":{"num_parallel_tree":"1","num_trees":"500"},"iteration_indptr":[0,1,2,3,4,5,6,7,8,9,10,11,12,13,14,15,16,17,18,19,20,21,22,23,24,25,26,27,28,29,30,31,32,33,34,35,36,37,38,39,40,41,42,43,44,45,46,47,48,49,50,51,52,53,54,55,56,57,58,59,60,61,62,63,64,65,66,67,68,69,70,71,72,73,74,75,76,77,78,79,80,81,82,83,84,85,86,87,88,89,90,91,92,93,94,95,96,97,98,99,100,101,102,103,104,105,106,107,108,109,110,111,112,113,114,115,116,117,118,119,120,121,122,123,124,125,126,127,128,129,130,131,132,133,134,135,136,137,138,139,140,141,142,143,144,145,146,147,148,149,150,151,152,153,154,155,156,157,158,159,160,161,162,163,164,165,166,167,168,169,170,171,172,173,174,175,176,177,178,179,180,181,182,183,184,185,186,187,188,189,190,191,192,193,194,195,196,197,198,199,200,201,202,203,204,205,206,207,208,209,210,211,212,213,214,215,216,217,218,219,220,221,222,223,224,225,226,227,228,229,230,231,232,233,234,235,236,237,238,239,240,241,242,243,244,245,246,247,248,249,250,251,252,253,254,255,256,257,258,259,260,261,262,263,264,265,266,267,268,269,270,271,272,273,274,275,276,277,278,279,280,281,282,283,284,285,286,287,288,289,290,291,292,293,294,295,296,297,298,299,300,301,302,303,304,305,306,307,308,309,310,311,312,313,314,315,316,317,318,319,320,321,322,323,324,325,326,327,328,329,330,331,332,333,334,335,336,337,338,339,340,341,342,343,344,345,346,347,348,349,350,351,352,353,354,355,356,357,358,359,360,361,362,363,364,365,366,367,368,369,370,371,372,373,374,375,376,377,378,379,380,381,382,383,384,385,386,387,388,389,390,391,392,393,394,395,396,397,398,399,400,401,402,403,404,405,406,407,408,409,410,411,412,413,414,415,416,417,418,419,420,421,422,423,424,425,426,427,428,429,430,431,432,433,434,435,436,437,438,439,440,441,442,443,444,445,446,447,448,449,450,451,452,453,454,455,456,457,458,459,460,461,462,463,464,465,466,467,468,469,470,471,472,473,474,475,476,477,478,479,480,481,482,483,484,485,486,487,488,489,490,491,492,493,494,495,496,497,498,499,500],"tree_info":[0,0,0,0,0,0,0,0,0,0,0,0,0,0,0,0,0,0,0,0,0,0,0,0,0,0,0,0,0,0,0,0,0,0,0,0,0,0,0,0,0,0,0,0,0,0,0,0,0,0,0,0,0,0,0,0,0,0,0,0,0,0,0,0,0,0,0,0,0,0,0,0,0,0,0,0,0,0,0,0,0,0,0,0,0,0,0,0,0,0,0,0,0,0,0,0,0,0,0,0,0,0,0,0,0,0,0,0,0,0,0,0,0,0,0,0,0,0,0,0,0,0,0,0,0,0,0,0,0,0,0,0,0,0,0,0,0,0,0,0,0,0,0,0,0,0,0,0,0,0,0,0,0,0,0,0,0,0,0,0,0,0,0,0,0,0,0,0,0,0,0,0,0,0,0,0,0,0,0,0,0,0,0,0,0,0,0,0,0,0,0,0,0,0,0,0,0,0,0,0,0,0,0,0,0,0,0,0,0,0,0,0,0,0,0,0,0,0,0,0,0,0,0,0,0,0,0,0,0,0,0,0,0,0,0,0,0,0,0,0,0,0,0,0,0,0,0,0,0,0,0,0,0,0,0,0,0,0,0,0,0,0,0,0,0,0,0,0,0,0,0,0,0,0,0,0,0,0,0,0,0,0,0,0,0,0,0,0,0,0,0,0,0,0,0,0,0,0,0,0,0,0,0,0,0,0,0,0,0,0,0,0,0,0,0,0,0,0,0,0,0,0,0,0,0,0,0,0,0,0,0,0,0,0,0,0,0,0,0,0,0,0,0,0,0,0,0,0,0,0,0,0,0,0,0,0,0,0,0,0,0,0,0,0,0,0,0,0,0,0,0,0,0,0,0,0,0,0,0,0,0,0,0,0,0,0,0,0,0,0,0,0,0,0,0,0,0,0,0,0,0,0,0,0,0,0,0,0,0,0,0,0,0,0,0,0,0,0,0,0,0,0,0,0,0,0,0,0,0,0,0,0,0,0,0,0,0,0,0,0,0,0,0,0,0,0,0,0,0,0,0,0,0,0,0,0,0,0,0,0,0,0,0,0,0,0,0,0,0,0,0,0,0,0,0,0,0,0,0,0,0,0,0,0,0,0,0,0,0,0,0,0,0,0,0,0,0,0,0,0],"trees":[{"base_weights":[-0E0,-2.7826102E-2,1.8631156E-1,-5.6106936E-2,-1.0055941E-2,2.2644548E-1,-1.1061001E-2,-6.557423E-2,-4.753128E-2,-1.8497566E-2,9.048707E-3,1.2343752E-1,2.4967596E-1,-4.980202E-2,-2.5026085E-2,-3.0482909E-2,-1.0933E-2,3.5611935E-2,1.4905836E-3,2.0746548E-1,2.84987E-1],"categories":[],"categories_nodes":[],"categories_segments":[],"categories_sizes":[],"default_left":[1,1,1,1,1,1,0,0,1,1,1,0,1,0,0,0,0,0,0,0,0],"id":0,"left_children":[1,3,5,7,9,11,-1,-1,13,15,17,-1,19,-1,-1,-1,-1,-1,-1,-1,-1],"loss_changes":[4.8200333E-1,4.0117294E-2,9.7765654E-2,1.2824088E-3,8.172637E-3,1.8434465E-2,0E0,0E0,1.1490658E-4,2.788365E-3,2.6949353E-3,0E0,3.117621E-3,0E0,0E0,0E0,0E0,0E0,0E0,0E0,0E0],"parents":[2147483647,0,0,1,1,2,2,3,3,4,4,5,5,8,8,9,9,10,10,12,12],"right_children":[2,4,6,8,10,12,-1,-1,14,16,18,-1,20,-1,-1,-1,-1,-1,-1,-1,-1],"split_conditions":[1.5431571E-1,6.3590504E-2,3.55E2,3.866548E-2,1.0140243E-1,3.284862E-2,-1.2702611E-4,-7.530638E-4,2.541704E-1,5.4731324E-2,8.278145E-2,1.4175741E-3,7.433872E-2,-5.719335E-4,-2.8740315E-4,-3.500701E-4,-1.2555614E-4,4.0897256E-4,1.7118076E-5,2.3825634E-3,3.2728317E-3],"split_indices":[5,5,0,21,5,22,0,0,30,25,18,0,16,0,0,0,0,0,0,0,0],"split_type":[0,0,0,0,0,0,0,0,0,0,0,0,0,0,0,0,0,0,0,0,0],"sum_hessian":[9.3E1,8.1E1,1.2E1,3.1E1,5E1,1E1,2E0,1.4E1,1.7E1,3.5E1,1.5E1,2E0,8E0,1.5E1,2E0,1.3E1,2.2E1,3E0,1.2E1,4E0,4E0],"tree_param":{"num_deleted":"0","num_feature":"31","num_nodes":"21","size_leaf_vector":"1"}},{"base_weights":[-0E0,-2.7769107E-2,1.6414918E-1,-5.632818E-2,-1.0267996E-2,1.9663565E-1,-1.09387E-2,-6.420465E-2,-4.4098526E-2,-1.8315503E-2,8.641224E-3,1.5892415E-1,2.8781182E-1,-4.7712363E-2,-2.067104E-2,-2.938097E-2,-1.179767E-2,3.5213236E-2,4.0119473E-4,8.475273E-2,1.808015E-1],"categories":[],"categories_nodes":[],"categories_segments":[],"categories_sizes":[],"default_left":[1,1,1,1,1,1,0,0,1,1,1,1,0,0,0,0,0,0,0,0,0],"id":1,"left_children":[1,3,5,7,9,11,-1,-1,13,15,17,19,-1,-1,-1,-1,-1,-1,-1,-1,-1],"loss_changes":[4.118023E-1,3.7890997E-2,7.61911E-2,1.6247183E-3,7.413769E-3,3.060469E-2,0E0,0E0,3.4176745E-4,2.0669373E-3,2.766341E-3,9.575278E-3,0E0,0E0,0E0,0E0,0E0,0E0,0E0,0E0,0E0],"parents":[2147483647,0,0,1,1,2,2,3,3,4,4,5,5,8,8,9,9,10,10,11,11],"right_children":[2,4,6,8,10,12,-1,-1,14,16,18,20,-1,-1,-1,-1,-1,-1,-1,-1,-1],"split_conditions":[4.55E1,6.3590504E-2,5.15E1,3.3894166E-2,1.0140243E-1,8.39266E-2,-1.256216E-4,-7.3733536E-4,5.6588203E-2,5.4731324E-2,8.278145E-2,4.65E1,3.3052722E-3,-5.479356E-4,-2.3738919E-4,-3.3741526E-4,-1.3548613E-4,4.0439385E-4,4.607378E-6,9.7331253E-4,2.0763504E-3],"split_indices":[4,5,4,28,5,12,0,0,5,25,18,4,0,0,0,0,0,0,0,0,0],"split_type":[0,0,0,0,0,0,0,0,0,0,0,0,0,0,0,0,0,0,0,0,0],"sum_hessian":[9E1,7.7E1,1.3E1,2.9E1,4.8E1,1.1E1,2E0,1.7E1,1.2E1,3.4E1,1.4E1,8E0,3E0,1E1,2E0,1.2E1,2.2E1,3E0,1.1E1,2E0,6E0],"tree_param":{"num_deleted":"0","num_feature":"31","num_nodes":"21","size_leaf_vector":"1"}},{"base_weights":[-6.9383136E-3,-2.895953E-2,1.6285503E-1,-5.5623572E-2,-1.0156605E-2,2.0705585E-1,-1.08177485E-2,-6.5703005E-2,-4.7047675E-2,-1.8988809E-2,1.15673235E-2,1.03932574E-1,2.6466557E-1,-2.147159E-2,-4.9576275E-2,-3.0467425E-2,-1.1922536E-2,3.4818992E-2,3.5010958E-3],"categories":[],"categories_nodes":[],"categories_segments":[],"categories_sizes":[],"default_left":[1,1,1,1,1,1,0,0,1,1,1,0,0,0,0,0,0,0,0],"id":2,"left_children":[1,3,5,7,9,11,-1,-1,13,15,17,-1,-1,-1,-1,-1,-1,-1,-1],"loss_changes":[3.285065E-1,3.85198E-2,7.926574E-2,1.5371889E-3,8.92343E-3,4.260248E-2,0E0,0E0,4.5875832E-4,2.2801245E-3,2.104503E-3,0E0,0E0,0E0,0E0,0E0,0E0,0E0,0E0],"parents":[2147483647,0,0,1,1,2,2,3,3,4,4,5,5,8,8,9,9,10,10],"right_children":[2,4,6,8,10,12,-1,-1,14,16,18,-1,-1,-1,-1,-1,-1,-1,-1],"split_conditions":[4.55E1,6.3590504E-2,3.55E2,3.866548E-2,1.0140243E-1,4.1472934E-2,-1.2423257E-4,-7.545427E-4,4.1472934E-2,5.4731324E-2,8.278145E-2,1.1935766E-3,3.0394574E-3,-2.4658281E-4,-5.6934106E-4,-3.4989227E-4,-1.3692012E-4,3.998663E-4,4.0207087E-5],"split_indices":[4,5,0,21,5,16,0,0,11,25,18,0,0,0,0,0,0,0,0],"split_type":[0,0,0,0,0,0,0,0,0,0,0,0,0,0,0,0,0,0,0],"sum_hessian":[8.8E1,7.8E1,1E1,3.2E1,4.6E1,8E0,2E0,1.4E1,1.8E1,3.3E1,1.3E1,3E0,5E0,2E0,1.6E1,1.2E1,2.1E1,3E0,1E1],"tree_param":{"num_deleted":"0","num_feature":"31","num_nodes":"19","size_leaf_vector":"1"}},{"base_weights":[3.756993E-4,-2.692132E-2,1.8887645E-1,-5.443593E-2,-9.427945E-3,6.8715855E-2,2.2703029E-1,-6.2416244E-2,-4.564416E-2,-1.8465403E-2,1.3799041E-2,2.5097525E-1,1.3274954E-1,-2.1234177E-2,-4.8367634E-2,-2.987208E-2,-1.106237E-2,4.5448774E-3,6.283403E-2],"categories":[],"categories_nodes":[],"categories_segments":[],"categories_sizes":[],"default_left":[1,1,1,1,1,0,1,0,1,1,1,0,0,0,0,0,0,0,0],"id":3,"left_children":[1,3,5,7,9,-1,11,-1,13,15,17,-1,-1,-1,-1,-1,-1,-1,-1],"loss_changes":[4.9104548E-1,3.938281E-2,5.1549405E-2,1.0751784E-3,1.0782716E-2,0E0,1.4526039E-2,0E0,3.741607E-4,2.7435487E-3,5.7702344E-3,0E0,0E0,0E0,0E0,0E0,0E0,0E0,0E0],"parents":[2147483647,0,0,1,1,2,2,3,3,4,4,6,6,8,8,9,9,10,10],"right_children":[2,4,6,8,10,-1,12,-1,14,16,18,-1,-1,-1,-1,-1,-1,-1,-1],"split_conditions":[1.5410593E-1,6.3590504E-2,3.4460597E-2,3.866548E-2,1.0140243E-1,7.8914274E-4,8.554232E-2,-7.167971E-4,4.1472934E-2,5.4731324E-2,4.45E1,2.8822357E-3,1.5245148E-3,-2.4385634E-4,-5.5546087E-4,-3.4305526E-4,-1.2704184E-4,5.2194024E-5,7.21595E-4],"split_indices":[5,5,22,22,5,0,14,0,11,25,4,0,0,0,0,0,0,0,0],"split_type":[0,0,0,0,0,0,0,0,0,0,0,0,0,0,0,0,0,0,0],"sum_hessian":[9.5E1,8.3E1,1.2E1,3.2E1,5.1E1,3E0,9E0,1.6E1,1.6E1,3.7E1,1.4E1,7E0,2E0,2E0,1.4E1,1.4E1,2.3E1,1.2E1,2E0],"tree_param":{"num_deleted":"0","num_feature":"31","num_nodes":"19","size_leaf_vector":"1"}},{"base_weights":[-5.4397304E-3,-2.8225658E-2,1.5029109E-1,-5.6186862E-2,-1.1666997E-2,1.8723138E-1,-1.2465551E-2,-4.7165204E-2,-6.313754E-2,-3.0293597E-2,-3.6865075E-3,1.3702166E-1,2.7881652E-1,-8.038809E-3,1.1756318E-2,2.1205686E-1,9.402844E-2],"categories":[],"categories_nodes":[],"categories_segments":[],"categories_sizes":[],"default_left":[1,1,1,1,1,1,0,0,0,0,1,1,0,0,0,0,0],"id":4,"left_children":[1,3,5,7,9,11,-1,-1,-1,-1,13,15,-1,-1,-1,-1,-1],"loss_changes":[3.082398E-1,3.4573287E-2,6.8324864E-2,5.5543333E-4,6.837633E-3,3.5113662E-2,0E0,0E0,0E0,0E0,2.2648326E-3,1.5358835E-2,0E0,0E0,0E0,0E0,0E0],"parents":[2147483647,0,0,1,1,2,2,3,3,4,4,5,5,10,10,11,11],"right_children":[2,4,6,8,10,12,-1,-1,-1,-1,14,16,-1,-1,-1,-1,-1],"split_conditions":[4.45E1,5.997178E-2,3.55E2,1.945E2,5.4731324E-2,7.5646624E-2,-1.4315617E-4,-5.4165197E-4,-7.2508055E-4,-3.47896E-4,1.2851319E-1,3.0459095E-2,3.201969E-3,-9.231883E-5,1.3501124E-4,2.4352914E-3,1.0798362E-3],"split_indices":[4,5,0,0,25,12,0,0,0,0,11,13,0,0,0,0,0],"split_type":[0,0,0,0,0,0,0,0,0,0,0,0,0,0,0,0,0],"sum_hessian":[8.7E1,7.6E1,1.1E1,2.8E1,4.8E1,9E0,2E0,1.3E1,1.5E1,1.4E1,3.4E1,6E0,3E0,2.7E1,7E0,2E0,4E0],"tree_param":{"num_deleted":"0","num_feature":"31","num_nodes":"17","size_leaf_vector":"1"}},{"base_weights":[2.0012262E-3,-2.5101114E-2,1.7069627E-1,-4.6096273E-2,-3.3131149E-3,2.046253E-1,-1.23277195E-2,-5.555498E-2,-3.0571232E-2,-7.052522E-3,6.10996E-2,1.7356022E-1,2.7815524E-1,-6.278902E-2,-4.7869876E-2,-4.0342018E-2,-1.9413551E-2,-1.8417329E-2,2.7670022E-3,1.171249E-1,1.8918914E-1],"categories":[],"categories_nodes":[],"categories_segments":[],"categories_sizes":[],"default_left":[1,1,1,1,1,1,0,1,1,1,0,1,0,0,0,0,0,0,0,0,0],"id":5,"left_children":[1,3,5,7,9,11,-1,13,15,17,-1,19,-1,-1,-1,-1,-1,-1,-1,-1,-1],"loss_changes":[4.3174225E-1,3.6639597E-2,8.3102375E-2,5.1394626E-3,9.208725E-3,1.7579585E-2,0E0,1.8367171E-4,1.1639642E-3,4.3915994E-3,0E0,2.7044117E-3,0E0,0E0,0E0,0E0,0E0,0E0,0E0,0E0,0E0],"parents":[2147483647,0,0,1,1,2,2,3,3,4,4,5,5,7,7,8,8,9,9,11,11],"right_children":[2,4,6,8,10,12,-1,14,16,18,-1,20,-1,-1,-1,-1,-1,-1,-1,-1,-1],"split_conditions":[1.5410593E-1,7.514985E-2,3.55E2,5.6588203E-2,4.45E1,9.0262294E-2,-1.415733E-4,2.749819E-2,4.0801775E-2,9.373291E-2,7.016766E-4,3.284862E-2,3.1943745E-3,-7.2107813E-4,-5.497445E-4,-4.6329352E-4,-2.22948E-4,-2.1150724E-4,3.177665E-5,1.3450792E-3,2.1726752E-3],"split_indices":[5,5,0,5,4,24,0,26,24,12,0,22,0,0,0,0,0,0,0,0,0],"split_type":[0,0,0,0,0,0,0,0,0,0,0,0,0,0,0,0,0,0,0,0,0],"sum_hessian":[9.4E1,8.1E1,1.3E1,4.1E1,4E1,1.1E1,2E0,2.5E1,1.6E1,3.8E1,2E0,8E0,3E0,1.2E1,1.3E1,8E0,8E0,1.8E1,2E1,2E0,6E0],"tree_param":{"num_deleted":"0","num_feature":"31","num_nodes":"21","size_leaf_vector":"1"}},{"base_weights":[3.3661452E-4,-2.4247611E-2,1.6407007E-1,-5.3169988E-2,-7.572925E-3,2.000228E-1,-1.219141E-2,-6.2890135E-2,-4.323573E-2,-1.7404364E-2,1.3363772E-2,1.6393052E-1,2.7513507E-1,-2.027553E-2,-4.5951404E-2,-2.5903488E-2,-1.1244676E-2,5.718161E-3,6.0424026E-2,1.3084006E-1,2.0078558E-1],"categories":[],"categories_nodes":[],"categories_segments":[],"categories_sizes":[],"default_left":[1,1,1,1,1,1,0,0,1,1,1,1,0,0,0,0,0,0,0,0,0],"id":6,"left_children":[1,3,5,7,9,11,-1,-1,13,15,17,19,-1,-1,-1,-1,-1,-1,-1,-1,-1],"loss_changes":[3.7217835E-1,3.8050886E-2,7.8383505E-2,1.6595051E-3,1.0567325E-2,1.9952953E-2,0E0,0E0,2.826508E-4,1.4854586E-3,5.1732566E-3,3.669694E-3,0E0,0E0,0E0,0E0,0E0,0E0,0E0,0E0,0E0],"parents":[2147483647,0,0,1,1,2,2,3,3,4,4,5,5,8,8,9,9,10,10,11,11],"right_children":[2,4,6,8,10,12,-1,-1,14,16,18,20,-1,-1,-1,-1,-1,-1,-1,-1,-1],"split_conditions":[1.5410593E-1,6.3590504E-2,3.55E2,3.866548E-2,1.0140243E-1,8.4441274E-2,-1.400079E-4,-7.222393E-4,4.1472934E-2,5.4731324E-2,4.45E1,3.3862E-1,3.1596906E-3,-2.3284709E-4,-5.277125E-4,-2.9747936E-4,-1.2913547E-4,6.566818E-5,6.9391815E-4,1.5025861E-3,2.3058504E-3],"split_indices":[5,5,0,21,5,27,0,0,11,26,4,5,0,0,0,0,0,0,0,0,0],"split_type":[0,0,0,0,0,0,0,0,0,0,0,0,0,0,0,0,0,0,0,0,0],"sum_hessian":[9.2E1,8E1,1.2E1,2.9E1,5.1E1,1E1,2E0,1.4E1,1.5E1,3.5E1,1.6E1,7E0,3E0,2E0,1.3E1,1.4E1,2.1E1,1.4E1,2E0,4E0,3E0],"tree_param":{"num_deleted":"0","num_feature":"31","num_nodes":"21","size_leaf_vector":"1"}},{"base_weights":[-1.748341E-3,-2.7249537E-2,1.5373993E-1,-5.257577E-2,-1.0124149E-2,1.8455665E-1,-1.2056606E-2,-6.095138E-2,-4.442554E-2,-1.8243264E-2,8.957627E-3,1.4829208E-1,2.7223817E-1,-2.0051345E-2,-4.6969697E-2,-2.8758511E-2,-1.0359934E-2,3.9836057E-2,2.8573233E-3,7.6194145E-2,1.6959587E-1],"categories":[],"categories_nodes":[],"categories_segments":[],"categories_sizes":[],"default_left":[1,1,1,1,1,1,0,0,1,1,1,1,0,0,0,0,0,0,0,0,0],"id":7,"left_children":[1,3,5,7,9,11,-1,-1,13,15,17,19,-1,-1,-1,-1,-1,-1,-1,-1,-1],"loss_changes":[3.6826953E-1,3.4135826E-2,6.851259E-2,1.04893E-3,7.543186E-3,2.8385997E-2,0E0,0E0,3.937371E-4,2.456002E-3,2.265486E-3,9.235099E-3,0E0,0E0,0E0,0E0,0E0,0E0,0E0,0E0,0E0],"parents":[2147483647,0,0,1,1,2,2,3,3,4,4,5,5,8,8,9,9,10,10,11,11],"right_children":[2,4,6,8,10,12,-1,-1,14,16,18,20,-1,-1,-1,-1,-1,-1,-1,-1,-1],"split_conditions":[4.55E1,6.3590504E-2,5.15E1,3.866548E-2,1.0140243E-1,9.0262294E-2,-1.3845979E-4,-6.9997436E-4,4.1472934E-2,5.4731324E-2,8.4817655E-2,4.65E1,3.1264222E-3,-2.3027252E-4,-5.394067E-4,-3.3026686E-4,-1.1897496E-4,4.57483E-4,3.281391E-5,8.750245E-4,1.9476633E-3],"split_indices":[4,5,4,21,5,24,0,0,11,25,12,4,0,0,0,0,0,0,0,0,0],"split_type":[0,0,0,0,0,0,0,0,0,0,0,0,0,0,0,0,0,0,0,0,0],"sum_hessian":[9.3E1,8E1,1.3E1,3.2E1,4.8E1,1.1E1,2E0,1.5E1,1.7E1,3.4E1,1.4E1,8E0,3E0,2E0,1.5E1,1.4E1,2E1,2E0,1.2E1,2E0,6E0],"tree_param":{"num_deleted":"0","num_feature":"31","num_nodes":"21","size_leaf_vector":"1"}},{"base_weights":[-1.8609047E-3,-2.5278628E-2,1.6044421E-1,-5.2091062E-2,-8.556111E-3,1.9562209E-1,-1.19232945E-2,-6.167655E-2,-4.3914914E-2,-1.8612195E-2,1.1620462E-2,1.6016245E-1,2.6938984E-1,-4.596228E-2,-2.217989E-2,-2.3869948E-2,-4.508322E-3,4.431122E-3,5.9114445E-2,1.2771827E-1,1.962558E-1],"categories":[],"categories_nodes":[],"categories_segments":[],"categories_sizes":[],"default_left":[1,1,1,1,1,1,0,0,1,1,1,1,0,0,0,0,0,0,0,0,0],"id":8,"left_children":[1,3,5,7,9,11,-1,-1,13,15,17,19,-1,-1,-1,-1,-1,-1,-1,-1,-1],"loss_changes":[3.6429048E-1,3.712726E-2,7.503489E-2,1.3712496E-3,1.0644854E-2,1.9228935E-2,0E0,0E0,1.2326986E-4,2.3419578E-3,5.2490374E-3,3.486991E-3,0E0,0E0,0E0,0E0,0E0,0E0,0E0,0E0,0E0],"parents":[2147483647,0,0,1,1,2,2,3,3,4,4,5,5,8,8,9,9,10,10,11,11],"right_children":[2,4,6,8,10,12,-1,-1,14,16,18,20,-1,-1,-1,-1,-1,-1,-1,-1,-1],"split_conditions":[1.5410593E-1,6.3590504E-2,3.55E2,3.866548E-2,1.0140243E-1,8.4441274E-2,-1.3692882E-4,-7.0830237E-4,2.541704E-1,7.993873E-2,4.45E1,3.3862E-1,3.0937116E-3,-5.2783743E-4,-2.5471704E-4,-2.7412592E-4,-5.1774216E-5,5.088764E-5,6.7887874E-4,1.4667349E-3,2.2538297E-3],"split_indices":[5,5,0,21,5,27,0,0,30,25,4,5,0,0,0,0,0,0,0,0,0],"split_type":[0,0,0,0,0,0,0,0,0,0,0,0,0,0,0,0,0,0,0,0,0],"sum_hessian":[9.6E1,8.4E1,1.2E1,3.2E1,5.2E1,1E1,2E0,1.4E1,1.8E1,3.5E1,1.7E1,7E0,3E0,1.6E1,2E0,2.5E1,1E1,1.5E1,2E0,4E0,3E0],"tree_param":{"num_deleted":"0","num_feature":"31","num_nodes":"21","size_leaf_vector":"1"}},{"base_weights":[3.3238886E-3,-2.2714678E-2,1.7021312E-1,-5.162054E-2,-6.8734204E-3,2.0730262E-1,-1.179146E-2,-5.9930354E-2,-4.2989727E-2,-1.6799629E-2,1.36492755E-2,2.2612548E-1,1.2214526E-1,-1.9452909E-2,-4.603101E-2,-2.4477616E-2,-8.527973E-3,6.333921E-3,5.8460813E-2,1.7641303E-1,2.510734E-1],"categories":[],"categories_nodes":[],"categories_segments":[],"categories_sizes":[],"default_left":[1,1,1,1,1,1,0,0,1,1,1,1,0,0,0,0,0,0,0,0,0],"id":9,"left_children":[1,3,5,7,9,11,-1,-1,13,15,17,19,-1,-1,-1,-1,-1,-1,-1,-1,-1],"loss_changes":[3.8869295E-1,3.474956E-2,8.344427E-2,8.3308667E-4,1.0246934E-2,1.0940105E-2,0E0,0E0,3.596004E-4,1.856328E-3,4.66891E-3,2.8163493E-3,0E0,0E0,0E0,0E0,0E0,0E0,0E0,0E0,0E0],"parents":[2147483647,0,0,1,1,2,2,3,3,4,4,5,5,8,8,9,9,10,10,11,11],"right_children":[2,4,6,8,10,12,-1,-1,14,16,18,20,-1,-1,-1,-1,-1,-1,-1,-1,-1],"split_conditions":[1.5410593E-1,6.3590504E-2,3.55E2,3.7772484E-2,1.0140243E-1,8.554232E-2,-1.3541483E-4,-6.882488E-4,4.1472934E-2,5.6951374E-2,4.45E1,3.7678085E-2,1.4027336E-3,-2.234E-4,-5.286267E-4,-2.8110444E-4,-9.793646E-5,7.2739655E-5,6.7137234E-4,2.0259526E-3,2.8833628E-3],"split_indices":[5,5,0,22,5,14,0,0,11,23,4,14,0,0,0,0,0,0,0,0,0],"split_type":[0,0,0,0,0,0,0,0,0,0,0,0,0,0,0,0,0,0,0,0,0],"sum_hessian":[8.9E1,7.7E1,1.2E1,2.7E1,5E1,1E1,2E0,1.3E1,1.4E1,3.4E1,1.6E1,8E0,2E0,2E0,1.2E1,1.7E1,1.7E1,1.4E1,2E0,3E0,5E0],"tree_param":{"num_deleted":"0","num_feature":"31","num_nodes":"21","size_leaf_vector":"1"}},{"base_weights":[4.122122E-4,-2.4177382E-2,1.9180316E-1,-5.1312737E-2,-6.9787004E-3,2.2432818E-1,5.3942595E-2,-5.7889055E-2,-4.040906E-2,-1.6969088E-2,1.24377385E-2,1.8656263E-1,2.5567463E-1,-4.3933198E-2,-1.7553926E-2,-2.6989136E-2,-1.1221375E-2,5.0456403E-3,5.781441E-2],"categories":[],"categories_nodes":[],"categories_segments":[],"categories_sizes":[],"default_left":[1,1,1,1,1,1,0,0,1,1,1,0,0,0,0,0,0,0,0],"id":10,"left_children":[1,3,5,7,9,11,-1,-1,13,15,17,-1,-1,-1,-1,-1,-1,-1,-1],"loss_changes":[4.163516E-1,3.5895083E-2,4.1790664E-2,1.1069998E-3,9.382283E-3,1.967132E-3,0E0,0E0,3.6961213E-4,1.486213E-3,4.814537E-3,0E0,0E0,0E0,0E0,0E0,0E0,0E0,0E0],"parents":[2147483647,0,0,1,1,2,2,3,3,4,4,5,5,8,8,9,9,10,10],"right_children":[2,4,6,8,10,12,-1,-1,14,16,18,-1,-1,-1,-1,-1,-1,-1,-1],"split_conditions":[4.65E1,6.3590504E-2,3.515E2,3.3894166E-2,9.9353746E-2,7.3224515E-2,6.1948446E-4,-6.648062E-4,5.6588203E-2,5.503197E-2,4.45E1,2.142512E-3,2.9362042E-3,-5.0453516E-4,-2.015918E-4,-3.099471E-4,-1.2886788E-4,5.7944857E-5,6.63949E-4],"split_indices":[4,5,0,28,5,12,0,0,5,30,4,0,0,0,0,0,0,0,0],"split_type":[0,0,0,0,0,0,0,0,0,0,0,0,0,0,0,0,0,0,0],"sum_hessian":[8.8E1,7.8E1,1E1,3E1,4.8E1,8E0,2E0,1.8E1,1.2E1,3.2E1,1.6E1,4E0,4E0,1E1,2E0,1.1E1,2.1E1,1.4E1,2E0],"tree_param":{"num_deleted":"0","num_feature":"31","num_nodes":"19","size_leaf_vector":"1"}},{"base_weights":[2.7273537E-3,-2.2779759E-2,1.5957741E-1,-5.0337948E-2,-6.8838974E-3,1.9148576E-1,-1.2257528E-2,-6.0937624E-2,-4.4911634E-2,-1.5547441E-2,1.1501382E-2,1.6216248E-1,2.607737E-1,-2.6501805E-2,-8.6038895E-3,4.0705823E-3,5.7175156E-2,1.0781551E-1,1.7722249E-1],"categories":[],"categories_nodes":[],"categories_segments":[],"categories_sizes":[],"default_left":[1,1,1,1,1,1,0,0,0,1,1,1,0,0,0,0,0,0,0],"id":11,"left_children":[1,3,5,7,9,11,-1,-1,-1,13,15,17,-1,-1,-1,-1,-1,-1,-1],"loss_changes":[3.7387297E-1,3.4546107E-2,7.3468E-2,5.252436E-4,8.185255E-3,1.5500128E-2,0E0,0E0,0E0,2.3400914E-3,4.8970915E-3,2.6148707E-3,0E0,0E0,0E0,0E0,0E0,0E0,0E0],"parents":[2147483647,0,0,1,1,2,2,3,3,4,4,5,5,9,9,10,10,11,11],"right_children":[2,4,6,8,10,12,-1,-1,-1,14,16,18,-1,-1,-1,-1,-1,-1,-1],"split_conditions":[1.5410593E-1,5.997178E-2,3.55E2,1.8774688E-2,1.0140243E-1,9.0262294E-2,-1.4076721E-4,-6.998164E-4,-5.157716E-4,5.4731324E-2,4.05E1,3.284862E-2,2.9947625E-3,-3.043505E-4,-9.88083E-5,4.674715E-5,6.566077E-4,1.2381688E-3,2.0352486E-3],"split_indices":[5,5,0,26,5,24,0,0,0,25,4,22,0,0,0,0,0,0,0],"split_type":[0,0,0,0,0,0,0,0,0,0,0,0,0,0,0,0,0,0,0],"sum_hessian":[9.3E1,8E1,1.3E1,2.9E1,5.1E1,1.1E1,2E0,9E0,2E1,3.5E1,1.6E1,8E0,3E0,1.3E1,2.2E1,1.4E1,2E0,2E0,6E0],"tree_param":{"num_deleted":"0","num_feature":"31","num_nodes":"19","size_leaf_vector":"1"}},{"base_weights":[4.8885457E-3,-2.198952E-2,1.5778877E-1,-4.9389884E-2,-6.90826E-3,1.8934877E-1,-1.2122E-2,-5.6371752E-2,-3.8744323E-2,-1.6473422E-2,1.3525345E-2,1.6025321E-1,2.5809258E-1,-4.2402036E-2,-1.706397E-2,-2.637247E-2,-1.10485E-2,5.9362818E-3,5.6542974E-2,1.06623404E-1,1.7509235E-1],"categories":[],"categories_nodes":[],"categories_segments":[],"categories_sizes":[],"default_left":[1,1,1,1,1,1,0,0,1,1,1,1,0,0,0,0,0,0,0,0,0],"id":12,"left_children":[1,3,5,7,9,11,-1,-1,13,15,17,19,-1,-1,-1,-1,-1,-1,-1,-1,-1],"loss_changes":[3.5932675E-1,3.0087046E-2,7.186937E-2,9.2861056E-4,9.440013E-3,1.5262216E-2,0E0,0E0,2.96833E-4,1.4229761E-3,4.3439073E-3,2.4951994E-3,0E0,0E0,0E0,0E0,0E0,0E0,0E0,0E0,0E0],"parents":[2147483647,0,0,1,1,2,2,3,3,4,4,5,5,8,8,9,9,10,10,11,11],"right_children":[2,4,6,8,10,12,-1,-1,14,16,18,20,-1,-1,-1,-1,-1,-1,-1,-1,-1],"split_conditions":[1.5410593E-1,6.3590504E-2,3.55E2,3.3894166E-2,9.9353746E-2,8.4441274E-2,-1.3921078E-4,-6.473813E-4,5.6588203E-2,5.49707E-2,3.055E2,3.9408397E-2,2.9639723E-3,-4.8695106E-4,-1.9596507E-4,-3.0286523E-4,-1.2688256E-4,6.817311E-5,6.493476E-4,1.2244785E-3,2.0107857E-3],"split_indices":[5,5,0,28,5,27,0,0,5,30,0,24,0,0,0,0,0,0,0,0,0],"split_type":[0,0,0,0,0,0,0,0,0,0,0,0,0,0,0,0,0,0,0,0,0],"sum_hessian":[8.7E1,7.4E1,1.3E1,2.6E1,4.8E1,1.1E1,2E0,1.5E1,1.1E1,3.3E1,1.5E1,8E0,3E0,9E0,2E0,1.1E1,2.2E1,1.3E1,2E0,2E0,6E0],"tree_param":{"num_deleted":"0","num_feature":"31","num_nodes":"21","size_leaf_vector":"1"}},{"base_weights":[5.4261484E-4,-2.3252504E-2,1.5602025E-1,-4.864872E-2,-7.7038887E-3,1.8723582E-1,-1.1987963E-2,-5.640522E-2,-4.1062854E-2,-1.6739314E-2,1.0901454E-2,1.5842919E-1,2.552743E-1,-4.3084245E-2,-2.0608068E-2,-2.9270146E-2,-1.0800032E-2,4.0571573E-3,5.5917777E-2,1.0544446E-1,1.7307104E-1],"categories":[],"categories_nodes":[],"categories_segments":[],"categories_sizes":[],"default_left":[1,1,1,1,1,1,0,0,1,1,1,1,0,0,0,0,0,0,0,0,0],"id":13,"left_children":[1,3,5,7,9,11,-1,-1,13,15,17,19,-1,-1,-1,-1,-1,-1,-1,-1,-1],"loss_changes":[3.643015E-1,3.3067826E-2,7.0306E-2,8.4682554E-4,8.988376E-3,1.4928997E-2,0E0,0E0,7.443316E-5,2.3063635E-3,4.713866E-3,2.3941398E-3,0E0,0E0,0E0,0E0,0E0,0E0,0E0,0E0,0E0],"parents":[2147483647,0,0,1,1,2,2,3,3,4,4,5,5,8,8,9,9,10,10,11,11],"right_children":[2,4,6,8,10,12,-1,-1,14,16,18,20,-1,-1,-1,-1,-1,-1,-1,-1,-1],"split_conditions":[1.5410593E-1,6.3590504E-2,3.55E2,2.8730836E-2,1.0140243E-1,9.0262294E-2,-1.3767148E-4,-6.4776564E-4,2.541704E-1,4.8667878E-2,4.45E1,3.9408397E-2,2.9316065E-3,-4.9478567E-4,-2.36666E-4,-3.3614255E-4,-1.2402912E-4,4.6592977E-5,6.4216775E-4,1.2109393E-3,1.9875728E-3],"split_indices":[5,5,0,27,5,24,0,0,30,25,4,24,0,0,0,0,0,0,0,0,0],"split_type":[0,0,0,0,0,0,0,0,0,0,0,0,0,0,0,0,0,0,0,0,0],"sum_hessian":[9.8E1,8.5E1,1.3E1,3.2E1,5.3E1,1.1E1,2E0,1.5E1,1.7E1,3.6E1,1.7E1,8E0,3E0,1.5E1,2E0,1.1E1,2.5E1,1.5E1,2E0,2E0,6E0],"tree_param":{"num_deleted":"0","num_feature":"31","num_nodes":"21","size_leaf_vector":"1"}},{"base_weights":[-4.7577247E-3,-2.485056E-2,1.5805359E-1,-4.829957E-2,-8.827063E-3,5.8778904E-2,1.9824462E-1,-5.6348275E-2,-4.0891122E-2,-1.708293E-2,7.6510613E-3,2.2810331E-1,1.1363445E-1,-4.4160753E-2,-2.665925E-2,-2.893635E-2,-1.0675267E-2,3.1524662E-2,1.3120612E-3],"categories":[],"categories_nodes":[],"categories_segments":[],"categories_sizes":[],"default_left":[1,1,1,1,1,0,1,0,1,1,1,0,0,0,0,0,0,0,0],"id":14,"left_children":[1,3,5,7,9,-1,11,-1,13,15,17,-1,-1,-1,-1,-1,-1,-1,-1],"loss_changes":[3.0034202E-1,3.0301355E-2,3.7035286E-2,9.346977E-4,6.770007E-3,0E0,1.2855947E-2,0E0,1.2415834E-4,2.1382635E-3,2.1395662E-3,0E0,0E0,0E0,0E0,0E0,0E0,0E0,0E0],"parents":[2147483647,0,0,1,1,2,2,3,3,4,4,6,6,8,8,9,9,10,10],"right_children":[2,4,6,8,10,-1,12,-1,14,16,18,-1,-1,-1,-1,-1,-1,-1,-1],"split_conditions":[4.55E1,6.3590504E-2,3.4460597E-2,3.866548E-2,1.0140243E-1,6.7502534E-4,8.423442E-2,-6.471117E-4,5.6588203E-2,4.8667878E-2,8.278145E-2,2.619571E-3,1.3049943E-3,-5.0714845E-4,-3.0615865E-4,-3.323092E-4,-1.225963E-4,3.6203372E-4,1.5067899E-5],"split_indices":[4,5,22,21,5,0,14,0,5,25,18,0,0,0,0,0,0,0,0],"split_type":[0,0,0,0,0,0,0,0,0,0,0,0,0,0,0,0,0,0,0],"sum_hessian":[9.2E1,8.2E1,1E1,3.3E1,4.9E1,3E0,7E0,1.5E1,1.8E1,3.3E1,1.6E1,5E0,2E0,1.4E1,4E0,1.1E1,2.2E1,3E0,1.3E1],"tree_param":{"num_deleted":"0","num_feature":"31","num_nodes":"19","size_leaf_vector":"1"}},{"base_weights":[-7.811055E-4,-2.3185251E-2,1.5075085E-1,-4.233395E-2,-1.8044014E-3,1.8431784E-1,-1.344144E-2,-4.8980713E-2,-2.6120495E-2,-5.157913E-3,5.3864144E-2,1.5226895E-1,2.505252E-1,-5.7300806E-2,-4.187017E-2,-3.4620095E-2,-1.0460101E-2,-1.3777954E-2,2.5677728E-3,1.0362864E-1,1.681109E-1],"categories":[],"categories_nodes":[],"categories_segments":[],"categories_sizes":[],"default_left":[1,1,1,1,1,1,0,1,1,1,0,1,0,0,0,0,0,0,0,0,0],"id":15,"left_children":[1,3,5,7,9,11,-1,13,15,17,-1,19,-1,-1,-1,-1,-1,-1,-1,-1,-1],"loss_changes":[3.1852937E-1,3.3207603E-2,6.826511E-2,3.8795471E-3,6.886031E-3,1.4874548E-2,0E0,7.173121E-4,1.3141753E-3,2.5710221E-3,0E0,1.7051995E-3,0E0,0E0,0E0,0E0,0E0,0E0,0E0,0E0,0E0],"parents":[2147483647,0,0,1,1,2,2,3,3,4,4,5,5,7,7,8,8,9,9,11,11],"right_children":[2,4,6,8,10,12,-1,14,16,18,-1,20,-1,-1,-1,-1,-1,-1,-1,-1,-1],"split_conditions":[1.5410593E-1,7.606407E-2,5.15E1,5.997178E-2,4.45E1,8.4441274E-2,-1.5436341E-4,3.866548E-2,5.631833E-2,9.373291E-2,6.185835E-4,3.7432782E-2,2.8770673E-3,-6.5805065E-4,-4.8084304E-4,-3.9758213E-4,-1.20125296E-4,-1.58228E-4,2.948867E-5,1.1900862E-3,1.9306097E-3],"split_indices":[5,5,4,5,4,27,0,21,23,12,0,15,0,0,0,0,0,0,0,0,0],"split_type":[0,0,0,0,0,0,0,0,0,0,0,0,0,0,0,0,0,0,0,0,0],"sum_hessian":[9.4E1,8.2E1,1.2E1,4.3E1,3.9E1,1E1,2E0,3E1,1.3E1,3.7E1,2E0,7E0,3E0,1.3E1,1.7E1,8E0,5E0,1.8E1,1.9E1,2E0,5E0],"tree_param":{"num_deleted":"0","num_feature":"31","num_nodes":"21","size_leaf_vector":"1"}},{"base_weights":[6.519262E-4,-2.3856668E-2,1.4417332E-1,-4.1456345E-2,-5.1121283E-3,1.710668E-1,-1.329282E-2,-5.060309E-2,-2.7319502E-2,-2.3761444E-2,8.554593E-4,8.800717E-2,1.9679472E-1,-5.5364512E-2,-3.895781E-2,-3.975115E-2,-1.9510582E-2,-9.6227005E-3,-2.8400593E-2,-8.587791E-4,2.8249858E-2,1.6701514E-1,2.4779242E-1],"categories":[],"categories_nodes":[],"categories_segments":[],"categories_sizes":[],"default_left":[1,1,1,1,1,1,0,1,1,1,1,0,1,0,0,0,0,0,0,0,0,0,0],"id":16,"left_children":[1,3,5,7,9,11,-1,13,15,17,19,-1,21,-1,-1,-1,-1,-1,-1,-1,-1,-1,-1],"loss_changes":[3.3928186E-1,2.6649058E-2,6.1185032E-2,4.6451837E-3,4.6643224E-3,2.1952689E-2,0E0,3.9000064E-4,1.0740077E-3,3.0373223E-4,1.6564641E-3,0E0,6.921023E-3,0E0,0E0,0E0,0E0,0E0,0E0,0E0,0E0,0E0,0E0],"parents":[2147483647,0,0,1,1,2,2,3,3,4,4,5,5,7,7,8,8,9,9,10,10,12,12],"right_children":[2,4,6,8,10,12,-1,14,16,18,20,-1,22,-1,-1,-1,-1,-1,-1,-1,-1,-1,-1],"split_conditions":[4.55E1,7.606407E-2,3.55E2,5.631833E-2,5.4731324E-2,4.4782758E-2,-1.5265665E-4,6.794472E-2,4.0545546E-2,8.947168E-2,4.35E1,1.010687E-3,9.0262294E-2,-6.35814E-4,-4.4739706E-4,-4.565079E-4,-2.2406231E-4,-1.10508474E-4,-3.2615647E-4,-9.862342E-6,3.244254E-4,1.9180258E-3,2.8456836E-3],"split_indices":[4,9,0,6,25,26,0,19,24,9,4,0,24,0,0,0,0,0,0,0,0,0,0],"split_type":[0,0,0,0,0,0,0,0,0,0,0,0,0,0,0,0,0,0,0,0,0,0,0],"sum_hessian":[9.6E1,8.2E1,1.4E1,4.2E1,4E1,1.2E1,2E0,2.5E1,1.7E1,1E1,3E1,3E0,9E0,1.7E1,8E0,6E0,1.1E1,3E0,7E0,2.8E1,2E0,6E0,3E0],"tree_param":{"num_deleted":"0","num_feature":"31","num_nodes":"23","size_leaf_vector":"1"}},{"base_weights":[-5.322602E-5,-2.2108922E-2,1.49106E-1,-4.6309106E-2,-6.396719E-3,1.822856E-1,-1.3145843E-2,-5.4186948E-2,-3.948746E-2,-1.5330872E-2,1.041928E-2,1.415567E-1,2.3737067E-1,-1.6570508E-2,-4.1708816E-2,-2.5388328E-2,-9.092332E-3,3.9645676E-3,5.262584E-2,1.7274486E-1,7.081957E-2],"categories":[],"categories_nodes":[],"categories_segments":[],"categories_sizes":[],"default_left":[1,1,1,1,1,1,0,0,1,1,1,1,0,0,0,0,0,0,0,0,0],"id":17,"left_children":[1,3,5,7,9,11,-1,-1,13,15,17,19,-1,-1,-1,-1,-1,-1,-1,-1,-1],"loss_changes":[3.0862835E-1,3.0720077E-2,6.669775E-2,7.3040277E-4,7.579203E-3,1.6662955E-2,0E0,0E0,3.5164878E-4,1.7527402E-3,4.1359826E-3,1.0309033E-2,0E0,0E0,0E0,0E0,0E0,0E0,0E0,0E0,0E0],"parents":[2147483647,0,0,1,1,2,2,3,3,4,4,5,5,8,8,9,9,10,10,11,11],"right_children":[2,4,6,8,10,12,-1,-1,14,16,18,20,-1,-1,-1,-1,-1,-1,-1,-1,-1],"split_conditions":[1.5410593E-1,6.3590504E-2,3.55E2,3.866548E-2,1.0140243E-1,6.618677E-2,-1.5096874E-4,-6.2229065E-4,4.1472934E-2,5.4731324E-2,4.45E1,4.819961E-2,2.7259989E-3,-1.9029809E-4,-4.7899003E-4,-2.915632E-4,-1.0441764E-4,4.552966E-5,6.043627E-4,1.9838267E-3,8.133021E-4],"split_indices":[5,5,0,21,5,13,0,0,11,25,4,18,0,0,0,0,0,0,0,0,0],"split_type":[0,0,0,0,0,0,0,0,0,0,0,0,0,0,0,0,0,0,0,0,0],"sum_hessian":[9.4E1,8.2E1,1.2E1,3.2E1,5E1,1E1,2E0,1.4E1,1.8E1,3.3E1,1.7E1,6E0,4E0,2E0,1.6E1,1.2E1,2.1E1,1.5E1,2E0,4E0,2E0],"tree_param":{"num_deleted":"0","num_feature":"31","num_nodes":"21","size_leaf_vector":"1"}},{"base_weights":[1.5711786E-3,-2.0596176E-2,1.4743641E-1,-4.5549724E-2,-5.898638E-3,1.802547E-1,-1.3000486E-2,-5.4850925E-2,-3.8248047E-2,-1.3914072E-2,1.0569308E-2,1.3998331E-1,2.3469633E-1,-1.6387291E-2,-4.047757E-2,-2.3598587E-2,-8.167085E-3,3.763254E-3,5.2043956E-2,1.7079863E-1,7.003652E-2],"categories":[],"categories_nodes":[],"categories_segments":[],"categories_sizes":[],"default_left":[1,1,1,1,1,1,0,0,1,1,1,1,0,0,0,0,0,0,0,0,0],"id":18,"left_children":[1,3,5,7,9,11,-1,-1,13,15,17,19,-1,-1,-1,-1,-1,-1,-1,-1,-1],"loss_changes":[2.9584935E-1,2.8526459E-2,6.524962E-2,9.896532E-4,6.6510164E-3,1.624319E-2,0E0,0E0,2.7837418E-4,1.6009216E-3,4.0297834E-3,1.0045849E-2,0E0,0E0,0E0,0E0,0E0,0E0,0E0,0E0,0E0],"parents":[2147483647,0,0,1,1,2,2,3,3,4,4,5,5,8,8,9,9,10,10,11,11],"right_children":[2,4,6,8,10,12,-1,-1,14,16,18,20,-1,-1,-1,-1,-1,-1,-1,-1,-1],"split_conditions":[1.5410593E-1,6.3590504E-2,3.55E2,3.866548E-2,1.0140243E-1,6.618677E-2,-1.4929945E-4,-6.2991586E-4,4.1472934E-2,5.4731324E-2,4.45E1,6.019698E-2,2.6952862E-3,-1.88194E-4,-4.6485022E-4,-2.7100954E-4,-9.3791976E-5,4.3217748E-5,5.976802E-4,1.961476E-3,8.0430944E-4],"split_indices":[5,5,0,21,5,13,0,0,11,25,4,27,0,0,0,0,0,0,0,0,0],"split_type":[0,0,0,0,0,0,0,0,0,0,0,0,0,0,0,0,0,0,0,0,0],"sum_hessian":[9.1E1,7.9E1,1.2E1,2.9E1,5E1,1E1,2E0,1.2E1,1.7E1,3.4E1,1.6E1,6E0,4E0,2E0,1.5E1,1.2E1,2.2E1,1.4E1,2E0,4E0,2E0],"tree_param":{"num_deleted":"0","num_feature":"31","num_nodes":"21","size_leaf_vector":"1"}},{"base_weights":[2.0043207E-3,-2.1341233E-2,1.4562257E-1,-3.9068967E-2,-4.6182185E-4,1.7512375E-1,-1.2856738E-2,-4.6174932E-2,-2.3548841E-2,-3.7881222E-3,5.1468506E-2,1.4765204E-1,2.399624E-1,-5.3068627E-2,-3.791012E-2,-3.818835E-2,-1.6567893E-2,-1.3338981E-2,4.7615627E-3,1.6128054E-1,9.8032795E-2],"categories":[],"categories_nodes":[],"categories_segments":[],"categories_sizes":[],"default_left":[1,1,1,1,1,1,0,1,1,1,0,1,0,0,0,0,0,0,0,0,0],"id":19,"left_children":[1,3,5,7,9,11,-1,13,15,17,-1,19,-1,-1,-1,-1,-1,-1,-1,-1,-1],"loss_changes":[3.1341264E-1,2.9289305E-2,6.274891E-2,4.050404E-3,5.9981276E-3,1.356703E-2,0E0,6.9696084E-4,9.0571726E-4,2.945033E-3,0E0,1.9481778E-3,0E0,0E0,0E0,0E0,0E0,0E0,0E0,0E0,0E0],"parents":[2147483647,0,0,1,1,2,2,3,3,4,4,5,5,7,7,8,8,9,9,11,11],"right_children":[2,4,6,8,10,12,-1,14,16,18,-1,20,-1,-1,-1,-1,-1,-1,-1,-1,-1],"split_conditions":[1.5410593E-1,7.606407E-2,3.55E2,5.997178E-2,4.45E1,8.4441274E-2,-1.4764862E-4,2.8730836E-2,3.7678085E-2,9.373291E-2,5.9107173E-4,3.3862E-1,2.7557625E-3,-6.094477E-4,-4.3536525E-4,-4.3856047E-4,-1.9026807E-4,-1.5318677E-4,5.4682467E-5,1.8521688E-3,1.1258227E-3],"split_indices":[5,5,0,5,4,27,0,27,24,12,0,6,0,0,0,0,0,0,0,0,0],"split_type":[0,0,0,0,0,0,0,0,0,0,0,0,0,0,0,0,0,0,0,0,0],"sum_hessian":[9.3E1,8E1,1.3E1,4.3E1,3.7E1,1.1E1,2E0,2.9E1,1.4E1,3.5E1,2E0,8E0,3E0,1.5E1,1.4E1,4E0,1E1,1.7E1,1.8E1,6E0,2E0],"tree_param":{"num_deleted":"0","num_feature":"31","num_nodes":"21","size_leaf_vector":"1"}},{"base_weights":[-2.7936255E-3,-2.2692353E-2,1.2678148E-1,-4.516065E-2,-7.948445E-3,1.5544152E-1,-1.2714582E-2,-5.262907E-2,-3.7389874E-2,-1.40505405E-2,6.2387236E-3,1.17429726E-1,2.3608771E-1,-1.5904915E-2,-3.9727032E-2,-1.8273504E-2,-1.2905E-3,1.27655445E-2,-7.842833E-3,1.5717928E-1,8.303583E-2],"categories":[],"categories_nodes":[],"categories_segments":[],"categories_sizes":[],"default_left":[1,1,1,1,1,1,0,0,1,1,1,1,0,0,0,0,0,0,0,0,0],"id":20,"left_children":[1,3,5,7,9,11,-1,-1,13,15,17,19,-1,-1,-1,-1,-1,-1,-1,-1,-1],"loss_changes":[2.3413385E-1,2.5698733E-2,4.969889E-2,8.5575134E-4,4.23795E-3,2.5624737E-2,0E0,0E0,2.6667677E-4,1.6614865E-3,1.3450636E-3,6.5436736E-3,0E0,0E0,0E0,0E0,0E0,0E0,0E0,0E0,0E0],"parents":[2147483647,0,0,1,1,2,2,3,3,4,4,5,5,8,8,9,9,10,10,11,11],"right_children":[2,4,6,8,10,12,-1,-1,14,16,18,20,-1,-1,-1,-1,-1,-1,-1,-1,-1],"split_conditions":[4.55E1,6.3590504E-2,3.55E2,3.866548E-2,1.0140243E-1,8.39266E-2,-1.4601607E-4,-6.043998E-4,4.1472934E-2,9.200527E-2,1.1513057E-1,3.4460597E-2,2.711265E-3,-1.8265432E-4,-4.5623092E-4,-2.0985554E-4,-1.4820287E-5,1.4660135E-4,-9.006822E-5,1.8050694E-3,9.535953E-4],"split_indices":[4,5,0,21,5,12,0,0,11,20,5,21,0,0,0,0,0,0,0,0,0],"split_type":[0,0,0,0,0,0,0,0,0,0,0,0,0,0,0,0,0,0,0,0,0],"sum_hessian":[9.1E1,7.9E1,1.2E1,3.1E1,4.8E1,1E1,2E0,1.5E1,1.6E1,3.4E1,1.4E1,7E0,3E0,2E0,1.4E1,2.5E1,9E0,1E1,4E0,3E0,4E0],"tree_param":{"num_deleted":"0","num_feature":"31","num_nodes":"21","size_leaf_vector":"1"}},{"base_weights":[2.2645493E-3,-2.0305667E-2,1.4889431E-1,-3.754106E-2,-1.8916164E-3,1.8191403E-1,-1.2573996E-2,-4.720711E-2,-2.6246225E-2,-5.141718E-3,5.0369784E-2,1.9939157E-1,1.0293219E-1,-5.3135358E-2,-3.6063127E-2,-3.0469865E-2,-7.962128E-3,-9.292781E-3,1.07201375E-2,1.5541953E-1,2.2126712E-1],"categories":[],"categories_nodes":[],"categories_segments":[],"categories_sizes":[],"default_left":[1,1,1,1,1,1,0,1,1,1,0,1,0,0,0,0,0,0,0,0,0],"id":21,"left_children":[1,3,5,7,9,11,-1,13,15,17,-1,19,-1,-1,-1,-1,-1,-1,-1,-1,-1],"loss_changes":[2.9947793E-1,2.4425566E-2,6.606534E-2,3.6304183E-3,6.0877884E-3,9.652376E-3,0E0,4.5585632E-4,1.114754E-3,2.3705342E-3,0E0,1.7826259E-3,0E0,0E0,0E0,0E0,0E0,0E0,0E0,0E0,0E0],"parents":[2147483647,0,0,1,1,2,2,3,3,4,4,5,5,7,7,8,8,9,9,11,11],"right_children":[2,4,6,8,10,12,-1,14,16,18,-1,20,-1,-1,-1,-1,-1,-1,-1,-1,-1],"split_conditions":[1.5410593E-1,7.606407E-2,3.55E2,3.543981E-2,4.4E1,8.554232E-2,-1.4440157E-4,3.029073E-2,2.285E2,1.2851319E-1,5.784538E-4,3.7678085E-2,1.182088E-3,-6.102141E-4,-4.141541E-4,-3.499203E-4,-9.143822E-5,-1.06719635E-4,1.2311159E-4,1.7848602E-3,2.5410634E-3],"split_indices":[5,5,0,28,4,14,0,26,0,11,0,14,0,0,0,0,0,0,0,0,0],"split_type":[0,0,0,0,0,0,0,0,0,0,0,0,0,0,0,0,0,0,0,0,0],"sum_hessian":[9E1,7.8E1,1.2E1,4E1,3.8E1,1E1,2E0,2.1E1,1.9E1,3.6E1,2E0,8E0,2E0,1.3E1,8E0,1.5E1,4E0,2.9E1,7E0,3E0,5E0],"tree_param":{"num_deleted":"0","num_feature":"31","num_nodes":"21","size_leaf_vector":"1"}},{"base_weights":[2.844203E-3,-1.9883541E-2,1.4093643E-1,-4.426066E-2,-7.7113784E-3,1.6951244E-1,-1.2434967E-2,-5.0883785E-2,-3.7707597E-2,-1.5324466E-2,9.333062E-3,1.4268886E-1,2.3279078E-1,-2.6670286E-2,-1.012051E-2,4.1428234E-2,1.0494741E-3,9.43516E-2,1.5594226E-1],"categories":[],"categories_nodes":[],"categories_segments":[],"categories_sizes":[],"default_left":[1,1,1,1,1,1,0,0,0,1,1,1,0,0,0,0,0,0,0],"id":22,"left_children":[1,3,5,7,9,11,-1,-1,-1,13,15,17,-1,-1,-1,-1,-1,-1,-1],"loss_changes":[2.9027346E-1,2.2978164E-2,5.8865726E-2,2.0037964E-4,6.951364E-3,1.2916297E-2,0E0,0E0,0E0,1.8430632E-3,3.8954774E-3,1.825124E-3,0E0,0E0,0E0,0E0,0E0,0E0,0E0],"parents":[2147483647,0,0,1,1,2,2,3,3,4,4,5,5,9,9,10,10,11,11],"right_children":[2,4,6,8,10,12,-1,-1,-1,14,16,18,-1,-1,-1,-1,-1,-1,-1],"split_conditions":[1.5410593E-1,5.997178E-2,3.55E2,2.8730836E-2,1.0140243E-1,9.0262294E-2,-1.4280494E-4,-5.8435666E-4,-4.3303944E-4,4.8667878E-2,8.4817655E-2,3.284862E-2,2.6734027E-3,-3.062854E-4,-1.1622539E-4,4.757678E-4,1.2052311E-5,1.0835472E-3,1.7908632E-3],"split_indices":[5,5,0,27,5,24,0,0,0,25,12,22,0,0,0,0,0,0,0],"split_type":[0,0,0,0,0,0,0,0,0,0,0,0,0,0,0,0,0,0,0],"sum_hessian":[9.2E1,7.9E1,1.3E1,2.6E1,5.3E1,1.1E1,2E0,1.2E1,1.4E1,3.7E1,1.6E1,8E0,3E0,1.1E1,2.6E1,3E0,1.3E1,2E0,6E0],"tree_param":{"num_deleted":"0","num_feature":"31","num_nodes":"19","size_leaf_vector":"1"}},{"base_weights":[-1.3175736E-4,-2.128695E-2,1.3940482E-1,-4.3037787E-2,-8.013647E-3,1.704842E-1,-1.2297473E-2,-5.095766E-2,-3.7073616E-2,-1.4599053E-2,6.762036E-3,1.4131887E-1,2.3040706E-1,-2.389036E-2,-8.643916E-3,1.3014053E-2,-1.5072112E-2,1.571065E-1,9.3218654E-2],"categories":[],"categories_nodes":[],"categories_segments":[],"categories_sizes":[],"default_left":[1,1,1,1,1,1,0,0,0,1,1,1,0,0,0,0,0,0,0],"id":23,"left_children":[1,3,5,7,9,11,-1,-1,-1,13,15,17,-1,-1,-1,-1,-1,-1,-1],"loss_changes":[2.7099004E-1,2.264079E-2,5.850242E-2,4.965253E-4,4.94962E-3,1.1809856E-2,0E0,0E0,0E0,1.6372926E-3,2.05512E-3,2.0299256E-3,0E0,0E0,0E0,0E0,0E0,0E0,0E0],"parents":[2147483647,0,0,1,1,2,2,3,3,4,4,5,5,9,9,10,10,11,11],"right_children":[2,4,6,8,10,12,-1,-1,-1,14,16,18,-1,-1,-1,-1,-1,-1,-1],"split_conditions":[4.55E1,6.3590504E-2,3.545E2,2.5543818E-2,1.0140243E-1,8.4441274E-2,-1.4122594E-4,-5.852051E-4,-4.257587E-4,5.4731324E-2,1.22339174E-1,3.3862E-1,2.6460276E-3,-2.743603E-4,-9.926797E-5,1.4945526E-4,-1.7309029E-4,1.8042336E-3,1.0705364E-3],"split_indices":[4,5,0,29,5,27,0,0,0,25,18,6,0,0,0,0,0,0,0],"split_type":[0,0,0,0,0,0,0,0,0,0,0,0,0,0,0,0,0,0,0],"sum_hessian":[9.2E1,8E1,1.2E1,3E1,5E1,1E1,2E0,1.2E1,1.8E1,3.5E1,1.5E1,7E0,3E0,1.3E1,2.2E1,1.2E1,3E0,5E0,2E0],"tree_param":{"num_deleted":"0","num_feature":"31","num_nodes":"19","size_leaf_vector":"1"}},{"base_weights":[4.8067851E-4,-2.183158E-2,1.3778065E-1,-4.4040814E-2,-7.553498E-3,1.657356E-1,-1.21615E-2,-5.02463E-2,-3.45265E-2,-1.4897932E-2,7.0433337E-3,1.3938072E-1,2.2787847E-1,-3.7494175E-2,-1.3161061E-2,-1.9599844E-2,-4.624936E-3,2.9534454E-2,1.0332412E-3,9.192443E-2,1.5237507E-1],"categories":[],"categories_nodes":[],"categories_segments":[],"categories_sizes":[],"default_left":[1,1,1,1,1,1,0,0,1,1,1,1,0,0,0,0,0,0,0,0,0],"id":24,"left_children":[1,3,5,7,9,11,-1,-1,13,15,17,19,-1,-1,-1,-1,-1,-1,-1,-1,-1],"loss_changes":[2.8639704E-1,2.4911113E-2,5.6328356E-2,9.5137954E-4,5.338895E-3,1.2441307E-2,0E0,0E0,3.4323893E-4,1.3765646E-3,1.9006379E-3,1.7390847E-3,0E0,0E0,0E0,0E0,0E0,0E0,0E0,0E0,0E0],"parents":[2147483647,0,0,1,1,2,2,3,3,4,4,5,5,8,8,9,9,10,10,11,11],"right_children":[2,4,6,8,10,12,-1,-1,14,16,18,20,-1,-1,-1,-1,-1,-1,-1,-1,-1],"split_conditions":[4.55E1,6.420576E-2,3.55E2,3.3894166E-2,9.9353746E-2,9.0262294E-2,-1.3966441E-4,-5.770357E-4,5.6588203E-2,7.607037E-2,8.278145E-2,3.284862E-2,2.616989E-3,-4.305885E-4,-1.5114351E-4,-2.2508741E-4,-5.3113425E-5,3.391779E-4,1.186589E-5,1.0556733E-3,1.7498971E-3],"split_indices":[4,5,0,28,5,24,0,0,5,22,18,22,0,0,0,0,0,0,0,0,0],"split_type":[0,0,0,0,0,0,0,0,0,0,0,0,0,0,0,0,0,0,0,0,0],"sum_hessian":[9.3E1,8E1,1.3E1,3.1E1,4.9E1,1.1E1,2E0,1.8E1,1.3E1,3.3E1,1.6E1,8E0,3E0,1.1E1,2E0,2.2E1,1.1E1,3E0,1.3E1,2E0,6E0],"tree_param":{"num_deleted":"0","num_feature":"31","num_nodes":"21","size_leaf_vector":"1"}},{"base_weights":[5.391096E-4,-1.9841284E-2,1.3471061E-1,-3.713945E-2,-9.078172E-4,1.648026E-1,-1.2027034E-2,-4.335702E-2,-2.120043E-2,-3.9328793E-3,4.740857E-2,1.3533734E-1,2.2555795E-1,-5.1387433E-2,-3.7761863E-2,-0E0,-2.5096996E-2,-1.3088925E-2,3.8158088E-3,1.4974302E-1,9.083733E-2],"categories":[],"categories_nodes":[],"categories_segments":[],"categories_sizes":[],"default_left":[1,1,1,1,1,1,0,1,1,1,0,1,0,0,0,0,0,0,0,0,0],"id":25,"left_children":[1,3,5,7,9,11,-1,13,15,17,-1,19,-1,-1,-1,-1,-1,-1,-1,-1,-1],"loss_changes":[2.5026983E-1,2.5559973E-2,5.48324E-2,3.4291185E-3,5.1954426E-3,1.2491107E-2,0E0,3.6844984E-4,9.190319E-4,2.6454222E-3,0E0,1.3591647E-3,0E0,0E0,0E0,0E0,0E0,0E0,0E0,0E0,0E0],"parents":[2147483647,0,0,1,1,2,2,3,3,4,4,5,5,7,7,8,8,9,9,11,11],"right_children":[2,4,6,8,10,12,-1,14,16,18,-1,20,-1,-1,-1,-1,-1,-1,-1,-1,-1],"split_conditions":[1.5410593E-1,7.606407E-2,3.55E2,6.3590504E-2,4.45E1,8.4441274E-2,-1.3812017E-4,2.5543818E-2,5.6873538E-2,9.373291E-2,5.444468E-4,2.8230792E-1,2.5903399E-3,-5.9014064E-4,-4.3366264E-4,-0E0,-2.882175E-4,-1.5031509E-4,4.3821296E-5,1.7196703E-3,1.043189E-3],"split_indices":[5,5,0,5,4,27,0,29,8,12,0,6,0,0,0,0,0,0,0,0,0],"split_type":[0,0,0,0,0,0,0,0,0,0,0,0,0,0,0,0,0,0,0,0,0],"sum_hessian":[9.1E1,7.9E1,1.2E1,4.1E1,3.8E1,1E1,2E0,2.9E1,1.2E1,3.6E1,2E0,7E0,3E0,1.1E1,1.8E1,2E0,1E1,1.7E1,1.9E1,5E0,2E0],"tree_param":{"num_deleted":"0","num_feature":"31","num_nodes":"21","size_leaf_vector":"1"}},{"base_weights":[2.4079597E-3,-1.9650253E-2,1.347674E-1,-3.7264176E-2,-8.391206E-4,1.6212815E-1,-1.1894052E-2,-4.9075205E-2,-2.8890785E-2,-3.8301921E-3,4.6884377E-2,1.362597E-1,2.230848E-1,-1.8144316E-3,-3.093688E-2,-1.0153264E-2,5.47927E-3,8.957797E-2,1.4902897E-1],"categories":[],"categories_nodes":[],"categories_segments":[],"categories_sizes":[],"default_left":[1,1,1,1,1,1,0,0,1,1,0,1,0,0,0,0,0,0,0],"id":26,"left_children":[1,3,5,7,9,11,-1,-1,13,15,-1,17,-1,-1,-1,-1,-1,-1,-1],"loss_changes":[2.6713258E-1,2.553069E-2,5.395311E-2,3.1647943E-3,5.0685783E-3,1.194194E-2,0E0,0E0,1.0400303E-3,2.1692843E-3,0E0,1.6740113E-3,0E0,0E0,0E0,0E0,0E0,0E0,0E0],"parents":[2147483647,0,0,1,1,2,2,3,3,4,4,5,5,8,8,9,9,11,11],"right_children":[2,4,6,8,10,12,-1,-1,14,16,-1,18,-1,-1,-1,-1,-1,-1,-1],"split_conditions":[1.5410593E-1,7.606407E-2,5.15E1,2.8544616E-2,4.45E1,9.0262294E-2,-1.36593E-4,-5.635867E-4,2.2020452E-2,1.0140243E-1,5.384269E-4,3.284862E-2,2.561938E-3,-2.0837193E-5,-3.5528356E-4,-1.16601535E-4,6.292472E-5,1.0287262E-3,1.7114701E-3],"split_indices":[5,5,4,27,4,24,0,0,29,5,0,22,0,0,0,0,0,0,0],"split_type":[0,0,0,0,0,0,0,0,0,0,0,0,0,0,0,0,0,0,0],"sum_hessian":[9.1E1,7.8E1,1.3E1,4E1,3.8E1,1.1E1,2E0,1.6E1,2.4E1,3.6E1,2E0,8E0,3E0,2E0,2.2E1,2.2E1,1.4E1,2E0,6E0],"tree_param":{"num_deleted":"0","num_feature":"31","num_nodes":"19","size_leaf_vector":"1"}},{"base_weights":[2.100742E-3,-1.9292334E-2,1.393502E-1,-4.2935167E-2,-5.5556917E-3,1.7030849E-1,-1.1762541E-2,-4.4615414E-2,-1.5989207E-2,-1.2873741E-2,8.977254E-3,1.8720354E-1,9.402321E-2,-4.9820162E-2,-3.753136E-2,-2.1574328E-2,-5.9379763E-3,3.9887052E-2,9.747037E-4,1.3299242E-1,2.0189877E-1],"categories":[],"categories_nodes":[],"categories_segments":[],"categories_sizes":[],"default_left":[1,1,1,1,1,1,0,1,0,1,1,1,0,1,1,0,0,0,0,0,0],"id":27,"left_children":[1,3,5,7,9,11,-1,-1,-1,15,17,19,-1,-1,-1,-1,-1,-1,-1,-1,-1],"loss_changes":[2.6281664E-1,2.4585519E-2,5.80561E-2,6.803423E-4,5.2628797E-3,9.141982E-3,0E0,4.480779E-5,0E0,1.7429399E-3,3.6125928E-3,1.3996065E-3,0E0,0E0,0E0,0E0,0E0,0E0,0E0,0E0,0E0],"parents":[2147483647,0,0,1,1,2,2,3,3,4,4,5,5,7,7,9,9,10,10,11,11],"right_children":[2,4,6,8,10,12,-1,-1,-1,16,18,20,-1,-1,-1,-1,-1,-1,-1,-1,-1],"split_conditions":[1.5150869E-1,6.3590504E-2,3.55E2,2.541704E-1,1.0140243E-1,8.554232E-2,-1.3508271E-4,-5.123698E-4,-1.8362234E-4,5.4731324E-2,8.278145E-2,3.7432782E-2,1.0797761E-3,-5.721419E-4,-4.3101553E-4,-2.4776268E-4,-6.8192574E-5,4.5806862E-4,1.1193637E-5,1.527304E-3,2.3186344E-3],"split_indices":[5,5,0,30,5,14,0,13,0,26,18,15,0,2147483647,2147483647,0,0,0,0,0,0],"split_type":[0,0,0,0,0,0,0,0,0,0,0,0,0,0,0,0,0,0,0,0,0],"sum_hessian":[8.9E1,7.7E1,1.2E1,2.8E1,4.9E1,1E1,2E0,2.6E1,2E0,3.3E1,1.6E1,8E0,2E0,1.4E1,1.2E1,1.4E1,1.9E1,3E0,1.3E1,2E0,6E0],"tree_param":{"num_deleted":"2","num_feature":"31","num_nodes":"21","size_leaf_vector":"1"}},{"base_weights":[-6.419938E-3,-1.942107E-2,1.2304868E-1,-4.1308537E-2,-7.0016677E-3,7.1156784E-3,1.596566E-1,-4.282015E-2,-1.5812416E-2,-1.4175633E-2,8.5804425E-3,-4.7881894E-2,-3.5495147E-2,-2.1735007E-2,-8.296777E-3,3.86215E-2,7.846644E-4],"categories":[],"categories_nodes":[],"categories_segments":[],"categories_sizes":[],"default_left":[1,1,1,1,1,0,0,1,0,1,1,0,0,0,0,0,0],"id":28,"left_children":[1,3,5,7,9,-1,-1,11,-1,13,15,-1,-1,-1,-1,-1,-1],"loss_changes":[1.4920682E-1,2.158975E-2,3.2718338E-2,5.500056E-4,5.8803437E-3,0E0,0E0,1.3555586E-4,0E0,1.323868E-3,3.4144851E-3,0E0,0E0,0E0,0E0,0E0,0E0],"parents":[2147483647,0,0,1,1,2,2,3,3,4,4,7,7,9,9,10,10],"right_children":[2,4,6,8,10,-1,-1,12,-1,14,16,-1,-1,-1,-1,-1,-1],"split_conditions":[4.7E1,6.3590504E-2,4.1472934E-2,2.541704E-1,1.0140243E-1,8.171747E-5,1.8335193E-3,5.21755E-2,-1.8159204E-4,5.4731324E-2,8.4817655E-2,-5.4988253E-4,-4.0763136E-4,-2.4960793E-4,-9.528137E-5,4.4353484E-4,9.011199E-6],"split_indices":[4,5,19,30,5,0,0,13,0,26,12,0,0,0,0,0,0],"split_type":[0,0,0,0,0,0,0,0,0,0,0,0,0,0,0,0,0],"sum_hessian":[8.9E1,8.1E1,8E0,2.9E1,5.2E1,2E0,6E0,2.7E1,2E0,3.6E1,1.6E1,1.5E1,1.2E1,1.5E1,2.1E1,3E0,1.3E1],"tree_param":{"num_deleted":"0","num_feature":"31","num_nodes":"17","size_leaf_vector":"1"}},{"base_weights":[-2.7954442E-4,-1.9227393E-2,1.2619126E-1,-4.112316E-2,-6.131731E-3,1.5470116E-1,-1.2554487E-2,-4.814751E-2,-3.4225143E-2,-1.3251458E-2,8.881645E-3,1.2487537E-1,2.165393E-1,-1.2958038E-2,-3.6547523E-2,-2.312715E-2,-6.9548828E-3,3.8189102E-2,1.2567136E-3,9.742126E-2,1.5524301E-1],"categories":[],"categories_nodes":[],"categories_segments":[],"categories_sizes":[],"default_left":[1,1,1,1,1,1,0,0,1,1,1,1,0,0,0,0,0,0,0,0,0],"id":29,"left_children":[1,3,5,7,9,11,-1,-1,13,15,17,19,-1,-1,-1,-1,-1,-1,-1,-1,-1],"loss_changes":[2.2228754E-1,2.281083E-2,4.9179807E-2,6.0185045E-4,5.507431E-3,1.3478845E-2,0E0,0E0,3.1982735E-4,1.9028494E-3,3.2403222E-3,2.4982989E-3,0E0,0E0,0E0,0E0,0E0,0E0,0E0,0E0,0E0],"parents":[2147483647,0,0,1,1,2,2,3,3,4,4,5,5,8,8,9,9,10,10,11,11],"right_children":[2,4,6,8,10,12,-1,-1,14,16,18,20,-1,-1,-1,-1,-1,-1,-1,-1,-1],"split_conditions":[1.5410593E-1,6.3590504E-2,3.55E2,3.866548E-2,1.0140243E-1,9.0262294E-2,-1.4417752E-4,-5.529329E-4,4.1472934E-2,5.4731324E-2,8.4817655E-2,3.3862E-1,2.4867682E-3,-1.4881196E-4,-4.19717E-4,-2.655955E-4,-7.987087E-5,4.385691E-4,1.4432279E-5,1.1187997E-3,1.782833E-3],"split_indices":[5,5,0,21,5,24,0,0,11,25,12,5,0,0,0,0,0,0,0,0,0],"split_type":[0,0,0,0,0,0,0,0,0,0,0,0,0,0,0,0,0,0,0,0,0],"sum_hessian":[9.3E1,8.1E1,1.2E1,3E1,5.1E1,1E1,2E0,1.4E1,1.6E1,3.5E1,1.6E1,7E0,3E0,2E0,1.4E1,1.3E1,2.2E1,3E0,1.3E1,4E0,3E0],"tree_param":{"num_deleted":"0","num_feature":"31","num_nodes":"21","size_leaf_vector":"1"}},{"base_weights":[1.6382717E-3,-1.8840656E-2,1.3983923E-1,-4.00174E-2,-6.818948E-3,4.6256214E-2,1.6940044E-1,-4.843861E-2,-3.3363096E-2,-1.4004434E-2,8.78814E-3,1.89463E-1,9.049056E-2,-3.6448725E-2,-2.0665955E-2,-2.4624243E-2,-8.917727E-3,3.7761543E-2,1.2423671E-3],"categories":[],"categories_nodes":[],"categories_segments":[],"categories_sizes":[],"default_left":[1,1,1,1,1,0,1,0,1,1,1,0,0,0,0,0,0,0,0],"id":30,"left_children":[1,3,5,7,9,-1,11,-1,13,15,17,-1,-1,-1,-1,-1,-1,-1,-1],"loss_changes":[2.647012E-1,2.0205567E-2,3.0898988E-2,7.81402E-4,5.8958014E-3,0E0,1.0571003E-2,0E0,1.0595471E-4,1.6354024E-3,3.1664874E-3,0E0,0E0,0E0,0E0,0E0,0E0,0E0,0E0],"parents":[2147483647,0,0,1,1,2,2,3,3,4,4,6,6,8,8,9,9,10,10],"right_children":[2,4,6,8,10,-1,12,-1,14,16,18,-1,-1,-1,-1,-1,-1,-1,-1],"split_conditions":[1.5410593E-1,6.3590504E-2,3.4460597E-2,3.866548E-2,1.0140243E-1,5.31213E-4,8.554232E-2,-5.5627595E-4,5.6588203E-2,4.8667878E-2,8.4817655E-2,2.1758203E-3,1.0392065E-3,-4.1858238E-4,-2.3733078E-4,-2.8278833E-4,-1.0241245E-4,4.3365898E-4,1.4267522E-5],"split_indices":[5,5,22,21,5,0,14,0,5,25,12,0,0,0,0,0,0,0,0],"split_type":[0,0,0,0,0,0,0,0,0,0,0,0,0,0,0,0,0,0,0],"sum_hessian":[9.3E1,8.1E1,1.2E1,2.9E1,5.2E1,3E0,9E0,1.2E1,1.7E1,3.6E1,1.6E1,7E0,2E0,1.3E1,4E0,1.1E1,2.5E1,3E0,1.3E1],"tree_param":{"num_deleted":"0","num_feature":"31","num_nodes":"19","size_leaf_vector":"1"}},{"base_weights":[1.4893062E-3,-2.0771489E-2,1.17345035E-1,-3.595255E-2,-5.3231325E-3,1.3814664E-1,-1.3718848E-2,-4.5574367E-2,-3.0088E-2,-2.0520184E-2,-0E0,5.2062683E-2,1.6249742E-1,-3.2404833E-2,-1.5372866E-2,-7.960832E-3,-2.450798E-2,3.7147978E-3,-9.845408E-3,8.460637E-2,1.7988016E-1],"categories":[],"categories_nodes":[],"categories_segments":[],"categories_sizes":[],"default_left":[1,1,1,1,1,1,0,0,1,1,1,0,1,0,0,0,0,0,0,0,0],"id":31,"left_children":[1,3,5,7,9,11,-1,-1,13,15,17,-1,19,-1,-1,-1,-1,-1,-1,-1,-1],"loss_changes":[2.410921E-1,1.7931193E-2,4.235214E-2,1.4302172E-3,3.13603E-3,2.486226E-2,0E0,0E0,3.9408915E-4,2.0260224E-4,1.073806E-3,0E0,1.0130227E-2,0E0,0E0,0E0,0E0,0E0,0E0,0E0,0E0],"parents":[2147483647,0,0,1,1,2,2,3,3,4,4,5,5,8,8,9,9,10,10,12,12],"right_children":[2,4,6,8,10,12,-1,-1,14,16,18,-1,20,-1,-1,-1,-1,-1,-1,-1,-1],"split_conditions":[4.45E1,7.606407E-2,3.55E2,2.8730836E-2,5.4731324E-2,3.2E2,-1.5754922E-4,-5.2338257E-4,2.3619664E-1,8.947168E-2,1.271011E-1,5.978953E-4,3.284862E-2,-3.7214175E-4,-1.765442E-4,-9.142333E-5,-2.8145316E-4,4.266127E-5,-1.13066075E-4,9.716317E-4,2.0657694E-3],"split_indices":[4,9,0,27,25,0,0,0,30,9,21,0,22,0,0,0,0,0,0,0,0],"split_type":[0,0,0,0,0,0,0,0,0,0,0,0,0,0,0,0,0,0,0,0,0],"sum_hessian":[9.3E1,7.8E1,1.5E1,3.9E1,3.9E1,1.3E1,2E0,1.4E1,2.5E1,1E1,2.9E1,3E0,1E1,2.1E1,4E0,3E0,7E0,2.1E1,8E0,2E0,8E0],"tree_param":{"num_deleted":"0","num_feature":"31","num_nodes":"21","size_leaf_vector":"1"}},{"base_weights":[2.8932435E-3,-1.895314E-2,1.394129E-1,-3.9702438E-2,-5.635567E-3,1.2014899E-1,2.2342531E-1,-4.6127576E-2,-3.197499E-2,-1.2114045E-2,8.529613E-3,1.4189294E-1,2.6874809E-2,-2.1077445E-2,-6.235276E-3,2.7661843E-2,2.3571313E-3,8.367088E-2,1.585352E-1],"categories":[],"categories_nodes":[],"categories_segments":[],"categories_sizes":[],"default_left":[1,1,1,1,1,1,0,0,0,1,1,1,0,0,0,0,0,0,0],"id":32,"left_children":[1,3,5,7,9,11,-1,-1,-1,13,15,17,-1,-1,-1,-1,-1,-1,-1],"loss_changes":[2.6097354E-1,2.0328034E-2,1.4434591E-2,6.39271E-4,4.268126E-3,1.8651605E-2,0E0,0E0,0E0,1.4386657E-3,1.3920163E-3,4.660398E-3,0E0,0E0,0E0,0E0,0E0,0E0,0E0],"parents":[2147483647,0,0,1,1,2,2,3,3,4,4,5,5,9,9,10,10,11,11],"right_children":[2,4,6,8,10,12,-1,-1,-1,14,16,18,-1,-1,-1,-1,-1,-1,-1],"split_conditions":[4.55E1,6.3590504E-2,9.295292E-2,2.8730836E-2,1.0140243E-1,8.942317E-2,2.5658484E-3,-5.297357E-4,-3.6720536E-4,5.49707E-2,8.278145E-2,3.284862E-2,3.0863416E-4,-2.420564E-4,-7.16068E-5,3.1767256E-4,2.7069635E-5,9.6088834E-4,1.8206409E-3],"split_indices":[4,5,16,27,5,21,0,0,0,25,18,22,0,0,0,0,0,0,0],"split_type":[0,0,0,0,0,0,0,0,0,0,0,0,0,0,0,0,0,0,0],"sum_hessian":[8.7E1,7.5E1,1.2E1,2.9E1,4.6E1,1E1,2E0,1.5E1,1.4E1,3.2E1,1.4E1,8E0,2E0,1.2E1,2E1,3E0,1.1E1,2E0,6E0],"tree_param":{"num_deleted":"0","num_feature":"31","num_nodes":"19","size_leaf_vector":"1"}},{"base_weights":[-8.627002E-4,-1.9010607E-2,1.3445096E-1,-3.360889E-2,-5.9074594E-4,1.1204705E-1,2.2309549E-1,-4.0990744E-2,-2.2531966E-2,-3.4260391E-3,4.3053083E-2,1.3466103E-1,2.6577655E-2,-4.7655385E-2,-3.4855817E-2,-3.128605E-2,-1.3596573E-2,-1.155743E-2,2.9771284E-3,1.526685E-1,8.138264E-2],"categories":[],"categories_nodes":[],"categories_segments":[],"categories_sizes":[],"default_left":[1,1,1,1,1,1,0,1,1,1,0,1,0,0,0,0,0,0,0,0,0],"id":33,"left_children":[1,3,5,7,9,11,-1,13,15,17,-1,19,-1,-1,-1,-1,-1,-1,-1,-1,-1],"loss_changes":[2.3019867E-1,2.203547E-2,1.7105192E-2,3.1347424E-3,4.2491346E-3,1.5842639E-2,0E0,2.4934486E-4,1.0626046E-3,1.9048671E-3,0E0,3.7609637E-3,0E0,0E0,0E0,0E0,0E0,0E0,0E0,0E0,0E0],"parents":[2147483647,0,0,1,1,2,2,3,3,4,4,5,5,7,7,8,8,9,9,11,11],"right_children":[2,4,6,8,10,12,-1,14,16,18,-1,20,-1,-1,-1,-1,-1,-1,-1,-1,-1],"split_conditions":[1.5410593E-1,7.606407E-2,9.258749E-2,5.6588203E-2,4.45E1,8.942317E-2,2.5620605E-3,2.6744876E-2,4.0545546E-2,9.373291E-2,4.944278E-4,3.3862E-1,3.052216E-4,-5.472813E-4,-4.002892E-4,-3.5929348E-4,-1.5614499E-4,-1.3272719E-4,3.418977E-5,1.753267E-3,9.346099E-4],"split_indices":[5,5,24,5,4,21,0,28,24,12,0,6,0,0,0,0,0,0,0,0,0],"split_type":[0,0,0,0,0,0,0,0,0,0,0,0,0,0,0,0,0,0,0,0,0],"sum_hessian":[9.4E1,8.3E1,1.1E1,4.6E1,3.7E1,9E0,2E0,2.7E1,1.9E1,3.5E1,2E0,7E0,2E0,1.2E1,1.5E1,9E0,1E1,1.6E1,1.9E1,5E0,2E0],"tree_param":{"num_deleted":"0","num_feature":"31","num_nodes":"21","size_leaf_vector":"1"}},{"base_weights":[1.0458608E-3,-1.8289752E-2,1.2307245E-1,-3.306143E-2,-5.4312928E-5,1.4893585E-1,-1.5169272E-2,-4.051136E-2,-2.2280615E-2,-2.8308297E-3,4.257705E-2,1.24607675E-1,2.0618084E-1,-4.7670536E-2,-3.445758E-2,-3.0929813E-2,-1.3441628E-2,-1.101369E-2,3.6133025E-3,1.3665113E-1,8.048279E-2],"categories":[],"categories_nodes":[],"categories_segments":[],"categories_sizes":[],"default_left":[1,1,1,1,1,1,0,1,1,1,0,1,0,0,0,0,0,0,0,0,0],"id":34,"left_children":[1,3,5,7,9,11,-1,13,15,17,-1,19,-1,-1,-1,-1,-1,-1,-1,-1,-1],"loss_changes":[2.254311E-1,2.1816097E-2,4.811357E-2,2.995599E-3,4.0466567E-3,1.0517672E-2,0E0,2.7724355E-4,1.03408E-3,1.9181711E-3,0E0,1.5231222E-3,0E0,0E0,0E0,0E0,0E0,0E0,0E0,0E0,0E0],"parents":[2147483647,0,0,1,1,2,2,3,3,4,4,5,5,7,7,8,8,9,9,11,11],"right_children":[2,4,6,8,10,12,-1,14,16,18,-1,20,-1,-1,-1,-1,-1,-1,-1,-1,-1],"split_conditions":[1.5410593E-1,7.606407E-2,3.55E2,5.6588203E-2,4.45E1,8.4441274E-2,-1.742061E-4,2.6744876E-2,4.0545546E-2,9.328808E-2,4.8896094E-4,3.3862E-1,2.3678103E-3,-5.474553E-4,-3.957158E-4,-3.552024E-4,-1.5436558E-4,-1.264828E-4,4.1495685E-5,1.5693211E-3,9.242759E-4],"split_indices":[5,5,0,5,4,27,0,28,24,12,0,6,0,0,0,0,0,0,0,0,0],"split_type":[0,0,0,0,0,0,0,0,0,0,0,0,0,0,0,0,0,0,0,0,0],"sum_hessian":[9.5E1,8.2E1,1.3E1,4.5E1,3.7E1,1.1E1,2E0,2.6E1,1.9E1,3.5E1,2E0,8E0,3E0,1.1E1,1.5E1,9E0,1E1,1.6E1,1.9E1,6E0,2E0],"tree_param":{"num_deleted":"0","num_feature":"31","num_nodes":"21","size_leaf_vector":"1"}},{"base_weights":[7.65093E-4,-1.8395446E-2,1.2169453E-1,-3.3344775E-2,-0E0,1.472777E-1,-1.5001542E-2,-3.8933706E-2,-1.8762652E-2,-2.6861434E-3,4.2106275E-2,1.2321309E-1,2.0387247E-1,-4.998315E-2,-3.5342876E-2,-0E0,-2.207323E-2,-1.4945372E-2,1.2501385E-3,1.3510177E-1,7.959289E-2],"categories":[],"categories_nodes":[],"categories_segments":[],"categories_sizes":[],"default_left":[1,1,1,1,1,1,0,1,1,1,0,1,0,0,0,0,0,0,0,0,0],"id":35,"left_children":[1,3,5,7,9,11,-1,13,15,17,-1,19,-1,-1,-1,-1,-1,-1,-1,-1,-1],"loss_changes":[2.2138713E-1,2.2345904E-2,4.7072798E-2,3.1072386E-3,3.935952E-3,1.0254145E-2,0E0,3.819205E-4,7.9346495E-4,1.815194E-3,0E0,1.4599785E-3,0E0,0E0,0E0,0E0,0E0,0E0,0E0,0E0,0E0],"parents":[2147483647,0,0,1,1,2,2,3,3,4,4,5,5,7,7,8,8,9,9,11,11],"right_children":[2,4,6,8,10,12,-1,14,16,18,-1,20,-1,-1,-1,-1,-1,-1,-1,-1,-1],"split_conditions":[1.5410593E-1,7.606407E-2,3.55E2,6.3590504E-2,4.45E1,8.4441274E-2,-1.7227986E-4,3.6825955E-2,5.6873538E-2,8.260827E-2,4.835545E-4,3.3862E-1,2.3413007E-3,-5.740137E-4,-4.0588266E-4,-0E0,-2.5349212E-4,-1.7163479E-4,1.43567695E-5,1.551528E-3,9.1405615E-4],"split_indices":[5,5,0,5,4,27,0,11,8,12,0,6,0,0,0,0,0,0,0,0,0],"split_type":[0,0,0,0,0,0,0,0,0,0,0,0,0,0,0,0,0,0,0,0,0],"sum_hessian":[9.5E1,8.2E1,1.3E1,4.5E1,3.7E1,1.1E1,2E0,3.2E1,1.3E1,3.5E1,2E0,8E0,3E0,7E0,2.5E1,2E0,1.1E1,9E0,2.6E1,6E0,2E0],"tree_param":{"num_deleted":"0","num_feature":"31","num_nodes":"21","size_leaf_vector":"1"}},{"base_weights":[-2.2265818E-3,-1.7155653E-2,1.3838689E-1,-3.8230218E-2,-6.2413877E-3,1.701336E-1,6.9343224E-2,-4.5738794E-2,-3.0437406E-2,-9.871848E-3,3.8969547E-2,1.4169301E-1,2.1537331E-1,-1.1084347E-2,-3.2655716E-2,-2.4068853E-2,-2.885481E-3,2.0829512E-2,5.1404394E-2],"categories":[],"categories_nodes":[],"categories_segments":[],"categories_sizes":[],"default_left":[1,1,1,1,1,1,0,0,1,1,1,0,0,0,0,0,0,0,0],"id":36,"left_children":[1,3,5,7,9,11,-1,-1,13,15,17,-1,-1,-1,-1,-1,-1,-1,-1],"loss_changes":[1.987006E-1,1.9387344E-2,1.686798E-2,9.204149E-4,9.140952E-3,2.3049116E-3,0E0,0E0,2.3264065E-4,5.0208434E-3,1.9840617E-4,0E0,0E0,0E0,0E0,0E0,0E0,0E0,0E0],"parents":[2147483647,0,0,1,1,2,2,3,3,4,4,5,5,8,8,9,9,10,10],"right_children":[2,4,6,8,10,12,-1,-1,14,16,18,-1,-1,-1,-1,-1,-1,-1,-1],"split_conditions":[4.65E1,5.685719E-2,3.3862E-1,3.866548E-2,4.45E1,2.0175E3,7.963475E-4,-5.252709E-4,4.1472934E-2,5.49707E-2,2.0175E3,1.6272229E-3,2.4733779E-3,-1.2729423E-4,-3.750229E-4,-2.7641017E-4,-3.313728E-5,2.392091E-4,5.903354E-4],"split_indices":[4,6,6,22,4,3,0,0,11,25,3,0,0,0,0,0,0,0,0],"split_type":[0,0,0,0,0,0,0,0,0,0,0,0,0,0,0,0,0,0,0],"sum_hessian":[9.5E1,8.6E1,9E0,2.9E1,5.7E1,6E0,3E0,1.4E1,1.5E1,5.3E1,4E0,4E0,2E0,2E0,1.3E1,1.7E1,3.6E1,2E0,2E0],"tree_param":{"num_deleted":"0","num_feature":"31","num_nodes":"19","size_leaf_vector":"1"}},{"base_weights":[-1.2868711E-3,-1.801312E-2,1.1732774E-1,-3.736813E-2,-6.5703467E-3,1.4781457E-1,-1.6002383E-2,-4.8895862E-2,-3.3141512E-2,-1.2319908E-2,6.2533477E-3,1.1819621E-1,1.9972365E-1,-3.5822984E-2,-1.8456522E-2,-2.0679813E-2,-6.924455E-3,2.6646625E-2,2.8519816E-4,1.3429467E-1,7.794611E-2],"categories":[],"categories_nodes":[],"categories_segments":[],"categories_sizes":[],"default_left":[1,1,1,1,1,1,0,0,1,1,1,1,0,0,0,0,0,0,0,0,0],"id":37,"left_children":[1,3,5,7,9,11,-1,-1,13,15,17,19,-1,-1,-1,-1,-1,-1,-1,-1,-1],"loss_changes":[1.7799658E-1,1.7106237E-2,4.6375006E-2,5.6630373E-4,3.75181E-3,9.3215555E-3,0E0,0E0,3.3841468E-4,1.3270825E-3,1.5963828E-3,1.2528151E-3,0E0,0E0,0E0,0E0,0E0,0E0,0E0,0E0,0E0],"parents":[2147483647,0,0,1,1,2,2,3,3,4,4,5,5,8,8,9,9,10,10,11,11],"right_children":[2,4,6,8,10,12,-1,-1,14,16,18,20,-1,-1,-1,-1,-1,-1,-1,-1,-1],"split_conditions":[4.55E1,6.3590504E-2,3.545E2,3.6825955E-2,1.018606E-1,8.4441274E-2,-1.8377366E-4,-5.615271E-4,5.6588203E-2,5.4731324E-2,8.278145E-2,3.34E2,2.293655E-3,-4.113963E-4,-2.1195735E-4,-2.3748993E-4,-7.952144E-5,3.0601365E-4,3.2752564E-6,1.5422592E-3,8.951443E-4],"split_indices":[4,5,0,11,5,27,0,0,5,25,18,0,0,0,0,0,0,0,0,0,0],"split_type":[0,0,0,0,0,0,0,0,0,0,0,0,0,0,0,0,0,0,0,0,0],"sum_hessian":[9E1,7.9E1,1.1E1,2.9E1,5E1,9E0,2E0,7E0,2.2E1,3.5E1,1.5E1,6E0,3E0,1.8E1,4E0,1.3E1,2.2E1,3E0,1.2E1,4E0,2E0],"tree_param":{"num_deleted":"0","num_feature":"31","num_nodes":"21","size_leaf_vector":"1"}},{"base_weights":[9.994949E-5,-1.7858785E-2,1.17610216E-1,-3.2569103E-2,-1.8253248E-3,1.4261046E-1,-1.5825443E-2,-3.8779862E-2,-2.2981573E-2,-4.289975E-3,4.03516E-2,1.19220056E-1,1.9755277E-1,-4.5709155E-2,-3.2903854E-2,-2.9572703E-2,-1.5220937E-2,-1.2202863E-2,2.8049853E-3,7.703585E-2,1.3066867E-1],"categories":[],"categories_nodes":[],"categories_segments":[],"categories_sizes":[],"default_left":[1,1,1,1,1,1,0,1,1,1,0,1,0,0,0,0,0,0,0,0,0],"id":38,"left_children":[1,3,5,7,9,11,-1,13,15,17,-1,19,-1,-1,-1,-1,-1,-1,-1,-1,-1],"loss_changes":[2.0802006E-1,1.975744E-2,4.4919938E-2,2.0097718E-3,3.9646165E-3,9.6156E-3,0E0,2.5061145E-4,4.9390923E-4,2.2795857E-3,0E0,1.2870207E-3,0E0,0E0,0E0,0E0,0E0,0E0,0E0,0E0,0E0],"parents":[2147483647,0,0,1,1,2,2,3,3,4,4,5,5,7,7,8,8,9,9,11,11],"right_children":[2,4,6,8,10,12,-1,14,16,18,-1,20,-1,-1,-1,-1,-1,-1,-1,-1,-1],"split_conditions":[1.5410593E-1,7.606407E-2,3.55E2,5.6588203E-2,4.45E1,9.0262294E-2,-1.8174165E-4,2.6744876E-2,4.0545546E-2,9.373291E-2,4.6340356E-4,3.284862E-2,2.2687244E-3,-5.249305E-4,-3.7787258E-4,-3.3961717E-4,-1.7479942E-4,-1.4013943E-4,3.2212854E-5,8.846908E-4,1.5006177E-3],"split_indices":[5,5,0,5,4,24,0,28,24,12,0,22,0,0,0,0,0,0,0,0,0],"split_type":[0,0,0,0,0,0,0,0,0,0,0,0,0,0,0,0,0,0,0,0,0],"sum_hessian":[9.8E1,8.5E1,1.3E1,4.4E1,4.1E1,1.1E1,2E0,2.6E1,1.8E1,3.9E1,2E0,8E0,3E0,1.1E1,1.5E1,9E0,9E0,1.9E1,2E1,2E0,6E0],"tree_param":{"num_deleted":"0","num_feature":"31","num_nodes":"21","size_leaf_vector":"1"}},{"base_weights":[5.857556E-4,-1.724238E-2,1.209981E-1,-3.6273066E-2,-5.2290587E-3,1.4911552E-1,-1.565046E-2,-4.787363E-2,-3.237964E-2,-1.2466461E-2,8.295192E-3,7.6184064E-2,1.6535078E-1,-3.470624E-2,-1.2758177E-2,-2.1998486E-2,-7.879254E-3,3.4242682E-2,1.9496094E-3,1.4648874E-1,2.10128E-1],"categories":[],"categories_nodes":[],"categories_segments":[],"categories_sizes":[],"default_left":[1,1,1,1,1,1,0,0,1,1,1,0,1,0,0,0,0,0,0,0,0],"id":39,"left_children":[1,3,5,7,9,11,-1,-1,13,15,17,-1,19,-1,-1,-1,-1,-1,-1,-1,-1],"loss_changes":[2.0088993E-1,1.8154483E-2,4.7763497E-2,5.744025E-4,4.94645E-3,8.8235885E-3,0E0,0E0,6.4534694E-4,1.1687959E-3,2.4866955E-3,0E0,1.2911409E-3,0E0,0E0,0E0,0E0,0E0,0E0,0E0,0E0],"parents":[2147483647,0,0,1,1,2,2,3,3,4,4,5,5,8,8,9,9,10,10,12,12],"right_children":[2,4,6,8,10,12,-1,-1,14,16,18,-1,20,-1,-1,-1,-1,-1,-1,-1,-1],"split_conditions":[4.65E1,6.3590504E-2,3.55E2,3.6825955E-2,1.0140243E-1,3.9408397E-2,-1.7973213E-4,-5.4978766E-4,5.6588203E-2,4.8667878E-2,8.4817655E-2,8.749087E-4,8.554232E-2,-3.9857143E-4,-1.4651673E-4,-2.5263376E-4,-9.048649E-5,3.9324787E-4,2.2389593E-5,1.6822977E-3,2.41314E-3],"split_indices":[4,5,0,11,5,24,0,0,5,25,12,0,15,0,0,0,0,0,0,0,0],"split_type":[0,0,0,0,0,0,0,0,0,0,0,0,0,0,0,0,0,0,0,0,0],"sum_hessian":[9.3E1,8.1E1,1.2E1,3.1E1,5E1,1E1,2E0,7E0,2.4E1,3.3E1,1.7E1,2E0,8E0,2.1E1,3E0,1E1,2.3E1,3E0,1.4E1,6E0,2E0],"tree_param":{"num_deleted":"0","num_feature":"31","num_nodes":"21","size_leaf_vector":"1"}},{"base_weights":[1.4259161E-3,-1.6565947E-2,1.1501644E-1,-3.1011347E-2,-3.8291732E-4,1.3948312E-1,-1.5477415E-2,-3.8038872E-2,-2.0641007E-2,-2.8565002E-3,3.9526813E-2,1.1650934E-1,1.9341035E-1,-4.4273462E-2,-3.2296177E-2,-2.4607768E-2,-4.3859305E-3,-1.001283E-2,2.801189E-3,1.278626E-1,7.4704915E-2],"categories":[],"categories_nodes":[],"categories_segments":[],"categories_sizes":[],"default_left":[1,1,1,1,1,1,0,1,1,1,0,1,0,0,0,0,0,0,0,0,0],"id":40,"left_children":[1,3,5,7,9,11,-1,13,15,17,-1,19,-1,-1,-1,-1,-1,-1,-1,-1,-1],"loss_changes":[1.9532745E-1,1.8908776E-2,4.301548E-2,2.5599673E-3,3.5422554E-3,9.242967E-3,0E0,1.10473484E-4,9.009694E-4,1.567115E-3,0E0,1.3048351E-3,0E0,0E0,0E0,0E0,0E0,0E0,0E0,0E0,0E0],"parents":[2147483647,0,0,1,1,2,2,3,3,4,4,5,5,7,7,8,8,9,9,11,11],"right_children":[2,4,6,8,10,12,-1,14,16,18,-1,20,-1,-1,-1,-1,-1,-1,-1,-1,-1],"split_conditions":[1.5410593E-1,7.606407E-2,3.55E2,5.6588203E-2,4.45E1,8.4441274E-2,-1.7774485E-4,2.6744876E-2,5.971293E-2,9.373291E-2,4.5393157E-4,3.3862E-1,2.2211522E-3,-5.084428E-4,-3.7089392E-4,-2.8259913E-4,-5.0368653E-5,-1.1498877E-4,3.2169257E-5,1.4683924E-3,8.5792196E-4],"split_indices":[5,5,0,5,4,27,0,28,23,12,0,6,0,0,0,0,0,0,0,0,0],"split_type":[0,0,0,0,0,0,0,0,0,0,0,0,0,0,0,0,0,0,0,0,0],"sum_hessian":[9.5E1,8.2E1,1.3E1,4.3E1,3.9E1,1.1E1,2E0,2.5E1,1.8E1,3.7E1,2E0,8E0,3E0,1.1E1,1.4E1,1.4E1,4E0,1.7E1,2E1,6E0,2E0],"tree_param":{"num_deleted":"0","num_feature":"31","num_nodes":"21","size_leaf_vector":"1"}},{"base_weights":[-3.1781834E-4,-1.6965842E-2,1.10714E-1,-3.0436601E-2,-0E0,1.3671942E-1,-1.5306278E-2,-3.7212342E-2,-2.0587983E-2,-2.4868487E-3,3.9089765E-2,1.1024335E-1,1.9130518E-1,-4.3616537E-2,-3.0885788E-2,-2.8674895E-2,-1.2268462E-2,-1.1224207E-2,3.9651915E-3,1.21702395E-1,7.387891E-2],"categories":[],"categories_nodes":[],"categories_segments":[],"categories_sizes":[],"default_left":[1,1,1,1,1,1,0,1,1,1,0,1,0,0,0,0,0,0,0,0,0],"id":41,"left_children":[1,3,5,7,9,11,-1,13,15,17,-1,19,-1,-1,-1,-1,-1,-1,-1,-1,-1],"loss_changes":[1.7136598E-1,1.8421713E-2,4.0814757E-2,2.4379194E-3,3.3848241E-3,1.0268584E-2,0E0,2.9385462E-4,8.943705E-4,1.9886747E-3,0E0,5.254373E-4,0E0,0E0,0E0,0E0,0E0,0E0,0E0,0E0,0E0],"parents":[2147483647,0,0,1,1,2,2,3,3,4,4,5,5,7,7,8,8,9,9,11,11],"right_children":[2,4,6,8,10,12,-1,14,16,18,-1,20,-1,-1,-1,-1,-1,-1,-1,-1,-1],"split_conditions":[1.5410593E-1,7.606407E-2,5.15E1,5.6588203E-2,4.45E1,9.0262294E-2,-1.757795E-4,2.6744876E-2,4.0545546E-2,9.373291E-2,4.4891247E-4,3.3862E-1,2.196976E-3,-5.008986E-4,-3.5469682E-4,-3.293066E-4,-1.4089278E-4,-1.289004E-4,4.5536828E-5,1.3976478E-3,8.48436E-4],"split_indices":[5,5,4,5,4,24,0,28,24,12,0,6,0,0,0,0,0,0,0,0,0],"split_type":[0,0,0,0,0,0,0,0,0,0,0,0,0,0,0,0,0,0,0,0,0],"sum_hessian":[9.3E1,8.1E1,1.2E1,4.5E1,3.6E1,1E1,2E0,2.6E1,1.9E1,3.4E1,2E0,7E0,3E0,1.2E1,1.4E1,9E0,1E1,1.5E1,1.9E1,5E0,2E0],"tree_param":{"num_deleted":"0","num_feature":"31","num_nodes":"21","size_leaf_vector":"1"}},{"base_weights":[-1.0479038E-3,-1.8827057E-2,9.946501E-2,-3.135734E-2,-3.9914115E-3,1.1927198E-1,-1.51370345E-2,-4.0910408E-2,-2.5269195E-2,-1.786199E-2,1.8901595E-4,4.4364322E-2,1.4267716E-1,-1.4196031E-2,-3.1171462E-2,1.3610989E-2,-1.7173134E-3,7.3140524E-2,1.602803E-1],"categories":[],"categories_nodes":[],"categories_segments":[],"categories_sizes":[],"default_left":[1,1,1,1,1,1,0,0,1,0,1,0,1,0,0,0,0,0,0],"id":42,"left_children":[1,3,5,7,9,11,-1,-1,13,-1,15,-1,17,-1,-1,-1,-1,-1,-1],"loss_changes":[1.6755113E-1,1.4563786E-2,3.3014297E-2,1.8404797E-3,2.3064185E-3,1.9031659E-2,0E0,0E0,1.3344306E-3,0E0,8.2535413E-4,0E0,8.141875E-3,0E0,0E0,0E0,0E0,0E0,0E0],"parents":[2147483647,0,0,1,1,2,2,3,3,4,4,5,5,8,8,10,10,12,12],"right_children":[2,4,6,8,10,12,-1,-1,14,-1,16,-1,18,-1,-1,-1,-1,-1,-1],"split_conditions":[4.45E1,7.75837E-2,3.55E2,3.2450404E-2,5.412394E-2,3.2E2,-1.7383587E-4,-4.6982098E-4,6.2127583E-2,-2.0512966E-4,3.85E1,5.0948624E-4,3.284862E-2,-1.6302925E-4,-3.5797752E-4,1.5631055E-4,-1.9721874E-5,8.399563E-4,1.840682E-3],"split_indices":[4,8,0,24,26,0,0,0,19,0,0,0,22,0,0,0,0,0,0],"split_type":[0,0,0,0,0,0,0,0,0,0,0,0,0,0,0,0,0,0,0],"sum_hessian":[9.4E1,8E1,1.4E1,4.3E1,3.7E1,1.2E1,2E0,1.6E1,2.7E1,9E0,2.8E1,3E0,9E0,1E1,1.7E1,4E0,2.4E1,2E0,7E0],"tree_param":{"num_deleted":"0","num_feature":"31","num_nodes":"19","size_leaf_vector":"1"}},{"base_weights":[-1.3024812E-3,-1.641023E-2,9.814452E-2,-3.4034953E-2,-5.6226663E-3,1.2158593E-1,-1.4969664E-2,-4.6423778E-2,-3.043155E-2,-1.1825701E-2,8.251177E-3,7.233181E-2,1.3199534E-1,-3.258973E-2,-1.7059376E-2,-2.112903E-2,-7.6982137E-3,2.8699033E-2,-0E0,1.478037E-1,7.658101E-2],"categories":[],"categories_nodes":[],"categories_segments":[],"categories_sizes":[],"default_left":[1,1,1,1,1,1,0,0,1,1,1,0,1,0,0,0,0,0,0,0,0],"id":43,"left_children":[1,3,5,7,9,11,-1,-1,13,15,17,-1,19,-1,-1,-1,-1,-1,-1,-1,-1],"loss_changes":[1.377406E-1,1.485955E-2,3.3106677E-2,5.5412576E-4,4.348784E-3,2.6227087E-3,0E0,0E0,2.1299161E-4,1.0795365E-3,2.3316843E-3,0E0,4.2176098E-3,0E0,0E0,0E0,0E0,0E0,0E0,0E0,0E0],"parents":[2147483647,0,0,1,1,2,2,3,3,4,4,5,5,8,8,9,9,10,10,12,12],"right_children":[2,4,6,8,10,12,-1,-1,14,16,18,-1,20,-1,-1,-1,-1,-1,-1,-1,-1],"split_conditions":[1.5410593E-1,6.3590504E-2,3.55E2,3.6825955E-2,1.018606E-1,3.284862E-2,-1.7191377E-4,-5.331373E-4,5.6588203E-2,4.8667878E-2,8.278145E-2,8.3066884E-4,9.258749E-2,-3.7426513E-4,-1.9591232E-4,-2.4264882E-4,-8.840739E-5,3.295838E-4,-0E0,1.6973988E-3,8.794673E-4],"split_indices":[5,5,0,11,5,22,0,0,5,25,18,0,23,0,0,0,0,0,0,0,0],"split_type":[0,0,0,0,0,0,0,0,0,0,0,0,0,0,0,0,0,0,0,0,0],"sum_hessian":[9.2E1,8E1,1.2E1,3E1,5E1,1E1,2E0,6E0,2.4E1,3.5E1,1.5E1,2E0,8E0,2E1,4E0,1E1,2.5E1,4E0,1.1E1,6E0,2E0],"tree_param":{"num_deleted":"0","num_feature":"31","num_nodes":"21","size_leaf_vector":"1"}},{"base_weights":[-9.875302E-4,-1.6826851E-2,1.0986558E-1,-3.46766E-2,-5.8482997E-3,1.355991E-1,-1.48041425E-2,-3.5883367E-2,-1.1657955E-2,-1.2622394E-2,7.971382E-3,1.110792E-1,1.857141E-1,-4.546764E-2,-3.2440882E-2,-2.1435283E-2,-8.338106E-3,3.2812852E-2,1.8693497E-3,1.240665E-1,7.094829E-2],"categories":[],"categories_nodes":[],"categories_segments":[],"categories_sizes":[],"default_left":[1,1,1,1,1,1,0,1,0,1,1,1,0,0,0,0,0,0,0,0,0],"id":44,"left_children":[1,3,5,7,9,11,-1,13,-1,15,17,19,-1,-1,-1,-1,-1,-1,-1,-1,-1],"loss_changes":[1.697723E-1,1.6298193E-2,3.996913E-2,4.3844804E-4,5.017762E-3,8.165523E-3,0E0,1.896657E-4,0E0,1.0851528E-3,2.2772895E-3,1.2845397E-3,0E0,0E0,0E0,0E0,0E0,0E0,0E0,0E0,0E0],"parents":[2147483647,0,0,1,1,2,2,3,3,4,4,5,5,7,7,9,9,10,10,11,11],"right_children":[2,4,6,8,10,12,-1,14,-1,16,18,20,-1,-1,-1,-1,-1,-1,-1,-1,-1],"split_conditions":[1.5410593E-1,6.3590504E-2,3.545E2,2.541704E-1,1.0140243E-1,9.0262294E-2,-1.7001289E-4,3.6825955E-2,-1.3388162E-4,4.8667878E-2,8.4817655E-2,3.3862E-1,2.1327673E-3,-5.221569E-4,-3.7255575E-4,-2.4616587E-4,-9.5756004E-5,3.768275E-4,2.146788E-5,1.4247975E-3,8.147803E-4],"split_indices":[5,5,0,30,5,24,0,11,0,25,12,6,0,0,0,0,0,0,0,0,0],"split_type":[0,0,0,0,0,0,0,0,0,0,0,0,0,0,0,0,0,0,0,0,0],"sum_hessian":[9.7E1,8.5E1,1.2E1,3.2E1,5.3E1,1E1,2E0,3E1,2E0,3.6E1,1.7E1,7E0,3E0,7E0,2.3E1,1.1E1,2.5E1,3E0,1.4E1,5E0,2E0],"tree_param":{"num_deleted":"0","num_feature":"31","num_nodes":"21","size_leaf_vector":"1"}},{"base_weights":[5.4032553E-4,-1.7034166E-2,1.08828716E-1,-3.493339E-2,-6.08077E-3,1.3202125E-1,-1.4640451E-2,-3.9857518E-2,-2.9243913E-2,-1.1598522E-2,8.923338E-3,1.09836616E-1,1.840645E-1,-1.2566216E-2,-3.1044306E-2,-1.8265039E-2,-6.60473E-3,2.9736532E-2,4.16005E-3,1.20546095E-1,7.0163816E-2],"categories":[],"categories_nodes":[],"categories_segments":[],"categories_sizes":[],"default_left":[1,1,1,1,1,1,0,0,1,1,1,1,0,1,1,0,0,0,0,0,0],"id":45,"left_children":[1,3,5,7,9,11,-1,-1,-1,15,17,19,-1,-1,-1,-1,-1,-1,-1,-1,-1],"loss_changes":[1.7809129E-1,1.5320741E-2,3.8634583E-2,1.4170259E-4,4.17749E-3,8.629188E-3,0E0,0E0,3.7044287E-5,1.005169E-3,9.872561E-4,1.092419E-3,0E0,0E0,0E0,0E0,0E0,0E0,0E0,0E0,0E0],"parents":[2147483647,0,0,1,1,2,2,3,3,4,4,5,5,8,8,9,9,10,10,11,11],"right_children":[2,4,6,8,10,12,-1,-1,-1,16,18,20,-1,-1,-1,-1,-1,-1,-1,-1,-1],"split_conditions":[1.5410593E-1,5.997178E-2,3.55E2,3.866548E-2,1.0140243E-1,8.4441274E-2,-1.6813305E-4,-4.5772945E-4,-3.358413E-4,5.4731324E-2,8.570964E-2,3.3862E-1,2.113823E-3,-1.4431223E-4,-3.5651727E-4,-2.0975832E-4,-7.584967E-5,3.4149858E-4,4.7774607E-5,1.3843686E-3,8.057713E-4],"split_indices":[5,5,0,22,5,27,0,0,24,26,9,6,0,2147483647,2147483647,0,0,0,0,0,0],"split_type":[0,0,0,0,0,0,0,0,0,0,0,0,0,0,0,0,0,0,0,0,0],"sum_hessian":[9.3E1,8E1,1.3E1,3E1,5E1,1.1E1,2E0,1.5E1,1.5E1,3.7E1,1.3E1,8E0,3E0,2E0,1.3E1,1.5E1,2.2E1,2E0,1.1E1,6E0,2E0],"tree_param":{"num_deleted":"2","num_feature":"31","num_nodes":"21","size_leaf_vector":"1"}},{"base_weights":[3.6941678E-4,-1.5980601E-2,1.12214014E-1,-3.275055E-2,-5.579906E-3,1.3834652E-1,-1.4478575E-2,-3.9219845E-2,-2.2938265E-2,-8.799468E-3,4.198789E-2,6.939956E-2,1.5366009E-1,-0E0,-2.6599308E-2,-2.084571E-2,-3.0207406E-3,1.971045E-1,1.3540223E-1],"categories":[],"categories_nodes":[],"categories_segments":[],"categories_sizes":[],"default_left":[1,1,1,1,1,1,0,0,1,1,0,0,1,0,0,0,0,0,0],"id":46,"left_children":[1,3,5,7,9,11,-1,-1,13,15,-1,-1,17,-1,-1,-1,-1,-1,-1],"loss_changes":[1.7302473E-1,1.396287E-2,4.123512E-2,1.353737E-3,7.557504E-3,7.843986E-3,0E0,0E0,9.566364E-4,3.1309E-3,0E0,0E0,1.4054477E-3,0E0,0E0,0E0,0E0,0E0,0E0],"parents":[2147483647,0,0,1,1,2,2,3,3,4,4,5,5,8,8,9,9,12,12],"right_children":[2,4,6,8,10,12,-1,-1,14,16,-1,-1,18,-1,-1,-1,-1,-1,-1],"split_conditions":[4.65E1,6.3590504E-2,3.55E2,3.5552718E-2,4.45E1,3.284862E-2,-1.6627404E-4,-4.504063E-4,3.2575224E-2,5.4731324E-2,4.8219494E-4,7.969945E-4,3.27E2,-0E0,-3.0547028E-4,-2.3939511E-4,-3.4690616E-5,2.2635763E-3,1.5549787E-3],"split_indices":[4,6,0,28,4,22,0,0,30,25,0,0,0,0,0,0,0,0,0],"split_type":[0,0,0,0,0,0,0,0,0,0,0,0,0,0,0,0,0,0,0],"sum_hessian":[9.4E1,8.2E1,1.2E1,3.1E1,5.1E1,1E1,2E0,1.8E1,1.3E1,4.8E1,3E0,2E0,8E0,2E0,1.1E1,1.5E1,3.3E1,2E0,6E0],"tree_param":{"num_deleted":"0","num_feature":"31","num_nodes":"19","size_leaf_vector":"1"}},{"base_weights":[2.7453544E-4,-1.6737001E-2,1.06418155E-1,-3.379867E-2,-5.9464076E-3,1.2911509E-1,-1.4318485E-2,-3.503093E-2,-1.1036755E-2,-1.1482089E-2,5.2656997E-3,1.0730142E-1,1.8025753E-1,-4.0209487E-2,-2.8664261E-2,-1.8974159E-2,-6.942978E-3,1.0495011E-2,-8.155635E-3,1.1782877E-1,6.8255775E-2],"categories":[],"categories_nodes":[],"categories_segments":[],"categories_sizes":[],"default_left":[1,1,1,1,1,1,0,1,0,1,1,1,0,0,0,0,0,0,0,0,0],"id":47,"left_children":[1,3,5,7,9,11,-1,13,-1,15,17,19,-1,-1,-1,-1,-1,-1,-1,-1,-1],"loss_changes":[1.7080253E-1,1.45598855E-2,3.6993966E-2,4.345514E-4,3.1677536E-3,8.321345E-3,0E0,2.607666E-4,0E0,9.1958325E-4,1.1556657E-3,1.0537058E-3,0E0,0E0,0E0,0E0,0E0,0E0,0E0,0E0,0E0],"parents":[2147483647,0,0,1,1,2,2,3,3,4,4,5,5,7,7,9,9,10,10,11,11],"right_children":[2,4,6,8,10,12,-1,14,-1,16,18,20,-1,-1,-1,-1,-1,-1,-1,-1,-1],"split_conditions":[1.5410593E-1,6.3590504E-2,3.55E2,2.541704E-1,1.0140243E-1,8.4441274E-2,-1.6443554E-4,5.0216313E-2,-1.2674768E-4,5.4731324E-2,1.22339174E-1,3.3862E-1,2.0701033E-3,-4.617715E-4,-3.291845E-4,-2.1790196E-4,-7.9734156E-5,1.2052621E-4,-9.366048E-5,1.3531625E-3,7.838591E-4],"split_indices":[5,5,0,30,5,27,0,13,0,25,18,6,0,0,0,0,0,0,0,0,0],"split_type":[0,0,0,0,0,0,0,0,0,0,0,0,0,0,0,0,0,0,0,0,0],"sum_hessian":[9.4E1,8.1E1,1.3E1,3.1E1,5E1,1.1E1,2E0,2.9E1,2E0,3.4E1,1.6E1,8E0,3E0,1.5E1,1.4E1,1.2E1,2.2E1,1.2E1,4E0,6E0,2E0],"tree_param":{"num_deleted":"0","num_feature":"31","num_nodes":"21","size_leaf_vector":"1"}},{"base_weights":[-4.1807198E-4,-1.571994E-2,1.0157737E-1,-3.287521E-2,-4.3022516E-3,1.2553322E-1,-1.41601665E-2,-4.3631267E-2,-2.9385846E-2,-1.077931E-2,8.494421E-3,9.9996515E-2,1.782394E-1,-3.1491227E-2,-1.5777105E-2,-1.9230282E-2,-6.669819E-3,3.169294E-2,2.3092937E-3,1.2470588E-1,6.1874066E-2],"categories":[],"categories_nodes":[],"categories_segments":[],"categories_sizes":[],"default_left":[1,1,1,1,1,1,0,0,1,1,1,1,0,0,0,0,0,0,0,0,0],"id":48,"left_children":[1,3,5,7,9,11,-1,-1,13,15,17,19,-1,-1,-1,-1,-1,-1,-1,-1,-1],"loss_changes":[1.4463198E-1,1.5541298E-2,3.460723E-2,4.5936927E-4,4.0950314E-3,9.726673E-3,0E0,0E0,2.6224926E-4,9.098721E-4,2.0006138E-3,4.42107E-3,0E0,0E0,0E0,0E0,0E0,0E0,0E0,0E0,0E0],"parents":[2147483647,0,0,1,1,2,2,3,3,4,4,5,5,8,8,9,9,10,10,11,11],"right_children":[2,4,6,8,10,12,-1,-1,14,16,18,20,-1,-1,-1,-1,-1,-1,-1,-1,-1],"split_conditions":[1.5410593E-1,6.3590504E-2,3.55E2,3.6825955E-2,1.0140243E-1,8.4441274E-2,-1.6261738E-4,-5.010677E-4,5.6588203E-2,5.0019678E-2,8.4817655E-2,4.819961E-2,2.0469269E-3,-3.6164976E-4,-1.8118654E-4,-2.2084331E-4,-7.6597156E-5,3.6396628E-4,2.652026E-5,1.4321402E-3,7.1057066E-4],"split_indices":[5,5,0,11,5,27,0,0,5,25,12,18,0,0,0,0,0,0,0,0,0],"split_type":[0,0,0,0,0,0,0,0,0,0,0,0,0,0,0,0,0,0,0,0,0],"sum_hessian":[9.3E1,8.1E1,1.2E1,3.2E1,4.9E1,1E1,2E0,7E0,2.5E1,3.3E1,1.6E1,7E0,3E0,2.1E1,4E0,1E1,2.3E1,3E0,1.3E1,4E0,3E0],"tree_param":{"num_deleted":"0","num_feature":"31","num_nodes":"21","size_leaf_vector":"1"}},{"base_weights":[-1.0864089E-3,-1.6837105E-2,1.0131806E-1,-2.767835E-2,-2.1987576E-3,1.2519018E-1,-1.4003599E-2,-3.3395674E-2,-1.9287685E-2,-4.957456E-3,3.622735E-2,1.00169346E-1,1.7671855E-1,-2.2896225E-2,-3.4100148E-3,-1.2747202E-2,6.4079225E-4,6.6571936E-2,1.1064961E-1],"categories":[],"categories_nodes":[],"categories_segments":[],"categories_sizes":[],"default_left":[1,1,1,1,1,1,0,0,1,1,0,1,0,0,0,0,0,0,0],"id":49,"left_children":[1,3,5,7,9,11,-1,-1,13,15,-1,17,-1,-1,-1,-1,-1,-1,-1],"loss_changes":[1.4628728E-1,1.22805685E-2,3.4366734E-2,1.6469546E-3,3.3498362E-3,9.176999E-3,0E0,0E0,8.544475E-4,1.5065109E-3,0E0,3.5616755E-4,0E0,0E0,0E0,0E0,0E0,0E0,0E0],"parents":[2147483647,0,0,1,1,2,2,3,3,4,4,5,5,8,8,9,9,11,11],"right_children":[2,4,6,8,10,12,-1,-1,14,16,-1,18,-1,-1,-1,-1,-1,-1,-1],"split_conditions":[1.5410593E-1,7.9319224E-2,5.15E1,5.6588203E-2,4.45E1,9.0262294E-2,-1.6081934E-4,-3.835207E-4,5.971293E-2,9.1394246E-2,4.1604007E-4,3.284862E-2,2.029461E-3,-2.6294353E-4,-3.91611E-5,-1.463907E-4,7.35895E-6,7.6452165E-4,1.270716E-3],"split_indices":[5,5,4,5,4,24,0,0,23,12,0,22,0,0,0,0,0,0,0],"split_type":[0,0,0,0,0,0,0,0,0,0,0,0,0,0,0,0,0,0,0],"sum_hessian":[9.1E1,7.9E1,1.2E1,4.5E1,3.4E1,1E1,2E0,2.6E1,1.9E1,3.2E1,2E0,7E0,3E0,1.5E1,4E0,1.4E1,1.8E1,2E0,5E0],"tree_param":{"num_deleted":"0","num_feature":"31","num_nodes":"19","size_leaf_vector":"1"}},{"base_weights":[2.624484E-4,-1.5224217E-2,1.07522674E-1,-3.2744836E-2,-5.6181797E-3,1.3259429E-1,-1.3848759E-2,-3.952927E-2,-2.6519148E-2,-8.903138E-3,3.266621E-2,6.5835856E-2,1.4740004E-1,-8.291535E-3,-2.8435308E-2,-2.076548E-2,-2.4907428E-3,1.900136E-1,1.2950575E-1],"categories":[],"categories_nodes":[],"categories_segments":[],"categories_sizes":[],"default_left":[1,1,1,1,1,1,0,0,1,1,0,0,1,0,0,0,0,0,0],"id":50,"left_children":[1,3,5,7,9,11,-1,-1,13,15,-1,-1,17,-1,-1,-1,-1,-1,-1],"loss_changes":[1.5887557E-1,1.3628859E-2,3.7942454E-2,5.632788E-4,6.6132955E-3,7.3256195E-3,0E0,0E0,2.1863729E-4,3.5995897E-3,0E0,0E0,1.4333427E-3,0E0,0E0,0E0,0E0,0E0,0E0],"parents":[2147483647,0,0,1,1,2,2,3,3,4,4,5,5,8,8,9,9,12,12],"right_children":[2,4,6,8,10,12,-1,-1,14,16,-1,-1,18,-1,-1,-1,-1,-1,-1],"split_conditions":[4.65E1,5.685719E-2,3.55E2,3.8670577E-2,4.45E1,3.9408397E-2,-1.5904114E-4,-4.5395983E-4,4.1472934E-2,5.4731324E-2,3.7514343E-4,7.560684E-4,3.27E2,-9.522118E-5,-3.2655516E-4,-2.3847375E-4,-2.8604047E-5,2.1821435E-3,1.4872627E-3],"split_indices":[4,6,0,21,4,24,0,0,11,25,0,0,0,0,0,0,0,0,0],"split_type":[0,0,0,0,0,0,0,0,0,0,0,0,0,0,0,0,0,0,0],"sum_hessian":[9.5E1,8.3E1,1.2E1,2.9E1,5.4E1,1E1,2E0,1.3E1,1.6E1,5E1,4E0,2E0,8E0,2E0,1.4E1,1.7E1,3.3E1,2E0,6E0],"tree_param":{"num_deleted":"0","num_feature":"31","num_nodes":"19","size_leaf_vector":"1"}},{"base_weights":[-3.1801075E-4,-1.4673972E-2,1.2851845E-1,-3.2968815E-2,-4.9907304E-3,1.5027574E-1,4.535517E-2,-3.869266E-2,-2.7248962E-2,-8.195605E-3,3.229818E-2,1.8791263E-1,1.308494E-1,-1.941861E-2,-3.5538261E-3],"categories":[],"categories_nodes":[],"categories_segments":[],"categories_sizes":[],"default_left":[1,1,1,1,1,1,0,0,0,1,0,0,0,0,0],"id":51,"left_children":[1,3,5,7,9,11,-1,-1,-1,13,-1,-1,-1,-1,-1],"loss_changes":[1.6759317E-1,1.4191983E-2,1.4168441E-2,2.548322E-4,6.2699504E-3,4.5681E-4,0E0,0E0,0E0,2.4003452E-3,0E0,0E0,0E0,0E0,0E0],"parents":[2147483647,0,0,1,1,2,2,3,3,4,4,5,5,9,9],"right_children":[2,4,6,8,10,12,-1,-1,-1,14,-1,-1,-1,-1,-1],"split_conditions":[4.65E1,5.997178E-2,3.6724144E-1,5.0216313E-2,4.45E1,3.27E2,5.2086526E-4,-4.4435207E-4,-3.12931E-4,5.4731324E-2,3.7091694E-4,2.1580155E-3,1.5026933E-3,-2.230061E-4,-4.0812647E-5],"split_indices":[4,5,6,13,4,0,0,0,0,25,0,0,0,0,0],"split_type":[0,0,0,0,0,0,0,0,0,0,0,0,0,0,0],"sum_hessian":[9.1E1,8.2E1,9E0,2.8E1,5.4E1,7E0,2E0,1.3E1,1.5E1,5E1,4E0,2E0,5E0,1.4E1,3.6E1],"tree_param":{"num_deleted":"0","num_feature":"31","num_nodes":"15","size_leaf_vector":"1"}},{"base_weights":[1.9752535E-3,-1.4414378E-2,1.0049322E-1,-3.1392563E-2,-4.152332E-3,1.2218629E-1,-1.4669781E-2,-3.2616638E-2,-1.0013317E-2,-1.0125103E-2,7.6061026E-3,1.0117889E-1,1.7138639E-1,-1.4039482E-2,-3.370245E-2,-1.8380499E-2,-5.547101E-3,2.8780815E-3,3.5108473E-2,6.3661106E-2,1.1126184E-1],"categories":[],"categories_nodes":[],"categories_segments":[],"categories_sizes":[],"default_left":[1,1,1,1,1,1,0,1,0,1,1,1,0,0,0,0,0,0,0,0,0],"id":52,"left_children":[1,3,5,7,9,11,-1,13,-1,15,17,19,-1,-1,-1,-1,-1,-1,-1,-1,-1],"loss_changes":[1.479329E-1,1.3279175E-2,3.3759072E-2,3.588479E-4,3.4749364E-3,7.699743E-3,0E0,8.7574124E-5,0E0,1.0306914E-3,1.7469353E-3,9.619221E-4,0E0,0E0,0E0,0E0,0E0,0E0,0E0,0E0,0E0],"parents":[2147483647,0,0,1,1,2,2,3,3,4,4,5,5,7,7,9,9,10,10,11,11],"right_children":[2,4,6,8,10,12,-1,14,-1,16,18,20,-1,-1,-1,-1,-1,-1,-1,-1,-1],"split_conditions":[1.5410593E-1,6.3590504E-2,3.55E2,1.8645373E-1,1.0140243E-1,9.0262294E-2,-1.6846987E-4,5.7E1,-1.14994364E-4,4.8667878E-2,4.45E1,3.284862E-2,1.968226E-3,-1.6123142E-4,-3.8704378E-4,-2.1108428E-4,-6.37037E-5,3.30523E-5,4.0319073E-4,7.310933E-4,1.2777469E-3],"split_indices":[5,5,0,29,5,24,0,0,0,21,4,22,0,0,0,0,0,0,0,0,0],"split_type":[0,0,0,0,0,0,0,0,0,0,0,0,0,0,0,0,0,0,0,0,0],"sum_hessian":[9.1E1,7.8E1,1.3E1,2.9E1,4.9E1,1.1E1,2E0,2.7E1,2E0,3.3E1,1.6E1,8E0,3E0,2E0,2.5E1,1.1E1,2.2E1,1.4E1,2E0,2E0,6E0],"tree_param":{"num_deleted":"0","num_feature":"31","num_nodes":"21","size_leaf_vector":"1"}},{"base_weights":[8.6760236E-4,-1.4911923E-2,9.9369414E-2,-2.6456412E-2,-1.5890786E-3,1.2082915E-1,-1.4507574E-2,-3.2163773E-2,-1.7936906E-2,-3.921339E-3,3.4720276E-2,9.9890284E-2,1.6988346E-1,-4.362193E-2,-2.8702075E-2,-2.1417366E-2,-3.4120888E-3,-1.8304192E-2,-7.1121805E-4,6.29572E-2,1.0978975E-1],"categories":[],"categories_nodes":[],"categories_segments":[],"categories_sizes":[],"default_left":[1,1,1,1,1,1,0,1,1,1,0,1,0,0,0,0,0,0,0,0,0],"id":53,"left_children":[1,3,5,7,9,11,-1,13,15,17,-1,19,-1,-1,-1,-1,-1,-1,-1,-1,-1],"loss_changes":[1.4708652E-1,1.2218943E-2,3.3033162E-2,1.6071089E-3,2.9627385E-3,7.681936E-3,0E0,2.5857985E-4,6.8871444E-4,1.4966046E-3,0E0,8.920133E-4,0E0,0E0,0E0,0E0,0E0,0E0,0E0,0E0,0E0],"parents":[2147483647,0,0,1,1,2,2,3,3,4,4,5,5,7,7,8,8,9,9,11,11],"right_children":[2,4,6,8,10,12,-1,14,16,18,-1,20,-1,-1,-1,-1,-1,-1,-1,-1,-1],"split_conditions":[1.5410593E-1,7.606407E-2,3.55E2,5.6588203E-2,4.45E1,8.39266E-2,-1.6660706E-4,3.6825955E-2,5.971293E-2,7.75837E-2,3.9873263E-4,3.284862E-2,1.950966E-3,-5.009605E-4,-3.2961875E-4,-2.459601E-4,-3.9184917E-5,-2.1020796E-4,-8.16773E-6,7.2300946E-4,1.2608413E-3],"split_indices":[5,5,0,5,4,12,0,11,23,8,0,22,0,0,0,0,0,0,0,0,0],"split_type":[0,0,0,0,0,0,0,0,0,0,0,0,0,0,0,0,0,0,0,0,0],"sum_hessian":[9.4E1,8.1E1,1.3E1,4.3E1,3.8E1,1.1E1,2E0,2.5E1,1.8E1,3.6E1,2E0,8E0,3E0,5E0,2E1,1.4E1,4E0,6E0,3E1,2E0,6E0],"tree_param":{"num_deleted":"0","num_feature":"31","num_nodes":"21","size_leaf_vector":"1"}},{"base_weights":[2.106838E-4,-1.4934551E-2,9.8258264E-2,-3.0893555E-2,-5.402101E-3,1.1948731E-1,-1.4347161E-2,-4.1126937E-2,-2.741926E-2,-1.0843669E-2,6.6232984E-3,9.877467E-2,1.6798148E-1,-2.9492475E-2,-1.4522547E-2,-1.204906E-2,5.658504E-3,3.433638E-2,1.869579E-3,6.2261086E-2,1.0854493E-1],"categories":[],"categories_nodes":[],"categories_segments":[],"categories_sizes":[],"default_left":[1,1,1,1,1,1,0,0,1,1,1,1,0,0,0,0,0,0,0,0,0],"id":54,"left_children":[1,3,5,7,9,11,-1,-1,13,15,17,19,-1,-1,-1,-1,-1,-1,-1,-1,-1],"loss_changes":[1.4500521E-1,1.2456778E-2,3.232318E-2,4.1182153E-4,3.5160761E-3,7.4863285E-3,0E0,0E0,2.2157095E-4,7.992876E-4,1.7929904E-3,8.494258E-4,0E0,0E0,0E0,0E0,0E0,0E0,0E0,0E0,0E0],"parents":[2147483647,0,0,1,1,2,2,3,3,4,4,5,5,8,8,9,9,10,10,11,11],"right_children":[2,4,6,8,10,12,-1,-1,14,16,18,20,-1,-1,-1,-1,-1,-1,-1,-1,-1],"split_conditions":[1.5410593E-1,6.3590504E-2,3.55E2,3.6825955E-2,1.0140243E-1,8.39266E-2,-1.6476486E-4,-4.7230764E-4,5.6371436E-2,2.915E2,6.662239E-2,3.284862E-2,1.9291233E-3,-3.386958E-4,-1.66779E-4,-1.3837313E-4,6.498307E-5,3.9432393E-4,2.1470512E-5,7.150152E-4,1.2465456E-3],"split_indices":[5,5,0,11,5,12,0,0,5,0,8,22,0,0,0,0,0,0,0,0,0],"split_type":[0,0,0,0,0,0,0,0,0,0,0,0,0,0,0,0,0,0,0,0,0],"sum_hessian":[9.7E1,8.4E1,1.3E1,3.1E1,5.3E1,1.1E1,2E0,7E0,2.4E1,3.7E1,1.6E1,8E0,3E0,2E1,4E0,3.5E1,2E0,2E0,1.4E1,2E0,6E0],"tree_param":{"num_deleted":"0","num_feature":"31","num_nodes":"21","size_leaf_vector":"1"}},{"base_weights":[5.675602E-4,-1.5454581E-2,8.6246625E-2,-2.6667763E-2,-2.1562013E-3,1.1122568E-1,-1.1080778E-2,-3.347648E-2,-1.96737E-2,-1.6035607E-2,2.6889227E-3,3.3331715E-2,1.2555222E-1,-3.5056163E-2,-1.3468022E-2,-9.7379945E-3,-2.4638653E-2,-5.241248E-3,-1.9304926E-2,6.8883593E-3,-8.0045685E-3,6.1572663E-2,1.397107E-1],"categories":[],"categories_nodes":[],"categories_segments":[],"categories_sizes":[],"default_left":[1,1,1,1,1,1,0,1,1,1,1,0,1,0,0,0,0,0,0,0,0,0,0],"id":55,"left_children":[1,3,5,7,9,11,-1,13,15,17,19,-1,21,-1,-1,-1,-1,-1,-1,-1,-1,-1,-1],"loss_changes":[1.3124727E-1,1.1681637E-2,3.7635557E-2,1.5306193E-3,2.6146711E-3,1.17497295E-2,0E0,2.00741E-4,7.666405E-4,1.3081543E-4,1.2103413E-3,0E0,6.684467E-3,0E0,0E0,0E0,0E0,0E0,0E0,0E0,0E0,0E0,0E0],"parents":[2147483647,0,0,1,1,2,2,3,3,4,4,5,5,7,7,8,8,9,9,10,10,12,12],"right_children":[2,4,6,8,10,12,-1,14,16,18,20,-1,22,-1,-1,-1,-1,-1,-1,-1,-1,-1,-1],"split_conditions":[3.13E2,7.606407E-2,3.55E2,3.3894166E-2,5.4731324E-2,3.2E2,-1.2725324E-4,2.925E2,6.221223E-2,8.947168E-2,1.271011E-1,3.8278618E-4,3.284862E-2,-4.0259E-4,-1.546687E-4,-1.1183252E-4,-2.829538E-4,-6.019124E-5,-2.2170054E-4,7.91069E-5,-9.192561E-5,7.071093E-4,1.6044576E-3],"split_indices":[0,9,0,28,25,0,0,0,19,9,21,0,22,0,0,0,0,0,0,0,0,0,0],"split_type":[0,0,0,0,0,0,0,0,0,0,0,0,0,0,0,0,0,0,0,0,0,0,0],"sum_hessian":[9.5E1,8E1,1.5E1,4.3E1,3.7E1,1.2E1,3E0,2.1E1,2.2E1,1E1,2.7E1,2E0,1E1,1.9E1,2E0,8E0,1.4E1,3E0,7E0,2E1,7E0,2E0,8E0],"tree_param":{"num_deleted":"0","num_feature":"31","num_nodes":"23","size_leaf_vector":"1"}},{"base_weights":[-0E0,-1.5692998E-2,9.606016E-2,-2.7226713E-2,-2.6836633E-3,1.168396E-1,-1.4066004E-2,-3.0862398E-2,-1.6038831E-2,-1.7116671E-2,1.5250974E-3,9.644449E-2,1.6456683E-1,-3.201148E-2,-9.374047E-3,5.681921E-3,-1.0209497E-2,1.0628781E-1,5.980387E-2],"categories":[],"categories_nodes":[],"categories_segments":[],"categories_sizes":[],"default_left":[1,1,1,1,1,1,0,1,0,0,1,1,0,0,0,0,0,0,0],"id":56,"left_children":[1,3,5,7,9,11,-1,13,-1,-1,15,17,-1,-1,-1,-1,-1,-1,-1],"loss_changes":[1.4039177E-1,1.1745203E-2,3.0961014E-2,1.2586582E-3,2.4528576E-3,7.248953E-3,0E0,3.7831068E-4,0E0,0E0,1.3828059E-3,9.537712E-4,0E0,0E0,0E0,0E0,0E0,0E0,0E0],"parents":[2147483647,0,0,1,1,2,2,3,3,4,4,5,5,7,7,10,10,11,11],"right_children":[2,4,6,8,10,12,-1,14,-1,-1,16,18,-1,-1,-1,-1,-1,-1,-1],"split_conditions":[1.5410593E-1,7.606407E-2,3.55E2,6.2127583E-2,5.4731324E-2,9.0262294E-2,-1.6153601E-4,2.6526782E-1,-1.8419223E-4,-1.9657031E-4,1.271011E-1,3.3862E-1,1.889909E-3,-3.6762442E-4,-1.0765289E-4,6.5251996E-5,-1.1724733E-4,1.2206244E-3,6.867962E-4],"split_indices":[5,9,0,6,25,24,0,30,0,0,21,6,0,0,0,0,0,0,0],"split_type":[0,0,0,0,0,0,0,0,0,0,0,0,0,0,0,0,0,0,0],"sum_hessian":[9.3E1,8E1,1.3E1,4.2E1,3.8E1,1.1E1,2E0,3.1E1,1.1E1,9E0,2.9E1,8E0,3E0,2.9E1,2E0,2.2E1,7E0,6E0,2E0],"tree_param":{"num_deleted":"0","num_feature":"31","num_nodes":"19","size_leaf_vector":"1"}},{"base_weights":[-3.6774322E-3,-1.4955592E-2,7.911598E-2,-3.009863E-2,-5.056029E-3,1.0070486E-1,-1.3910476E-2,-3.5677057E-2,-2.4519684E-2,-1.0380268E-2,5.7036276E-3,3.308999E-2,1.3220717E-1,-2.5908664E-2,-9.270397E-3,-1.826865E-2,-5.6282133E-3,2.3539556E-2,7.968818E-4,1.05000034E-1,1.7643642E-1],"categories":[],"categories_nodes":[],"categories_segments":[],"categories_sizes":[],"default_left":[1,1,1,1,1,1,0,0,1,1,1,0,1,1,1,0,0,0,0,0,0],"id":57,"left_children":[1,3,5,7,9,11,-1,-1,-1,15,17,-1,19,-1,-1,-1,-1,-1,-1,-1,-1],"loss_changes":[8.64358E-2,1.1981621E-2,2.31224E-2,3.9855763E-4,2.9146923E-3,1.7535508E-2,0E0,0E0,3.2161362E-5,1.0582216E-3,1.1904328E-3,0E0,3.3937618E-3,0E0,0E0,0E0,0E0,0E0,0E0,0E0,0E0],"parents":[2147483647,0,0,1,1,2,2,3,3,4,4,5,5,8,8,9,9,10,10,12,12],"right_children":[2,4,6,8,10,12,-1,-1,-1,16,18,-1,20,-1,-1,-1,-1,-1,-1,-1,-1],"split_conditions":[4.55E1,6.3590504E-2,3.55E2,2.8730836E-2,1.0140243E-1,1.0860117E-1,-1.597499E-4,-4.0972044E-4,-2.8158756E-4,5.210349E-2,8.278145E-2,3.800102E-4,8.268437E-2,-2.9753882E-4,-1.0646257E-4,-2.097998E-4,-6.4635205E-5,2.7033163E-4,9.151505E-6,1.2058355E-3,2.0262212E-3],"split_indices":[4,5,0,27,5,8,0,0,30,25,18,0,11,2147483647,2147483647,0,0,0,0,0,0],"split_type":[0,0,0,0,0,0,0,0,0,0,0,0,0,0,0,0,0,0,0,0,0],"sum_hessian":[9.3E1,8.2E1,1.1E1,3.2E1,5E1,9E0,2E0,1.5E1,1.7E1,3.4E1,1.6E1,3E0,6E0,1.5E1,2E0,1.2E1,2.2E1,3E0,1.3E1,4E0,2E0],"tree_param":{"num_deleted":"2","num_feature":"31","num_nodes":"21","size_leaf_vector":"1"}},{"base_weights":[1.5720118E-4,-1.469677E-2,9.406076E-2,-3.0699208E-2,-4.7649983E-3,1.1442122E-1,-1.375667E-2,-3.5745393E-2,-2.5882943E-2,-1.0403329E-2,7.009707E-3,9.440946E-2,1.6120291E-1,-1.8598907E-2,-6.2322295E-3,3.0401867E-2,7.8778656E-4,1.1244687E-1,7.241485E-2],"categories":[],"categories_nodes":[],"categories_segments":[],"categories_sizes":[],"default_left":[1,1,1,1,1,1,0,0,0,1,1,1,0,0,0,0,0,0,0],"id":58,"left_children":[1,3,5,7,9,11,-1,-1,-1,13,15,17,-1,-1,-1,-1,-1,-1,-1],"loss_changes":[1.3342607E-1,1.2719933E-2,2.9718868E-2,1.3899803E-4,3.4266375E-3,6.9348067E-3,0E0,0E0,0E0,9.706307E-4,2.0623747E-3,9.4109774E-4,0E0,0E0,0E0,0E0,0E0,0E0,0E0],"parents":[2147483647,0,0,1,1,2,2,3,3,4,4,5,5,9,9,10,10,11,11],"right_children":[2,4,6,8,10,12,-1,-1,-1,14,16,18,-1,-1,-1,-1,-1,-1,-1],"split_conditions":[1.5150869E-1,6.3590504E-2,3.55E2,2.749819E-2,1.0140243E-1,8.39266E-2,-1.5798357E-4,-4.1050522E-4,-2.9724342E-4,4.8667878E-2,8.278145E-2,4.819961E-2,1.8512773E-3,-2.1359252E-4,-7.157182E-5,3.491394E-4,9.047054E-6,1.2913559E-3,8.316226E-4],"split_indices":[5,5,0,26,5,12,0,0,0,25,18,18,0,0,0,0,0,0,0],"split_type":[0,0,0,0,0,0,0,0,0,0,0,0,0,0,0,0,0,0,0],"sum_hessian":[9.5E1,8.2E1,1.3E1,3.1E1,5.1E1,1.1E1,2E0,1.4E1,1.7E1,3.5E1,1.6E1,8E0,3E0,1.1E1,2.4E1,3E0,1.3E1,4E0,4E0],"tree_param":{"num_deleted":"0","num_feature":"31","num_nodes":"19","size_leaf_vector":"1"}},{"base_weights":[-2.7487082E-3,-1.470383E-2,8.613344E-2,-2.5719002E-2,-2.0239518E-3,1.0919849E-1,-1.3604565E-2,-3.0706078E-2,-1.7177599E-2,-1.5363389E-2,2.3004261E-3,1.5924628E-1,8.101353E-2,-3.549768E-2,-2.5458341E-2,-2.1703362E-2,-7.2552734E-3,-4.861148E-3,-1.851303E-2,6.3555837E-3,-9.125492E-3,3.1385418E-2,1.0259445E-1],"categories":[],"categories_nodes":[],"categories_segments":[],"categories_sizes":[],"default_left":[1,1,1,1,1,1,0,1,1,1,1,0,1,0,0,0,0,0,0,0,0,0,0],"id":59,"left_children":[1,3,5,7,9,11,-1,13,15,17,19,-1,21,-1,-1,-1,-1,-1,-1,-1,-1,-1,-1],"loss_changes":[9.94326E-2,1.1354206E-2,2.644267E-2,1.4134888E-3,2.372374E-3,9.683609E-3,0E0,7.216446E-5,4.987037E-4,1.1975062E-4,1.3272571E-3,0E0,5.075667E-3,0E0,0E0,0E0,0E0,0E0,0E0,0E0,0E0,0E0,0E0],"parents":[2147483647,0,0,1,1,2,2,3,3,4,4,5,5,7,7,8,8,9,9,10,10,12,12],"right_children":[2,4,6,8,10,12,-1,14,16,18,20,-1,22,-1,-1,-1,-1,-1,-1,-1,-1,-1,-1],"split_conditions":[4.55E1,7.606407E-2,3.55E2,5.6588203E-2,5.4731324E-2,1.10889085E-1,-1.5623677E-4,2.749819E-2,5.716726E-2,8.947168E-2,1.271011E-1,1.828807E-3,1.9785832E-1,-4.0766044E-4,-2.9236724E-4,-2.4924453E-4,-8.33206E-5,-5.582612E-5,-2.1260629E-4,7.2988434E-5,-1.04798455E-4,3.6043464E-4,1.1782093E-3],"split_indices":[4,9,0,5,25,7,0,26,23,9,21,0,7,0,0,0,0,0,0,0,0,0,0],"split_type":[0,0,0,0,0,0,0,0,0,0,0,0,0,0,0,0,0,0,0,0,0,0,0],"sum_hessian":[9.4E1,8.3E1,1.1E1,4.4E1,3.9E1,9E0,2E0,2.7E1,1.7E1,1E1,2.9E1,3E0,6E0,1.3E1,1.4E1,1.1E1,6E0,3E0,7E0,2.2E1,7E0,2E0,4E0],"tree_param":{"num_deleted":"0","num_feature":"31","num_nodes":"23","size_leaf_vector":"1"}},{"base_weights":[-2.4451314E-5,-1.3219686E-2,8.891875E-2,-2.4255443E-2,-1.3871399E-3,1.1021676E-1,-1.3454136E-2,-2.9417725E-2,-1.6047439E-2,-3.4502668E-3,3.2226864E-2,8.68557E-2,1.5830381E-1,-4.0278617E-2,-2.6789496E-2,-2.378671E-2,-9.611859E-3,-1.014587E-2,2.7959151E-3,1.0970497E-1,5.1527742E-2],"categories":[],"categories_nodes":[],"categories_segments":[],"categories_sizes":[],"default_left":[1,1,1,1,1,1,0,1,1,1,0,1,0,1,1,0,0,0,0,0,0],"id":60,"left_children":[1,3,5,7,9,11,-1,-1,15,17,-1,19,-1,-1,-1,-1,-1,-1,-1,-1,-1],"loss_changes":[1.0983318E-1,1.04884505E-2,2.7302511E-2,1.3445001E-3,2.5335532E-3,8.090839E-3,0E0,3.9556995E-5,5.376437E-4,1.6596331E-3,0E0,3.850799E-3,0E0,0E0,0E0,0E0,0E0,0E0,0E0,0E0,0E0],"parents":[2147483647,0,0,1,1,2,2,3,3,4,4,5,5,7,7,8,8,9,9,11,11],"right_children":[2,4,6,8,10,12,-1,-1,16,18,-1,20,-1,-1,-1,-1,-1,-1,-1,-1,-1],"split_conditions":[1.5410593E-1,7.606407E-2,5.15E1,5.6588203E-2,4.4E1,8.39266E-2,-1.5450924E-4,-3.3783738E-4,3.4905024E-2,9.373291E-2,3.7009793E-4,4.819961E-2,1.8179837E-3,-4.6256543E-4,-3.076544E-4,-2.7317E-4,-1.1038397E-4,-1.16516625E-4,3.2108688E-5,1.2598676E-3,5.91752E-4],"split_indices":[5,5,4,5,4,12,0,11,24,12,0,18,0,2147483647,2147483647,0,0,0,0,0,0],"split_type":[0,0,0,0,0,0,0,0,0,0,0,0,0,0,0,0,0,0,0,0,0],"sum_hessian":[9.4E1,8.2E1,1.2E1,4.2E1,4E1,1E1,2E0,2.5E1,1.7E1,3.8E1,2E0,7E0,3E0,4E0,2.1E1,7E0,1E1,1.9E1,1.9E1,4E0,3E0],"tree_param":{"num_deleted":"2","num_feature":"31","num_nodes":"21","size_leaf_vector":"1"}},{"base_weights":[-8.674586E-5,-1.323391E-2,8.853017E-2,-2.4978897E-2,-1.2488216E-3,1.0972039E-1,-1.33053735E-2,-3.1116426E-2,-1.6547995E-2,-3.233131E-3,3.187053E-2,1.7224142E-1,9.149762E-2,-3.419791E-2,-2.2527473E-2,-1.9921273E-2,-2.419555E-3,-1.0029823E-2,2.7971608E-3,3.0468648E-2,1.0973998E-1],"categories":[],"categories_nodes":[],"categories_segments":[],"categories_sizes":[],"default_left":[1,1,1,1,1,1,0,1,1,1,0,0,1,1,1,0,0,0,0,0,0],"id":61,"left_children":[1,3,5,7,9,11,-1,-1,15,17,-1,-1,19,-1,-1,-1,-1,-1,-1,-1,-1],"loss_changes":[1.0903064E-1,1.1319308E-2,2.702687E-2,1.6643908E-3,2.4543563E-3,7.93194E-3,0E0,4.9786642E-5,6.603231E-4,1.6677284E-3,0E0,0E0,7.494688E-3,0E0,0E0,0E0,0E0,0E0,0E0,0E0,0E0],"parents":[2147483647,0,0,1,1,2,2,3,3,4,4,5,5,7,7,8,8,9,9,12,12],"right_children":[2,4,6,8,10,12,-1,-1,16,18,-1,-1,20,-1,-1,-1,-1,-1,-1,-1,-1],"split_conditions":[1.5410593E-1,7.514985E-2,3.55E2,5.6588203E-2,4.45E1,1.10889085E-1,-1.5280081E-4,-3.573455E-4,5.971293E-2,9.373291E-2,3.6600573E-4,1.978045E-3,1.0860117E-1,-3.9273372E-4,-2.5870872E-4,-2.2877875E-4,-2.7786518E-5,-1.1518392E-4,3.2122996E-5,3.4990633E-4,1.2602697E-3],"split_indices":[5,5,0,5,4,7,0,13,23,12,0,0,8,2147483647,2147483647,0,0,0,0,0,0],"split_type":[0,0,0,0,0,0,0,0,0,0,0,0,0,0,0,0,0,0,0,0,0],"sum_hessian":[9.4E1,8.2E1,1.2E1,4.1E1,4.1E1,1E1,2E0,2.3E1,1.8E1,3.9E1,2E0,2E0,8E0,1.6E1,7E0,1.4E1,4E0,1.9E1,2E1,2E0,6E0],"tree_param":{"num_deleted":"2","num_feature":"31","num_nodes":"21","size_leaf_vector":"1"}},{"base_weights":[1.1160604E-3,-1.2156865E-2,9.424192E-2,-2.3624849E-2,-0E0,1.16535395E-1,-1.3158252E-2,-2.902282E-2,-1.6253037E-2,-2.8743993E-3,3.413006E-2,5.578097E-2,1.2995069E-1,-1.9331701E-2,-2.3922983E-3,-2.0113902E-2,-5.4579804E-4,1.7033695E-1,1.1303956E-1],"categories":[],"categories_nodes":[],"categories_segments":[],"categories_sizes":[],"default_left":[1,1,1,1,1,1,0,0,1,1,0,0,1,0,0,0,0,0,0],"id":62,"left_children":[1,3,5,7,9,11,-1,-1,13,15,-1,-1,17,-1,-1,-1,-1,-1,-1],"loss_changes":[1.19570725E-1,1.1617136E-2,2.9949233E-2,1.277471E-3,3.899183E-3,6.011367E-3,0E0,0E0,6.1845547E-4,1.3450844E-3,0E0,0E0,1.5238076E-3,0E0,0E0,0E0,0E0,0E0,0E0],"parents":[2147483647,0,0,1,1,2,2,3,3,4,4,5,5,8,8,9,9,12,12],"right_children":[2,4,6,8,10,12,-1,-1,14,16,-1,-1,18,-1,-1,-1,-1,-1,-1],"split_conditions":[4.65E1,7.606407E-2,3.55E2,5.6588203E-2,4.45E1,3.284862E-2,-1.5111126E-4,-3.3330222E-4,5.971293E-2,6.6494346E-2,3.919545E-4,6.4059667E-4,3.27E2,-2.2200802E-4,-2.7473498E-5,-2.3099093E-4,-6.268023E-6,1.956174E-3,1.2981625E-3],"split_indices":[4,5,0,5,4,22,0,0,23,8,0,0,0,0,0,0,0,0,0],"split_type":[0,0,0,0,0,0,0,0,0,0,0,0,0,0,0,0,0,0,0],"sum_hessian":[9.6E1,8.4E1,1.2E1,4.3E1,4.1E1,1E1,2E0,2.4E1,1.9E1,3.8E1,3E0,2E0,8E0,1.5E1,4E0,4E0,3.4E1,2E0,6E0],"tree_param":{"num_deleted":"0","num_feature":"31","num_nodes":"19","size_leaf_vector":"1"}},{"base_weights":[7.914502E-4,-1.2376988E-2,9.319198E-2,-2.3782717E-2,5.782426E-4,1.152471E-1,-1.301276E-2,-2.9013626E-2,-1.607272E-2,-2.0072146E-3,3.374794E-2,5.5164192E-2,1.2850201E-1,-3.968294E-2,-2.5917739E-2,-0E0,-1.7782614E-2,-8.514968E-3,2.7714067E-3,1.6845353E-1,1.11757904E-1],"categories":[],"categories_nodes":[],"categories_segments":[],"categories_sizes":[],"default_left":[1,1,1,1,1,1,0,1,1,1,0,0,1,0,0,0,0,0,0,0,0],"id":63,"left_children":[1,3,5,7,9,11,-1,13,15,17,-1,-1,19,-1,-1,-1,-1,-1,-1,-1,-1],"loss_changes":[1.17707536E-1,1.2629778E-2,2.9308923E-2,1.3833717E-3,3.6370517E-3,5.85413E-3,0E0,2.0196475E-4,4.719207E-4,1.1745321E-3,0E0,0E0,1.4716238E-3,0E0,0E0,0E0,0E0,0E0,0E0,0E0,0E0],"parents":[2147483647,0,0,1,1,2,2,3,3,4,4,5,5,7,7,8,8,9,9,12,12],"right_children":[2,4,6,8,10,12,-1,14,16,18,-1,-1,20,-1,-1,-1,-1,-1,-1,-1,-1],"split_conditions":[4.65E1,7.606407E-2,3.55E2,5.6588203E-2,4.45E1,4.4782758E-2,-1.494404E-4,3.6825955E-2,2.2020452E-2,9.373291E-2,3.875662E-4,6.335135E-4,3.27E2,-4.5572457E-4,-2.97643E-4,-0E0,-2.0421809E-4,-9.778711E-5,3.1827232E-5,1.9345445E-3,1.2834438E-3],"split_indices":[4,5,0,5,4,26,0,11,29,12,0,0,0,0,0,0,0,0,0,0,0],"split_type":[0,0,0,0,0,0,0,0,0,0,0,0,0,0,0,0,0,0,0,0,0],"sum_hessian":[9.6E1,8.4E1,1.2E1,4.5E1,3.9E1,1E1,2E0,2.6E1,1.9E1,3.6E1,3E0,2E0,8E0,5E0,2.1E1,2E0,1.7E1,1.6E1,2E1,2E0,6E0],"tree_param":{"num_deleted":"0","num_feature":"31","num_nodes":"21","size_leaf_vector":"1"}},{"base_weights":[-0E0,-1.2269916E-2,1.0232664E-1,-2.4048105E-2,-2.5910023E-4,1.2909757E-1,5.831666E-2,-3.0823782E-2,-1.7983276E-2,-3.0907406E-3,2.4022106E-2,1.6659094E-1,1.0538112E-1,1.07178725E-2,9.9490665E-2,-3.339649E-2,-1.37359025E-2,-0E0,-1.9893326E-2,-9.764351E-3,3.1319915E-3,3.4927975E-2,7.967007E-3],"categories":[],"categories_nodes":[],"categories_segments":[],"categories_sizes":[],"default_left":[1,1,1,1,1,1,1,1,1,1,1,0,0,0,0,0,0,0,0,0,0,0,0],"id":64,"left_children":[1,3,5,7,9,11,13,15,17,19,21,-1,-1,-1,-1,-1,-1,-1,-1,-1,-1,-1,-1],"loss_changes":[1.181743E-1,1.1678684E-2,9.634443E-3,1.2547988E-3,2.7137462E-3,1.6432703E-3,6.9340896E-3,3.8656965E-4,8.780635E-4,1.6422708E-3,3.1320285E-4,0E0,0E0,0E0,0E0,0E0,0E0,0E0,0E0,0E0,0E0,0E0,0E0],"parents":[2147483647,0,0,1,1,2,2,3,3,4,4,5,5,6,6,7,7,8,8,9,9,10,10],"right_children":[2,4,6,8,10,12,14,16,18,20,22,-1,-1,-1,-1,-1,-1,-1,-1,-1,-1,-1,-1],"split_conditions":[1.7514652E-1,7.514985E-2,3.3862E-1,3.866548E-2,3.055E2,3.27E2,7.446676E-2,3.490652E-2,4.0851012E-2,9.373291E-2,3.165E2,1.9131543E-3,1.2102119E-3,1.2308559E-4,1.142565E-3,-3.8353007E-4,-1.5774507E-4,-0E0,-2.2845781E-4,-1.121352E-4,3.5968238E-5,4.0111787E-4,9.149426E-5],"split_indices":[5,5,6,22,0,0,15,28,11,12,0,0,0,0,0,0,0,0,0,0,0,0,0],"split_type":[0,0,0,0,0,0,0,0,0,0,0,0,0,0,0,0,0,0,0,0,0,0,0],"sum_hessian":[9.4E1,8.4E1,1E1,4.2E1,4.2E1,6E0,4E0,1.9E1,2.3E1,3.8E1,4E0,2E0,4E0,2E0,2E0,1.6E1,3E0,2E0,2.1E1,1.9E1,1.9E1,2E0,2E0],"tree_param":{"num_deleted":"0","num_feature":"31","num_nodes":"23","size_leaf_vector":"1"}},{"base_weights":[1.02772145E-4,-1.3469485E-2,8.700004E-2,-2.3750108E-2,-1.0394071E-3,1.06039554E-1,-1.3510728E-2,-3.0074714E-2,-1.7236976E-2,-3.0999538E-3,3.0530462E-2,8.669376E-2,1.5128367E-1,-3.150683E-2,-1.0858618E-2,-1.9846838E-2,-2.5307583E-3,-6.330146E-3,8.956171E-3,9.564438E-2,5.3027477E-2],"categories":[],"categories_nodes":[],"categories_segments":[],"categories_sizes":[],"default_left":[1,1,1,1,1,1,0,1,1,1,0,1,0,0,0,0,0,0,0,0,0],"id":65,"left_children":[1,3,5,7,9,11,-1,13,15,17,-1,19,-1,-1,-1,-1,-1,-1,-1,-1,-1],"loss_changes":[1.1405333E-1,1.03953015E-2,2.5954314E-2,1.3985652E-3,2.2417894E-3,6.578639E-3,0E0,2.0660274E-4,6.840285E-4,1.3861437E-3,0E0,7.2779506E-4,0E0,0E0,0E0,0E0,0E0,0E0,0E0,0E0,0E0],"parents":[2147483647,0,0,1,1,2,2,3,3,4,4,5,5,7,7,8,8,9,9,11,11],"right_children":[2,4,6,8,10,12,-1,14,16,18,-1,20,-1,-1,-1,-1,-1,-1,-1,-1,-1],"split_conditions":[1.5410593E-1,7.606407E-2,3.55E2,3.3894166E-2,4.45E1,9.0262294E-2,-1.5515914E-4,2.925E2,2.285E2,1.271011E-1,3.506162E-4,3.3862E-1,1.7373633E-3,-3.6182895E-4,-1.2470192E-4,-2.2792393E-4,-2.906359E-5,-7.2696304E-5,1.0285395E-4,1.0983937E-3,6.089751E-4],"split_indices":[5,5,0,28,4,24,0,0,0,11,0,6,0,0,0,0,0,0,0,0,0],"split_type":[0,0,0,0,0,0,0,0,0,0,0,0,0,0,0,0,0,0,0,0,0],"sum_hessian":[9.6E1,8.3E1,1.3E1,4.5E1,3.8E1,1.1E1,2E0,2.2E1,2.3E1,3.6E1,2E0,8E0,3E0,2E1,2E0,1.9E1,4E0,2.9E1,7E0,6E0,2E0],"tree_param":{"num_deleted":"0","num_feature":"31","num_nodes":"21","size_leaf_vector":"1"}},{"base_weights":[-0E0,-1.448728E-2,7.625825E-2,-2.399754E-2,-2.252978E-3,9.863986E-2,-1.0624216E-2,-3.2473695E-2,-1.9234654E-2,-1.0944963E-2,2.5030975E-3,2.7983116E-2,1.11571066E-1,-2.0547234E-2,-0E0,-0E0,-1.4267392E-2,7.969386E-3,-7.920389E-3,5.309046E-2,1.2444908E-1],"categories":[],"categories_nodes":[],"categories_segments":[],"categories_sizes":[],"default_left":[1,1,1,1,1,1,0,0,1,1,1,0,1,0,0,0,0,0,0,0,0],"id":66,"left_children":[1,3,5,7,9,11,-1,-1,13,15,17,-1,19,-1,-1,-1,-1,-1,-1,-1,-1],"loss_changes":[1.0427596E-1,8.964507E-3,3.017784E-2,1.274066E-3,1.5268303E-3,9.559788E-3,0E0,0E0,6.73946E-4,4.8475806E-4,1.2632234E-3,0E0,5.5093616E-3,0E0,0E0,0E0,0E0,0E0,0E0,0E0,0E0],"parents":[2147483647,0,0,1,1,2,2,3,3,4,4,5,5,8,8,9,9,10,10,12,12],"right_children":[2,4,6,8,10,12,-1,-1,14,16,18,-1,20,-1,-1,-1,-1,-1,-1,-1,-1],"split_conditions":[3.13E2,7.6984584E-2,3.55E2,2.7700739E-2,5.9271842E-2,3.2E2,-1.2201002E-4,-3.7293255E-4,2.995E2,6.704649E-2,1.12106875E-1,3.213621E-4,