{"learner":{"attributes":{"best_iteration":"28","best_score":"0.0038930242820113"},"feature_names":["SI_High","SI_Low","SI_Mean","Brent_Crude_Oil_High","Brent_Crude_Oil_Low","dayofyear","dayofweek","quarter","year","week","lag_1w_retailer_type_2","lag_2w_retailer_type_2","lag_3w_retailer_type_2","lag_4w_retailer_type_2","lag_5w_retailer_type_2","lag_6w_retailer_type_2","lag_7w_retailer_type_2","lag_8w_retailer_type_2","lag_9w_retailer_type_2","lag_10w_retailer_type_2","lag_11w_retailer_type_2","lag_12w_retailer_type_2","lag_13w_retailer_type_2","lag_14w_retailer_type_2","lag_15w_retailer_type_2","lag_16w_retailer_type_2","lag_17w_retailer_type_2","lag_18w_retailer_type_2","lag_19w_retailer_type_2","lag_20w_retailer_type_2","lag_21w_retailer_type_2","lag_22w_retailer_type_2","lag_23w_retailer_type_2","lag_24w_retailer_type_2","lag_25w_retailer_type_2","lag_26w_retailer_type_2"],"feature_types":["float","float","float","float","float","int","int","int","int","i","float","float","float","float","float","float","float","float","float","float","float","float","float","float","float","float","float","float","float","float","float","float","float","float","float","float"],"gradient_booster":{"model":{"gbtree_model_param":{"num_parallel_tree":"1","num_trees":"39"},"iteration_indptr":[0,1,2,3,4,5,6,7,8,9,10,11,12,13,14,15,16,17,18,19,20,21,22,23,24,25,26,27,28,29,30,31,32,33,34,35,36,37,38,39],"tree_info":[0,0,0,0,0,0,0,0,0,0,0,0,0,0,0,0,0,0,0,0,0,0,0,0,0,0,0,0,0,0,0,0,0,0,0,0,0,0,0],"trees":[{"base_weights":[-0E0,-1.3731729E-2,6.2313717E-2,-2.26215E-2,-2.0856804E-3,3.246883E-2,8.47629E-2,-2.5822297E-2,-1.52731575E-2,-1.3569725E-2,3.9837277E-4,2.0560427E-2,4.8119385E-2,-1.6828634E-2,-5.71907E-3,-1.9111086E-3,3.4792732E-2,2.6989462E-2,5.700984E-3,-6.148251E-3,5.512202E-3,-7.191949E-3,-0E0,8.576299E-3,-0E0,-8.011067E-3,-0E0,1.1578618E-2,-0E0],"categories":[],"categories_nodes":[],"categories_segments":[],"categories_sizes":[],"default_left":[1,1,1,1,1,1,0,0,1,0,1,1,0,1,1,1,0,0,0,1,1,1,0,1,0,1,1,0,0],"id":0,"left_children":[1,3,5,7,9,11,-1,-1,-1,-1,15,17,-1,-1,-1,19,-1,-1,-1,21,23,-1,-1,27,-1,-1,-1,-1,-1],"loss_changes":[8.572091E-2,8.263691E-3,1.0777779E-2,6.6468865E-4,1.153092E-3,7.772306E-4,0E0,0E0,4.9264636E-6,0E0,2.6239026E-3,1.6695587E-4,0E0,0E0,0E0,8.610487E-4,0E0,0E0,0E0,9.6692296E-5,1.7172759E-4,5.9557788E-5,0E0,1.0036433E-4,0E0,0E0,0E0,0E0,0E0],"parents":[2147483647,0,0,1,1,2,2,3,3,4,4,5,5,8,8,10,10,11,11,15,15,19,19,20,20,21,21,23,23],"right_children":[2,4,6,8,10,12,-1,-1,-1,-1,16,18,-1,-1,-1,20,-1,-1,-1,22,24,-1,-1,28,-1,-1,-1,-1,-1],"split_conditions":[6.1595924E-2,2.5330082E-2,3.0952537E-2,1.8014189E-2,1.2213473E-2,2.7633352E-2,1.2346534E-2,-3.7612664E-3,-2.2246826E-3,-1.9765613E-3,4.55E1,5.05E1,7.009052E-3,-2.4512527E-3,-8.3303766E-4,3.9006166E-2,5.067897E-3,3.931275E-3,8.304033E-4,5.2450668E-2,2.8941326E-2,-1.0475767E-3,-0E0,3.3101276E-2,-0E0,-1.1668892E-3,-0E0,1.6865373E-3,-0E0],"split_indices":[10,10,33,11,28,19,0,0,9,0,9,9,0,2147483647,2147483647,10,0,0,0,18,34,9,0,32,0,2147483647,2147483647,0,0],"split_type":[0,0,0,0,0,0,0,0,0,0,0,0,0,0,0,0,0,0,0,0,0,0,0,0,0,0,0,0,0],"sum_hessian":[1E2,8.2E1,1.8E1,4.6E1,3.6E1,8E0,1E1,3.1E1,1.5E1,7E0,2.9E1,5E0,3E0,1.2E1,3E0,2.7E1,2E0,3E0,2E0,1.8E1,9E0,1.5E1,3E0,6E0,3E0,1.3E1,2E0,4E0,2E0],"tree_param":{"num_deleted":"4","num_feature":"36","num_nodes":"29","size_leaf_vector":"1"}},{"base_weights":[-0E0,-1.0564483E-2,4.820022E-2,-1.2730388E-2,4.216117E-2,1.1144176E-2,7.065802E-2,-2.0484805E-2,-5.2869413E-3,2.165178E-2,-6.321256E-5,-2.4460848E-2,-1.7082587E-2,5.2887956E-3,-8.559031E-3,-2.0003067E-2,-9.332588E-3,-2.1910898E-3,8.744634E-3,-9.511684E-3,1.0539904E-3,1.51573345E-2,1.4233881E-3,-1.0925427E-2,-2.2446471E-3,-0E0,-1.1567911E-2,-2.972307E-3,-0E0,-1.4645296E-2,-7.5543914E-3],"categories":[],"categories_nodes":[],"categories_segments":[],"categories_sizes":[],"default_left":[1,1,1,1,0,1,0,1,1,0,0,0,1,1,1,0,0,0,1,1,0,0,0,1,1,1,1,1,1,1,1],"id":1,"left_children":[1,3,5,7,-1,9,-1,11,13,-1,-1,-1,15,17,19,-1,-1,-1,21,23,-1,-1,-1,-1,-1,-1,-1,-1,-1,-1,-1],"loss_changes":[5.1188838E-2,9.147632E-3,1.4219169E-2,4.3144915E-3,0E0,1.0367519E-3,0E0,8.9595094E-5,1.4565133E-3,0E0,0E0,0E0,2.0911079E-4,2.979174E-4,3.73804E-4,0E0,0E0,0E0,1.7597916E-4,1.8386706E-4,0E0,0E0,0E0,8.050096E-5,5.4480697E-6,0E0,5.547097E-5,0E0,0E0,0E0,0E0],"parents":[2147483647,0,0,1,1,2,2,3,3,5,5,7,7,8,8,12,12,13,13,14,14,18,18,19,19,23,23,24,24,26,26],"right_children":[2,4,6,8,-1,10,-1,12,14,-1,-1,-1,16,18,20,-1,-1,-1,22,24,-1,-1,-1,-1,-1,-1,-1,-1,-1,-1,-1],"split_conditions":[6.1595924E-2,3.2E2,2.9640423E-2,1.993388E-2,6.141181E-3,3.55E2,1.0292022E-2,6.144E-1,6.7684996E-1,3.1537905E-3,-9.207519E-6,-3.5629584E-3,1.375E2,3.818897E-2,2.985E2,-2.9136396E-3,-1.3593814E-3,-3.1915336E-4,2.9211555E-2,2.0185E3,1.5352387E-4,2.207812E-3,2.073302E-4,-1.5913937E-3,-3.269545E-4,-0E0,-1.6849778E-3,-4.3294515E-4,-0E0,-2.1332286E-3,-1.10037E-3],"split_indices":[11,5,22,11,0,5,0,3,3,0,0,0,5,11,5,0,0,0,30,8,0,0,0,11,34,2147483647,2147483647,2147483647,2147483647,2147483647,2147483647],"split_type":[0,0,0,0,0,0,0,0,0,0,0,0,0,0,0,0,0,0,0,0,0,0,0,0,0,0,0,0,0,0,0],"sum_hessian":[1E2,8.2E1,1.8E1,7.9E1,3E0,7E0,1.1E1,3.8E1,4.1E1,4E0,3E0,1.6E1,2.2E1,9E0,3.2E1,1.5E1,7E0,2E0,7E0,3E1,2E0,3E0,4E0,2.4E1,6E0,2E0,2.2E1,4E0,2E0,1.1E1,1.1E1],"tree_param":{"num_deleted":"6","num_feature":"36","num_nodes":"31","size_leaf_vector":"1"}},{"base_weights":[-0E0,-5.5911546E-3,6.410858E-2,-1.5325851E-2,3.5422915E-3,-1.7978692E-2,-7.1783937E-3,-4.2038443E-3,1.5413291E-2,1.5386201E-2,-1.2714057E-2,-9.33024E-3,1.020733E-3,4.026414E-3,3.331789E-2,-9.50557E-4,-1.0629649E-2,-1.7987597E-3,7.320129E-3,1.9533414E-2,-2.562069E-4,1.16216205E-2,4.6693794E-2,-2.429028E-3,-0E0,-0E0,9.497625E-3,3.0451668E-3,-4.7404007E-3,6.132674E-3,-0E0],"categories":[],"categories_nodes":[],"categories_segments":[],"categories_sizes":[],"default_left":[1,1,0,1,1,0,1,1,1,0,0,1,1,1,1,1,1,1,1,0,1,0,0,1,1,1,1,1,0,1,1],"id":2,"left_children":[1,3,-1,5,7,-1,9,11,13,-1,-1,-1,17,19,21,-1,-1,-1,-1,-1,27,-1,-1,-1,-1,-1,-1,-1,-1,-1,-1],"loss_changes":[3.61265E-2,8.302789E-3,0E0,7.2791614E-4,4.440652E-3,0E0,1.5026825E-3,8.3083357E-4,3.53096E-3,0E0,0E0,5.518901E-5,2.8526093E-4,9.83464E-4,1.4638957E-3,0E0,0E0,9.755622E-6,5.975773E-6,0E0,1.5169801E-4,0E0,0E0,0E0,0E0,0E0,0E0,4.0667255E-5,0E0,0E0,0E0],"parents":[2147483647,0,0,1,1,3,3,4,4,6,6,7,7,8,8,11,11,12,12,13,13,14,14,17,17,18,18,20,20,27,27],"right_children":[2,4,-1,6,8,-1,10,12,14,-1,-1,-1,18,20,22,-1,-1,-1,-1,-1,28,-1,-1,-1,-1,-1,-1,-1,-1,-1,-1],"split_conditions":[4.815E-1,2.3532372E-2,9.338032E-3,1.7466992E-2,3.5E0,-2.6187699E-3,1.2197985E-2,2.0185E3,1.8245887E-2,2.2411486E-3,-1.851925E-3,-1.3590395E-3,6.8959214E-2,1.1119846E-2,2.9640423E-2,-1.3845779E-4,-1.5483109E-3,-2.6200668E-4,1.0662474E-3,2.84523E-3,2.9640423E-2,1.692801E-3,6.8014013E-3,-3.5381134E-4,-0E0,-0E0,1.3834207E-3,4.4355792E-4,-6.9048506E-4,8.9328305E-4,-0E0],"split_indices":[0,13,0,13,7,0,15,8,34,0,0,16,16,34,22,2147483647,2147483647,15,15,0,14,0,0,2147483647,2147483647,2147483647,2147483647,15,0,2147483647,2147483647],"split_type":[0,0,0,0,0,0,0,0,0,0,0,0,0,0,0,0,0,0,0,0,0,0,0,0,0,0,0,0,0,0,0],"sum_hessian":[1E2,9.2E1,8E0,4.5E1,4.7E1,3.3E1,1.2E1,2.8E1,1.9E1,2E0,1E1,1.5E1,1.3E1,1.2E1,7E0,3E0,1.2E1,8E0,5E0,3E0,9E0,3E0,4E0,6E0,2E0,2E0,3E0,4E0,5E0,2E0,2E0],"tree_param":{"num_deleted":"8","num_feature":"36","num_nodes":"31","size_leaf_vector":"1"}},{"base_weights":[-0E0,-8.642033E-3,3.9630983E-2,-1.4439886E-2,-9.5727615E-4,2.0647561E-2,5.357322E-2,-1.6726157E-2,-9.503054E-3,1.40834E-2,-2.150842E-3,1.2756328E-2,3.0023495E-2,-5.396203E-3,3.7810502E-3,1.7157692E-2,1.2296727E-3,-6.967519E-3,-4.4389442E-4,2.2859362E-4,9.948341E-3,-7.503112E-3,-0E0,-0E0,-1.7741957E-3,-0E0,2.3980476E-3,-0E0,-7.49249E-4],"categories":[],"categories_nodes":[],"categories_segments":[],"categories_sizes":[],"default_left":[1,1,1,1,1,1,0,0,0,0,1,1,0,1,1,0,0,1,1,1,0,1,1,1,1,1,1,1,1],"id":3,"left_children":[1,3,5,7,9,11,-1,-1,-1,-1,13,15,-1,17,19,-1,-1,-1,-1,-1,-1,-1,-1,-1,-1,-1,-1,-1,-1],"loss_changes":[3.45427E-2,3.512395E-3,3.9951038E-3,2.6086438E-4,5.3909444E-4,1.6444805E-4,0E0,0E0,0E0,0E0,6.731858E-4,8.4501284E-5,0E0,1.101424E-4,1.4766135E-4,0E0,0E0,1.21071935E-5,1.4624053E-5,2.3095281E-5,0E0,0E0,0E0,0E0,0E0,1.1730688E-6,0E0,0E0,0E0],"parents":[2147483647,0,0,1,1,2,2,3,3,4,4,5,5,10,10,11,11,13,13,14,14,17,17,18,18,19,19,25,25],"right_children":[2,4,6,8,10,12,-1,-1,-1,-1,14,16,-1,18,20,-1,-1,-1,-1,-1,-1,-1,-1,-1,-1,-1,-1,-1,-1],"split_conditions":[6.1595924E-2,2.5330082E-2,3.0952537E-2,1.7466992E-2,2.5998505E-2,2.7633352E-2,7.803456E-3,-2.436326E-3,-1.3842115E-3,2.051383E-3,3.9006166E-2,2.086173E-2,4.3732114E-3,1.993388E-2,3.1070437E-2,2.4991834E-3,1.7911369E-4,-1.0148863E-3,-6.46575E-5,3.3296863E-5,1.4490718E-3,-1.0929005E-3,-0E0,-0E0,-2.584287E-4,-0E0,3.4929876E-4,-0E0,-1.0913534E-4],"split_indices":[10,10,33,10,10,19,0,0,0,0,10,16,0,31,31,0,0,33,10,16,0,2147483647,2147483647,2147483647,2147483647,2147483647,2147483647,2147483647,2147483647],"split_type":[0,0,0,0,0,0,0,0,0,0,0,0,0,0,0,0,0,0,0,0,0,0,0,0,0,0,0,0,0],"sum_hessian":[1E2,8.2E1,1.8E1,4.6E1,3.6E1,8E0,1E1,3E1,1.6E1,2E0,3.4E1,5E0,3E0,2.3E1,1.1E1,3E0,2E0,1.6E1,7E0,8E0,3E0,1.4E1,2E0,2E0,5E0,4E0,4E0,2E0,2E0],"tree_param":{"num_deleted":"8","num_feature":"36","num_nodes":"29","size_leaf_vector":"1"}},{"base_weights":[2.3438457E-5,-5.07001E-3,4.1784573E-2,-1.2522668E-2,2.020199E-3,1.0655015E-2,4.750092E-2,-1.4192495E-2,-8.213723E-3,-2.727249E-3,1.0359608E-2,-0E0,-8.902726E-3,-7.347377E-3,6.7745865E-4,1.4923559E-2,-0E0,-9.277299E-4,5.6836125E-3,2.0682245E-2,-0E0,-4.2046565E-3,4.6000252E-3,-0E0,-1.942374E-3,7.5135133E-3,-0E0],"categories":[],"categories_nodes":[],"categories_segments":[],"categories_sizes":[],"default_left":[1,1,1,1,1,0,0,0,1,1,1,1,1,0,1,1,1,1,1,0,0,0,0,1,1,1,1],"id":4,"left_children":[1,3,5,7,9,-1,-1,-1,-1,13,15,-1,-1,-1,17,19,21,-1,-1,-1,-1,-1,-1,-1,-1,-1,-1],"loss_changes":[2.1651953E-2,4.8079845E-3,1.3845675E-3,9.740936E-5,1.8589927E-3,0E0,0E0,0E0,7.645809E-6,5.0462823E-4,8.584298E-4,0E0,0E0,0E0,1.6617146E-4,1.1956259E-3,9.883937E-5,1.806393E-5,1.0006115E-5,0E0,0E0,0E0,0E0,0E0,0E0,0E0,0E0],"parents":[2147483647,0,0,1,1,2,2,3,3,4,4,8,8,9,9,10,10,14,14,15,15,16,16,17,17,18,18],"right_children":[2,4,6,8,10,-1,-1,-1,-1,14,16,-1,-1,-1,18,20,22,-1,-1,-1,-1,-1,-1,-1,-1,-1,-1],"split_conditions":[9.950586E-2,2.3532372E-2,1.00933E-1,1.8014189E-2,3.5E0,1.5520056E-3,6.918967E-3,-2.0672737E-3,-1.196408E-3,2.0338852E-2,3.2826383E-2,-0E0,-1.2967678E-3,-1.0702163E-3,6.8959214E-2,3.1877086E-2,8.633891E-2,-1.351328E-4,8.2787295E-4,3.0125685E-3,-0E0,-6.124487E-4,6.7003805E-4,-0E0,-2.829255E-4,1.0944157E-3,-0E0],"split_indices":[12,12,11,11,7,0,0,0,20,33,14,2147483647,2147483647,0,16,16,11,20,26,0,0,0,0,2147483647,2147483647,2147483647,2147483647],"split_type":[0,0,0,0,0,0,0,0,0,0,0,0,0,0,0,0,0,0,0,0,0,0,0,0,0,0,0],"sum_hessian":[1E2,8.9E1,1.1E1,4.4E1,4.5E1,2E0,9E0,3E1,1.4E1,2.8E1,1.7E1,2E0,1.2E1,1.3E1,1.5E1,1.2E1,5E0,1E1,5E0,9E0,3E0,3E0,2E0,3E0,7E0,3E0,2E0],"tree_param":{"num_deleted":"6","num_feature":"36","num_nodes":"27","size_leaf_vector":"1"}},{"base_weights":[2.4784956E-6,-6.3962946E-3,2.955626E-2,-1.0657538E-2,-6.7950145E-4,8.71359E-3,3.674422E-2,-1.2449427E-2,-7.0047295E-3,-7.758024E-3,4.445428E-4,1.216981E-2,-0E0,-1.3137806E-2,-0E0,-7.89414E-3,-0E0,-6.4220483E-4,1.950572E-2,4.8703216E-3,-2.2595392E-3,6.709661E-3,-0E0,-2.9496567E-3,-0E0,-3.340128E-3,-0E0,-0E0,-4.337852E-3,-0E0,-4.8886426E-3,-5.4772287E-3,-0E0],"categories":[],"categories_nodes":[],"categories_segments":[],"categories_sizes":[],"default_left":[1,1,1,1,1,1,0,1,1,0,1,1,1,0,0,0,0,1,0,1,1,1,1,1,1,1,1,1,1,1,1,1,1],"id":5,"left_children":[1,3,5,7,9,-1,-1,13,15,-1,17,-1,-1,-1,-1,-1,-1,19,-1,-1,-1,-1,-1,-1,-1,-1,-1,-1,-1,-1,-1,-1,-1],"loss_changes":[1.9161109E-2,1.8931688E-3,2.256643E-3,1.120707E-4,3.5579954E-4,7.1149436E-5,0E0,1.6717333E-4,1.0182342E-4,0E0,8.0068986E-4,0E0,0E0,0E0,0E0,0E0,0E0,2.27026E-4,0E0,1.8367733E-5,5.6904835E-5,0E0,0E0,2.7026865E-5,0E0,2.5673988E-5,0E0,3.4462647E-7,1.36403105E-5,0E0,1.5588885E-6,0E0,0E0],"parents":[2147483647,0,0,1,1,2,2,3,3,4,4,5,5,7,7,8,8,10,10,17,17,19,19,20,20,23,23,25,25,28,28,30,30],"right_children":[2,4,6,8,10,-1,-1,14,16,-1,18,-1,-1,-1,-1,-1,-1,20,-1,-1,-1,-1,-1,-1,-1,-1,-1,-1,-1,-1,-1,-1,-1],"split_conditions":[6.1595924E-2,2.5330082E-2,1.7264767E-2,1.1740129E-2,1.1587573E-2,1.2692184E-3,5.3521497E-3,2.995E2,2.285E2,-1.130031E-3,4.55E1,1.7726502E-3,-0E0,-1.9136481E-3,-0E0,-1.1498575E-3,-0E0,3.85E1,2.8411963E-3,7.094093E-4,-3.2912366E-4,9.773268E-4,-0E0,-4.2964594E-4,-0E0,-4.8652187E-4,-0E0,-0E0,-6.318499E-4,-0E0,-7.1207795E-4,-7.9781114E-4,-0E0],"split_indices":[10,10,33,33,29,28,0,5,5,0,9,2147483647,2147483647,0,0,0,0,5,0,10,5,2147483647,2147483647,2147483647,2147483647,2147483647,2147483647,2147483647,2147483647,2147483647,2147483647,2147483647,2147483647],"split_type":[0,0,0,0,0,0,0,0,0,0,0,0,0,0,0,0,0,0,0,0,0,0,0,0,0,0,0,0,0,0,0,0,0],"sum_hessian":[1E2,8.2E1,1.8E1,4.6E1,3.6E1,5E0,1.3E1,2.9E1,1.7E1,6E0,3E1,3E0,2E0,2.7E1,2E0,1.5E1,2E0,2.8E1,2E0,5E0,2.3E1,3E0,2E0,2E1,3E0,1.8E1,2E0,6E0,1.2E1,2E0,1E1,8E0,2E0],"tree_param":{"num_deleted":"14","num_feature":"36","num_nodes":"33","size_leaf_vector":"1"}},{"base_weights":[-0E0,-4.172471E-3,2.8349478E-2,-6.2664575E-3,1.283021E-2,5.4939706E-3,3.417026E-2,-9.572002E-3,-2.136869E-3,2.1638272E-2,-0E0,-1.0004722E-2,-7.9513754E-4,-4.3897447E-3,1.1378714E-3,4.1533606E-3,-1.0470868E-3,-1.160598E-2,-6.4264713E-3,-5.205636E-3,-0E0,4.042263E-3,-0E0,-8.8011555E-4,-8.440679E-3,-7.442898E-3,-1.6428699E-3,-0E0,6.709568E-3,-0E0,-8.366609E-3,-0E0,-3.2785141E-3],"categories":[],"categories_nodes":[],"categories_segments":[],"categories_sizes":[],"default_left":[1,1,1,1,1,0,0,1,1,0,1,1,1,1,1,1,1,1,1,1,1,1,1,1,1,1,1,1,1,1,1,1,1],"id":6,"left_children":[1,3,5,7,9,-1,-1,-1,13,-1,-1,-1,-1,-1,-1,-1,-1,-1,-1,-1,-1,-1,-1,-1,-1,-1,-1,-1,-1,-1,-1,-1,-1],"loss_changes":[1.2036238E-2,3.0465587E-3,1.3539363E-3,9.54719E-4,8.867596E-4,0E0,0E0,5.8220932E-5,2.9708902E-4,0E0,3.8338163E-5,4.8782676E-5,0E0,7.236941E-5,6.621631E-5,0E0,0E0,0E0,6.963883E-5,6.6162786E-5,0E0,1.0907825E-5,0E0,0E0,0E0,7.342838E-6,3.0173633E-5,0E0,0E0,0E0,0E0,0E0,0E0],"parents":[2147483647,0,0,1,1,2,2,3,3,4,4,7,7,8,8,10,10,11,11,13,13,14,14,18,18,19,19,21,21,25,25,26,26],"right_children":[2,4,6,8,10,-1,-1,-1,14,-1,-1,-1,-1,-1,-1,-1,-1,-1,-1,-1,-1,-1,-1,-1,-1,-1,-1,-1,-1,-1,-1,-1,-1],"split_conditions":[8.619291E-2,3.2E2,2.8744668E-2,2.1992598E-2,3.375E2,8.002498E-4,4.9772277E-3,-1.3942544E-3,2.6849728E-2,3.151823E-3,-0E0,-1.4572842E-3,-1.1581945E-4,-6.3940865E-4,1.6574193E-4,6.04977E-4,-1.5251829E-4,-1.6905229E-3,-9.360775E-4,-7.5825106E-4,-0E0,5.887946E-4,-0E0,-1.2819731E-4,-1.2294663E-3,-1.0841299E-3,-2.3929984E-4,-0E0,9.773133E-4,-0E0,-1.2186773E-3,-0E0,-4.775472E-4],"split_indices":[12,5,34,12,5,0,0,5,29,0,5,2147483647,2147483647,32,26,2147483647,2147483647,2147483647,2147483647,2147483647,2147483647,2147483647,2147483647,2147483647,2147483647,2147483647,2147483647,2147483647,2147483647,2147483647,2147483647,2147483647,2147483647],"split_type":[0,0,0,0,0,0,0,0,0,0,0,0,0,0,0,0,0,0,0,0,0,0,0,0,0,0,0,0,0,0,0,0,0],"sum_hessian":[1E2,8.7E1,1.3E1,7.8E1,9E0,3E0,1E1,4.2E1,3.6E1,5E0,4E0,3.9E1,3E0,2.3E1,1.3E1,2E0,2E0,2.5E1,1.4E1,1.9E1,4E0,5E0,8E0,5E0,9E0,1E1,9E0,3E0,2E0,2E0,8E0,4E0,5E0],"tree_param":{"num_deleted":"20","num_feature":"36","num_nodes":"33","size_leaf_vector":"1"}},{"base_weights":[1.537929E-5,-3.6975048E-3,2.15713E-2,-5.16545E-3,1.3887485E-2,6.5073697E-3,3.0422678E-2,-9.204678E-3,-2.3501737E-3,2.012135E-2,-0E0,1.0911438E-2,-0E0,-1.0281206E-2,-1.6882708E-3,-4.726568E-3,7.926121E-4,-5.456446E-3,-0E0,5.602227E-3,-2.8660527E-4,-6.1785616E-3,-0E0,7.57061E-3,-0E0,-0E0,-1.0693056E-3,-1.8238842E-3,-0E0],"categories":[],"categories_nodes":[],"categories_segments":[],"categories_sizes":[],"default_left":[1,1,1,1,1,1,0,1,1,0,0,0,0,0,0,1,1,1,0,1,1,0,0,1,1,1,1,1,1],"id":7,"left_children":[1,3,5,7,9,11,-1,13,15,-1,-1,-1,-1,-1,-1,17,19,21,-1,-1,-1,-1,-1,-1,-1,-1,-1,-1,-1],"loss_changes":[8.184809E-3,2.1214145E-3,1.6491627E-3,7.8945816E-4,4.813054E-4,2.290392E-4,0E0,1.3816147E-4,3.9625392E-4,0E0,0E0,0E0,0E0,0E0,0E0,6.7340734E-5,1.4890262E-4,8.787279E-5,7.8154477E-7,1.7341925E-5,1.1522694E-5,0E0,0E0,0E0,0E0,0E0,7.577455E-6,0E0,0E0],"parents":[2147483647,0,0,1,1,2,2,3,3,4,4,5,5,7,7,8,8,15,15,16,16,17,17,19,19,20,20,26,26],"right_children":[2,4,6,8,10,12,-1,14,16,-1,-1,-1,-1,-1,-1,18,20,22,-1,-1,-1,-1,-1,-1,-1,-1,-1,-1,-1],"split_conditions":[7.4226215E-2,4.65E1,3.2712165E-2,1.1423055E-2,6.375E-1,3.7409738E-2,4.431356E-3,4.25E1,3.0366678E-2,2.9308686E-3,-0E0,1.5893561E-3,-0E0,-1.4975568E-3,-2.4591293E-4,2.8381169E-2,6.075E-1,6.6862926E-2,-0E0,8.160184E-4,-4.174682E-5,-8.9996704E-4,-0E0,1.1027323E-3,-0E0,-0E0,-1.5575466E-4,-2.656663E-4,-0E0],"split_indices":[11,9,21,32,4,17,0,9,20,0,0,0,0,0,0,18,4,35,0,17,21,0,0,2147483647,2147483647,2147483647,2147483647,2147483647,2147483647],"split_type":[0,0,0,0,0,0,0,0,0,0,0,0,0,0,0,0,0,0,0,0,0,0,0,0,0,0,0,0,0],"sum_hessian":[1E2,8.5E1,1.5E1,7.9E1,6E0,6E0,9E0,3.1E1,4.8E1,4E0,2E0,4E0,2E0,2.6E1,5E0,2.9E1,1.9E1,2.4E1,5E0,5E0,1.4E1,2.1E1,3E0,3E0,2E0,3E0,1.1E1,6E0,5E0],"tree_param":{"num_deleted":"6","num_feature":"36","num_nodes":"29","size_leaf_vector":"1"}},{"base_weights":[-0E0,-3.2073325E-3,2.0199839E-2,-5.024746E-3,7.18128E-3,5.316425E-3,2.5126938E-2,-7.6214173E-3,-2.0127697E-3,9.74778E-3,-1.0470868E-3,-8.650748E-3,-3.224048E-3,-6.0241665E-3,-7.07692E-4,-0E0,1.267199E-2,-8.989307E-3,-0E0,-0E0,-5.222697E-3,-1.5278625E-3,1.3507216E-3,-0E0,-2.0221379E-3,3.3222097E-3,-0E0,-2.3327412E-3,-0E0,-0E0,-2.7065321E-3,-2.9992242E-3,-0E0],"categories":[],"categories_nodes":[],"categories_segments":[],"categories_sizes":[],"default_left":[1,1,1,1,1,0,0,1,1,1,0,1,1,0,1,0,0,1,1,1,1,1,1,1,1,1,1,1,1,1,1,1,1],"id":8,"left_children":[1,3,5,7,9,-1,-1,-1,13,15,-1,-1,-1,-1,-1,-1,-1,-1,-1,-1,-1,-1,-1,-1,-1,-1,-1,-1,-1,-1,-1,-1,-1],"loss_changes":[6.634647E-3,1.6084904E-3,7.367707E-4,4.8806192E-4,3.3752847E-4,0E0,0E0,5.8943406E-5,1.2564813E-4,3.4031936E-4,0E0,1.2113713E-5,7.162226E-5,0E0,5.095086E-5,0E0,0E0,0E0,0E0,0E0,0E0,2.5913396E-5,1.3777713E-5,0E0,1.629068E-5,0E0,0E0,1.9423642E-5,0E0,0E0,8.879491E-6,0E0,0E0],"parents":[2147483647,0,0,1,1,2,2,3,3,4,4,7,7,8,8,9,9,11,11,12,12,14,14,21,21,22,22,24,24,27,27,30,30],"right_children":[2,4,6,8,10,-1,-1,-1,14,16,-1,-1,-1,-1,-1,-1,-1,-1,-1,-1,-1,-1,-1,-1,-1,-1,-1,-1,-1,-1,-1,-1,-1],"split_conditions":[7.6727405E-2,3.06E2,2.8744668E-2,2.064639E-2,3.48E2,7.7438855E-4,3.6599808E-3,-1.1101329E-3,1.1383239E-2,2.086173E-2,-1.5251829E-4,-1.2600649E-3,-4.6961367E-4,-8.774779E-4,-1.03082166E-4,-0E0,1.8457975E-3,-1.3093792E-3,-0E0,-0E0,-7.607361E-4,-2.225479E-4,1.9674562E-4,-0E0,-2.9454386E-4,4.8391186E-4,-0E0,-3.3978623E-4,-0E0,-0E0,-3.9423248E-4,-4.3686593E-4,-0E0],"split_indices":[12,5,34,14,5,0,0,34,32,12,0,2147483647,2147483647,0,17,0,0,2147483647,2147483647,2147483647,2147483647,2147483647,2147483647,2147483647,2147483647,2147483647,2147483647,2147483647,2147483647,2147483647,2147483647,2147483647,2147483647],"split_type":[0,0,0,0,0,0,0,0,0,0,0,0,0,0,0,0,0,0,0,0,0,0,0,0,0,0,0,0,0,0,0,0,0],"sum_hessian":[1E2,8.6E1,1.4E1,7.4E1,1.2E1,4E0,1E1,3.8E1,3.6E1,1E1,2E0,2.9E1,9E0,7E0,2.9E1,2E0,8E0,2.7E1,2E0,3E0,6E0,2.4E1,5E0,4E0,2E1,2E0,3E0,1.8E1,2E0,2E0,1.6E1,1.4E1,2E0],"tree_param":{"num_deleted":"18","num_feature":"36","num_nodes":"33","size_leaf_vector":"1"}},{"base_weights":[-0E0,-1.801898E-3,2.445632E-2,-7.2286483E-3,3.9895147E-4,3.304073E-2,1.5150021E-2,6.47715E-3,-3.172822E-3,1.0160009E-2,9.0300775E-4,-4.1386075E-3,-1.3045254E-3,-0E0,1.2184907E-2,-5.932917E-4,3.674789E-3,-4.655078E-3,-0E0,-0E0,-1.9878696E-3,1.4055827E-2,3.3027383E-3,-0E0,5.046607E-3,-0E0,-5.6920084E-3,-0E0,-2.542038E-3,-0E0,-9.703685E-4,-2.9865073E-3,-0E0],"categories":[],"categories_nodes":[],"categories_segments":[],"categories_sizes":[],"default_left":[1,1,1,0,1,1,1,1,1,1,1,1,1,0,1,1,1,1,1,1,1,1,1,1,1,1,1,1,1,1,1,1,1],"id":9,"left_children":[1,3,-1,-1,7,-1,-1,9,-1,13,-1,-1,-1,-1,-1,-1,-1,-1,-1,-1,-1,-1,-1,-1,-1,-1,-1,-1,-1,-1,-1,-1,-1],"loss_changes":[4.542642E-3,1.1758908E-3,7.1198214E-5,0E0,1.445812E-3,0E0,0E0,4.1085947E-4,2.0989566E-5,3.405579E-4,7.4983705E-5,3.9856444E-5,2.6594056E-5,0E0,3.4535886E-5,0E0,2.1920976E-5,5.3551135E-5,0E0,0E0,2.2445747E-5,0E0,0E0,0E0,0E0,2.9092496E-6,0E0,0E0,1.1869044E-5,0E0,0E0,0E0,0E0],"parents":[2147483647,0,0,1,1,2,2,4,4,7,7,8,8,9,9,10,10,11,11,12,12,14,14,16,16,17,17,20,20,25,25,28,28],"right_children":[2,4,-1,-1,8,-1,-1,10,-1,14,-1,-1,-1,-1,-1,-1,-1,-1,-1,-1,-1,-1,-1,-1,-1,-1,-1,-1,-1,-1,-1,-1,-1],"split_conditions":[5.9806985E-1,1.0017452E-2,3.5622988E-3,-1.0529223E-3,6.5195E-1,4.8127007E-3,2.2067465E-3,3.6786124E-2,-4.6215212E-4,9.687969E-3,1.3153178E-4,-6.028281E-4,-1.900167E-4,-0E0,1.7748491E-3,-8.641866E-5,5.3526845E-4,-6.7805697E-4,-0E0,-0E0,-2.8955238E-4,2.0473667E-3,4.8107567E-4,-0E0,7.35087E-4,-0E0,-8.290959E-4,-0E0,-3.7027235E-4,-0E0,-1.4134352E-4,-4.350136E-4,-0E0],"split_indices":[1,31,15,0,4,2147483647,2147483647,17,14,15,16,2147483647,2147483647,0,20,2147483647,2147483647,2147483647,2147483647,2147483647,2147483647,2147483647,2147483647,2147483647,2147483647,2147483647,2147483647,2147483647,2147483647,2147483647,2147483647,2147483647,2147483647],"split_type":[0,0,0,0,0,0,0,0,0,0,0,0,0,0,0,0,0,0,0,0,0,0,0,0,0,0,0,0,0,0,0,0,0],"sum_hessian":[1E2,9.3E1,7E0,2.8E1,6.5E1,3E0,4E0,2.5E1,4E1,1.4E1,1.1E1,2.3E1,1.7E1,2E0,1.2E1,5E0,6E0,2E1,3E0,3E0,1.4E1,9E0,3E0,2E0,4E0,5E0,1.5E1,2E0,1.2E1,2E0,3E0,1E1,2E0],"tree_param":{"num_deleted":"22","num_feature":"36","num_nodes":"33","size_leaf_vector":"1"}},{"base_weights":[-0E0,-2.999074E-3,1.3937708E-2,-5.1467307E-3,-0E0,3.6940288E-3,1.822125E-2,-6.174581E-3,-1.437368E-3,4.4978834E-3,-1.8407806E-3,5.739883E-3,-0E0,2.017632E-2,3.527933E-3,-6.639998E-3,-0E0,-3.2264525E-3,-0E0,5.821057E-3,-0E0,-2.697788E-3,-0E0,1.30816E-2,2.8013501E-2,-4.1456157E-3,-0E0,7.433782E-3,-0E0,-5.125377E-3,-8.828586E-4,-0E0,-2.3557704E-3],"categories":[],"categories_nodes":[],"categories_segments":[],"categories_sizes":[],"default_left":[1,1,1,1,1,1,1,1,1,1,1,1,1,1,0,1,1,1,1,1,1,1,1,0,0,1,1,1,1,1,1,1,1],"id":10,"left_children":[1,3,5,7,9,-1,13,-1,-1,-1,-1,-1,-1,23,-1,-1,-1,-1,-1,-1,-1,-1,-1,-1,-1,-1,-1,-1,-1,-1,-1,-1,-1],"loss_changes":[4.252439E-3,4.825102E-4,5.8293925E-4,1.0379939E-4,2.7568458E-4,5.1639996E-5,1.1940813E-4,7.104606E-5,5.92356E-5,5.633822E-5,3.258689E-5,0E0,0E0,1.4414918E-4,0E0,0E0,0E0,2.0444211E-5,0E0,4.1028776E-5,0E0,1.8745908E-5,0E0,0E0,0E0,0E0,0E0,0E0,0E0,0E0,2.9921903E-5,0E0,0E0],"parents":[2147483647,0,0,1,1,2,2,3,3,4,4,5,5,6,6,7,7,8,8,9,9,10,10,13,13,17,17,19,19,21,21,30,30],"right_children":[2,4,6,8,10,-1,14,-1,-1,-1,-1,-1,-1,24,-1,-1,-1,-1,-1,-1,-1,-1,-1,-1,-1,-1,-1,-1,-1,-1,-1,-1,-1],"split_conditions":[6.1595924E-2,2.5330082E-2,2.9640423E-2,7.19E-1,6.326E-1,5.380709E-4,1.3160539E-1,-8.993873E-4,-2.0936651E-4,6.5516005E-4,-2.6812745E-4,8.360693E-4,-0E0,7.908891E-2,5.138774E-4,-9.671797E-4,-0E0,-4.699639E-4,-0E0,8.4789307E-4,-0E0,-3.929588E-4,-0E0,1.9054612E-3,4.0804367E-3,-6.038489E-4,-0E0,1.082802E-3,-0E0,-7.465606E-4,-1.2859686E-4,-0E0,-3.4314068E-4],"split_indices":[10,10,22,4,4,30,23,5,5,24,29,2147483647,2147483647,22,0,2147483647,2147483647,2147483647,2147483647,2147483647,2147483647,2147483647,2147483647,0,0,2147483647,2147483647,2147483647,2147483647,2147483647,2147483647,2147483647,2147483647],"split_type":[0,0,0,0,0,0,0,0,0,0,0,0,0,0,0,0,0,0,0,0,0,0,0,0,0,0,0,0,0,0,0,0,0],"sum_hessian":[1E2,8.2E1,1.8E1,4.6E1,3.6E1,6E0,1.2E1,3.4E1,1.2E1,9E0,2.7E1,4E0,2E0,1E1,2E0,3.1E1,3E0,8E0,4E0,7E0,2E0,1.7E1,1E1,6E0,4E0,6E0,2E0,5E0,2E0,5E0,1.2E1,5E0,7E0],"tree_param":{"num_deleted":"18","num_feature":"36","num_nodes":"33","size_leaf_vector":"1"}},{"base_weights":[-0E0,-1.3484557E-3,1.6383657E-2,-2.8794226E-3,7.197237E-3,7.837655E-3,2.2285646E-2,-4.942427E-3,-6.2835024E-4,1.0673741E-2,-1.3401203E-3,-5.3370884E-3,-0E0,-2.2199678E-3,6.434651E-4,4.3289486E-4,1.2045671E-2,-5.8482145E-3,-3.853653E-4,-3.0429617E-3,-0E0,1.9841634E-3,-3.3285722E-4,-0E0,-1.4174427E-3,-0E0,-3.5341436E-3,2.4988009E-3,-0E0,-9.838232E-4,-0E0,-0E0,3.1251684E-3,3.625543E-3,-0E0],"categories":[],"categories_nodes":[],"categories_segments":[],"categories_sizes":[],"default_left":[1,1,1,1,1,0,0,1,1,1,0,1,1,1,1,1,1,1,1,1,1,1,1,1,1,1,1,1,1,1,1,1,1,1,1],"id":11,"left_children":[1,3,5,7,9,-1,-1,-1,13,-1,-1,-1,-1,-1,-1,-1,-1,-1,-1,-1,-1,-1,-1,-1,-1,-1,-1,-1,-1,-1,-1,-1,-1,-1,-1],"loss_changes":[2.338905E-3,1.1663347E-3,1.1088513E-4,3.1495577E-4,4.770023E-4,0E0,0E0,4.464574E-5,9.60108E-5,2.4683774E-5,0E0,3.0358788E-5,0E0,2.6529517E-5,4.0477236E-5,0E0,0E0,0E0,5.451684E-6,2.0536987E-5,7.7201815E-7,1.540401E-5,4.1408134E-6,0E0,0E0,0E0,0E0,1.6009122E-5,0E0,0E0,0E0,0E0,1.0367439E-6,0E0,0E0],"parents":[2147483647,0,0,1,1,2,2,3,3,4,4,7,7,8,8,9,9,11,11,13,13,14,14,18,18,19,19,21,21,22,22,27,27,32,32],"right_children":[2,4,6,8,10,-1,-1,-1,14,-1,-1,-1,-1,-1,-1,-1,-1,-1,-1,-1,-1,-1,-1,-1,-1,-1,-1,-1,-1,-1,-1,-1,-1,-1,-1],"split_conditions":[4.402625E-1,3.2E2,1.1913105E-1,1.993388E-2,3.55E2,1.14163E-3,3.2461192E-3,-7.199121E-4,1.8877719E-2,1.5547333E-3,-1.9520144E-4,-7.7739835E-4,-0E0,-3.233597E-4,9.372689E-5,6.305531E-5,1.7545682E-3,-8.518488E-4,-5.6132172E-5,-4.432367E-4,-0E0,2.8901253E-4,-4.8483864E-5,-0E0,-2.0646419E-4,-0E0,-5.147821E-4,3.6397442E-4,-0E0,-1.4330333E-4,-0E0,-0E0,4.5521092E-4,5.280953E-4,-0E0],"split_indices":[2,5,13,13,5,0,0,5,33,19,0,2147483647,2147483647,19,25,2147483647,2147483647,2147483647,2147483647,2147483647,2147483647,2147483647,2147483647,2147483647,2147483647,2147483647,2147483647,2147483647,2147483647,2147483647,2147483647,2147483647,2147483647,2147483647,2147483647],"split_type":[0,0,0,0,0,0,0,0,0,0,0,0,0,0,0,0,0,0,0,0,0,0,0,0,0,0,0,0,0,0,0,0,0,0,0],"sum_hessian":[1E2,9.2E1,8E0,7.9E1,1.3E1,4E0,4E0,3.9E1,4E1,1E1,3E0,3.5E1,4E0,2.1E1,1.9E1,2E0,8E0,3E1,5E0,1.4E1,7E0,1.2E1,7E0,2E0,3E0,2E0,1.2E1,1E1,2E0,5E0,2E0,2E0,8E0,6E0,2E0],"tree_param":{"num_deleted":"22","num_feature":"36","num_nodes":"35","size_leaf_vector":"1"}},{"base_weights":[-0E0,-1.6946924E-3,1.1957761E-2,-2.9119635E-3,3.5115336E-3,8.347678E-3,2.6131589E-2,-3.8229057E-3,-0E0,4.871346E-3,-6.852467E-4,-0E0,9.622512E-3,-5.133565E-3,-2.0578858E-3,1.4685211E-3,-6.5000093E-4,-0E0,7.044473E-3,-0E0,-5.3454097E-3,-2.2973137E-3,-0E0,-0E0,2.6713652E-3,-0E0,-1.1680329E-3,9.782979E-3,1.1970308E-3,-0E0,-2.5234835E-3,4.556471E-3,-0E0,-0E0,-1.6766392E-3,-3.105894E-3,-0E0,-4.4046664E-3,-8.342055E-5,-0E0,-1.1898208E-3],"categories":[],"categories_nodes":[],"categories_segments":[],"categories_sizes":[],"default_left":[1,1,1,1,1,1,0,1,1,1,0,1,1,1,1,1,1,0,1,1,1,1,1,1,1,1,1,1,1,1,1,1,1,1,1,1,1,1,1,1,1],"id":12,"left_children":[1,3,5,7,9,-1,-1,-1,-1,17,-1,-1,-1,-1,-1,-1,-1,-1,-1,-1,-1,-1,-1,-1,-1,-1,-1,-1,-1,-1,-1,-1,-1,-1,-1,-1,-1,-1,-1,-1,-1],"loss_changes":[2.1217817E-3,5.472348E-4,3.2803544E-4,2.0844175E-4,1.2553012E-4,6.886729E-5,0E0,6.160716E-5,1.9129571E-5,1.4045244E-4,0E0,0E0,0E0,7.4297423E-6,1.2414952E-5,1.3895253E-5,4.4677154E-6,0E0,4.190262E-5,0E0,0E0,1.35294395E-5,0E0,0E0,1.4199435E-5,0E0,3.18836E-6,0E0,0E0,0E0,1.454381E-5,0E0,0E0,0E0,0E0,2.1188229E-5,2.6106747E-7,0E0,7.1559293E-6,0E0,0E0],"parents":[2147483647,0,0,1,1,2,2,3,3,4,4,5,5,7,7,8,8,9,9,13,13,14,14,15,15,16,16,18,18,21,21,24,24,26,26,30,30,35,35,38,38],"right_children":[2,4,6,8,10,-1,-1,-1,-1,18,-1,-1,-1,-1,-1,-1,-1,-1,-1,-1,-1,-1,-1,-1,-1,-1,-1,-1,-1,-1,-1,-1,-1,-1,-1,-1,-1,-1,-1,-1,-1],"split_conditions":[8.619291E-2,4.35E1,1.5745762E-1,2.6850257E-2,5.15E1,1.2159197E-3,3.806318E-3,-5.5684306E-4,-0E0,1.0663569E-2,-9.9812794E-5,-0E0,1.4016117E-3,-7.4775325E-4,-2.997509E-4,2.1390425E-4,-9.46789E-5,-0E0,1.0260955E-3,-0E0,-7.7861047E-4,-3.346259E-4,-0E0,-0E0,3.891101E-4,-0E0,-1.7013524E-4,1.4249852E-3,1.7435907E-4,-0E0,-3.675697E-4,6.6369394E-4,-0E0,-0E0,-2.4421865E-4,-4.524034E-4,-0E0,-6.415821E-4,-1.21510075E-5,-0E0,-1.7330887E-4],"split_indices":[12,9,35,35,9,9,0,12,33,33,0,2147483647,2147483647,2147483647,2147483647,2147483647,2147483647,0,29,2147483647,2147483647,2147483647,2147483647,2147483647,2147483647,2147483647,2147483647,2147483647,2147483647,2147483647,2147483647,2147483647,2147483647,2147483647,2147483647,2147483647,2147483647,2147483647,2147483647,2147483647,2147483647],"split_type":[0,0,0,0,0,0,0,0,0,0,0,0,0,0,0,0,0,0,0,0,0,0,0,0,0,0,0,0,0,0,0,0,0,0,0,0,0,0,0,0,0],"sum_hessian":[1E2,8.7E1,1.3E1,7.2E1,1.5E1,1.1E1,2E0,5.6E1,1.6E1,1.3E1,2E0,2E0,9E0,2.9E1,2.7E1,7E0,9E0,4E0,9E0,2E0,2.7E1,2.4E1,3E0,3E0,4E0,3E0,6E0,5E0,4E0,2E0,2.2E1,2E0,2E0,2E0,4E0,1.6E1,6E0,9E0,7E0,2E0,5E0],"tree_param":{"num_deleted":"28","num_feature":"36","num_nodes":"41","size_leaf_vector":"1"}},{"base_weights":[7.4771915E-6,-1.8892707E-3,9.131327E-3,-4.5963638E-3,-5.329161E-4,2.2107374E-3,1.2639241E-2,-5.006677E-3,-0E0,4.922461E-3,-1.0164068E-3,3.2184448E-3,-0E0,1.4444511E-2,-0E0,-0E0,-5.33514E-3,-3.0203012E-3,-0E0,1.6560052E-2,2.1755646E-3,-0E0,-3.6431227E-3,-4.4597982E-4,1.5748519E-3,-0E0,-4.004735E-3,1.4650551E-4,-1.614741E-3,2.826567E-3,-0E0,-0E0,1.0056398E-3,-2.5513326E-3,-0E0,3.517529E-3,-0E0],"categories":[],"categories_nodes":[],"categories_segments":[],"categories_sizes":[],"default_left":[1,1,1,1,1,1,1,1,1,0,1,1,1,1,0,1,1,1,1,1,1,1,1,1,1,1,1,1,1,1,1,1,1,1,1,1,1],"id":13,"left_children":[1,3,5,-1,9,-1,13,-1,-1,-1,17,-1,-1,-1,-1,-1,-1,-1,-1,-1,-1,-1,-1,-1,-1,-1,-1,-1,-1,-1,-1,-1,-1,-1,-1,-1,-1],"loss_changes":[1.8013353E-3,2.53265E-4,2.9788946E-4,2.3659144E-5,1.145295E-4,1.807083E-5,1.2492319E-4,1.8108985E-5,0E0,0E0,1.18260796E-4,0E0,0E0,5.7621743E-5,0E0,0E0,0E0,3.9407343E-5,2.773292E-5,0E0,0E0,0E0,1.2421035E-5,3.1807474E-5,2.6109305E-5,0E0,0E0,6.910342E-6,1.5920708E-5,1.948083E-6,0E0,0E0,9.226096E-7,0E0,0E0,0E0,0E0],"parents":[2147483647,0,0,1,1,2,2,3,3,4,4,5,5,6,6,7,7,10,10,13,13,17,17,18,18,22,22,23,23,24,24,27,27,28,28,29,29],"right_children":[2,4,6,-1,10,-1,14,-1,-1,-1,18,-1,-1,-1,-1,-1,-1,-1,-1,-1,-1,-1,-1,-1,-1,-1,-1,-1,-1,-1,-1,-1,-1,-1,-1,-1,-1],"split_conditions":[6.1595924E-2,9.687686E-3,2.8381169E-2,-6.695047E-4,1.0473729E-2,3.2201523E-4,1.3160539E-1,-7.2927075E-4,-0E0,7.1700395E-4,2.064639E-2,4.6879752E-4,-0E0,2.1039823E-3,-0E0,-0E0,-7.771146E-4,-4.39936E-4,-0E0,2.412131E-3,3.1689196E-4,-0E0,-5.3065596E-4,-6.496126E-5,2.2939236E-4,-0E0,-5.8332825E-4,2.133994E-5,-2.352026E-4,4.1171673E-4,-0E0,-0E0,1.4648114E-4,-3.716262E-4,-0E0,5.12362E-4,-0E0],"split_indices":[10,30,30,28,14,14,23,2147483647,2147483647,0,14,2147483647,2147483647,34,0,2147483647,2147483647,20,10,2147483647,2147483647,2147483647,2147483647,2147483647,2147483647,2147483647,2147483647,2147483647,2147483647,2147483647,2147483647,2147483647,2147483647,2147483647,2147483647,2147483647,2147483647],"split_type":[0,0,0,0,0,0,0,0,0,0,0,0,0,0,0,0,0,0,0,0,0,0,0,0,0,0,0,0,0,0,0,0,0,0,0,0,0],"sum_hessian":[1E2,8.2E1,1.8E1,2.5E1,5.7E1,7E0,1.1E1,2.2E1,3E0,3E0,5.4E1,5E0,2E0,9E0,2E0,2E0,2E1,1.9E1,3.5E1,7E0,2E0,3E0,1.6E1,2.6E1,9E0,2E0,1.4E1,1.2E1,1.4E1,6E0,3E0,5E0,7E0,8E0,6E0,4E0,2E0],"tree_param":{"num_deleted":"24","num_feature":"36","num_nodes":"37","size_leaf_vector":"1"}},{"base_weights":[2.5015848E-5,-1.223255E-3,9.043881E-3,-3.548204E-3,2.3832821E-4,1.0555992E-2,-0E0,-3.9029461E-3,-0E0,5.2404674E-3,-7.630598E-4,1.5713105E-2,4.5558773E-3,-4.187923E-3,-0E0,8.586666E-3,-0E0,6.6512806E-4,-1.4566724E-3,-0E0,-4.4997134E-3,-0E0,1.5045993E-3,-2.280531E-3,-0E0,-4.711881E-3,-0E0,-0E0,2.0598846E-3,-3.3531333E-3,-0E0,-4.9327053E-3,-0E0],"categories":[],"categories_nodes":[],"categories_segments":[],"categories_sizes":[],"default_left":[1,1,1,1,1,1,0,1,1,1,1,0,0,1,1,0,0,1,1,1,1,1,1,1,1,1,1,1,1,1,1,1,1],"id":14,"left_children":[1,3,5,-1,9,11,-1,-1,-1,15,-1,-1,-1,-1,-1,-1,-1,-1,-1,-1,-1,-1,-1,-1,-1,-1,-1,-1,-1,-1,-1,-1,-1],"loss_changes":[1.200879E-3,3.269447E-4,1.6508205E-4,3.4461526E-5,2.9810963E-4,1.4732988E-4,0E0,2.1373213E-5,0E0,1.7190736E-4,4.818718E-5,0E0,0E0,1.8053572E-5,0E0,0E0,0E0,1.2028446E-5,4.159262E-5,0E0,6.585964E-6,0E0,5.5463097E-6,4.8733455E-5,0E0,2.6419875E-6,0E0,0E0,0E0,0E0,0E0,0E0,0E0],"parents":[2147483647,0,0,1,1,2,2,3,3,4,4,5,5,7,7,9,9,10,10,13,13,17,17,18,18,20,20,22,22,23,23,25,25],"right_children":[2,4,6,-1,10,12,-1,-1,-1,16,-1,-1,-1,-1,-1,-1,-1,-1,-1,-1,-1,-1,-1,-1,-1,-1,-1,-1,-1,-1,-1,-1,-1],"split_conditions":[8.619291E-2,1.8476643E-2,3.48E2,-5.168301E-4,6.5524995E-1,1.05798E-1,-0E0,-5.685017E-4,-0E0,2.3472773E-2,-1.1114702E-4,2.2887653E-3,6.6360744E-4,-6.1001134E-4,-0E0,1.2507306E-3,-0E0,9.6882315E-5,-2.1217839E-4,-0E0,-6.5542664E-4,-0E0,2.191594E-4,-3.321813E-4,-0E0,-6.8633084E-4,-0E0,-0E0,3.0004204E-4,-4.884162E-4,-0E0,-7.184961E-4,-0E0],"split_indices":[12,12,5,5,3,15,0,2147483647,2147483647,34,19,0,0,2147483647,2147483647,0,0,2147483647,2147483647,2147483647,2147483647,2147483647,2147483647,2147483647,2147483647,2147483647,2147483647,2147483647,2147483647,2147483647,2147483647,2147483647,2147483647],"split_type":[0,0,0,0,0,0,0,0,0,0,0,0,0,0,0,0,0,0,0,0,0,0,0,0,0,0,0,0,0,0,0,0,0],"sum_hessian":[1E2,8.7E1,1.3E1,3.6E1,5.1E1,1.1E1,2E0,3.2E1,4E0,1E1,4.1E1,5E0,6E0,2.9E1,3E0,6E0,4E0,9E0,3.2E1,3E0,2.6E1,2E0,7E0,2.1E1,1.1E1,2.4E1,2E0,2E0,5E0,1.4E1,7E0,2.2E1,2E0],"tree_param":{"num_deleted":"20","num_feature":"36","num_nodes":"33","size_leaf_vector":"1"}},{"base_weights":[2.7344582E-5,-1.0984975E-3,7.5694374E-3,-2.8027466E-3,3.1873403E-4,4.888379E-3,1.8284233E-2,-3.0775995E-3,-0E0,-2.9782334E-4,2.9984927E-3,5.8220746E-3,-0E0,-3.2940793E-3,-0E0,1.7959569E-3,-9.124949E-4,5.2455375E-3,-0E0,6.572544E-3,-0E0,-3.6486122E-3,-0E0,-2.0003007E-3,2.6701024E-5,7.894968E-3,1.9622175E-4,-0E0,-3.9358023E-3,-3.304198E-3,-0E0,1.4653219E-3,-0E0,-4.157542E-3,-0E0,-4.4252155E-3,-0E0],"categories":[],"categories_nodes":[],"categories_segments":[],"categories_sizes":[],"default_left":[1,1,1,1,1,1,0,1,1,1,1,1,1,1,1,1,1,1,0,1,1,1,1,1,1,1,1,1,1,1,1,1,1,1,1,1,1],"id":15,"left_children":[1,3,5,-1,9,-1,-1,-1,-1,-1,17,-1,-1,-1,-1,-1,-1,-1,-1,-1,-1,-1,-1,-1,-1,-1,-1,-1,-1,-1,-1,-1,-1,-1,-1,-1,-1],"loss_changes":[9.110946E-4,2.3122551E-4,1.8020527E-4,3.0140014E-5,9.816237E-5,5.3106953E-5,0E0,3.0836673E-5,0E0,3.4477358E-5,1.228853E-4,7.454917E-6,0E0,2.226961E-5,0E0,0E0,4.816683E-5,3.2474883E-5,0E0,0E0,0E0,2.1246873E-5,0E0,3.777557E-5,8.773233E-6,0E0,0E0,0E0,1.5839789E-5,0E0,5.3321537E-7,8.147881E-7,0E0,1.1901429E-6,0E0,0E0,0E0],"parents":[2147483647,0,0,1,1,2,2,3,3,4,4,5,5,7,7,9,9,10,10,11,11,13,13,16,16,17,17,21,21,23,23,24,24,28,28,33,33],"right_children":[2,4,6,-1,10,-1,-1,-1,-1,-1,18,-1,-1,-1,-1,-1,-1,-1,-1,-1,-1,-1,-1,-1,-1,-1,-1,-1,-1,-1,-1,-1,-1,-1,-1,-1,-1],"split_conditions":[7.6727405E-2,2.1992598E-2,1.5745762E-1,-4.0824706E-4,2.985E2,7.1203953E-4,2.6632748E-3,-4.4828202E-4,-0E0,-4.338084E-5,3.375E2,8.4804127E-4,-0E0,-4.7981442E-4,-0E0,2.6159844E-4,-1.3291367E-4,7.640631E-4,-0E0,9.5735444E-4,-0E0,-5.3145556E-4,-0E0,-2.9136307E-4,3.8892617E-6,1.1499781E-3,2.858159E-5,-0E0,-5.7328754E-4,-4.8128827E-4,-0E0,2.1343825E-4,-0E0,-6.0558604E-4,-0E0,-6.445753E-4,-0E0],"split_indices":[12,12,35,5,5,5,0,2147483647,2147483647,19,5,2147483647,2147483647,2147483647,2147483647,2147483647,2147483647,29,0,2147483647,2147483647,2147483647,2147483647,2147483647,2147483647,2147483647,2147483647,2147483647,2147483647,2147483647,2147483647,2147483647,2147483647,2147483647,2147483647,2147483647,2147483647],"split_type":[0,0,0,0,0,0,0,0,0,0,0,0,0,0,0,0,0,0,0,0,0,0,0,0,0,0,0,0,0,0,0,0,0,0,0,0,0],"sum_hessian":[1E2,8.6E1,1.4E1,4.2E1,4.4E1,1.2E1,2E0,3.8E1,4E0,3.3E1,1.1E1,1E1,2E0,3.6E1,2E0,4E0,2.9E1,8E0,3E0,8E0,2E0,3.1E1,5E0,1.8E1,1.1E1,4E0,4E0,3E0,2.8E1,1E1,8E0,4E0,7E0,2.6E1,2E0,2.3E1,3E0],"tree_param":{"num_deleted":"26","num_feature":"36","num_nodes":"37","size_leaf_vector":"1"}},{"base_weights":[1.3301575E-5,-1.2123539E-3,6.091748E-3,-2.856716E-3,-1.3329143E-4,1.1225312E-3,9.095686E-3,-3.0342867E-3,-0E0,4.3200734E-3,-6.944113E-4,2.015966E-3,-0E0,1.1825705E-2,-0E0,-3.266976E-3,-0E0,-1.2271849E-3,1.551174E-3,-0E0,-3.4563264E-3,-0E0,-1.6814596E-3,-0E0,2.868472E-3,-0E0,-3.6401046E-3,1.1751956E-3,-2.3167362E-3,-1.9228937E-3,-0E0,-0E0,1.6131948E-3,-0E0,-3.1027808E-3,-0E0,-2.380383E-3,2.1496112E-3,-0E0,-2.6873187E-3,-0E0],"categories":[],"categories_nodes":[],"categories_segments":[],"categories_sizes":[],"default_left":[1,1,1,1,1,1,1,1,1,0,1,1,1,0,0,1,1,1,1,1,1,1,1,1,1,1,1,1,1,1,1,1,1,1,1,1,1,1,1,1,1],"id":16,"left_children":[1,3,5,-1,9,-1,13,-1,-1,-1,-1,-1,-1,-1,-1,-1,-1,-1,-1,-1,-1,-1,-1,-1,-1,-1,-1,-1,-1,-1,-1,-1,-1,-1,-1,-1,-1,-1,-1,-1,-1],"loss_changes":[7.919333E-4,1.1768321E-4,1.7362903E-4,1.20159675E-5,9.90532E-5,1.049133E-5,1.5673577E-4,7.700408E-6,0E0,0E0,5.587341E-5,0E0,0E0,0E0,0E0,6.775197E-6,0E0,2.0180378E-5,1.076942E-5,0E0,2.3078755E-6,3.8489918E-5,1.8789382E-5,0E0,0E0,0E0,3.9840234E-7,4.675184E-6,2.427274E-6,2.130281E-5,0E0,0E0,3.0498559E-6,0E0,0E0,0E0,1.2694465E-5,0E0,0E0,3.7546852E-7,0E0],"parents":[2147483647,0,0,1,1,2,2,3,3,4,4,5,5,6,6,7,7,10,10,15,15,17,17,18,18,20,20,21,21,22,22,27,27,28,28,29,29,32,32,36,36],"right_children":[2,4,6,-1,10,-1,14,-1,-1,-1,-1,-1,-1,-1,-1,-1,-1,-1,-1,-1,-1,-1,-1,-1,-1,-1,-1,-1,-1,-1,-1,-1,-1,-1,-1,-1,-1,-1,-1,-1,-1],"split_conditions":[6.1595924E-2,1.0384573E-2,3.1903468E-2,-4.1610823E-4,1.1697292E-2,1.635075E-4,1.22259945E-1,-4.419731E-4,-0E0,6.292603E-4,-1.011477E-4,2.9364487E-4,-0E0,1.7225279E-3,-0E0,-4.7586655E-4,-0E0,-1.7875132E-4,2.2594344E-4,-0E0,-5.0344726E-4,-0E0,-2.449208E-4,-0E0,4.1782059E-4,-0E0,-5.302163E-4,1.7117856E-4,-3.3745496E-4,-2.8008802E-4,-0E0,-0E0,2.3497737E-4,-0E0,-4.5194992E-4,-0E0,-3.4672572E-4,3.131116E-4,-0E0,-3.914339E-4,-0E0],"split_indices":[10,33,21,10,18,11,15,2147483647,2147483647,0,17,2147483647,2147483647,0,0,2147483647,2147483647,2147483647,2147483647,2147483647,2147483647,2147483647,2147483647,2147483647,2147483647,2147483647,2147483647,2147483647,2147483647,2147483647,2147483647,2147483647,2147483647,2147483647,2147483647,2147483647,2147483647,2147483647,2147483647,2147483647,2147483647],"split_type":[0,0,0,0,0,0,0,0,0,0,0,0,0,0,0,0,0,0,0,0,0,0,0,0,0,0,0,0,0,0,0,0,0,0,0,0,0,0,0,0,0],"sum_hessian":[1E2,8.2E1,1.8E1,2.9E1,5.3E1,8E0,1E1,2.7E1,2E0,4E0,4.9E1,5E0,3E0,7E0,3E0,2.4E1,3E0,4.3E1,6E0,2E0,2.2E1,1.3E1,3E1,3E0,3E0,2E0,2E1,8E0,5E0,2.8E1,2E0,2E0,6E0,2E0,3E0,6E0,2.2E1,4E0,2E0,1.9E1,3E0],"tree_param":{"num_deleted":"30","num_feature":"36","num_nodes":"41","size_leaf_vector":"1"}},{"base_weights":[2.4696988E-5,-8.1705366E-4,5.8309683E-3,-2.3642806E-3,1.1263239E-4,3.5878601E-3,1.4086571E-2,-2.5600712E-3,-0E0,2.9662538E-3,-7.4279663E-4,4.8391707E-3,-0E0,-0E0,-2.7059596E-3,4.1304063E-3,-0E0,-1.8394219E-3,4.9820454E-5,-2.8230932E-3,-0E0,-0E0,5.3852173E-3,-3.1216498E-3,-0E0,1.1843153E-3,-5.869905E-4,-0E0,-3.1662025E-3,7.072684E-3,-0E0,-0E0,-5.56438E-4,1.4809491E-3,-0E0,-1.2779505E-3,-0E0,-0E0,-3.4464104E-3,-0E0,2.0127492E-3],"categories":[],"categories_nodes":[],"categories_segments":[],"categories_sizes":[],"default_left":[1,1,1,1,1,1,0,1,1,1,1,1,1,1,1,1,1,1,1,1,1,1,1,1,1,1,1,1,1,1,1,1,1,1,1,1,1,1,1,1,1],"id":17,"left_children":[1,3,5,-1,9,-1,-1,-1,-1,-1,-1,-1,-1,-1,-1,-1,-1,-1,-1,-1,-1,-1,-1,-1,-1,-1,-1,-1,-1,-1,-1,-1,-1,-1,-1,-1,-1,-1,-1,-1,-1],"loss_changes":[5.364608E-4,1.448987E-4,9.1226335E-5,2.1687578E-5,1.4324687E-4,3.3812918E-5,0E0,1.1545024E-5,0E0,6.522209E-5,4.8100337E-5,0E0,0E0,0E0,4.8427464E-6,4.5412016E-5,0E0,2.0603038E-5,1.7268096E-5,1.6846898E-6,0E0,0E0,1.9994171E-5,1.2429518E-7,2.50474E-6,4.3811324E-6,0E0,5.0458652E-6,9.00263E-6,0E0,0E0,0E0,7.497458E-7,4.7346075E-6,0E0,0E0,0E0,0E0,0E0,0E0,0E0],"parents":[2147483647,0,0,1,1,2,2,3,3,4,4,5,5,7,7,9,9,10,10,14,14,15,15,17,17,18,18,19,19,22,22,24,24,25,25,27,27,28,28,33,33],"right_children":[2,4,6,-1,10,-1,-1,-1,-1,-1,-1,-1,-1,-1,-1,-1,-1,-1,-1,-1,-1,-1,-1,-1,-1,-1,-1,-1,-1,-1,-1,-1,-1,-1,-1,-1,-1,-1,-1,-1,-1],"split_conditions":[7.6727405E-2,1.8476643E-2,1.5745762E-1,-3.4438027E-4,6.2845004E-1,5.226064E-4,2.0518447E-3,-3.7289906E-4,-0E0,4.3206345E-4,-1.0819549E-4,7.0487184E-4,-0E0,-0E0,-3.941491E-4,6.016335E-4,-0E0,-2.6792954E-4,7.2568296E-6,-4.1121073E-4,-0E0,-0E0,7.844088E-4,-4.546984E-4,-0E0,1.7250695E-4,-8.5500826E-5,-0E0,-4.611879E-4,1.0302046E-3,-0E0,-0E0,-8.105056E-5,2.1571452E-4,-0E0,-1.861458E-4,-0E0,-0E0,-5.020029E-4,-0E0,2.9317633E-4],"split_indices":[12,12,35,35,4,12,0,2147483647,2147483647,13,4,2147483647,2147483647,2147483647,2147483647,2147483647,2147483647,2147483647,2147483647,2147483647,2147483647,2147483647,2147483647,2147483647,2147483647,2147483647,2147483647,2147483647,2147483647,2147483647,2147483647,2147483647,2147483647,2147483647,2147483647,2147483647,2147483647,2147483647,2147483647,2147483647,2147483647],"split_type":[0,0,0,0,0,0,0,0,0,0,0,0,0,0,0,0,0,0,0,0,0,0,0,0,0,0,0,0,0,0,0,0,0,0,0,0,0,0,0,0,0],"sum_hessian":[1E2,8.6E1,1.4E1,3.6E1,5E1,1.2E1,2E0,3.4E1,2E0,1.4E1,3.6E1,8E0,4E0,2E0,3.2E1,1.1E1,3E0,2E1,1.6E1,3E1,2E0,3E0,8E0,9E0,1.1E1,1.1E1,5E0,6E0,2.4E1,5E0,3E0,3E0,8E0,9E0,2E0,3E0,3E0,3E0,2.1E1,3E0,6E0],"tree_param":{"num_deleted":"32","num_feature":"36","num_nodes":"41","size_leaf_vector":"1"}},{"base_weights":[2.3387167E-5,-6.0861045E-4,5.9430404E-3,-1.5123164E-3,2.0368728E-3,4.094356E-5,7.9544615E-3,-2.8258036E-3,-4.970275E-4,3.2707986E-3,-1.8229516E-3,1.04703745E-2,-0E0,-0E0,-3.1748554E-3,2.5288042E-4,-1.2857298E-3,-0E0,4.7031553E-3,-3.4242359E-3,-0E0,-6.9369865E-4,1.7480899E-3,-1.979322E-3,-0E0,-0E0,5.5723703E-3,-0E0,2.448569E-3,-0E0,-2.4130486E-3,6.526905E-3,-0E0,-2.581985E-3,-0E0,8.297083E-3,-0E0],"categories":[],"categories_nodes":[],"categories_segments":[],"categories_sizes":[],"default_left":[1,1,1,1,1,0,1,1,1,1,0,0,0,1,1,1,1,1,1,1,1,1,1,1,1,1,1,1,1,1,1,1,1,1,1,1,1],"id":18,"left_children":[1,3,5,-1,9,-1,11,-1,-1,-1,-1,-1,-1,-1,-1,-1,-1,-1,-1,-1,-1,-1,-1,-1,-1,-1,-1,-1,-1,-1,-1,-1,-1,-1,-1,-1,-1],"loss_changes":[4.2462768E-4,2.0836451E-4,5.6909805E-5,6.095982E-5,1.0974549E-4,0E0,1.0938471E-4,2.440669E-5,3.5166115E-5,4.0352403E-5,0E0,0E0,0E0,0E0,1.4547491E-5,3.2733635E-5,3.392357E-5,0E0,2.801443E-5,0E0,0E0,6.853513E-7,1.7669248E-5,2.0804131E-5,0E0,0E0,8.227653E-6,0E0,0E0,0E0,1.0876829E-6,2.2115622E-5,0E0,0E0,0E0,0E0,0E0],"parents":[2147483647,0,0,1,1,2,2,3,3,4,4,6,6,7,7,8,8,9,9,14,14,15,15,16,16,18,18,22,22,23,23,26,26,30,30,31,31],"right_children":[2,4,6,-1,10,-1,12,-1,-1,-1,-1,-1,-1,-1,-1,-1,-1,-1,-1,-1,-1,-1,-1,-1,-1,-1,-1,-1,-1,-1,-1,-1,-1,-1,-1,-1,-1],"split_conditions":[9.869346E-2,2.955E2,1.00139365E-1,-2.2028346E-4,3.55E2,5.963824E-6,1.2655945E-1,-4.1160552E-4,-7.239684E-5,4.7642336E-4,-2.6553049E-4,1.525111E-3,-0E0,-0E0,-4.6244828E-4,3.683447E-5,-1.8727894E-4,-0E0,6.8505993E-4,-4.9877295E-4,-0E0,-1.01043894E-4,2.5462615E-4,-2.8830732E-4,-0E0,-0E0,8.1166945E-4,-0E0,3.566577E-4,-0E0,-3.514838E-4,9.5070666E-4,-0E0,-3.76091E-4,-0E0,1.2085501E-3,-0E0],"split_indices":[16,5,19,34,5,0,15,2147483647,2147483647,5,0,0,0,2147483647,2147483647,2147483647,2147483647,2147483647,2147483647,2147483647,2147483647,2147483647,2147483647,2147483647,2147483647,2147483647,2147483647,2147483647,2147483647,2147483647,2147483647,2147483647,2147483647,2147483647,2147483647,2147483647,2147483647],"split_type":[0,0,0,0,0,0,0,0,0,0,0,0,0,0,0,0,0,0,0,0,0,0,0,0,0,0,0,0,0,0,0,0,0,0,0,0,0],"sum_hessian":[1E2,8.9E1,1.1E1,6.9E1,2E1,4E0,7E0,2.6E1,4.3E1,1.7E1,3E0,5E0,2E0,3E0,2.3E1,1.6E1,2.7E1,7E0,1E1,2.1E1,2E0,6E0,1E1,2E1,7E0,2E0,8E0,2E0,8E0,3E0,1.7E1,6E0,2E0,1.5E1,2E0,4E0,2E0],"tree_param":{"num_deleted":"26","num_feature":"36","num_nodes":"37","size_leaf_vector":"1"}},{"base_weights":[2.586115E-5,-7.6553004E-4,4.133581E-3,-2.1781817E-3,-0E0,-0E0,6.0631903E-3,-0E0,-2.4719348E-3,2.5828194E-3,-4.4191632E-4,7.5256955E-3,-0E0,-2.694489E-3,-0E0,4.5556207E-3,-0E0,-1.339192E-3,-0E0,1.0424459E-2,2.1770683E-3,-2.9975395E-3,-0E0,6.508645E-3,-0E0,-1.672353E-3,-0E0,8.247191E-4,-3.7966482E-4,-0E0,-3.1918595E-3,-0E0,-2.0732118E-3,1.779789E-3,-0E0,-1.1729388E-3,-0E0,-3.4044422E-3,-0E0,-2.4526687E-3,-0E0,2.3391014E-3,-0E0,-0E0,-2.9311501E-3],"categories":[],"categories_nodes":[],"categories_segments":[],"categories_sizes":[],"default_left":[1,1,1,1,1,0,1,1,1,1,1,1,1,1,1,1,1,1,1,1,1,1,1,1,1,1,1,1,1,1,1,1,1,1,1,1,1,1,1,1,1,1,1,1,1],"id":19,"left_children":[1,3,5,-1,-1,-1,-1,-1,-1,-1,-1,-1,-1,-1,-1,-1,-1,-1,-1,-1,-1,-1,-1,-1,-1,-1,-1,-1,-1,-1,-1,-1,-1,-1,-1,-1,-1,-1,-1,-1,-1,-1,-1,-1,-1],"loss_changes":[3.5712903E-4,9.939653E-5,9.8591874E-5,1.8026156E-5,6.885627E-5,5.741532E-7,5.0485192E-5,0E0,1.6627382E-5,4.4992128E-5,2.6016347E-5,5.6361605E-6,0E0,7.3379633E-6,0E0,2.525597E-5,0E0,1.07628985E-5,1.0357445E-5,0E0,0E0,4.989066E-6,0E0,0E0,0E0,1.1263044E-5,0E0,1.9889714E-5,8.2994475E-6,0E0,3.5881822E-6,0E0,1.0448683E-5,9.997431E-6,0E0,2.5382884E-5,0E0,0E0,0E0,0E0,0E0,0E0,0E0,0E0,0E0],"parents":[2147483647,0,0,1,1,2,2,3,3,4,4,6,6,8,8,9,9,10,10,11,11,13,13,15,15,17,17,18,18,21,21,25,25,27,27,28,28,30,30,32,32,33,33,35,35],"right_children":[2,4,6,-1,-1,-1,-1,-1,-1,-1,-1,-1,-1,-1,-1,-1,-1,-1,-1,-1,-1,-1,-1,-1,-1,-1,-1,-1,-1,-1,-1,-1,-1,-1,-1,-1,-1,-1,-1,-1,-1,-1,-1,-1,-1],"split_conditions":[6.1595924E-2,1.1587573E-2,2.5994487E-2,-3.1727317E-4,-0E0,-0E0,8.8316214E-4,-0E0,-3.6006112E-4,3.7621256E-4,-6.436937E-5,1.0961901E-3,-0E0,-3.924783E-4,-0E0,6.6357007E-4,-0E0,-1.9506623E-4,-0E0,1.518423E-3,3.1711097E-4,-4.3662052E-4,-0E0,9.480469E-4,-0E0,-2.4359433E-4,-0E0,1.2012829E-4,-5.530184E-5,-0E0,-4.649251E-4,-0E0,-3.019833E-4,2.5924342E-4,-0E0,-1.7084985E-4,-0E0,-4.958898E-4,-0E0,-3.5725484E-4,-0E0,3.4071266E-4,-0E0,-0E0,-4.2695028E-4],"split_indices":[10,29,25,3,4,0,15,2147483647,2147483647,2147483647,2147483647,2147483647,2147483647,2147483647,2147483647,2147483647,2147483647,2147483647,2147483647,2147483647,2147483647,2147483647,2147483647,2147483647,2147483647,2147483647,2147483647,2147483647,2147483647,2147483647,2147483647,2147483647,2147483647,2147483647,2147483647,2147483647,2147483647,2147483647,2147483647,2147483647,2147483647,2147483647,2147483647,2147483647,2147483647],"split_type":[0,0,0,0,0,0,0,0,0,0,0,0,0,0,0,0,0,0,0,0,0,0,0,0,0,0,0,0,0,0,0,0,0,0,0,0,0,0,0,0,0,0,0,0,0],"sum_hessian":[1E2,8.2E1,1.8E1,3.1E1,5.1E1,7E0,1.1E1,4E0,2.7E1,9E0,4.2E1,8E0,3E0,2.5E1,2E0,5E0,4E0,1.9E1,2.3E1,4E0,4E0,2.1E1,4E0,3E0,2E0,1.6E1,3E0,1.3E1,1E1,2E0,1.9E1,3E0,1.3E1,9E0,4E0,7E0,3E0,1.7E1,2E0,1.1E1,2E0,7E0,2E0,3E0,4E0],"tree_param":{"num_deleted":"38","num_feature":"36","num_nodes":"45","size_leaf_vector":"1"}},{"base_weights":[2.7066915E-5,-4.3181013E-4,4.55591E-3,-1.1586592E-3,1.6046616E-3,5.3420025E-3,-0E0,-1.8962862E-3,-0E0,2.6975372E-3,-1.4624351E-3,-0E0,6.468239E-3,-2.4710316E-3,-0E0,1.2895444E-3,-6.760364E-4,-0E0,3.9683725E-3,8.27804E-3,-0E0,-0E0,-2.682626E-3,1.9292647E-3,-0E0,-1.2075178E-3,-0E0,-0E0,5.1902784E-3,-0E0,-2.802094E-3,2.599034E-3,-0E0,-1.5136692E-3,-0E0,6.258969E-3,-0E0,-2.916323E-3,-0E0,-0E0,-3.1579298E-3],"categories":[],"categories_nodes":[],"categories_segments":[],"categories_sizes":[],"default_left":[1,1,1,1,1,1,1,1,1,1,1,1,1,1,1,1,1,1,1,1,1,1,1,1,1,1,1,1,1,1,1,1,1,1,1,1,1,1,1,1,1],"id":20,"left_children":[1,3,-1,-1,-1,-1,-1,-1,-1,-1,-1,-1,-1,-1,-1,-1,-1,-1,-1,-1,-1,-1,-1,-1,-1,-1,-1,-1,-1,-1,-1,-1,-1,-1,-1,-1,-1,-1,-1,-1,-1],"loss_changes":[2.4671835E-4,1.2787018E-4,2.9210918E-5,6.938564E-5,7.923456E-5,3.7226157E-5,0E0,5.822534E-5,2.442353E-5,3.4535144E-5,0E0,0E0,5.215517E-5,1.7765764E-5,0E0,1.1668904E-5,8.729397E-6,0E0,3.2096257E-5,0E0,0E0,0E0,5.978465E-6,1.10252295E-5,0E0,3.8232392E-6,0E0,0E0,8.397328E-6,0E0,3.2981916E-6,0E0,0E0,0E0,0E0,0E0,0E0,2.801302E-6,0E0,0E0,0E0],"parents":[2147483647,0,0,1,1,2,2,3,3,4,4,5,5,7,7,8,8,9,9,12,12,13,13,15,15,16,16,18,18,22,22,23,23,25,25,28,28,30,30,37,37],"right_children":[2,4,-1,-1,-1,-1,-1,-1,-1,-1,-1,-1,-1,-1,-1,-1,-1,-1,-1,-1,-1,-1,-1,-1,-1,-1,-1,-1,-1,-1,-1,-1,-1,-1,-1,-1,-1,-1,-1,-1,-1],"split_conditions":[9.869346E-2,2.955E2,6.636122E-4,-1.6876988E-4,2.3373443E-4,7.781142E-4,-0E0,-2.7621235E-4,-0E0,3.929223E-4,-2.1301777E-4,-0E0,9.421613E-4,-3.5992957E-4,-0E0,1.8783458E-4,-9.847122E-5,-0E0,5.780317E-4,1.2057764E-3,-0E0,-0E0,-3.9075033E-4,2.8101602E-4,-0E0,-1.7588661E-4,-0E0,-0E0,7.560141E-4,-0E0,-4.08152E-4,3.7857436E-4,-0E0,-2.204805E-4,-0E0,9.116792E-4,-0E0,-4.2479057E-4,-0E0,-0E0,-4.5998293E-4],"split_indices":[18,5,31,4,5,2147483647,2147483647,2147483647,2147483647,2147483647,2147483647,2147483647,2147483647,2147483647,2147483647,2147483647,2147483647,2147483647,2147483647,2147483647,2147483647,2147483647,2147483647,2147483647,2147483647,2147483647,2147483647,2147483647,2147483647,2147483647,2147483647,2147483647,2147483647,2147483647,2147483647,2147483647,2147483647,2147483647,2147483647,2147483647,2147483647],"split_type":[0,0,0,0,0,0,0,0,0,0,0,0,0,0,0,0,0,0,0,0,0,0,0,0,0,0,0,0,0,0,0,0,0,0,0,0,0,0,0,0,0],"sum_hessian":[1E2,8.9E1,1.1E1,6.9E1,2E1,9E0,2E0,4.5E1,2.4E1,1.7E1,3E0,2E0,7E0,3.6E1,9E0,1.1E1,1.3E1,7E0,1E1,5E0,2E0,3E0,3.3E1,8E0,3E0,1E1,3E0,3E0,7E0,2E0,3.1E1,6E0,2E0,8E0,2E0,5E0,2E0,2.9E1,2E0,4E0,2.5E1],"tree_param":{"num_deleted":"36","num_feature":"36","num_nodes":"41","size_leaf_vector":"1"}},{"base_weights":[2.3777191E-5,-1.8410101E-4,7.1924496E-3,-1.5887986E-3,4.047908E-4,1.1236474E-2,-0E0,-0E0,-1.7444895E-3,5.0042556E-3,1.21867915E-5,-0E0,-1.8545628E-3,-9.691127E-4,7.806417E-4,-2.424991E-3,-6.644805E-5,-0E0,-2.9269839E-3,-3.1807425E-4,1.3648461E-3,-3.3923974E-3,-3.6426933E-5,-0E0,-7.9004647E-4,-9.829546E-4,-0E0,2.9375756E-3,2.545871E-5,-0E0,-4.116444E-4,-0E0,3.573122E-3,-0E0,9.6361083E-4,4.246579E-3,-0E0,-0E0,-3.5281366E-4,1.5097834E-3,-0E0,-9.479986E-4,-0E0],"categories":[],"categories_nodes":[],"categories_segments":[],"categories_sizes":[],"default_left":[1,1,1,1,1,1,1,1,1,1,1,1,1,1,1,1,1,1,1,1,1,1,1,1,1,1,1,1,1,1,1,1,1,1,1,1,1,1,1,1,1,1,1],"id":21,"left_children":[1,3,-1,-1,-1,-1,-1,-1,-1,-1,-1,-1,-1,-1,-1,-1,-1,-1,-1,-1,-1,-1,-1,-1,-1,-1,-1,-1,-1,-1,-1,-1,-1,-1,-1,-1,-1,-1,-1,-1,-1,-1,-1],"loss_changes":[2.1476261E-4,9.060835E-5,5.2271833E-5,1.10857945E-5,6.704383E-5,0E0,0E0,0E0,5.4376433E-6,0E0,4.361931E-5,0E0,6.375565E-6,4.093165E-5,3.4911092E-5,9.748343E-6,4.3761993E-6,2.48917E-7,0E0,5.065369E-6,3.779546E-5,0E0,1.0211617E-6,0E0,0E0,0E0,0E0,7.5856588E-6,7.498579E-6,0E0,0E0,0E0,6.535047E-6,1.0069779E-6,6.3694015E-6,0E0,0E0,0E0,3.5670864E-6,0E0,0E0,1.6353624E-8,0E0],"parents":[2147483647,0,0,1,1,2,2,3,3,4,4,8,8,10,10,12,12,13,13,14,14,15,15,16,16,19,19,20,20,22,22,27,27,28,28,32,32,33,33,34,34,38,38],"right_children":[2,4,-1,-1,-1,-1,-1,-1,-1,-1,-1,-1,-1,-1,-1,-1,-1,-1,-1,-1,-1,-1,-1,-1,-1,-1,-1,-1,-1,-1,-1,-1,-1,-1,-1,-1,-1,-1,-1,-1,-1,-1,-1],"split_conditions":[1.22259945E-1,1.1423055E-2,1.0476497E-3,-2.3142384E-4,5.8961683E-5,1.6367007E-3,-0E0,-0E0,-2.5410173E-4,7.2891806E-4,1.7751237E-6,-0E0,-2.7013494E-4,-1.411606E-4,1.1370799E-4,-3.5322332E-4,-9.678799E-6,-0E0,-4.263434E-4,-4.633058E-5,1.98803E-4,-4.9413537E-4,-5.305934E-6,-0E0,-1.15077884E-4,-1.4317682E-4,-0E0,4.278862E-4,3.7083066E-6,-0E0,-5.9959977E-5,-0E0,5.2045967E-4,-0E0,1.403592E-4,6.185552E-4,-0E0,-0E0,-5.139071E-5,2.1991451E-4,-0E0,-1.3808513E-4,-0E0],"split_indices":[16,32,26,23,32,2147483647,2147483647,2147483647,2147483647,2147483647,2147483647,2147483647,2147483647,2147483647,2147483647,2147483647,2147483647,2147483647,2147483647,2147483647,2147483647,2147483647,2147483647,2147483647,2147483647,2147483647,2147483647,2147483647,2147483647,2147483647,2147483647,2147483647,2147483647,2147483647,2147483647,2147483647,2147483647,2147483647,2147483647,2147483647,2147483647,2147483647,2147483647],"split_type":[0,0,0,0,0,0,0,0,0,0,0,0,0,0,0,0,0,0,0,0,0,0,0,0,0,0,0,0,0,0,0,0,0,0,0,0,0,0,0,0,0,0,0],"sum_hessian":[1E2,9.6E1,4E0,3.3E1,6.3E1,2E0,2E0,2E0,3.1E1,3E0,6E1,2E0,2.9E1,2.1E1,3.9E1,1.8E1,1.1E1,1.4E1,7E0,8E0,3.1E1,1E1,8E0,4E0,7E0,6E0,2E0,1.1E1,2E1,2E0,6E0,3E0,8E0,1.2E1,8E0,6E0,2E0,4E0,8E0,6E0,2E0,5E0,3E0],"tree_param":{"num_deleted":"38","num_feature":"36","num_nodes":"43","size_leaf_vector":"1"}},{"base_weights":[2.1097367E-5,-1.7865867E-4,5.5887434E-3,-1.4355889E-3,4.3115567E-4,-0E0,7.7696987E-3,-0E0,-1.6713899E-3,2.3851583E-3,-2.0261438E-4,-1.8919837E-3,-0E0,4.5994683E-3,-0E0,7.37256E-4,-1.0357277E-3,-2.0367063E-3,-0E0,-0E0,5.2299527E-3,-0E0,2.61394E-3,-0E0,-1.575127E-3,-1.07985295E-4,-2.7307984E-3,-1.9163014E-3,-0E0,-7.505153E-4,-0E0,-3.0973274E-3,-0E0,-0E0,-2.4479919E-3,-1.1310326E-3,-0E0,-0E0,-3.080555E-3],"categories":[],"categories_nodes":[],"categories_segments":[],"categories_sizes":[],"default_left":[1,1,1,1,1,1,1,1,1,1,1,1,1,1,0,1,1,1,1,1,1,1,1,1,1,1,1,1,1,1,1,1,1,1,1,1,1,1,1],"id":22,"left_children":[1,3,-1,-1,9,-1,-1,-1,-1,13,-1,-1,-1,-1,-1,-1,-1,-1,-1,-1,-1,-1,-1,-1,-1,-1,-1,-1,-1,-1,-1,-1,-1,-1,-1,-1,-1,-1,-1],"loss_changes":[1.6196062E-4,8.232702E-5,2.7545946E-5,1.5266123E-5,9.361394E-5,0E0,0E0,0E0,1.8065126E-5,1.1053583E-4,3.5031455E-5,8.8117085E-6,0E0,7.823677E-6,5.4310266E-7,4.078287E-5,2.0782982E-5,1.1050528E-5,0E0,0E0,0E0,1.0895566E-8,0E0,0E0,1.658607E-5,3.300816E-6,1.7319631E-5,1.2012832E-5,0E0,1.8014771E-6,0E0,0E0,0E0,0E0,7.817231E-6,0E0,0E0,0E0,0E0],"parents":[2147483647,0,0,1,1,2,2,3,3,4,4,8,8,9,9,10,10,11,11,13,13,15,15,16,16,17,17,24,24,25,25,26,26,27,27,29,29,34,34],"right_children":[2,4,-1,-1,10,-1,-1,-1,-1,14,-1,-1,-1,-1,-1,-1,-1,-1,-1,-1,-1,-1,-1,-1,-1,-1,-1,-1,-1,-1,-1,-1,-1,-1,-1,-1,-1,-1,-1],"split_conditions":[1.1913105E-1,1.8476643E-2,8.1405434E-4,-2.0910737E-4,6.5555E-1,-0E0,1.1317316E-3,-0E0,-2.4345405E-4,7.0799544E-2,-2.9512737E-5,-2.7558565E-4,-0E0,6.699569E-4,-0E0,1.0738845E-4,-1.5086372E-4,-2.966659E-4,-0E0,-0E0,7.6179305E-4,-0E0,3.8074557E-4,-0E0,-2.2943244E-4,-1.57291E-5,-3.9776711E-4,-2.7912777E-4,-0E0,-1.0931979E-4,-0E0,-4.511556E-4,-0E0,-0E0,-3.565736E-4,-1.647458E-4,-0E0,-0E0,-4.4871253E-4],"split_indices":[13,12,3,3,3,2147483647,2147483647,2147483647,2147483647,13,11,2147483647,2147483647,11,0,2147483647,2147483647,2147483647,2147483647,2147483647,2147483647,2147483647,2147483647,2147483647,2147483647,2147483647,2147483647,2147483647,2147483647,2147483647,2147483647,2147483647,2147483647,2147483647,2147483647,2147483647,2147483647,2147483647,2147483647],"split_type":[0,0,0,0,0,0,0,0,0,0,0,0,0,0,0,0,0,0,0,0,0,0,0,0,0,0,0,0,0,0,0,0,0,0,0,0,0,0,0],"sum_hessian":[1E2,9.5E1,5E0,3.6E1,5.9E1,2E0,3E0,4E0,3.2E1,1.8E1,4.1E1,3E1,2E0,1E1,8E0,1.4E1,2.7E1,2.8E1,2E0,2E0,8E0,7E0,7E0,7E0,2E1,1.1E1,1.7E1,1.8E1,2E0,6E0,5E0,1.5E1,2E0,5E0,1.3E1,4E0,2E0,4E0,9E0],"tree_param":{"num_deleted":"30","num_feature":"36","num_nodes":"39","size_leaf_vector":"1"}},{"base_weights":[7.962469E-7,-9.0687885E-5,8.766926E-3,-1.3488962E-3,3.7896383E-4,-0E0,-1.8382799E-3,1.8601265E-3,-2.4756033E-4,-2.0933095E-3,-0E0,3.2098198E-3,-0E0,-1.1504322E-3,9.515713E-5,-0E0,-2.3312776E-3,-0E0,3.9127E-3,-4.192636E-4,5.05556E-4,-1.7642359E-3,-0E0,1.4171548E-3,-2.1062225E-4,-0E0,-2.6272533E-3,5.5972477E-3,3.2326402E-4,7.4833474E-4,-0E0,1.9651053E-3,-0E0,-0E0,-7.528742E-4,-2.8600884E-3,-0E0,-0E0,-1.0011907E-3],"categories":[],"categories_nodes":[],"categories_segments":[],"categories_sizes":[],"default_left":[1,1,0,1,1,1,1,1,1,1,1,1,1,1,1,1,1,1,1,1,1,1,1,1,1,1,1,1,1,1,1,1,1,1,1,1,1,1,1],"id":23,"left_children":[1,-1,-1,-1,-1,-1,-1,-1,-1,-1,-1,-1,-1,-1,-1,-1,-1,-1,-1,-1,-1,-1,-1,-1,-1,-1,-1,-1,-1,-1,-1,-1,-1,-1,-1,-1,-1,-1,-1],"loss_changes":[1.6141415E-4,6.7072426E-5,0E0,2.6396967E-5,7.643999E-5,0E0,1.2010838E-5,5.150996E-5,2.289459E-5,1.2388708E-5,0E0,1.960271E-5,2.6107084E-6,1.8589371E-5,2.0634905E-5,0E0,8.77626E-6,0E0,5.521535E-6,0E0,1.3426218E-6,6.95909E-8,0E0,1.0975962E-5,4.004686E-6,0E0,5.474307E-6,0E0,0E0,0E0,0E0,0E0,0E0,0E0,1.5187838E-6,0E0,0E0,0E0,0E0],"parents":[2147483647,0,0,1,1,3,3,4,4,6,6,7,7,8,8,9,9,11,11,12,12,13,13,14,14,16,16,18,18,20,20,23,23,24,24,26,26,34,34],"right_children":[2,-1,-1,-1,-1,-1,-1,-1,-1,-1,-1,-1,-1,-1,-1,-1,-1,-1,-1,-1,-1,-1,-1,-1,-1,-1,-1,-1,-1,-1,-1,-1,-1,-1,-1,-1,-1,-1,-1],"split_conditions":[1.3424422E-1,-1.3209565E-5,1.2769873E-3,-1.9647973E-4,5.5199736E-5,-0E0,-2.677632E-4,2.7094537E-4,-3.6059548E-5,-3.049107E-4,-0E0,4.675412E-4,-0E0,-1.6757153E-4,1.3860553E-5,-0E0,-3.3957305E-4,-0E0,5.6992244E-4,-6.106979E-5,7.363911E-5,-2.5697798E-4,-0E0,2.0642226E-4,-3.0679163E-5,-0E0,-3.8268478E-4,8.152931E-4,4.708652E-5,1.0900217E-4,-0E0,2.8623652E-4,-0E0,-0E0,-1.09663386E-4,-4.1659945E-4,-0E0,-0E0,-1.4583308E-4],"split_indices":[20,29,0,2147483647,2147483647,2147483647,2147483647,2147483647,2147483647,2147483647,2147483647,2147483647,2147483647,2147483647,2147483647,2147483647,2147483647,2147483647,2147483647,2147483647,2147483647,2147483647,2147483647,2147483647,2147483647,2147483647,2147483647,2147483647,2147483647,2147483647,2147483647,2147483647,2147483647,2147483647,2147483647,2147483647,2147483647,2147483647,2147483647],"split_type":[0,0,0,0,0,0,0,0,0,0,0,0,0,0,0,0,0,0,0,0,0,0,0,0,0,0,0,0,0,0,0,0,0,0,0,0,0,0,0],"sum_hessian":[1E2,9.8E1,2E0,3.2E1,6.6E1,7E0,2.5E1,2.4E1,4.2E1,2.2E1,3E0,1.3E1,1.1E1,1.9E1,2.3E1,2E0,2E1,3E0,1E1,3E0,8E0,1.4E1,5E0,1E1,1.3E1,3E0,1.7E1,5E0,5E0,6E0,2E0,8E0,2E0,5E0,8E0,1.5E1,2E0,2E0,6E0],"tree_param":{"num_deleted":"36","num_feature":"36","num_nodes":"39","size_leaf_vector":"1"}},{"base_weights":[-0E0,-7.749023E-5,7.5447196E-3,-1.5324944E-3,3.7240543E-4,-0E0,-1.988399E-3,2.8396125E-3,-0E0,-2.309175E-3,-0E0,5.544276E-3,-0E0,-8.7421807E-4,7.5090514E-4,-0E0,-2.6157259E-3,-0E0,-1.6765078E-3,1.6038932E-3,-0E0,-2.8574767E-3,-0E0,4.4807117E-4,-0E0,-2.0872522E-3,-0E0,-0E0,2.5337294E-3,-7.8888476E-4,2.2213347E-4,-0E0,-3.098882E-3,-0E0,7.62804E-4,-0E0,-2.5402529E-3,3.004346E-3,-0E0,-0E0,-1.2594453E-3,4.576238E-4,-0E0],"categories":[],"categories_nodes":[],"categories_segments":[],"categories_sizes":[],"default_left":[1,1,0,1,1,1,1,1,1,1,1,1,1,1,1,1,1,1,1,1,1,1,1,1,1,1,1,1,1,1,1,1,1,1,1,1,1,1,1,1,1,1,1],"id":24,"left_children":[1,-1,-1,-1,-1,-1,-1,-1,-1,-1,-1,-1,-1,-1,-1,-1,-1,-1,-1,-1,-1,-1,-1,-1,-1,-1,-1,-1,-1,-1,-1,-1,-1,-1,-1,-1,-1,-1,-1,-1,-1,-1,-1],"loss_changes":[1.1953705E-4,7.510105E-5,0E0,2.136686E-5,6.3572945E-5,0E0,1.44549995E-5,2.1678992E-5,4.0125586E-5,1.5136211E-5,0E0,0E0,0E0,2.9376442E-5,2.530477E-5,0E0,6.2818217E-6,1.6241387E-6,1.489569E-5,3.3650234E-5,4.287676E-6,2.4912006E-6,0E0,1.919239E-6,0E0,1.8726088E-5,0E0,0E0,1.3457153E-5,2.697174E-6,1.1962726E-6,0E0,0E0,0E0,0E0,0E0,0E0,9.3254494E-7,0E0,0E0,0E0,4.6009131E-7,0E0],"parents":[2147483647,0,0,1,1,3,3,4,4,6,6,7,7,8,8,9,9,13,13,14,14,16,16,17,17,18,18,19,19,20,20,21,21,23,23,25,25,28,28,29,29,30,30],"right_children":[2,-1,-1,-1,-1,-1,-1,-1,-1,-1,-1,-1,-1,-1,-1,-1,-1,-1,-1,-1,-1,-1,-1,-1,-1,-1,-1,-1,-1,-1,-1,-1,-1,-1,-1,-1,-1,-1,-1,-1,-1,-1,-1],"split_conditions":[1.3424422E-1,-1.12871985E-5,1.0989611E-3,-2.232226E-4,5.424444E-5,-0E0,-2.896295E-4,4.1361694E-4,-0E0,-3.363536E-4,-0E0,8.075772E-4,-0E0,-1.273383E-4,1.09376575E-4,-0E0,-3.810057E-4,-0E0,-2.4419953E-4,2.3362252E-4,-0E0,-4.1621903E-4,-0E0,6.5265885E-5,-0E0,-3.0402842E-4,-0E0,-0E0,3.6906212E-4,-1.1490867E-4,3.235588E-5,-0E0,-4.5138205E-4,-0E0,1.1110976E-4,-0E0,-3.700123E-4,4.3761198E-4,-0E0,-0E0,-1.8345035E-4,6.665732E-5,-0E0],"split_indices":[20,30,0,2147483647,2147483647,2147483647,2147483647,2147483647,2147483647,2147483647,2147483647,2147483647,2147483647,2147483647,2147483647,2147483647,2147483647,2147483647,2147483647,2147483647,2147483647,2147483647,2147483647,2147483647,2147483647,2147483647,2147483647,2147483647,2147483647,2147483647,2147483647,2147483647,2147483647,2147483647,2147483647,2147483647,2147483647,2147483647,2147483647,2147483647,2147483647,2147483647,2147483647],"split_type":[0,0,0,0,0,0,0,0,0,0,0,0,0,0,0,0,0,0,0,0,0,0,0,0,0,0,0,0,0,0,0,0,0,0,0,0,0,0,0,0,0,0,0],"sum_hessian":[1E2,9.8E1,2E0,2.8E1,7E1,6E0,2.2E1,9E0,6.1E1,1.9E1,3E0,3E0,6E0,2.8E1,3.3E1,2E0,1.7E1,1E1,1.8E1,1.7E1,1.6E1,1.5E1,2E0,8E0,2E0,1.5E1,3E0,5E0,1.2E1,6E0,1E1,2E0,1.3E1,2E0,6E0,2E0,1.3E1,1E1,2E0,2E0,4E0,8E0,2E0],"tree_param":{"num_deleted":"40","num_feature":"36","num_nodes":"43","size_leaf_vector":"1"}},{"base_weights":[-0E0,-1.2458926E-4,6.204391E-3,-6.2585075E-4,1.551027E-3,-1.5793636E-3,-0E0,2.3754674E-3,-3.9166087E-4,-0E0,-1.9411178E-3,-5.06633E-4,2.7184925E-4,-0E0,3.3273962E-3,-0E0,-2.0926488E-3,-0E0,-1.4207959E-3,-6.294653E-5,1.034467E-3,4.401764E-3,-0E0,-0E0,4.5795034E-4,-1.744525E-3,-0E0,-0E0,-1.767026E-3,1.3452931E-3,-0E0,6.133781E-3,-0E0,7.562174E-4,-0E0,2.2586177E-3,-0E0],"categories":[],"categories_nodes":[],"categories_segments":[],"categories_sizes":[],"default_left":[1,1,0,1,1,1,1,1,1,1,1,1,1,1,1,1,1,1,1,1,1,1,1,1,1,1,1,1,1,1,1,1,1,1,1,1,1],"id":25,"left_children":[1,-1,-1,-1,-1,-1,-1,-1,-1,-1,-1,-1,-1,-1,-1,-1,-1,-1,-1,-1,-1,-1,-1,-1,-1,-1,-1,-1,-1,-1,-1,-1,-1,-1,-1,-1,-1],"loss_changes":[1.20441044E-4,7.2989445E-5,0E0,4.158233E-5,4.759393E-5,2.1975327E-5,7.7457835E-6,2.0916756E-5,0E0,0E0,6.577444E-6,2.0753643E-5,1.6256057E-5,0E0,2.5657384E-5,0E0,0E0,1.4868284E-6,7.3263E-6,1.2725467E-5,7.2116254E-6,1.6500067E-5,0E0,0E0,1.4237565E-6,7.7839286E-7,0E0,3.6250356E-7,0E0,1.0667132E-5,0E0,0E0,0E0,0E0,0E0,0E0,0E0],"parents":[2147483647,0,0,1,1,3,3,4,4,5,5,6,6,7,7,10,10,11,11,12,12,14,14,17,17,18,18,19,19,20,20,21,21,24,24,29,29],"right_children":[2,-1,-1,-1,-1,-1,-1,-1,-1,-1,-1,-1,-1,-1,-1,-1,-1,-1,-1,-1,-1,-1,-1,-1,-1,-1,-1,-1,-1,-1,-1,-1,-1,-1,-1,-1,-1],"split_conditions":[1.2591916E-1,-1.8147628E-5,9.0372935E-4,-9.116119E-5,2.2592202E-4,-2.3004954E-4,-0E0,3.4600974E-4,-5.7049183E-5,-0E0,-2.8274252E-4,-7.3795985E-5,3.9597464E-5,-0E0,4.8466734E-4,-0E0,-3.0481446E-4,-0E0,-2.0695262E-4,-9.168769E-6,1.5068009E-4,6.4115936E-4,-0E0,-0E0,6.670488E-5,-2.5410688E-4,-0E0,-0E0,-2.5738438E-4,1.9595491E-4,-0E0,8.934443E-4,-0E0,1.1015035E-4,-0E0,3.2898944E-4,-0E0],"split_indices":[22,9,0,2147483647,2147483647,2147483647,2147483647,2147483647,2147483647,2147483647,2147483647,2147483647,2147483647,2147483647,2147483647,2147483647,2147483647,2147483647,2147483647,2147483647,2147483647,2147483647,2147483647,2147483647,2147483647,2147483647,2147483647,2147483647,2147483647,2147483647,2147483647,2147483647,2147483647,2147483647,2147483647,2147483647,2147483647],"split_type":[0,0,0,0,0,0,0,0,0,0,0,0,0,0,0,0,0,0,0,0,0,0,0,0,0,0,0,0,0,0,0,0,0,0,0,0,0],"sum_hessian":[1E2,9.7E1,3E0,7.9E1,1.8E1,2.9E1,5E1,1.6E1,2E0,4E0,2.5E1,2.2E1,2.8E1,6E0,1E1,2E0,2.3E1,9E0,1.3E1,1.1E1,1.7E1,7E0,3E0,2E0,7E0,1.1E1,2E0,7E0,4E0,1.4E1,3E0,4E0,3E0,5E0,2E0,7E0,7E0],"tree_param":{"num_deleted":"34","num_feature":"36","num_nodes":"37","size_leaf_vector":"1"}},{"base_weights":[-0E0,-1.5031531E-3,6.7062565E-4,-0E0,-1.9590831E-3,-5.2324485E-4,1.5038904E-3,-2.279878E-3,-0E0,-1.734474E-3,1.9119416E-5,6.583361E-4,2.9818048E-3,-0E0,-2.516943E-3,-2.1180473E-3,-0E0,8.5975265E-4,-0E0,2.351517E-3,-3.3434347E-4,3.5733136E-3,-0E0,-2.9252772E-3,-0E0,-0E0,3.0905346E-3,-2.1998256E-3,-0E0,-0E0,4.4591953E-3,4.0521417E-3,-0E0,1.365042E-3,-0E0,-0E0,7.1005686E-3,5.9243175E-3,-0E0],"categories":[],"categories_nodes":[],"categories_segments":[],"categories_sizes":[],"default_left":[1,1,1,1,1,1,1,1,1,1,1,1,1,1,1,1,1,1,1,1,1,1,1,1,1,1,1,1,1,1,1,1,1,1,1,1,1,1,1],"id":26,"left_children":[1,-1,-1,-1,-1,-1,-1,-1,-1,-1,-1,-1,-1,-1,-1,-1,-1,-1,-1,-1,-1,-1,-1,-1,-1,-1,-1,-1,-1,-1,-1,-1,-1,-1,-1,-1,-1,-1,-1],"loss_changes":[9.5889176E-5,2.131251E-5,8.094965E-5,0E0,1.4444777E-5,3.2514115E-5,2.465475E-5,2.7029382E-6,0E0,1.0370633E-5,4.4968865E-6,7.621728E-5,2.5216752E-5,0E0,1.5261248E-6,0E0,0E0,0E0,0E0,2.6503243E-5,2.7447017E-5,1.925895E-5,0E0,0E0,0E0,0E0,1.735764E-5,0E0,9.483723E-6,0E0,4.5333916E-5,1.0705568E-5,0E0,0E0,1.0868831E-7,0E0,0E0,0E0,0E0],"parents":[2147483647,0,0,1,1,2,2,4,4,5,5,6,6,7,7,9,9,10,10,11,11,12,12,14,14,19,19,20,20,21,21,26,26,28,28,30,30,31,31],"right_children":[2,-1,-1,-1,-1,-1,-1,-1,-1,-1,-1,-1,-1,-1,-1,-1,-1,-1,-1,-1,-1,-1,-1,-1,-1,-1,-1,-1,-1,-1,-1,-1,-1,-1,-1,-1,-1,-1,-1],"split_conditions":[1.0395994E-2,-2.1894874E-4,9.768309E-5,-0E0,-2.8535933E-4,-7.6215656E-5,2.1905614E-4,-3.320862E-4,-0E0,-2.5264284E-4,2.7849271E-6,9.5892996E-5,4.343286E-4,-0E0,-3.6661702E-4,-3.0851402E-4,-0E0,1.2523126E-4,-0E0,3.4252115E-4,-4.870035E-5,5.2048755E-4,-0E0,-4.2609483E-4,-0E0,-0E0,4.5016615E-4,-3.204258E-4,-0E0,-0E0,6.495248E-4,5.902335E-4,-0E0,1.9883152E-4,-0E0,-0E0,1.0342663E-3,8.62934E-4,-0E0],"split_indices":[30,19,9,2147483647,2147483647,2147483647,2147483647,2147483647,2147483647,2147483647,2147483647,2147483647,2147483647,2147483647,2147483647,2147483647,2147483647,2147483647,2147483647,2147483647,2147483647,2147483647,2147483647,2147483647,2147483647,2147483647,2147483647,2147483647,2147483647,2147483647,2147483647,2147483647,2147483647,2147483647,2147483647,2147483647,2147483647,2147483647,2147483647],"split_type":[0,0,0,0,0,0,0,0,0,0,0,0,0,0,0,0,0,0,0,0,0,0,0,0,0,0,0,0,0,0,0,0,0,0,0,0,0,0,0],"sum_hessian":[1E2,2.8E1,7.2E1,6E0,2.2E1,2.5E1,4.7E1,1.9E1,3E0,1.3E1,1.2E1,3.4E1,1.3E1,3E0,1.6E1,1.1E1,2E0,6E0,6E0,1.6E1,1.8E1,1.1E1,2E0,1.2E1,4E0,4E0,1.2E1,6E0,1.2E1,3E0,8E0,8E0,4E0,5E0,7E0,4E0,4E0,4E0,4E0],"tree_param":{"num_deleted":"36","num_feature":"36","num_nodes":"39","size_leaf_vector":"1"}},{"base_weights":[-0E0,-1.220944E-4,5.526082E-3,-5.901826E-4,1.209499E-3,-1.6546799E-3,-0E0,2.2737943E-3,-1.688049E-3,-0E0,-2.0676795E-3,-1.1179488E-3,9.9378536E-5,-0E0,2.6795168E-3,-0E0,-2.303062E-3,-0E0,-1.9614121E-3,1.4821121E-3,-3.2162385E-5,3.1553293E-3,-0E0,-0E0,2.3413098E-3,-7.000837E-4,5.763696E-4,-0E0,3.7876535E-3,-0E0,-1.1040957E-3,7.902524E-4,-0E0,4.8197163E-3,-0E0,-0E0,-1.4197943E-3,-0E0,9.874273E-4,-0E0,6.4038197E-3,-0E0,-1.752012E-3,-2.2620305E-3,-0E0],"categories":[],"categories_nodes":[],"categories_segments":[],"categories_sizes":[],"default_left":[1,1,0,1,1,1,1,1,1,1,1,1,1,1,1,1,1,1,1,1,1,1,1,1,1,1,1,1,1,1,1,1,1,1,1,1,1,1,1,1,1,1,1,1,1],"id":27,"left_children":[1,-1,-1,-1,-1,-1,-1,-1,-1,-1,-1,-1,-1,-1,-1,-1,-1,-1,-1,-1,-1,-1,-1,-1,-1,-1,-1,-1,-1,-1,-1,-1,-1,-1,-1,-1,-1,-1,-1,-1,-1,-1,-1,-1,-1],"loss_changes":[9.57974E-5,5.4793083E-5,0E0,4.4581015E-5,6.77709E-5,1.445668E-5,8.056198E-6,1.9984902E-5,0E0,0E0,4.755857E-6,8.122515E-6,2.1754457E-5,0E0,1.2024939E-5,0E0,0E0,0E0,0E0,1.6700023E-5,1.5454445E-5,1.0037191E-5,0E0,0E0,0E0,1.39021E-5,1.9924698E-6,0E0,1.1057375E-5,0E0,8.740719E-6,1.2360179E-6,0E0,2.6251335E-5,0E0,0E0,1.1868771E-5,0E0,0E0,0E0,0E0,0E0,1.042493E-5,0E0,0E0],"parents":[2147483647,0,0,1,1,3,3,4,4,5,5,6,6,7,7,10,10,11,11,12,12,14,14,19,19,20,20,21,21,25,25,26,26,28,28,30,30,31,31,33,33,36,36,42,42],"right_children":[2,-1,-1,-1,-1,-1,-1,-1,-1,-1,-1,-1,-1,-1,-1,-1,-1,-1,-1,-1,-1,-1,-1,-1,-1,-1,-1,-1,-1,-1,-1,-1,-1,-1,-1,-1,-1,-1,-1,-1,-1,-1,-1,-1,-1],"split_conditions":[1.2591916E-1,-1.7784227E-5,8.0492714E-4,-8.596579E-5,1.7617518E-4,-2.4102008E-4,-0E0,3.3120005E-4,-2.458806E-4,-0E0,-3.0117747E-4,-1.6284002E-4,1.4475442E-5,-0E0,3.9029744E-4,-0E0,-3.3546318E-4,-0E0,-2.856986E-4,2.1588392E-4,-4.6847613E-6,4.5960414E-4,-0E0,-0E0,3.4103435E-4,-1.01973936E-4,8.395378E-5,-0E0,5.517083E-4,-0E0,-1.6082218E-4,1.1510788E-4,-0E0,7.020382E-4,-0E0,-0E0,-2.0680673E-4,-0E0,1.438283E-4,-0E0,9.3277806E-4,-0E0,-2.5519743E-4,-3.2948656E-4,-0E0],"split_indices":[16,5,0,2147483647,2147483647,2147483647,2147483647,2147483647,2147483647,2147483647,2147483647,2147483647,2147483647,2147483647,2147483647,2147483647,2147483647,2147483647,2147483647,2147483647,2147483647,2147483647,2147483647,2147483647,2147483647,2147483647,2147483647,2147483647,2147483647,2147483647,2147483647,2147483647,2147483647,2147483647,2147483647,2147483647,2147483647,2147483647,2147483647,2147483647,2147483647,2147483647,2147483647,2147483647,2147483647],"split_type":[0,0,0,0,0,0,0,0,0,0,0,0,0,0,0,0,0,0,0,0,0,0,0,0,0,0,0,0,0,0,0,0,0,0,0,0,0,0,0,0,0,0,0,0,0],"sum_hessian":[1E2,9.7E1,3E0,7.7E1,2E1,2.6E1,5.1E1,1.7E1,3E0,6E0,2E1,6E0,4.5E1,2E0,1.5E1,3E0,1.7E1,2E0,4E0,1E1,3.5E1,1.2E1,3E0,3E0,7E0,2.4E1,1.1E1,3E0,9E0,3E0,2.1E1,9E0,2E0,6E0,3E0,4E0,1.7E1,2E0,7E0,2E0,4E0,2E0,1.5E1,1.1E1,4E0],"tree_param":{"num_deleted":"42","num_feature":"36","num_nodes":"45","size_leaf_vector":"1"}},{"base_weights":[-0E0,-2.2960111E-4,2.7992392E-3,-1.088692E-3,1.6394648E-4,4.493273E-3,-0E0,-0E0,-1.5738539E-3,5.459316E-3,-0E0,6.1027897E-3,-0E0,-1.7242208E-3,-0E0,1.2260182E-4,-8.206172E-4,-1.8866757E-3,-0E0,-5.2764928E-5,1.6913622E-3,-1.8053852E-3,-0E0,-0E0,-2.0480293E-3,4.1757876E-4,-6.052393E-4,2.2633192E-3,-0E0,-0E0,-2.186987E-3,-2.278548E-3,-0E0,-2.7417429E-3,-0E0],"categories":[],"categories_nodes":[],"categories_segments":[],"categories_sizes":[],"default_left":[1,1,1,1,1,1,1,1,1,0,1,1,1,1,1,1,1,1,1,1,1,1,1,1,1,1,1,1,1,1,1,1,1,1,1],"id":28,"left_children":[1,3,-1,-1,9,-1,-1,-1,-1,-1,-1,-1,-1,-1,-1,-1,-1,-1,-1,-1,-1,-1,-1,-1,-1,-1,-1,-1,-1,-1,-1,-1,-1,-1,-1],"loss_changes":[7.602599E-5,3.9454033E-5,3.15332E-5,2.4326218E-5,9.0603266E-5,1.2313358E-5,0E0,2.589385E-7,7.4884592E-6,0E0,1.0719054E-5,0E0,0E0,7.5986827E-6,0E0,2.552349E-5,1.9465358E-5,6.2702748E-6,0E0,9.075415E-6,1.031469E-5,4.282205E-6,0E0,0E0,0E0,0E0,2.3524308E-5,0E0,0E0,0E0,4.350477E-6,0E0,2.944172E-7,0E0,0E0],"parents":[2147483647,0,0,1,1,2,2,3,3,4,4,5,5,8,8,10,10,13,13,15,15,16,16,17,17,19,19,20,20,21,21,26,26,30,30],"right_children":[2,4,-1,-1,10,-1,-1,-1,-1,-1,-1,-1,-1,-1,-1,-1,-1,-1,-1,-1,-1,-1,-1,-1,-1,-1,-1,-1,-1,-1,-1,-1,-1,-1,-1],"split_conditions":[1.00139365E-1,1.8476643E-2,4.077362E-4,-1.5857848E-4,1.5668752E-2,6.544885E-4,-0E0,-0E0,-2.2924699E-4,7.9520204E-4,-0E0,8.8893017E-4,-0E0,-2.5114938E-4,-0E0,1.7858138E-5,-1.1953081E-4,-2.748125E-4,-0E0,-7.68572E-6,2.4636323E-4,-2.6297176E-4,-0E0,-0E0,-2.9831522E-4,6.082437E-5,-8.815894E-5,3.2967425E-4,-0E0,-0E0,-3.1855574E-4,-3.318925E-4,-0E0,-3.9936128E-4,-0E0],"split_indices":[19,12,19,21,14,2147483647,2147483647,2147483647,2147483647,0,14,2147483647,2147483647,2147483647,2147483647,2147483647,2147483647,2147483647,2147483647,2147483647,2147483647,2147483647,2147483647,2147483647,2147483647,2147483647,2147483647,2147483647,2147483647,2147483647,2147483647,2147483647,2147483647,2147483647,2147483647],"split_type":[0,0,0,0,0,0,0,0,0,0,0,0,0,0,0,0,0,0,0,0,0,0,0,0,0,0,0,0,0,0,0,0,0,0,0],"sum_hessian":[1E2,9.1E1,9E0,3.6E1,5.5E1,5E0,4E0,9E0,2.7E1,3E0,5.2E1,3E0,2E0,2.5E1,2E0,3.7E1,1.5E1,2.3E1,2E0,2.8E1,9E0,9E0,6E0,2E0,2.1E1,6E0,2.2E1,7E0,2E0,2E0,7E0,6E0,1.6E1,5E0,2E0],"tree_param":{"num_deleted":"28","num_feature":"36","num_nodes":"35","size_leaf_vector":"1"}},{"base_weights":[-0E0,-8.070005E-5,5.7900925E-3,-5.558783E-4,1.5069282E-3,-1.000484E-3,1.9254249E-4,2.313884E-3,-2.9923985E-4,-0E0,-1.1560516E-3,6.1714E-4,-0E0,-0E0,3.1611484E-3,-2.2178858E-3,-3.091315E-4,-0E0,9.671228E-4,-0E0,4.537438E-3,-0E0,-2.5634612E-3,-0E0,-1.2841531E-3,1.7866235E-3,-0E0,7.0217405E-3,-0E0,-2.8899114E-3,-0E0,-5.5865996E-4,1.1616804E-3,-0E0,-1.574518E-3,-0E0,-3.1446284E-3,-0E0,-9.1079535E-4,-0E0,1.8618979E-3,-0E0,-1.9236663E-3],"categories":[],"categories_nodes":[],"categories_segments":[],"categories_sizes":[],"default_left":[1,1,1,1,1,1,1,1,1,1,1,1,1,1,1,1,1,1,1,1,1,1,1,1,1,1,1,1,1,1,1,1,1,1,1,1,1,1,1,1,1,1,1],"id":29,"left_children":[-1,-1,-1,-1,-1,-1,-1,-1,-1,-1,-1,-1,-1,-1,-1,-1,-1,-1,-1,-1,-1,-1,-1,-1,-1,-1,-1,-1,-1,-1,-1,-1,-1,-1,-1,-1,-1,-1,-1,-1,-1,-1,-1],"loss_changes":[7.0694296E-5,6.518749E-5,0E0,3.4217046E-5,4.5253444E-5,1.4142508E-5,5.6898693E-6,1.467947E-5,0E0,0E0,2.4967128E-5,5.734296E-6,0E0,0E0,2.4551235E-5,1.8399442E-5,1.988126E-5,0E0,7.1951845E-6,0E0,2.6958543E-5,0E0,1.3720746E-5,1.811447E-5,6.737002E-6,0E0,0E0,0E0,0E0,3.4168916E-6,0E0,3.5617588E-6,6.145241E-6,0E0,7.365117E-6,0E0,0E0,0E0,0E0,0E0,0E0,0E0,0E0],"parents":[2147483647,0,0,1,1,3,3,4,4,5,5,6,6,7,7,10,10,11,11,14,14,15,15,16,16,18,18,20,20,22,22,23,23,24,24,29,29,31,31,32,32,34,34],"right_children":[-1,-1,-1,-1,-1,-1,-1,-1,-1,-1,-1,-1,-1,-1,-1,-1,-1,-1,-1,-1,-1,-1,-1,-1,-1,-1,-1,-1,-1,-1,-1,-1,-1,-1,-1,-1,-1,-1,-1,-1,-1,-1,-1],"split_conditions":[-0E0,-1.175474E-5,8.433828E-4,-8.096903E-5,2.1949863E-4,-1.4573014E-4,2.804567E-5,3.370395E-4,-4.358717E-5,-0E0,-1.6839006E-4,8.989239E-5,-0E0,-0E0,4.6045173E-4,-3.2305645E-4,-4.502798E-5,-0E0,1.4087076E-4,-0E0,6.609216E-4,-0E0,-3.7339283E-4,-0E0,-1.8704927E-4,2.6023894E-4,-0E0,1.0227842E-3,-0E0,-4.2094346E-4,-0E0,-8.137421E-5,1.6920996E-4,-0E0,-2.2934373E-4,-0E0,-4.5804543E-4,-0E0,-1.3266613E-4,-0E0,2.7120337E-4,-0E0,-2.8020053E-4],"split_indices":[22,2147483647,2147483647,2147483647,2147483647,2147483647,2147483647,2147483647,2147483647,2147483647,2147483647,2147483647,2147483647,2147483647,2147483647,2147483647,2147483647,2147483647,2147483647,2147483647,2147483647,2147483647,2147483647,2147483647,2147483647,2147483647,2147483647,2147483647,2147483647,2147483647,2147483647,2147483647,2147483647,2147483647,2147483647,2147483647,2147483647,2147483647,2147483647,2147483647,2147483647,2147483647,2147483647],"split_type":[0,0,0,0,0,0,0,0,0,0,0,0,0,0,0,0,0,0,0,0,0,0,0,0,0,0,0,0,0,0,0,0,0,0,0,0,0,0,0,0,0,0,0],"sum_hessian":[1E2,9.8E1,2E0,8E1,1.8E1,5.8E1,2.2E1,1.6E1,2E0,4E0,5.4E1,1.7E1,5E0,6E0,1E1,1.9E1,3.5E1,4E0,1.3E1,4E0,6E0,2E0,1.7E1,2.1E1,1.4E1,6E0,7E0,3E0,3E0,1.5E1,2E0,1E1,1.1E1,2E0,1.2E1,2E0,1.3E1,2E0,8E0,5E0,6E0,2E0,1E1],"tree_param":{"num_deleted":"42","num_feature":"36","num_nodes":"43","size_leaf_vector":"1"}},{"base_weights":[-0E0,-3.3668627E-4,1.8817544E-3,6.9020945E-4,-6.6135597E-4,3.462243E-3,-0E0,-0E0,4.6735737E-3,-1.4451174E-3,-0E0,-0E0,5.6292447E-3,-0E0,-1.7615788E-3,-5.553404E-4,3.6038412E-4,-2.0266718E-3,-0E0,-0E0,-9.860438E-4,2.6562414E-3,-0E0,-2.252816E-3,-0E0,-2.4249018E-3,-0E0],"categories":[],"categories_nodes":[],"categories_segments":[],"categories_sizes":[],"default_left":[1,1,1,1,1,1,1,1,1,1,1,1,1,1,1,1,1,1,1,1,1,1,1,1,1,1,1],"id":30,"left_children":[-1,-1,-1,-1,-1,-1,-1,-1,-1,-1,-1,-1,-1,-1,-1,-1,-1,-1,-1,-1,-1,-1,-1,-1,-1,-1,-1],"loss_changes":[6.9933245E-5,2.747354E-5,3.645711E-5,3.9406717E-5,4.2623327E-5,6.431096E-5,0E0,2.0805342E-7,0E0,1.3886689E-5,6.191707E-6,0E0,0E0,0E0,1.1779091E-5,3.1175769E-6,3.2522108E-5,1.3163153E-5,0E0,0E0,0E0,0E0,8.6857494E-7,6.021175E-6,0E0,0E0,0E0],"parents":[2147483647,0,0,1,1,2,2,3,3,4,4,5,5,9,9,10,10,14,14,15,15,16,16,17,17,23,23],"right_children":[-1,-1,-1,-1,-1,-1,-1,-1,-1,-1,-1,-1,-1,-1,-1,-1,-1,-1,-1,-1,-1,-1,-1,-1,-1,-1,-1],"split_conditions":[-0E0,-4.90416E-5,2.7409566E-4,1.0053566E-4,-9.633287E-5,5.043091E-4,-0E0,-0E0,6.8075105E-4,-2.1049529E-4,-0E0,-0E0,8.1995374E-4,-0E0,-2.5659095E-4,-8.089068E-5,5.2493422E-5,-2.9520429E-4,-0E0,-0E0,-1.4362679E-4,3.8690717E-4,-0E0,-3.2814438E-4,-0E0,-3.5321031E-4,-0E0],"split_indices":[35,2147483647,2147483647,2147483647,2147483647,2147483647,2147483647,2147483647,2147483647,2147483647,2147483647,2147483647,2147483647,2147483647,2147483647,2147483647,2147483647,2147483647,2147483647,2147483647,2147483647,2147483647,2147483647,2147483647,2147483647,2147483647,2147483647],"split_type":[0,0,0,0,0,0,0,0,0,0,0,0,0,0,0,0,0,0,0,0,0,0,0,0,0,0,0],"sum_hessian":[1E2,8.3E1,1.7E1,1.3E1,7E1,8E0,9E0,1.1E1,2E0,3.5E1,3.5E1,3E0,5E0,7E0,2.8E1,9E0,2.6E1,2.4E1,4E0,3E0,6E0,5E0,2.1E1,2.2E1,2E0,2E1,2E0],"tree_param":{"num_deleted":"26","num_feature":"36","num_nodes":"27","size_leaf_vector":"1"}},{"base_weights":[-0E0,-3.9442896E-4,1.8946122E-3,-1.2517995E-3,-0E0,-0E0,2.6506907E-3,-0E0,-1.8246273E-3,3.0520544E-3,-3.8257035E-4,4.1525397E-3,-0E0,-0E0,-2.0641133E-3,-0E0,5.90023E-3,-8.763749E-4,-0E0,5.1640985E-3,-0E0,-2.2776953E-3,-0E0,-0E0,-1.3405279E-3,3.976886E-4,-1.7591755E-4,6.6218493E-3,-0E0,-2.5343813E-3,-0E0,-1.6010836E-3,-0E0,-0E0,1.2569078E-3,-0E0,-2.8376565E-3,-1.8073724E-3,-0E0,-2.0560669E-3,-0E0,-0E0,-2.388163E-3],"categories":[],"categories_nodes":[],"categories_segments":[],"categories_sizes":[],"default_left":[1,1,1,1,1,1,1,1,1,1,1,1,1,1,1,1,1,1,1,1,1,1,1,1,1,1,1,1,1,1,1,1,1,1,1,1,1,1,1,1,1,1,1],"id":31,"left_children":[-1,-1,-1,-1,-1,-1,-1,-1,-1,-1,-1,-1,-1,-1,-1,-1,-1,-1,-1,-1,-1,-1,-1,-1,-1,-1,-1,-1,-1,-1,-1,-1,-1,-1,-1,-1,-1,-1,-1,-1,-1,-1,-1],"loss_changes":[8.113877E-5,2.6700061E-5,3.0472751E-5,2.4238947E-5,6.405632E-5,0E0,4.0498315E-5,0E0,9.257026E-6,5.083348E-5,1.3474611E-5,2.2903565E-5,0E0,0E0,5.471986E-6,0E0,0E0,2.2483711E-5,2.6368702E-6,1.6928141E-5,0E0,5.792441E-6,0E0,0E0,1.3336656E-5,7.2339944E-6,5.6541523E-7,0E0,0E0,5.2211108E-6,0E0,8.998621E-6,0E0,2.8555024E-7,0E0,0E0,0E0,6.6202047E-6,0E0,8.112838E-6,0E0,0E0,0E0],"parents":[2147483647,0,0,1,1,2,2,3,3,4,4,6,6,8,8,9,9,10,10,11,11,14,14,17,17,18,18,19,19,21,21,24,24,25,25,29,29,31,31,37,37,39,39],"right_children":[-1,-1,-1,-1,-1,-1,-1,-1,-1,-1,-1,-1,-1,-1,-1,-1,-1,-1,-1,-1,-1,-1,-1,-1,-1,-1,-1,-1,-1,-1,-1,-1,-1,-1,-1,-1,-1,-1,-1,-1,-1,-1,-1],"split_conditions":[-0E0,-5.745238E-5,2.7596854E-4,-1.8233666E-4,-0E0,-0E0,3.8609866E-4,-0E0,-2.6577455E-4,4.4456116E-4,-5.572506E-5,6.0485746E-4,-0E0,-0E0,-3.00658E-4,-0E0,8.5942534E-4,-1.2765246E-4,-0E0,7.522007E-4,-0E0,-3.3176827E-4,-0E0,-0E0,-1.9526081E-4,5.7927176E-5,-2.5624087E-5,9.6453616E-4,-0E0,-3.691571E-4,-0E0,-2.3321326E-4,-0E0,-0E0,1.8308075E-4,-0E0,-4.1333202E-4,-2.6326123E-4,-0E0,-2.9948595E-4,-0E0,-0E0,-3.4785896E-4],"split_indices":[10,2147483647,2147483647,2147483647,2147483647,2147483647,2147483647,2147483647,2147483647,2147483647,2147483647,2147483647,2147483647,2147483647,2147483647,2147483647,2147483647,2147483647,2147483647,2147483647,2147483647,2147483647,2147483647,2147483647,2147483647,2147483647,2147483647,2147483647,2147483647,2147483647,2147483647,2147483647,2147483647,2147483647,2147483647,2147483647,2147483647,2147483647,2147483647,2147483647,2147483647,2147483647,2147483647],"split_type":[0,0,0,0,0,0,0,0,0,0,0,0,0,0,0,0,0,0,0,0,0,0,0,0,0,0,0,0,0,0,0,0,0,0,0,0,0,0,0,0,0,0,0],"sum_hessian":[1E2,8.1E1,1.9E1,2.5E1,5.6E1,5E0,1.4E1,6E0,1.9E1,6E0,5E1,8E0,6E0,2E0,1.7E1,3E0,3E0,2.7E1,2.3E1,6E0,2E0,1.5E1,2E0,3E0,2.4E1,1.5E1,8E0,4E0,2E0,1.3E1,2E0,2.2E1,2E0,9E0,6E0,2E0,1.1E1,2E1,2E0,1.7E1,3E0,3E0,1.4E1],"tree_param":{"num_deleted":"42","num_feature":"36","num_nodes":"43","size_leaf_vector":"1"}},{"base_weights":[-0E0,-3.3668627E-4,1.8817544E-3,-1.4814482E-3,-0E0,3.462243E-3,-0E0,-0E0,-2.4528936E-3,1.2752169E-3,-7.2750874E-4,6.758714E-3,-0E0,-7.875573E-4,-0E0,2.0416684E-3,-4.546805E-5,-1.3648331E-3,-0E0,-0E0,2.5371788E-3,-1.73754E-3,-0E0,5.838985E-4,-6.900556E-4,3.2041897E-3,-0E0,-0E0,-2.0039799E-3,1.631628E-3,-0E0,-0E0,-1.0105455E-3,-0E0,3.608791E-3,-2.1650179E-3,-0E0,4.1174386E-3,-0E0,-0E0,4.964727E-3],"categories":[],"categories_nodes":[],"categories_segments":[],"categories_sizes":[],"default_left":[1,1,1,1,1,1,1,1,1,1,1,1,1,1,1,1,1,1,1,1,1,1,1,1,1,1,1,1,1,1,1,1,1,1,1,1,1,1,1,1,1],"id":32,"left_children":[-1,-1,-1,-1,-1,-1,-1,-1,-1,-1,-1,-1,-1,-1,-1,-1,-1,-1,-1,-1,-1,-1,-1,-1,-1,-1,-1,-1,-1,-1,-1,-1,-1,-1,-1,-1,-1,-1,-1,-1,-1],"loss_changes":[6.9933245E-5,3.0282277E-5,3.645711E-5,1.4988396E-5,5.9824608E-5,4.416382E-5,0E0,3.15683E-6,0E0,4.203403E-5,2.0733933E-5,0E0,0E0,0E0,0E0,2.4E-5,1.8489553E-7,1.4621812E-5,7.632971E-6,0E0,1.0282012E-5,6.9824746E-6,0E0,1.5093232E-5,2.3666544E-6,4.5222914E-6,0E0,0E0,1.427441E-6,0E0,0E0,0E0,0E0,0E0,1.8150313E-6,0E0,0E0,5.259237E-6,0E0,0E0,0E0],"parents":[2147483647,0,0,1,1,2,2,3,3,4,4,5,5,7,7,9,9,10,10,15,15,17,17,18,18,20,20,21,21,23,23,24,24,25,25,28,28,34,34,37,37],"right_children":[-1,-1,-1,-1,-1,-1,-1,-1,-1,-1,-1,-1,-1,-1,-1,-1,-1,-1,-1,-1,-1,-1,-1,-1,-1,-1,-1,-1,-1,-1,-1,-1,-1,-1,-1,-1,-1,-1,-1,-1,-1],"split_conditions":[-0E0,-4.90416E-5,2.7409566E-4,-2.1578721E-4,-0E0,5.043091E-4,-0E0,-0E0,-3.5728762E-4,1.8574765E-4,-1.0596866E-4,9.844719E-4,-0E0,-1.1471531E-4,-0E0,2.9738867E-4,-6.6228595E-6,-1.9880109E-4,-0E0,-0E0,3.6956454E-4,-2.5308944E-4,-0E0,8.5050444E-5,-1.0051325E-4,4.6672113E-4,-0E0,-0E0,-2.91899E-4,2.3766235E-4,-0E0,-0E0,-1.471957E-4,-0E0,5.2565517E-4,-3.1535572E-4,-0E0,5.997446E-4,-0E0,-0E0,7.2316034E-4],"split_indices":[35,2147483647,2147483647,2147483647,2147483647,2147483647,2147483647,2147483647,2147483647,2147483647,2147483647,2147483647,2147483647,2147483647,2147483647,2147483647,2147483647,2147483647,2147483647,2147483647,2147483647,2147483647,2147483647,2147483647,2147483647,2147483647,2147483647,2147483647,2147483647,2147483647,2147483647,2147483647,2147483647,2147483647,2147483647,2147483647,2147483647,2147483647,2147483647,2147483647,2147483647],"split_type":[0,0,0,0,0,0,0,0,0,0,0,0,0,0,0,0,0,0,0,0,0,0,0,0,0,0,0,0,0,0,0,0,0,0,0,0,0,0,0,0,0],"sum_hessian":[1E2,8.3E1,1.7E1,1.8E1,6.5E1,8E0,9E0,9E0,9E0,2.3E1,4.2E1,3E0,5E0,5E0,4E0,1.9E1,4E0,2.3E1,1.9E1,3E0,1.6E1,1.9E1,4E0,1.1E1,8E0,1.1E1,5E0,3E0,1.6E1,7E0,4E0,2E0,6E0,2E0,9E0,1.4E1,2E0,7E0,2E0,2E0,5E0],"tree_param":{"num_deleted":"40","num_feature":"36","num_nodes":"41","size_leaf_vector":"1"}},{"base_weights":[-0E0,-3.9442896E-4,1.8946122E-3,-6.986556E-4,8.264526E-4,2.394124E-3,-0E0,-1.1064138E-3,-0E0,3.1474624E-3,-0E0,3.4456996E-3,-0E0,-1.5340054E-3,-0E0,6.811224E-4,-4.7983852E-4,-0E0,5.16064E-3,-0E0,-1.8845807E-3,5.8469735E-4,-3.4399977E-4,1.3704963E-3,-0E0,-0E0,-7.1273284E-4,-0E0,6.66624E-3,-0E0,-2.0267977E-3,1.7775134E-3,-0E0,-0E0,2.2268111E-3,-2.176102E-3,-0E0],"categories":[],"categories_nodes":[],"categories_segments":[],"categories_sizes":[],"default_left":[1,1,1,1,1,1,1,1,1,1,1,1,1,1,1,1,1,1,1,1,1,1,1,1,1,1,1,1,1,1,1,1,1,1,1,1,1],"id":33,"left_children":[-1,-1,-1,-1,-1,-1,-1,-1,-1,-1,-1,-1,-1,-1,-1,-1,-1,-1,-1,-1,-1,-1,-1,-1,-1,-1,-1,-1,-1,-1,-1,-1,-1,-1,-1,-1,-1],"loss_changes":[8.113877E-5,2.8976261E-5,2.3699758E-5,2.2944594E-5,3.362262E-5,2.7569651E-5,0E0,2.2573953E-5,8.392297E-6,1.6287959E-7,0E0,4.2387757E-5,0E0,2.66489E-5,2.697294E-6,1.3342248E-5,1.3258614E-6,0E0,1.9557934E-5,0E0,8.52198E-6,8.021879E-6,6.956742E-7,1.6204336E-5,0E0,0E0,0E0,0E0,0E0,0E0,3.4202967E-6,0E0,0E0,0E0,0E0,0E0,0E0],"parents":[2147483647,0,0,1,1,2,2,3,3,4,4,5,5,7,7,8,8,11,11,13,13,14,14,15,15,16,16,18,18,20,20,21,21,23,23,30,30],"right_children":[-1,-1,-1,-1,-1,-1,-1,-1,-1,-1,-1,-1,-1,-1,-1,-1,-1,-1,-1,-1,-1,-1,-1,-1,-1,-1,-1,-1,-1,-1,-1,-1,-1,-1,-1,-1,-1],"split_conditions":[-0E0,-5.745238E-5,2.7596854E-4,-1.0176592E-4,1.2038079E-4,3.4872722E-4,-0E0,-1.6115983E-4,-0E0,4.5845823E-4,-0E0,5.0189934E-4,-0E0,-2.2344268E-4,-0E0,9.921205E-5,-6.98931E-5,-0E0,7.51697E-4,-0E0,-2.7450736E-4,8.516681E-5,-5.0106883E-5,1.9962601E-4,-0E0,-0E0,-1.0381641E-4,-0E0,9.710021E-4,-0E0,-2.9522262E-4,2.5891195E-4,-0E0,-0E0,3.2435652E-4,-3.1697022E-4,-0E0],"split_indices":[10,2147483647,2147483647,2147483647,2147483647,2147483647,2147483647,2147483647,2147483647,2147483647,2147483647,2147483647,2147483647,2147483647,2147483647,2147483647,2147483647,2147483647,2147483647,2147483647,2147483647,2147483647,2147483647,2147483647,2147483647,2147483647,2147483647,2147483647,2147483647,2147483647,2147483647,2147483647,2147483647,2147483647,2147483647,2147483647,2147483647],"split_type":[0,0,0,0,0,0,0,0,0,0,0,0,0,0,0,0,0,0,0,0,0,0,0,0,0,0,0,0,0,0,0,0,0,0,0,0,0],"sum_hessian":[1E2,8.1E1,1.9E1,7.1E1,1E1,1.6E1,3E0,4.7E1,2.4E1,4E0,6E0,1E1,6E0,3.4E1,1.3E1,1.2E1,1.2E1,4E0,6E0,4E0,3E1,5E0,8E0,1E1,2E0,4E0,8E0,2E0,4E0,2E0,2.8E1,3E0,2E0,3E0,7E0,2.5E1,3E0],"tree_param":{"num_deleted":"36","num_feature":"36","num_nodes":"37","size_leaf_vector":"1"}},{"base_weights":[-0E0,-1.4422851E-4,3.5165558E-3,-6.332738E-4,1.2191957E-3,5.03918E-3,-0E0,-1.1129227E-3,-0E0,2.2820712E-3,-1.6707804E-3,-1.7607649E-3,-0E0,1.2778692E-3,-3.7163665E-4,-0E0,2.6760246E-3,-0E0,-2.1773737E-3,1.8754083E-3,-0E0,-0E0,-8.6221274E-4,3.2115802E-3,-0E0,-2.273933E-3,-0E0,2.4939675E-3,-0E0,-0E0,-1.114806E-3,-0E0,4.3393886E-3,-0E0,-2.4914388E-3,-0E0,5.3118584E-3],"categories":[],"categories_nodes":[],"categories_segments":[],"categories_sizes":[],"default_left":[1,1,1,1,1,1,1,1,1,1,1,1,1,1,1,1,1,1,1,1,1,1,1,1,1,1,1,1,1,1,1,1,1,1,1,1,1],"id":34,"left_children":[-1,-1,-1,-1,-1,-1,-1,-1,-1,-1,-1,-1,-1,-1,-1,-1,-1,-1,-1,-1,-1,-1,-1,-1,-1,-1,-1,-1,-1,-1,-1,-1,-1,-1,-1,-1,-1],"loss_changes":[6.4917345E-5,5.799759E-5,1.5516918E-5,3.316584E-5,6.776301E-5,0E0,0E0,4.8608978E-5,1.991668E-5,1.905825E-5,0E0,2.6024274E-5,1.6363981E-7,1.0343703E-5,6.4362966E-6,0E0,1.6637023E-5,5.262914E-7,2.1616142E-6,9.424259E-6,0E0,0E0,3.052378E-6,8.804418E-6,0E0,3.2492098E-6,0E0,0E0,0E0,0E0,0E0,0E0,1.0108459E-5,0E0,8.134666E-7,0E0,0E0],"parents":[2147483647,0,0,1,1,2,2,3,3,4,4,7,7,8,8,9,9,11,11,13,13,14,14,16,16,18,18,19,19,22,22,23,23,25,25,32,32],"right_children":[-1,-1,-1,-1,-1,-1,-1,-1,-1,-1,-1,-1,-1,-1,-1,-1,-1,-1,-1,-1,-1,-1,-1,-1,-1,-1,-1,-1,-1,-1,-1,-1,-1,-1,-1,-1,-1],"split_conditions":[-0E0,-2.1008273E-5,5.1222026E-4,-9.224244E-5,1.775876E-4,7.340052E-4,-0E0,-1.6210791E-4,-0E0,3.3240567E-4,-2.4336527E-4,-2.5647238E-4,-0E0,1.8613397E-4,-5.413246E-5,-0E0,3.8978877E-4,-0E0,-3.1715547E-4,2.7317132E-4,-0E0,-0E0,-1.2558959E-4,4.6779762E-4,-0E0,-3.3122028E-4,-0E0,3.632704E-4,-0E0,-0E0,-1.6238225E-4,-0E0,6.320738E-4,-0E0,-3.6290206E-4,-0E0,7.7372335E-4],"split_indices":[13,2147483647,2147483647,2147483647,2147483647,2147483647,2147483647,2147483647,2147483647,2147483647,2147483647,2147483647,2147483647,2147483647,2147483647,2147483647,2147483647,2147483647,2147483647,2147483647,2147483647,2147483647,2147483647,2147483647,2147483647,2147483647,2147483647,2147483647,2147483647,2147483647,2147483647,2147483647,2147483647,2147483647,2147483647,2147483647,2147483647],"split_type":[0,0,0,0,0,0,0,0,0,0,0,0,0,0,0,0,0,0,0,0,0,0,0,0,0,0,0,0,0,0,0,0,0,0,0,0,0],"sum_hessian":[1E2,9.5E1,5E0,7.5E1,2E1,3E0,2E0,5.1E1,2.4E1,1.7E1,3E0,3.6E1,1.5E1,1.1E1,1.3E1,2E0,1.5E1,7E0,2.9E1,8E0,3E0,2E0,1.1E1,1.2E1,3E0,2.7E1,2E0,6E0,2E0,2E0,9E0,5E0,7E0,4E0,2.3E1,2E0,5E0],"tree_param":{"num_deleted":"36","num_feature":"36","num_nodes":"37","size_leaf_vector":"1"}},{"base_weights":[-0E0,-3.9442896E-4,1.8946122E-3,1.5062656E-3,-7.3216547E-4,-0E0,2.8076675E-3,-0E0,2.7085862E-3,-1.2261106E-3,-0E0,4.517995E-3,-0E0,3.483329E-3,-0E0,-2.3093093E-3,-3.2658753E-4,6.7060126E-4,-0E0,-0E0,5.664981E-3,-0E0,-2.6303427E-3,4.725427E-4,-1.4197833E-3,-0E0,1.2776694E-3,-9.1535965E-4,1.382855E-4,-0E0,-2.8453995E-3,-0E0,1.4023685E-3,-0E0,-1.4812151E-3,-0E0,4.5226855E-4,1.7915756E-3,-0E0,7.651804E-4,-0E0],"categories":[],"categories_nodes":[],"categories_segments":[],"categories_sizes":[],"default_left":[1,1,1,1,1,1,1,1,1,1,1,1,1,1,1,1,1,1,1,1,1,1,1,1,1,1,1,1,1,1,1,1,1,1,1,1,1,1,1,1,1],"id":35,"left_children":[-1,-1,-1,-1,-1,-1,-1,-1,-1,-1,-1,-1,-1,-1,-1,-1,-1,-1,-1,-1,-1,-1,-1,-1,-1,-1,-1,-1,-1,-1,-1,-1,-1,-1,-1,-1,-1,-1,-1,-1,-1],"loss_changes":[8.113877E-5,4.4919507E-5,3.4662262E-5,2.6322197E-5,3.3114527E-5,0E0,4.1530075E-5,0E0,4.9456867E-6,2.2158078E-5,2.7385472E-6,1.8621053E-5,0E0,0E0,0E0,1.3263241E-5,3.6071688E-5,3.9375386E-6,8.62776E-6,0E0,0E0,0E0,1.5768746E-6,1.1019876E-5,0E0,0E0,0E0,9.294713E-6,1.0717962E-6,0E0,0E0,0E0,2.3936827E-6,0E0,0E0,0E0,1.148871E-6,0E0,0E0,0E0,0E0],"parents":[2147483647,0,0,1,1,2,2,3,3,4,4,6,6,8,8,9,9,10,10,11,11,15,15,16,16,17,17,18,18,22,22,23,23,27,27,28,28,32,32,36,36],"right_children":[-1,-1,-1,-1,-1,-1,-1,-1,-1,-1,-1,-1,-1,-1,-1,-1,-1,-1,-1,-1,-1,-1,-1,-1,-1,-1,-1,-1,-1,-1,-1,-1,-1,-1,-1,-1,-1,-1,-1,-1,-1],"split_conditions":[-0E0,-5.745238E-5,2.7596854E-4,2.194021E-4,-1.06646956E-4,-0E0,4.0896382E-4,-0E0,3.945317E-4,-1.7859483E-4,-0E0,6.580895E-4,-0E0,5.0738046E-4,-0E0,-3.3637317E-4,-4.7570622E-5,9.767954E-5,-0E0,-0E0,8.251591E-4,-0E0,-3.831348E-4,6.88304E-5,-2.0680513E-4,-0E0,1.8610487E-4,-1.3333096E-4,2.0142616E-5,-0E0,-4.1445988E-4,-0E0,2.042685E-4,-0E0,-2.1575326E-4,-0E0,6.587728E-5,2.6096025E-4,-0E0,1.114559E-4,-0E0],"split_indices":[10,2147483647,2147483647,2147483647,2147483647,2147483647,2147483647,2147483647,2147483647,2147483647,2147483647,2147483647,2147483647,2147483647,2147483647,2147483647,2147483647,2147483647,2147483647,2147483647,2147483647,2147483647,2147483647,2147483647,2147483647,2147483647,2147483647,2147483647,2147483647,2147483647,2147483647,2147483647,2147483647,2147483647,2147483647,2147483647,2147483647,2147483647,2147483647,2147483647,2147483647],"split_type":[0,0,0,0,0,0,0,0,0,0,0,0,0,0,0,0,0,0,0,0,0,0,0,0,0,0,0,0,0,0,0,0,0,0,0,0,0,0,0,0,0],"sum_hessian":[1E2,8.1E1,1.9E1,8E0,7.3E1,6E0,1.3E1,2E0,6E0,4.8E1,2.5E1,7E0,6E0,4E0,2E0,1.7E1,3.1E1,6E0,1.9E1,2E0,5E0,2E0,1.5E1,1.3E1,1.8E1,2E0,4E0,1E1,9E0,2E0,1.3E1,6E0,7E0,2E0,8E0,3E0,6E0,5E0,2E0,4E0,2E0],"tree_param":{"num_deleted":"40","num_feature":"36","num_nodes":"41","size_leaf_vector":"1"}},{"base_weights":[-0E0,-3.3668627E-4,1.8817544E-3,-8.8335824E-4,1.0107318E-3,-0E0,3.4688984E-3,-1.7249847E-3,-0E0,1.9908869E-3,-0E0,6.1281105E-3,-0E0,-0E0,-2.262275E-3,1.7456515E-4,-4.8422185E-4,-0E0,2.4344274E-3,-2.475841E-3,-0E0,-0E0,1.2941806E-3,-1.5196805E-3,-0E0,2.9980615E-3,-0E0,1.9166959E-3,-0E0,-0E0,3.7359158E-3,4.6921372E-3,-0E0],"categories":[],"categories_nodes":[],"categories_segments":[],"categories_sizes":[],"default_left":[1,1,1,1,1,1,1,1,1,1,1,1,1,1,1,1,1,1,1,1,1,1,1,1,1,1,1,1,1,1,1,1,1],"id":36,"left_children":[-1,-1,-1,-1,-1,-1,-1,-1,-1,-1,-1,-1,-1,-1,-1,-1,-1,-1,-1,-1,-1,-1,-1,-1,-1,-1,-1,-1,-1,-1,-1,-1,-1],"loss_changes":[6.9933245E-5,6.0093265E-5,3.6830294E-5,3.654778E-5,3.634455E-5,0E0,5.6236495E-5,2.6493974E-5,4.966262E-6,1.580235E-5,8.0596715E-7,0E0,0E0,0E0,3.963156E-6,1.3059066E-5,1.4206483E-5,0E0,1.0052587E-5,7.982235E-7,0E0,2.1386745E-7,8.822278E-6,8.5571446E-7,4.5768184E-7,3.292429E-6,0E0,0E0,0E0,0E0,5.0446106E-6,0E0,0E0],"parents":[2147483647,0,0,1,1,2,2,3,3,4,4,6,6,7,7,8,8,9,9,14,14,15,15,16,16,18,18,22,22,25,25,30,30],"right_children":[-1,-1,-1,-1,-1,-1,-1,-1,-1,-1,-1,-1,-1,-1,-1,-1,-1,-1,-1,-1,-1,-1,-1,-1,-1,-1,-1,-1,-1,-1,-1,-1,-1],"split_conditions":[-0E0,-4.90416E-5,2.7409566E-4,-1.2866965E-4,1.4722283E-4,-0E0,5.0527847E-4,-2.5126064E-4,-0E0,2.8999188E-4,-0E0,8.926184E-4,-0E0,-0E0,-3.2952215E-4,2.5427098E-5,-7.053158E-5,-0E0,3.545978E-4,-3.606301E-4,-0E0,-0E0,1.8850989E-4,-2.2135611E-4,-0E0,4.3669654E-4,-0E0,2.7918522E-4,-0E0,-0E0,5.4417213E-4,6.8345503E-4,-0E0],"split_indices":[35,2147483647,2147483647,2147483647,2147483647,2147483647,2147483647,2147483647,2147483647,2147483647,2147483647,2147483647,2147483647,2147483647,2147483647,2147483647,2147483647,2147483647,2147483647,2147483647,2147483647,2147483647,2147483647,2147483647,2147483647,2147483647,2147483647,2147483647,2147483647,2147483647,2147483647,2147483647,2147483647],"split_type":[0,0,0,0,0,0,0,0,0,0,0,0,0,0,0,0,0,0,0,0,0,0,0,0,0,0,0,0,0,0,0,0,0],"sum_hessian":[1E2,8.3E1,1.7E1,6.4E1,1.9E1,9E0,8E0,2.9E1,3.5E1,1.4E1,5E0,4E0,4E0,7E0,2.2E1,1.6E1,1.9E1,2E0,1.2E1,1.9E1,3E0,8E0,8E0,8E0,1.1E1,9E0,3E0,6E0,2E0,3E0,6E0,4E0,2E0],"tree_param":{"num_deleted":"32","num_feature":"36","num_nodes":"33","size_leaf_vector":"1"}},{"base_weights":[-0E0,-8.070005E-5,5.7900925E-3,-1.2517995E-3,1.9355539E-4,-0E0,-1.6984579E-3,1.4941163E-3,-3.6849306E-4,-0E0,-1.953408E-3,2.7344958E-3,-0E0,-1.1901611E-3,-0E0,-2.6842665E-3,-0E0,-0E0,3.4385517E-3,-0E0,-1.5114117E-3,1.0881936E-3,-4.4523936E-4,-2.9817075E-3,-0E0,3.9173E-3,-0E0,-1.907078E-3,-0E0,2.3819704E-3,-0E0,-0E0,-1.3933369E-3,-0E0,-2.073531E-3],"categories":[],"categories_nodes":[],"categories_segments":[],"categories_sizes":[],"default_left":[1,1,1,1,1,1,1,1,1,1,1,1,1,1,1,1,1,1,1,1,1,1,1,1,1,1,1,1,1,1,1,1,1,1,1],"id":37,"left_children":[-1,-1,-1,-1,-1,-1,-1,-1,-1,-1,-1,-1,-1,-1,-1,-1,-1,-1,-1,-1,-1,-1,-1,-1,-1,-1,-1,-1,-1,-1,-1,-1,-1,-1,-1],"loss_changes":[7.0694296E-5,4.1414918E-5,0E0,2.1523017E-5,6.399464E-5,0E0,1.20037475E-5,6.731274E-5,2.503123E-5,0E0,1.426704E-5,1.51563E-5,7.780199E-7,1.4602472E-5,1.7698687E-5,2.5934132E-6,0E0,0E0,1.1884433E-5,0E0,1.6262016E-5,2.4724775E-5,9.62396E-6,0E0,0E0,0E0,0E0,2.724264E-6,0E0,0E0,0E0,0E0,0E0,0E0,0E0],"parents":[2147483647,0,0,1,1,3,3,4,4,6,6,7,7,8,8,10,10,11,11,13,13,14,14,15,15,18,18,20,20,21,21,22,22,27,27],"right_children":[-1,-1,-1,-1,-1,-1,-1,-1,-1,-1,-1,-1,-1,-1,-1,-1,-1,-1,-1,-1,-1,-1,-1,-1,-1,-1,-1,-1,-1,-1,-1,-1,-1,-1,-1],"split_conditions":[-0E0,-1.175474E-5,8.433828E-4,-1.8233666E-4,2.8193208E-5,-0E0,-2.4739676E-4,2.1763243E-4,-5.3674565E-5,-0E0,-2.845327E-4,3.9830568E-4,-0E0,-1.7335844E-4,-0E0,-3.909893E-4,-0E0,-0E0,5.008582E-4,-0E0,-2.2015169E-4,1.5850589E-4,-6.4853404E-5,-4.3431442E-4,-0E0,5.705925E-4,-0E0,-2.777843E-4,-0E0,3.4695695E-4,-0E0,-0E0,-2.0295296E-4,-0E0,-3.0202977E-4],"split_indices":[22,2147483647,2147483647,2147483647,2147483647,2147483647,2147483647,2147483647,2147483647,2147483647,2147483647,2147483647,2147483647,2147483647,2147483647,2147483647,2147483647,2147483647,2147483647,2147483647,2147483647,2147483647,2147483647,2147483647,2147483647,2147483647,2147483647,2147483647,2147483647,2147483647,2147483647,2147483647,2147483647,2147483647,2147483647],"split_type":[0,0,0,0,0,0,0,0,0,0,0,0,0,0,0,0,0,0,0,0,0,0,0,0,0,0,0,0,0,0,0,0,0,0,0],"sum_hessian":[1E2,9.8E1,2E0,2.5E1,7.3E1,4E0,2.1E1,2.7E1,4.6E1,2E0,1.9E1,1.7E1,1E1,2.2E1,2.4E1,1.2E1,7E0,5E0,1.2E1,2E0,2E1,1.3E1,1.1E1,1E1,2E0,1E1,2E0,1.7E1,3E0,7E0,6E0,5E0,6E0,2E0,1.5E1],"tree_param":{"num_deleted":"34","num_feature":"36","num_nodes":"35","size_leaf_vector":"1"}},{"base_weights":[-0E0,-1.4422851E-4,3.5165558E-3,-1.4814482E-3,4.8511818E-5,5.03918E-3,-0E0,-0E0,-2.4528936E-3,1.6541171E-3,-1.0621435E-4,-7.875573E-4,-0E0,-0E0,2.8522285E-3,-1.0004462E-3,2.5181507E-4,4.5356113E-3,-0E0,-0E0,-1.6371406E-3,1.3876534E-3,-1.3594909E-4,-1.9290175E-3,-0E0,-0E0,2.6030485E-3,-1.4568208E-3,1.6924171E-4,-0E0,-2.1018838E-3,3.2907051E-3,-0E0,-0E0,-2.1670552E-3,3.7735584E-4,-0E0,-0E0,-2.318618E-3],"categories":[],"categories_nodes":[],"categories_segments":[],"categories_sizes":[],"default_left":[1,1,1,1,1,1,1,1,1,1,1,1,1,1,1,1,1,1,1,1,1,1,1,1,1,1,1,1,1,1,1,1,1,1,1,1,1,1,1],"id":38,"left_children":[-1,-1,-1,-1,-1,-1,-1,-1,-1,-1,-1,-1,-1,-1,-1,-1,-1,-1,-1,-1,-1,-1,-1,-1,-1,-1,-1,-1,-1,-1,-1,-1,-1,-1,-1,-1,-1,-1,-1],"loss_changes":[6.4917345E-5,3.7904505E-5,1.5516918E-5,1.4988396E-5,3.363139E-5,0E0,0E0,3.15683E-6,0E0,2.4597175E-5,2.7857324E-5,0E0,0E0,0E0,5.883652E-6,3.0412144E-5,2.8929959E-5,0E0,0E0,3.3248153E-7,1.4509544E-5,3.7384063E-5,2.1361686E-5,4.465961E-6,0E0,0E0,1.9234612E-5,1.1880342E-5,1.2042126E-6,0E0,5.6211575E-6,0E0,0E0,0E0,0E0,7.6230515E-7,0E0,0E0,0E0],"parents":[2147483647,0,0,1,1,2,2,3,3,4,4,7,7,9,9,10,10,14,14,15,15,16,16,20,20,21,21,22,22,23,23,26,26,27,27,28,28,30,30],"right_children":[-1,-1,-1,-1,-1,-1,-1,-1,-1,-1,-1,-1,-1,-1,-1,-1,-1,-1,-1,-1,-1,-1,-1,-1,-1,-1,-1,-1,-1,-1,-1,-1,-1,-1,-1,-1,-1,-1,-1],"split_conditions":[-0E0,-2.1008273E-5,5.1222026E-4,-2.1578721E-4,7.066214E-6,7.340052E-4,-0E0,-0E0,-3.5728762E-4,2.4093811E-4,-1.5471143E-5,-1.1471531E-4,-0E0,-0E0,4.1545456E-4,-1.4572463E-4,3.6679292E-5,6.606555E-4,-0E0,-0E0,-2.3846532E-4,2.021251E-4,-1.9802295E-5,-2.8098E-4,-0E0,-0E0,3.7915912E-4,-2.1219999E-4,2.4651687E-5,-0E0,-3.0615964E-4,4.7932292E-4,-0E0,-0E0,-3.1565246E-4,5.4965516E-5,-0E0,-0E0,-3.3772906E-4],"split_indices":[13,2147483647,2147483647,2147483647,2147483647,2147483647,2147483647,2147483647,2147483647,2147483647,2147483647,2147483647,2147483647,2147483647,2147483647,2147483647,2147483647,2147483647,2147483647,2147483647,2147483647,2147483647,2147483647,2147483647,2147483647,2147483647,2147483647,2147483647,2147483647,2147483647,2147483647,2147483647,2147483647,2147483647,2147483647,2147483647,2147483647,2147483647,2147483647],"split_type":[0,0,0,0,0,0,0,0,0,0,0,0,0,0,0,0,0,0,0,0,0,0,0,0,0,0,0,0,0,0,0,0,0,0,0,0,0,0,0],"sum_hessian":[1E2,9.5E1,5E0,1.8E1,7.7E1,3E0,2E0,9E0,9E0,1.2E1,6.5E1,5E0,4E0,5E0,7E0,2.6E1,3.9E1,3E0,4E0,5E0,2.1E1,1.6E1,2.3E1,1.9E1,2E0,6E0,1E1,1E1,1.3E1,2E0,1.7E1,8E0,2E0,3E0,7E0,1.1E1,2E0,2E0,1.5E1],"tree_param":{"num_deleted":"38","num_feature":"36","num_nodes":"39","size_leaf_vector":"1"}}]},"name":"gbtree"},"learner_model_param":{"base_score":"3.924071E-2","boost_from_average":"1","num_class":"0","num_feature":"36","num_target":"1"},"objective":{"name":"reg:squarederror","reg_loss_param":{"scale_pos_weight":"1"}}},"version":[2,0,1]}